tree
version=v4
num_class=1
num_tree_per_iteration=1
label_index=0
max_feature_idx=35
objective=regression
feature_names=Month Hour Day_Type Daylight_Savings_Status Indoor_Temperature_(C) Average_Unmet_Cooling_Setpoint_Difference_(C) Indoor_Relative_Humidity_(%) Equipment_Electric_Power_(kWh) DHW_Heating_(kWh) Cooling_Load_(kWh) Heating_Load_(kWh) Solar_Generation_(W/kW) Occupant_Count_(people) Temperature_Set_Point_(C) HVAC_Mode_(Off/Cooling/Heating) kg_CO2/kWh Electricity_Pricing__$/kWh_ 6h_Prediction_Electricity_Pricing__$/kWh_ 12h_Prediction_Electricity_Pricing__$/kWh_ 24h_Prediction_Electricity_Pricing__$/kWh_ Outdoor_Drybulb_Temperature_(C) Outdoor_Relative_Humidity_(%) Diffuse_Solar_Radiation_(W/m2) Direct_Solar_Radiation_(W/m2) 6h_Outdoor_Drybulb_Temperature_(C) 12h_Outdoor_Drybulb_Temperature_(C) 24h_Outdoor_Drybulb_Temperature_(C) 6h_Outdoor_Relative_Humidity_(%) 12h_Outdoor_Relative_Humidity_(%) 24h_Outdoor_Relative_Humidity_(%) 6h_Diffuse_Solar_Radiation_(W/m2) 12h_Diffuse_Solar_Radiation_(W/m2) 24h_Diffuse_Solar_Radiation_(W/m2) 6h_Direct_Solar_Radiation_(W/m2) 12h_Direct_Solar_Radiation_(W/m2) 24h_Direct_Solar_Radiation_(W/m2)
feature_infos=none [1:24] [1:7] none [21.675274662191104:24.999932147476983] [-1.4609243515427686:0.14651631718186309] [48.831595550716806:78.10605983234953] [0.16868312581394879:8.6652498573495276] [0:1.3129643214977718] [0:5.420441764584103] none [0:687.15852178569139] [0:1] [21.666666666666671:25.000000000000011] none [0.33751525247131398:0.54505021691256927] [0.028930000000000001:0.05867] [0.028930000000000001:0.05867] [0.028930000000000001:0.05867] [0.028930000000000001:0.05867] [21.379999999999999:40.32] [24.120000000000001:98.25] [0:408.69999999999999] [0:886.92999999999995] [21.385895012807637:40.448030901483051] [20.812239003382171:41.761423383460262] [20.947013524362529:40.33298102857114] [19.430299457014652:100] [18.750454935186248:100] [16.665542474905589:100] [0:448.59393372529718] [0:524.90876332100106] [0:486.88891634473225] [0:998.78608636720685] [0:1096.818864330259] [0:1148.8024499653848]
tree_sizes=972 898 1080 989 809 819 906 906 893 928 1014 927 811 803 927 814 789 816 805 804 1030 809 810 615 838 925 846 845 932 829 933 921 828 726 938 727 760 830 741 953 655 740 738 741 739 829 635 727 726 656 638 655 639 638 655 655 639 655 644 712 654 640 638 654 654 639 639 740 654 653 644 640 641 642 654 638 950 644 741 645

Tree=0
num_leaves=9
num_cat=0
split_feature=8 8 8 8 23 8 1 4
split_gain=12.3116 1.3252 0.944948 0.255792 0.00943144 0.00213341 2.22045e-16 5.55112e-17
threshold=0.35552137738255896 1.0000000180025095e-35 0.74291520973425884 0.19723439189789879 608.9000000000002 0.11060292413457716 17.500000000000004 24.998232109611369
decision_type=2 2 2 2 2 2 2 2
left_child=1 6 -2 5 -5 -3 -1 -8
right_child=2 3 -4 4 -6 -7 7 -9
leaf_value=0.05268425786272618 0.10914373967822326 0.06332393493529094 0.14773141004058021 0.075735034122191833 0.079978319195667238 0.064956956667462318 0.05268425786272618 0.05268425786272618
leaf_weight=279 15.000000000000002 24 10.999999999999998 11.000000000000002 9.9999999999999982 11.999999999999998 97 23
leaf_count=279 15 24 11 11 10 12 97 23
internal_value=0.0585381 0.0547218 0.125469 0.0689847 0.0777556 0.0638683 0.0526843 0.0526843
internal_weight=0 456 26 57 21 36 399 120
internal_count=482 456 26 57 21 36 399 120
is_linear=0
shrinkage=1


Tree=1
num_leaves=8
num_cat=0
split_feature=8 8 8 8 8 29 1
split_gain=10.0033 1.27476 0.534203 0.27902 0.0525535 0.00174628 2.22045e-16
threshold=0.43440706682721014 1.0000000180025095e-35 0.74291520973425884 0.19723439189789879 0.22688451188358072 37.600437137905402 23.500000000000004
decision_type=2 2 2 2 2 2 2
left_child=1 6 -2 5 -5 -3 -1
right_child=2 3 -4 4 -6 -7 -8
leaf_value=-0.0052684258669614794 0.049764871597290025 0.005920222736895085 0.080274011330171077 0.014037649333477018 0.023396555706858637 0.0043652546377136161 -0.0052684258669614794
leaf_weight=380 12.000000000000002 9.9999999999999982 10.999999999999998 12.000000000000002 11.999999999999998 26 19
leaf_count=380 12 10 11 12 12 26 19
internal_value=0 -0.00322482 0.0643562 0.0103652 0.0187171 0.00479719 -0.00526843
internal_weight=0 459 23 60 24 36 399
internal_count=482 459 23 60 24 36 399
is_linear=0
shrinkage=0.1


Tree=2
num_leaves=10
num_cat=0
split_feature=8 8 8 8 8 8 2 4 4
split_gain=8.10267 1.03256 0.432704 0.226006 0.0425683 0.00156453 1.11022e-16 1.11022e-16 5.55112e-17
threshold=0.43440706682721014 1.0000000180025095e-35 0.74291520973425884 0.19723439189789879 0.22688451188358072 0.11060292413457716 5.5000000000000009 24.741747526161401 24.99864467807728
decision_type=2 2 2 2 2 2 2 2 2
left_child=1 6 -2 5 -5 -3 7 -1 -8
right_child=2 3 -4 4 -6 -7 8 -9 -10
leaf_value=-0.0047415830194950104 0.04478838443756103 0.0038513211688647668 0.072246612743897876 0.01263388395309448 0.021056900359690191 0.0052497712584833305 -0.0047415830194950104 -0.0047415830194950104 -0.0047415830194950104
leaf_weight=110 12.000000000000002 24 10.999999999999998 12.000000000000002 11.999999999999998 11.999999999999998 98 170 21
leaf_count=110 12 24 11 12 12 12 98 170 21
internal_value=0 -0.00290234 0.0579206 0.00932864 0.0168454 0.00431747 -0.00474158 -0.00474158 -0.00474158
internal_weight=0 459 23 60 24 36 399 280 119
internal_count=482 459 23 60 24 36 399 280 119
is_linear=0
shrinkage=0.1


Tree=3
num_leaves=9
num_cat=0
split_feature=8 8 8 8 23 8 1 4
split_gain=6.57389 0.698032 0.549623 0.132124 0.00439774 0.00126727 1.11022e-16 1.38778e-17
threshold=0.35552137738255896 1.0000000180025095e-35 0.70536080156810066 0.19723439189789879 608.9000000000002 0.11060292413457716 21.500000000000004 24.605640380707804
decision_type=2 2 2 2 2 2 2 2
left_child=1 6 -2 5 -5 -3 -1 -8
right_child=2 3 -4 4 -6 -7 7 -9
leaf_value=-0.0042674247175455097 0.033204069733619682 0.0034661887834469478 0.062369236350059511 0.012486811591820281 0.015384340956807137 0.0047247940984865037 -0.0042674247175455097 -0.0042674247175455097
leaf_weight=346 12.000000000000002 24 13.999999999999998 11.000000000000002 9.9999999999999982 11.999999999999998 27 26
leaf_count=346 12 24 14 11 10 12 27 26
internal_value=0 -0.00278864 0.0489084 0.00756288 0.0138666 0.00388572 -0.00426742 -0.00426742
internal_weight=0 456 26 57 21 36 399 53
internal_count=482 456 26 57 21 36 399 53
is_linear=0
shrinkage=0.1


Tree=4
num_leaves=7
num_cat=0
split_feature=8 8 8 8 8 29
split_gain=5.34275 0.67213 0.29119 0.145019 0.0291167 0.00115494
threshold=0.43440706682721014 1.0000000180025095e-35 0.74291520973425884 0.19723439189789879 0.22688451188358072 37.600437137905402
decision_type=2 2 2 2 2 2
left_child=1 -1 -2 5 -5 -3
right_child=2 3 -4 4 -6 -7
leaf_value=-0.0038406822830438616 0.036260009060303362 0.0044104555621743207 0.058785027807409122 0.010049376636743544 0.0170155743137002 0.0031458808539005429
leaf_weight=399 12.000000000000002 9.9999999999999982 10.999999999999998 12.000000000000002 11.999999999999998 26
leaf_count=399 12 10 11 12 12 26
internal_value=0 -0.00235677 0.0470328 0.00751128 0.0135325 0.00349715
internal_weight=0 459 23 60 24 36
internal_count=482 459 23 60 24 36
is_linear=0
shrinkage=0.1


Tree=5
num_leaves=7
num_cat=0
split_feature=8 8 5 8 8 28
split_gain=4.34356 0.668011 0.172876 0.120066 0.0612605 3.79355e-05
threshold=0.52948867760202722 0.11433225903040196 -0.0057803711803003496 1.0000000180025095e-35 0.27024765952890611 81.48163453410092
decision_type=2 2 2 2 2 2
left_child=1 3 -2 -1 -3 -5
right_child=2 4 -4 5 -6 -7
leaf_value=-0.0034566141664981844 0.054922452867031082 0.0087647683194114097 0.036328033804893495 0.0029237717937897235 0.017988869237403074 0.002709238056559116
leaf_weight=399 10.000000000000002 18.000000000000004 9.9999999999999982 17 11.999999999999998 15.999999999999998
leaf_count=399 10 18 10 17 12 16
internal_value=0 -0.00197512 0.0456252 -0.00297717 0.0124544 0.00281976
internal_weight=0 462 20 432 30 33
internal_count=482 462 20 432 30 33
is_linear=0
shrinkage=0.1


Tree=6
num_leaves=8
num_cat=0
split_feature=8 8 5 8 8 28 1
split_gain=3.51828 0.541089 0.14003 0.0972535 0.049621 3.07278e-05 5.55112e-17
threshold=0.52948867760202722 0.11433225903040196 -0.0057803711803003496 1.0000000180025095e-35 0.27024765952890611 81.48163453410092 3.5000000000000004
decision_type=2 2 2 2 2 2 2
left_child=1 3 -2 6 -3 -5 -1
right_child=2 4 -4 5 -6 -7 -8
leaf_value=-0.0031109528616070749 0.049430206120014177 0.0078882916726999795 0.032695230543613438 0.0026313946198891192 0.016189982866247496 0.002438314270693809 -0.0031109528616070749
leaf_weight=57 10.000000000000002 18.000000000000004 9.9999999999999982 17 11.999999999999998 15.999999999999998 342
leaf_count=57 10 18 10 17 12 16 342
internal_value=0 -0.00177761 0.0410627 -0.00267945 0.011209 0.00253778 -0.00311095
internal_weight=0 462 20 432 30 33 399
internal_count=482 462 20 432 30 33 399
is_linear=0
shrinkage=0.1


Tree=7
num_leaves=8
num_cat=0
split_feature=8 8 8 8 23 9 1
split_gain=2.85012 0.29644 0.265716 0.0559135 0.00182079 0.000762024 5.55112e-17
threshold=0.35552137738255896 1.0000000180025095e-35 0.70536080156810066 0.19723439189789879 608.9000000000002 2.8913716783733139 18.500000000000004
decision_type=2 2 2 2 2 2 2
left_child=1 6 -2 5 -5 -3 -1
right_child=2 3 -4 4 -6 -7 -8
leaf_value=-0.0027998574078083038 0.021284255385398861 0.0022322242578061728 0.041562985735280174 0.0081225777214223669 0.0099869972467422491 0.0032594096288084983 -0.0027998574078083038
leaf_weight=295 12.000000000000002 26 13.999999999999998 11.000000000000002 9.9999999999999982 9.9999999999999982 104
leaf_count=295 12 26 14 11 10 10 104
internal_value=0 -0.00183617 0.0322036 0.00490965 0.0090104 0.00251755 -0.00279986
internal_weight=0 456 26 57 21 36 399
internal_count=482 456 26 57 21 36 399
is_linear=0
shrinkage=0.1


Tree=8
num_leaves=8
num_cat=0
split_feature=9 1 7 11 9 23 7
split_gain=0.311081 0.428901 0.16879 0.0430884 0.0642618 0.0269328 0.0172111
threshold=3.5037545973180388 14.500000000000002 0.7918923666019666 567.88834999537767 1.9950773645254278 605.88000000000011 0.30467588383938177
decision_type=2 2 2 2 2 2 2
left_child=2 -2 3 6 -5 -3 -1
right_child=1 5 -4 4 -6 -7 -8
leaf_value=-0.0020855881036350543 0.026660491004586218 -0.0017204957929524503 0.0087987787090241919 0.0083774562925100337 -0.00018784962594509125 0.0051299284212291242 -0.00072965965407087625
leaf_weight=204 9.9999999999999982 11.000000000000002 18 10.999999999999998 43 11.999999999999998 173
leaf_count=204 10 11 18 11 43 12 173
internal_value=0 0.00937087 -0.000688727 -0.00108496 0.00155693 0.00185364 -0.00146337
internal_weight=0 33 449 431 54 23 377
internal_count=482 33 449 431 54 23 377
is_linear=0
shrinkage=0.1


Tree=9
num_leaves=8
num_cat=0
split_feature=8 8 5 8 8 7 32
split_gain=2.17889 0.315222 0.100009 0.0601344 0.0337517 0.000971455 0.000108063
threshold=0.52948867760202722 0.11433225903040196 -0.0057803711803003496 1.0000000180025095e-35 0.27024765952890611 0.7918923666019666 172.07880622722956
decision_type=2 2 2 2 2 2 2
left_child=1 3 -2 5 -3 -1 -5
right_child=2 4 -4 6 -6 -7 -8
leaf_value=-0.0024015371053261749 0.039386103004217132 0.0057745754240184181 0.025243335813283918 0.0021611483022570608 0.012621275149285793 -0.0033997494727373125 0.0017908005187144646
leaf_weight=389 10.000000000000002 18.000000000000004 9.9999999999999982 20 11.999999999999998 9.9999999999999982 12.999999999999998
leaf_count=389 10 18 10 20 12 10 13
internal_value=0 -0.00139891 0.0323147 -0.00208725 0.00851326 -0.00242655 0.00201525
internal_weight=0 462 20 432 30 399 33
internal_count=482 462 20 432 30 399 33
is_linear=0
shrinkage=0.1


Tree=10
num_leaves=9
num_cat=0
split_feature=8 8 8 8 23 7 22 7
split_gain=1.76684 0.173942 0.171946 0.0323381 0.000906585 0.000786879 0.000475452 0.000316975
threshold=0.35552137738255896 1.0000000180025095e-35 0.70536080156810066 0.19723439189789879 608.9000000000002 0.7918923666019666 86.915000000000006 0.30467588383938177
decision_type=2 2 2 2 2 2 2 2
left_child=1 5 -2 6 -5 7 -3 -1
right_child=2 3 -4 4 -6 -7 -8 -9
leaf_value=-0.0020713463740853161 0.016571652702987189 0.0023858482018113136 0.032884419283696585 0.0062137965790250065 0.0075293772667646411 -0.00305977463722229 0.0016292438012264346 -0.0022518844862190104
leaf_weight=195 12.000000000000002 12.999999999999998 13.999999999999998 11.000000000000002 9.9999999999999982 9.9999999999999982 23 194
leaf_count=195 12 13 14 11 10 10 23 194
internal_value=0 -0.00144571 0.0253555 0.00372165 0.00684026 -0.0021839 0.00190246 -0.00216138
internal_weight=0 456 26 57 21 399 36 389
internal_count=482 456 26 57 21 399 36 389
is_linear=0
shrinkage=0.1


Tree=11
num_leaves=8
num_cat=0
split_feature=8 8 5 8 8 7 32
split_gain=1.44153 0.203832 0.0729146 0.0392556 0.0223534 0.000637372 6.5312e-05
threshold=0.52948867760202722 0.11433225903040196 -0.0057803711803003496 1.0000000180025095e-35 0.27024765952890611 0.7918923666019666 172.07880622722956
decision_type=2 2 2 2 2 2 2
left_child=1 3 -2 5 -3 -1 -5
right_child=2 4 -4 6 -6 -7 -8
leaf_value=-0.0019452451199178219 0.03232217818498611 0.0046040913840341893 0.020246198922395708 0.0017367128143087032 0.01017602247496446 -0.0027537971735000612 0.0014487960590766026
leaf_weight=389 10.000000000000002 18.000000000000004 9.9999999999999982 20 11.999999999999998 9.9999999999999982 12.999999999999998
leaf_count=389 10 18 10 20 12 10 13
internal_value=0 -0.00113784 0.0262842 -0.00169137 0.00683286 -0.00196551 0.00162329
internal_weight=0 462 20 432 30 399 33
internal_count=482 462 20 432 30 399 33
is_linear=0
shrinkage=0.1


Tree=12
num_leaves=7
num_cat=0
split_feature=8 8 8 8 7 24
split_gain=1.17169 0.206665 0.035829 0.0216828 0.000516271 0.000357202
threshold=0.59784496057987058 0.19723439189789879 1.0000000180025095e-35 0.32387242657028298 0.7918923666019666 31.436479616344553
decision_type=2 2 2 2 2 2
left_child=1 2 4 -3 -1 -4
right_child=-2 3 5 -5 -6 -7
leaf_value=-0.0017507205231254083 0.02578609752304414 0.0048898831061604947 0.0017339917197823525 0.010377602092921734 -0.002478417567908764 0.0010501718190921978
leaf_weight=389 17 18.000000000000004 25 11.999999999999998 9.9999999999999982 10.999999999999998
leaf_count=389 17 18 25 12 10 11
internal_value=0 -0.000942718 -0.00149635 0.00708497 -0.00176896 0.00152505
internal_weight=0 465 435 30 399 36
internal_count=482 465 435 30 399 36
is_linear=0
shrinkage=0.1


Tree=13
num_leaves=7
num_cat=0
split_feature=8 8 8 8 11 22
split_gain=0.949072 0.167398 0.0290215 0.0175631 0.000350491 0.000334735
threshold=0.59784496057987058 0.19723439189789879 1.0000000180025095e-35 0.32387242657028298 299.27789965433936 86.915000000000006
decision_type=2 2 2 2 2 2
left_child=1 2 4 -3 -1 -4
right_child=-2 3 5 -5 -6 -7
leaf_value=-0.0015342398601419787 0.023207487691851224 0.0044008947960618465 0.0017781361865882692 0.0093398419829706352 -0.0017439791373908518 0.0011432932203878528
leaf_weight=289 17 18.000000000000004 12.999999999999998 11.999999999999998 110 23
leaf_count=289 17 18 13 12 110 23
internal_value=0 -0.000848446 -0.00134672 0.00637647 -0.00159206 0.00137254
internal_weight=0 465 435 30 399 36
internal_count=482 465 435 30 399 36
is_linear=0
shrinkage=0.1


Tree=14
num_leaves=8
num_cat=0
split_feature=8 8 24 8 8 7 4
split_gain=0.768841 0.108124 0.0544897 0.0206301 0.0122321 0.000401204 4.03177e-05
threshold=0.52948867760202722 0.11433225903040196 30.865597857889782 1.0000000180025095e-35 0.27024765952890611 0.7918923666019666 24.996946906465237
decision_type=2 2 2 2 2 2 2
left_child=1 3 -2 5 -3 -1 -5
right_child=2 4 -4 6 -6 -7 -8
leaf_value=-0.0014167788390616065 0.013975891470909114 0.0033255671409683088 0.02441521540284157 0.0012416810607132705 0.0074473423883318901 -0.0020582752861082556 0.0010011666337959469
leaf_weight=389 10.000000000000002 18.000000000000004 9.9999999999999982 23 11.999999999999998 9.9999999999999982 9.9999999999999982
leaf_count=389 10 18 10 23 12 10 10
internal_value=0 -0.000830976 0.0191956 -0.00123412 0.00497428 -0.00143286 0.0011688
internal_weight=0 462 20 432 30 399 33
internal_count=482 462 20 432 30 399 33
is_linear=0
shrinkage=0.1


Tree=15
num_leaves=7
num_cat=0
split_feature=8 8 8 8 7 25
split_gain=0.63189 0.107597 0.0188618 0.0106798 0.000324975 0.00031578
threshold=0.59784496057987058 0.19723439189789879 1.0000000180025095e-35 0.32387242657028298 0.7918923666019666 24.784450901418548
decision_type=2 2 2 2 2 2
left_child=1 2 4 -3 -1 -4
right_child=-2 3 5 -5 -6 -7
leaf_value=-0.0012751009952094992 0.018936479770961932 0.0035595524305891656 0.0015779946371912955 0.0074109153201182684 -0.0018524477630853652 0.00091675820115667123
leaf_weight=389 17 18.000000000000004 9.9999999999999982 11.999999999999998 9.9999999999999982 26
leaf_count=389 17 18 10 12 10 26
internal_value=0 -0.000692301 -0.00109178 0.0051001 -0.00128957 0.00110043
internal_weight=0 465 435 30 399 36
internal_count=482 465 435 30 399 36
is_linear=0
shrinkage=0.1


Tree=16
num_leaves=7
num_cat=0
split_feature=8 8 8 8 32 7
split_gain=0.511831 0.0871539 0.0152781 0.0086506 0.000300438 0.000299466
threshold=0.59784496057987058 0.19723439189789879 1.0000000180025095e-35 0.32387242657028298 147.45844671384756 0.30467588383938177
decision_type=2 2 2 2 2 2
left_child=1 2 5 -3 -4 -1
right_child=-2 3 4 -5 -6 -7
leaf_value=-0.0010720032577713331 0.017042831725933971 0.0032035971480783897 0.0012957979377140017 0.00666982385640343 0.00071713308999805079 -0.0012453148776080973
leaf_weight=195 17 18.000000000000004 17 11.999999999999998 19 204
leaf_count=195 17 18 17 12 19 204
internal_value=0 -0.000623071 -0.000982599 0.00459009 0.000990391 -0.00116061
internal_weight=0 465 435 30 36 399
internal_count=482 465 435 30 36 399
is_linear=0
shrinkage=0.1


Tree=17
num_leaves=7
num_cat=0
split_feature=8 8 8 8 21 7
split_gain=0.414583 0.0705947 0.0123753 0.0071389 0.0003094 0.000254501
threshold=0.59784496057987058 0.19723439189789879 1.0000000180025095e-35 0.27024765952890611 36.785000000000004 0.7918923666019666
decision_type=2 2 2 2 2 2
left_child=1 2 5 -3 -4 -1
right_child=-2 3 4 -5 -6 -7
leaf_value=-0.0010317472626088825 0.015338548634420425 0.002588473415623108 0.0013640634994953873 0.0056736847509940465 0.00070954036849658366 -0.0015426714532077313
leaf_weight=389 17 15.000000000000002 9.9999999999999982 14.999999999999998 26 9.9999999999999982
leaf_count=389 17 15 10 15 26 10
internal_value=0 -0.000560764 -0.00088434 0.00413108 0.000891352 -0.00104455
internal_weight=0 465 435 30 36 399
internal_count=482 465 435 30 36 399
is_linear=0
shrinkage=0.1


Tree=18
num_leaves=7
num_cat=0
split_feature=8 8 8 8 23 23
split_gain=0.335812 0.0571817 0.010024 0.00589963 0.000271575 0.000248092
threshold=0.59784496057987058 0.19723439189789879 1.0000000180025095e-35 0.32387242657028298 617.79500000000019 608.9000000000002
decision_type=2 2 2 2 2 2
left_child=1 2 5 -3 -4 -1
right_child=-2 3 4 -5 -6 -7
leaf_value=-0.00090467386306768453 0.013804693799465896 0.0025729699086190923 0.00099643030359099303 0.00543547309935093 0.00041379072168960351 -0.0011156271267404308
leaf_weight=332 17 18.000000000000004 24 11.999999999999998 11.999999999999998 67
leaf_count=332 17 18 24 12 12 67
internal_value=0 -0.000504688 -0.000795906 0.00371797 0.000802217 -0.000940097
internal_weight=0 465 435 30 36 399
internal_count=482 465 435 30 36 399
is_linear=0
shrinkage=0.1


Tree=19
num_leaves=7
num_cat=0
split_feature=8 8 8 8 9 4
split_gain=0.272008 0.046347 0.00702093 0.00587844 0.000225 2.61523e-05
threshold=0.59784496057987058 0.11433225903040196 1.0000000180025095e-35 0.27024765952890611 3.5540213896973354 24.996946906465237
decision_type=2 2 2 2 2 2
left_child=1 2 4 -3 -1 -4
right_child=-2 3 5 -5 -6 -7
leaf_value=-0.00083176754318274463 0.012424224265851082 0.0019395791459828615 0.00073034629104254043 0.0046200190174082922 -0.0012398835271596909 0.00053663809056160973
leaf_weight=385 17 18 23 14.999999999999998 13.999999999999998 9.9999999999999982
leaf_count=385 17 18 23 15 14 10
internal_value=0 -0.000454219 -0.000730149 0.00315796 -0.000846087 0.000671647
internal_weight=0 465 432 33 399 33
internal_count=482 465 432 33 399 33
is_linear=0
shrinkage=0.1


Tree=20
num_leaves=9
num_cat=0
split_feature=8 4 8 8 23 7 7 6
split_gain=0.220341 0.0523516 0.0244232 0.00631416 0.000613946 0.00020601 0.000145894 1.26457e-08
threshold=0.43440706682721014 24.993840719143808 1.0000000180025095e-35 0.22118967985196744 611.15000000000009 0.30467588383938177 0.7918923666019666 51.380883056455943
decision_type=2 2 2 2 2 2 2 2
left_child=2 -2 5 4 -4 7 -7 -1
right_child=1 -3 3 -5 -6 6 -8 -9
leaf_value=-0.00069144777953624728 0.01411919205759962 0.004568344788541171 0.0010584151672740137 0.0031792824985071399 0.00026055558846564962 -0.00081253073792712587 -0.0012042124848812819 -0.00068779685534536839
leaf_weight=9.9999999999999982 12.000000000000002 10.999999999999998 31 14.999999999999998 13.999999999999998 194 9.9999999999999982 185
leaf_count=10 12 11 31 15 14 194 10 185
internal_value=0 0.0095514 -0.00047861 0.00140246 0.000810192 -0.000761479 -0.000831731 -0.000687984
internal_weight=0 23 459 60 45 399 204 195
internal_count=482 23 459 60 45 399 204 195
is_linear=0
shrinkage=0.1


Tree=21
num_leaves=7
num_cat=0
split_feature=8 8 8 8 9 21
split_gain=0.182012 0.0298616 0.00444881 0.00350707 0.000177038 2.13466e-05
threshold=0.59784496057987058 0.11433225903040196 1.0000000180025095e-35 0.27024765952890611 3.5540213896973354 47.310000000000009
decision_type=2 2 2 2 2 2
left_child=1 2 4 -3 -1 -4
right_child=-2 3 5 -5 -6 -7
leaf_value=-0.00067262857958867955 0.010163153041674592 0.0015868143527768552 0.00062257686020949718 0.0036571817627797524 -0.0010346420974071539 0.00045797506420058198
leaf_weight=385 17 18 12.999999999999998 14.999999999999998 13.999999999999998 20
leaf_count=385 17 18 13 15 14 20
internal_value=0 -0.000371556 -0.000593042 0.00252789 -0.000685331 0.000522818
internal_weight=0 465 432 33 399 33
internal_count=482 465 432 33 399 33
is_linear=0
shrinkage=0.1


Tree=22
num_leaves=7
num_cat=0
split_feature=8 8 8 20 23 23
split_gain=0.153664 0.0360334 0.00647441 0.00438777 0.00050867 0.000170535
threshold=0.74291520973425884 0.22118967985196744 1.0000000180025095e-35 30.890000000000004 611.15000000000009 621.04500000000019
decision_type=2 2 2 2 2 2
left_child=1 2 5 -3 -4 -1
right_child=-2 3 4 -5 -6 -7
leaf_value=-0.00058956405052038681 0.011683586332947016 0.0049361850880086412 0.00087445896839903256 0.0022963341065298988 0.00014821988796549185 -0.00077373759536925014
leaf_weight=340 10.999999999999998 10.000000000000002 31 17 13.999999999999998 59
leaf_count=340 11 10 31 17 14 59
internal_value=0 -0.000272865 -0.000488556 0.00327406 0.000648518 -0.000616798
internal_weight=0 471 444 27 45 399
internal_count=482 471 444 27 45 399
is_linear=0
shrinkage=0.1


Tree=23
num_leaves=5
num_cat=0
split_feature=24 7 30 32
split_gain=0.030948 0.0107884 0.00311439 0.00298886
threshold=37.992927247985513 0.89941101575694771 311.64949859666018 315.11051923676615
decision_type=2 2 2 2
left_child=1 2 3 -1
right_child=-2 -3 -4 -5
leaf_value=-0.00032756216229940031 0.0050147743197157986 0.002831823896849528 0.001083681665153967 0.00072284805335521955
leaf_weight=411 11.999999999999998 11.999999999999998 18 29
leaf_count=411 12 12 18 29
internal_value=0 -0.000128037 -0.000205588 -0.000258331
internal_weight=0 470 458 440
internal_count=482 470 458 440
is_linear=0
shrinkage=0.1


Tree=24
num_leaves=7
num_cat=0
split_feature=8 8 8 4 7 7
split_gain=0.120778 0.0280556 0.00507369 0.00355808 0.000460191 0.000373044
threshold=0.74291520973425884 0.22118967985196744 1.0000000180025095e-35 24.996504061428904 0.66686863238213601 0.7918923666019666
decision_type=2 2 2 2 2 2
left_child=1 2 5 -3 -4 -1
right_child=-2 3 4 -5 -6 -7
leaf_value=-0.00053025497043395181 0.010358198945918544 0.002007388715377173 0.0007671912691104367 0.0043845854932442309 4.4042393953228996e-05 -0.0011488292459398508
leaf_weight=389 10.999999999999998 17.000000000000004 33 9.9999999999999982 11.999999999999998 9.9999999999999982
leaf_count=389 11 17 33 10 12 10
internal_value=0 -0.000241911 -0.000432233 0.00288783 0.000574352 -0.000545758
internal_weight=0 471 444 27 45 399
internal_count=482 471 444 27 45 399
is_linear=0
shrinkage=0.1


Tree=25
num_leaves=8
num_cat=0
split_feature=8 8 27 8 30 7 32
split_gain=0.0978301 0.0229543 0.00344717 0.00254342 0.00110985 0.000302166 0.000270816
threshold=0.74291520973425884 0.19723439189789879 73.772826043674058 1.0000000180025095e-35 78.120202622579342 0.7918923666019666 147.45844671384756
decision_type=2 2 2 2 2 2 2
left_child=1 3 4 5 -3 -1 -5
right_child=-2 2 -4 6 -6 -7 -8
leaf_value=-0.00047722947131363549 0.0093223791400139974 0.00071242179023101905 0.0035928459760422508 0.00067641603664549837 0.0020917688113903359 -0.001033946331590414 0.0001270184322493151
leaf_weight=389 10.999999999999998 10.000000000000002 11.999999999999998 17 13.999999999999998 9.9999999999999982 19
leaf_count=389 11 10 12 17 14 10 19
internal_value=0 -0.00021772 0.00220898 -0.00041855 0.00151704 -0.000491182 0.000386456
internal_weight=0 471 36 435 24 399 36
internal_count=482 471 36 435 24 399 36
is_linear=0
shrinkage=0.1


Tree=26
num_leaves=7
num_cat=0
split_feature=8 8 8 21 15 7
split_gain=0.0792424 0.0187836 0.00321629 0.00314609 0.000393508 0.000244957
threshold=0.74291520973425884 0.22118967985196744 1.0000000180025095e-35 58.095000000000006 0.46087022936989203 0.77420069456358254
decision_type=2 2 2 2 2 2
left_child=1 2 5 -3 -4 -1
right_child=-2 3 4 -5 -6 -7
leaf_value=-0.00042604933639954268 0.0083901414309035648 0.0015370256657821727 0.00091370654565532921 0.0037723636906594042 0.00026127320743398743 -0.00082541651354404175
leaf_weight=383 10.999999999999998 17.000000000000004 12.999999999999998 9.9999999999999982 32 15.999999999999998
leaf_count=383 11 17 13 10 32 16
internal_value=0 -0.000195948 -0.000351677 0.00236493 0.000449754 -0.000442064
internal_weight=0 471 444 27 45 399
internal_count=482 471 444 27 45 399
is_linear=0
shrinkage=0.1


Tree=27
num_leaves=7
num_cat=0
split_feature=8 8 8 21 7 24
split_gain=0.0641863 0.0152147 0.00260519 0.00254834 0.000356113 0.000231522
threshold=0.74291520973425884 0.22118967985196744 1.0000000180025095e-35 58.095000000000006 0.66686863238213601 37.694438780696565
decision_type=2 2 2 2 2 2
left_child=1 2 5 -3 -4 -1
right_child=-2 3 4 -5 -6 -7
leaf_value=-0.00038503167752330144 0.0075511270287362021 0.0013833231313208883 0.0005744158709245368 0.0033951272140257064 -6.1724095091146106e-05 -0.00085026482966813182
leaf_weight=388 10.999999999999998 17.000000000000004 33 9.9999999999999982 11.999999999999998 10.999999999999998
leaf_count=388 11 17 33 10 12 11
internal_value=0 -0.000176353 -0.000316509 0.00212844 0.000404779 -0.000397858
internal_weight=0 471 444 27 45 399
internal_count=482 471 444 27 45 399
is_linear=0
shrinkage=0.1


Tree=28
num_leaves=8
num_cat=0
split_feature=8 8 5 8 8 21 32
split_gain=0.0519909 0.0124968 0.00259097 0.00282028 0.00126247 0.000266939 0.000207765
threshold=0.74291520973425884 0.19723439189789879 -0.0057803711803003496 0.35552137738255896 1.0000000180025095e-35 36.785000000000004 262.35314743674593
decision_type=2 2 2 2 2 2 2
left_child=1 4 -3 -4 6 -6 -1
right_child=-2 2 3 -5 5 -7 -8
leaf_value=-0.00033569584957549129 0.0067960143766619954 0.00035286463032455437 0.0012530792288349142 0.0033927928841545837 0.00069933269136527091 9.1378902027809791e-05 -0.00059078274228210968
leaf_weight=364 10.999999999999998 10.999999999999998 14.000000000000002 10.999999999999998 9.9999999999999982 26 35
leaf_count=364 11 11 14 11 10 26 35
internal_value=0 -0.000158718 0.00163182 0.00219455 -0.0003069 0.000260255 -0.000358072
internal_weight=0 471 36 25 435 36 399
internal_count=482 471 36 25 435 36 399
is_linear=0
shrinkage=0.1


Tree=29
num_leaves=7
num_cat=0
split_feature=8 8 15 8 32 7
split_gain=0.0421126 0.0101989 0.00222083 0.00219133 0.000334172 0.000191477
threshold=0.74291520973425884 0.27024765952890611 0.46769600427334185 1.0000000180025095e-35 140.30993489122196 0.7918923666019666
decision_type=2 2 2 2 2 2
left_child=1 3 -3 5 -5 -1
right_child=-2 2 -4 4 -6 -7
leaf_value=-0.00031115767967367699 0.0061164129864085814 0.00093268130964133859 0.0029917517528784549 0.00066775414554947265 0.00015091016378799649 -0.00075432766694575552
leaf_weight=389 10.999999999999998 10.000000000000002 10.999999999999998 22 29 9.9999999999999982
leaf_count=389 11 10 11 22 29 10
internal_value=0 -0.000142846 0.00201124 -0.00024337 0.000373862 -0.000322265
internal_weight=0 471 21 450 51 399
internal_count=482 471 21 450 51 399
is_linear=0
shrinkage=0.1


Tree=30
num_leaves=8
num_cat=0
split_feature=8 8 9 8 6 24 8
split_gain=0.0341112 0.00840612 0.00241058 0.000623241 0.000536012 0.000177486 3.27386e-05
threshold=0.74291520973425884 0.11433225903040196 1.7651643081931463 1.0000000180025095e-35 56.110791242977164 37.694438780696565 0.10719621957015146
decision_type=2 2 2 2 2 2 2
left_child=1 3 -3 5 -4 -1 -5
right_child=-2 2 4 6 -6 -7 -8
leaf_value=-0.00027880832590714829 0.0055047716776078399 0.0025318037771450527 0.00024078270970759059 7.1232682886248876e-05 0.0011366537919350187 -0.00068614755714820194 0.00027126716255831219
leaf_weight=388 10.999999999999998 10.999999999999998 11.000000000000002 18 17 10.999999999999998 14.999999999999998
leaf_count=388 11 11 11 18 17 11 15
internal_value=0 -0.000128562 0.00127748 -0.000255496 0.000784704 -0.000290038 0.000162157
internal_weight=0 471 39 432 28 399 33
internal_count=482 471 39 432 28 399 33
is_linear=0
shrinkage=0.1


Tree=31
num_leaves=8
num_cat=0
split_feature=8 8 27 8 8 7 8
split_gain=0.0279395 0.00433329 0.00141526 0.000504825 0.000488612 0.000172054 2.65182e-05
threshold=0.59784496057987058 0.11433225903040196 42.207110493769115 1.0000000180025095e-35 0.27024765952890611 0.30467588383938177 0.10719621957015146
decision_type=2 2 2 2 2 2 2
left_child=1 3 -3 5 -4 -1 -5
right_child=-2 2 4 6 -6 -7 -8
leaf_value=-0.00019386937776102854 0.0039818788440350228 0.00014665249484376266 0.0009926379064563659 6.4109414880577896e-05 0.0019811847805976872 -0.00032523627000331296 0.00024414044416820008
leaf_weight=195 17 12.999999999999998 10.000000000000002 18 9.9999999999999982 204 14.999999999999998
leaf_count=195 17 13 10 18 10 204 15
internal_value=0 -0.000145574 0.000958931 -0.000229946 0.00148691 -0.000261034 0.000145942
internal_weight=0 465 33 432 20 399 33
internal_count=482 465 33 432 20 399 33
is_linear=0
shrinkage=0.1


Tree=32
num_leaves=7
num_cat=0
split_feature=8 8 15 8 15 7
split_gain=0.0233672 0.00542025 0.00168987 0.00108436 0.000324324 0.00015003
threshold=0.74291520973425884 0.27024765952890611 0.46769600427334185 0.10462027035253292 0.46087022936989203 0.62873156864661073
decision_type=2 2 2 2 2 2
left_child=1 3 -3 5 -5 -1
right_child=-2 2 -4 4 -6 -7
leaf_value=-0.00020849704216031924 0.0045561067082665182 0.00052310813218355164 0.002319245379079472 0.00069605619154082478 0.00011112583885960703 -0.00038362475226453522
leaf_weight=345 10.999999999999998 10.000000000000002 10.999999999999998 12.999999999999998 35 57
leaf_count=345 11 10 11 13 35 57
internal_value=0 -0.000106406 0.00146394 -0.000179689 0.000269544 -0.000233329
internal_weight=0 471 21 450 48 402
internal_count=482 471 21 450 48 402
is_linear=0
shrinkage=0.1


Tree=33
num_leaves=6
num_cat=0
split_feature=8 8 8 11 24
split_gain=0.0189274 0.0044104 0.00102902 0.000437425 0.000140913
threshold=0.74291520973425884 0.32387242657028298 0.10719621957015146 605.81101020234337 37.694438780696565
decision_type=2 2 2 2 2
left_child=1 2 4 -4 -1
right_child=-2 -3 3 -5 -6
leaf_value=-0.00019147886199556382 0.0041004959324544132 0.0014393508589516085 0.00060267520990843579 -0.00013677154784090819 -0.00055420923321931198
leaf_weight=406 10.999999999999998 18 24 11.999999999999998 10.999999999999998
leaf_count=406 11 18 24 12 11
internal_value=0 -9.57653e-05 -0.000156763 0.000356193 -0.000201047
internal_weight=0 471 453 36 417
internal_count=482 471 453 36 417
is_linear=0
shrinkage=0.1


Tree=34
num_leaves=8
num_cat=0
split_feature=8 8 5 21 8 21 32
split_gain=0.0153312 0.00358874 0.0018371 0.00127032 0.000389324 0.000256255 0.000141797
threshold=0.74291520973425884 0.21391869568562322 -0.0057803711803003496 49.750000000000007 1.0000000180025095e-35 36.785000000000004 262.35314743674593
decision_type=2 2 2 2 2 2 2
left_child=1 4 -3 -4 6 -6 -1
right_child=-2 2 3 -5 5 -7 -8
leaf_value=-0.00017294609343770101 0.0036904464391144839 -0.00021210142644122244 0.00069988632264236588 0.0021876473953439434 0.0005485684356906198 -2.1061523563860517e-05 -0.00038368018543613814
leaf_weight=364 10.999999999999998 9.9999999999999982 12.000000000000002 10.999999999999998 10.999999999999998 28 35
leaf_count=364 11 10 12 11 11 28 35
internal_value=0 -8.61888e-05 0.000919447 0.00141142 -0.000161956 0.000139603 -0.000191432
internal_weight=0 471 33 23 438 39 399
internal_count=482 471 33 23 438 39 399
is_linear=0
shrinkage=0.1


Tree=35
num_leaves=6
num_cat=0
split_feature=24 9 8 5 8
split_gain=0.014156 0.00312143 0.00436988 0.00588479 0.000243778
threshold=37.992927247985513 3.9759902100637654 0.21391869568562322 -0.0018679774610478497 1.0000000180025095e-35
decision_type=2 2 2 2 2
left_child=1 2 4 -4 -1
right_child=-2 -3 3 -5 -6
leaf_value=-0.0001616247850749944 0.0033916061317237713 -0.0017513014042792334 0.0017628470293453173 -0.0010769310966134071 0.00010710873108552267
leaf_weight=385 11.999999999999998 10.999999999999998 27 9.9999999999999982 37
leaf_count=385 12 11 27 10 37
internal_value=0 -8.65942e-05 -4.66993e-05 0.000995339 -0.000138063
internal_weight=0 470 459 37 422
internal_count=482 470 459 37 422
is_linear=0
shrinkage=0.1


Tree=36
num_leaves=6
num_cat=0
split_feature=33 20 8 5 24
split_gain=0.0124822 0.00221502 0.00327363 0.00599975 0.00045193
threshold=884.54944890876823 38.225000000000001 0.22118967985196744 -0.0023329486932048495 37.458001062923437
decision_type=2 2 2 2 2
left_child=1 2 4 -4 -1
right_child=-2 -3 3 -5 -6
leaf_value=-0.00010360573169378656 0.0031847896529749657 -0.0015536886715563016 0.0019748191963299177 -0.00093279068493178465 -0.00072605743328798178
leaf_weight=417 11.999999999999998 9.9999999999999982 20.000000000000004 10.999999999999998 11.999999999999998
leaf_count=417 12 10 20 11 12
internal_value=0 -8.13138e-05 -4.93056e-05 0.000943087 -0.000121017
internal_weight=0 470 460 31 429
internal_count=482 470 460 31 429
is_linear=0
shrinkage=0.1


Tree=37
num_leaves=7
num_cat=0
split_feature=8 8 27 4 24 8
split_gain=0.0109354 0.00204821 0.00150762 0.000726153 0.000382786 0.000138318
threshold=0.74291520973425884 0.11315205782310041 66.886858231739041 24.989544232127106 37.694438780696565 1.0000000180025095e-35
decision_type=2 2 2 2 2 2
left_child=1 4 3 -3 5 -1
right_child=-2 2 -4 -5 -6 -7
leaf_value=-0.00013871214769846794 0.0031167930838736624 0.0008532673813169819 0.0014409771496762657 -0.00020954578519902296 -0.00072033280713102701 8.4157332433581667e-05
leaf_weight=388 10.999999999999998 10.000000000000002 13.999999999999998 18 10.999999999999998 30
leaf_count=388 11 10 14 18 11 30
internal_value=0 -7.27913e-05 0.000593679 0.00017003 -0.00013804 -0.000122717
internal_weight=0 471 42 28 429 418
internal_count=482 471 42 28 429 418
is_linear=0
shrinkage=0.1


Tree=38
num_leaves=6
num_cat=0
split_feature=27 20 8 5 7
split_gain=0.010168 0.0018935 0.00215875 0.00485745 0.000130501
threshold=27.23246698113697 38.225000000000001 0.11315205782310041 -0.0018423323154940997 0.77420069456358254
decision_type=2 2 2 2 2
left_child=-1 2 4 -4 -2
right_child=1 -3 3 -5 -6
leaf_value=0.0028744332506903448 -0.00010206295028768695 -0.0014347181993798587 0.0012408010460148945 -0.0012841550819575787 -0.00041261928178885557
leaf_weight=11.999999999999998 404 9.9999999999999982 32 9.9999999999999982 13.999999999999998
leaf_count=12 404 10 32 10 14
internal_value=0 -7.33898e-05 -4.37957e-05 0.000639621 -0.000112464
internal_weight=0 470 460 42 418
internal_count=482 470 460 42 418
is_linear=0
shrinkage=0.1


Tree=39
num_leaves=8
num_cat=0
split_feature=8 8 27 8 5 27 8
split_gain=0.00847911 0.00133278 0.00127888 0.000845165 0.000588602 0.000435038 9.01952e-05
threshold=0.74291520973425884 0.11199382285733496 54.275871989140903 0.32387242657028298 -0.004208851868408899 29.086163364931373 1.0000000180025095e-35
decision_type=2 2 2 2 2 2 2
left_child=1 5 4 -4 -3 -1 -7
right_child=-2 2 3 -5 -6 6 -8
leaf_value=-0.00068835928776444729 0.0027445164128122005 -0.0006582263554446398 0.00044319195126613157 0.0016660132631659509 0.00038057240478034751 -0.0001132004031003091 7.585595732153808e-05
leaf_weight=12.999999999999998 10.999999999999998 10.000000000000002 13.000000000000002 9.9999999999999982 11.999999999999998 386 27
leaf_count=13 11 10 13 10 12 386 27
internal_value=0 -6.4097e-05 0.000453472 0.000974853 -9.16088e-05 -0.00011877 -0.000100841
internal_weight=0 471 45 23 22 426 413
internal_count=482 471 45 23 22 426 413
is_linear=0
shrinkage=0.1


Tree=40
num_leaves=5
num_cat=0
split_feature=24 9 7 7
split_gain=0.00969279 0.00257931 0.000772489 0.00124439
threshold=37.992927247985513 3.9759902100637654 0.89941101575694771 0.77420069456358254
decision_type=2 2 2 2
left_child=1 2 3 -1
right_child=-2 -3 -4 -5
leaf_value=-2.5783506272648906e-05 0.0028064623057919864 -0.0015849115369333464 0.00079251996199177074 -0.00098365701425271769
leaf_weight=434 11.999999999999998 10.999999999999998 10.999999999999998 13.999999999999998
leaf_count=434 12 11 11 14
internal_value=0 -7.16544e-05 -3.53889e-05 -5.57171e-05
internal_weight=0 470 459 448
internal_count=482 470 459 448
is_linear=0
shrinkage=0.1


Tree=41
num_leaves=6
num_cat=0
split_feature=33 20 8 33 24
split_gain=0.0086213 0.00158215 0.00106761 0.0052097 0.000676933
threshold=884.54944890876823 38.225000000000001 0.21391869568562322 61.051961222095649 37.458001062923437
decision_type=2 2 2 2 2
left_child=1 2 4 -4 -1
right_child=-2 -3 3 -5 -6
leaf_value=-6.3966810848531199e-05 0.0026468002664235732 -0.0013119592110160739 -0.00096246714703738699 0.0014543847429608419 -0.00082592587083733327
leaf_weight=411 11.999999999999998 9.9999999999999982 14.999999999999998 22 11.999999999999998
leaf_count=411 12 10 15 22 12
internal_value=0 -6.75779e-05 -4.05261e-05 0.00047458 -8.55827e-05
internal_weight=0 470 460 37 423
internal_count=482 470 460 37 423
is_linear=0
shrinkage=0.1


Tree=42
num_leaves=6
num_cat=0
split_feature=24 9 8 28 29
split_gain=0.00741495 0.00195759 0.0011735 0.00452539 0.000183775
threshold=37.992927247985513 3.9759902100637654 0.21391869568562322 76.887847052000367 26.306433280818073
decision_type=2 2 2 2 2
left_child=1 2 4 -4 -1
right_child=-2 -3 3 -5 -6
leaf_value=0.00030731078713870376 0.0024546459821673736 -0.0013809965203770182 0.0013717530324040285 -0.00090859423591090104 -8.971346130703928e-05
leaf_weight=11.999999999999998 11.999999999999998 10.999999999999998 23 13.999999999999998 410
leaf_count=12 12 11 23 14 410
internal_value=0 -6.26718e-05 -3.1078e-05 0.000508919 -7.84237e-05
internal_weight=0 470 459 37 422
internal_count=482 470 459 37 422
is_linear=0
shrinkage=0.1


Tree=43
num_leaves=6
num_cat=0
split_feature=33 20 4 8 8
split_gain=0.00658447 0.00126324 0.000818648 0.00518956 0.00246409
threshold=884.54944890876823 38.225000000000001 24.997475170248538 0.59784496057987058 0.11433225903040196
decision_type=2 2 2 2 2
left_child=1 2 3 -1 -4
right_child=-2 -3 4 -5 -6
leaf_value=-1.9572800248374272e-05 0.0023131036277239522 -0.0011709770793095233 -0.00011731259169554787 0.0021927332971245052 -0.00174028106383048
leaf_weight=294 11.999999999999998 9.9999999999999982 145 10.999999999999998 9.9999999999999982
leaf_count=294 12 10 145 11 10
internal_value=0 -5.9058e-05 -3.48858e-05 6.02153e-05 -0.00022202
internal_weight=0 470 460 305 155
internal_count=482 470 460 305 155
is_linear=0
shrinkage=0.1


Tree=44
num_leaves=6
num_cat=0
split_feature=27 8 8 6 33
split_gain=0.0061431 0.00144629 0.00128319 0.00126194 0.000515033
threshold=27.23246698113697 0.70536080156810066 0.11315205782310041 55.2779241950551 850.81766805834525
decision_type=2 2 2 2 2
left_child=-1 2 4 -4 -2
right_child=1 -3 3 -5 -6
leaf_value=0.0022342335521292017 -5.9464865387077473e-05 -0.0011407755368660825 -0.00029287165962159633 0.00096308563200485277 -0.00075282126067163931
leaf_weight=11.999999999999998 411 11.999999999999998 11.999999999999998 24 10.999999999999998
leaf_count=12 411 12 12 24 11
internal_value=0 -5.70443e-05 -2.86496e-05 0.000544433 -7.75381e-05
internal_weight=0 470 458 36 422
internal_count=482 470 458 36 422
is_linear=0
shrinkage=0.1


Tree=45
num_leaves=7
num_cat=0
split_feature=8 27 8 6 6 8
split_gain=0.00579136 0.0016092 0.00124895 0.00123662 0.000790931 8.87766e-05
threshold=0.74291520973425884 30.327375872506263 0.11315205782310041 55.2779241950551 59.33871368344753 1.0000000180025095e-35
decision_type=2 2 2 2 2 2
left_child=1 4 5 -4 -1 -3
right_child=-2 2 3 -5 -6 -7
leaf_value=-0.00024824956005128717 0.0022681974827057937 -7.1085770608334171e-05 -0.00020902103726537182 0.0010211582734799859 -0.0013740906225463664 0.00010758230724604799
leaf_weight=12.000000000000002 10.999999999999998 381 12.999999999999998 22 12.999999999999998 30
leaf_count=12 11 381 13 22 13 30
internal_value=0 -5.29728e-05 -9.21076e-06 0.000564235 -0.000833687 -5.80443e-05
internal_weight=0 471 446 35 25 411
internal_count=482 471 446 35 25 411
is_linear=0
shrinkage=0.1


Tree=46
num_leaves=5
num_cat=0
split_feature=33 9 24 8
split_gain=0.00535668 0.00136456 0.000898 0.000798192
threshold=884.54944890876823 3.9759902100637654 37.458001062923437 0.11315205782310041
decision_type=2 2 2 2
left_child=1 2 3 -1
right_child=-2 -3 -4 -5
leaf_value=-4.499033605929022e-05 0.0020863277527193229 -0.0011059295453984912 -0.00084493203948323543 0.00041310581228961907
leaf_weight=403 11.999999999999998 11.999999999999998 12.999999999999998 42
leaf_count=403 12 12 13 42
internal_value=0 -5.32679e-05 -2.56873e-05 -1.7543e-06
internal_weight=0 470 458 445
internal_count=482 470 458 445
is_linear=0
shrinkage=0.1


Tree=47
num_leaves=6
num_cat=0
split_feature=24 8 8 27 33
split_gain=0.0051229 0.00172232 0.000460619 0.00100667 0.000396959
threshold=37.992927247985513 0.70536080156810066 0.10719621957015146 54.275871989140903 850.81766805834525
decision_type=2 2 2 2 2
left_child=1 2 4 -4 -1
right_child=-2 -3 3 -5 -6
leaf_value=-4.0221809714401343e-05 0.002040294837206602 -0.0012347253554253258 -0.00021328260981649889 0.00069493537526935925 -0.00067811529850587255
leaf_weight=399 11.999999999999998 11.999999999999998 23 26 9.9999999999999982
leaf_count=399 12 12 23 26 10
internal_value=0 -5.20926e-05 -2.11066e-05 0.000268629 -5.58182e-05
internal_weight=0 470 458 49 409
internal_count=482 470 458 49 409
is_linear=0
shrinkage=0.1


Tree=48
num_leaves=6
num_cat=0
split_feature=8 24 8 29 32
split_gain=0.00471863 0.00179938 0.000354335 0.00112226 6.69912e-05
threshold=0.74291520973425884 37.992927247985513 0.10462027035253292 86.457101934658837 262.35314743674593
decision_type=2 2 2 2 2
left_child=1 2 4 -4 -1
right_child=-2 -3 3 -5 -6
leaf_value=-4.2306571374493188e-05 0.002047380954040405 -0.0013749085739254952 2.2149799631159499e-05 0.0011706897991825827 -0.00018724241340740784
leaf_weight=359 10.999999999999998 9.9999999999999982 57 9.9999999999999982 35
leaf_count=359 11 10 57 10 35
internal_value=0 -4.78157e-05 -1.90284e-05 0.000193574 -5.51816e-05
internal_weight=0 471 461 67 394
internal_count=482 471 461 67 394
is_linear=0
shrinkage=0.1


Tree=49
num_leaves=5
num_cat=0
split_feature=27 8 8 33
split_gain=0.00463505 0.00182031 0.000618957 0.000570696
threshold=27.23246698113697 0.70536080156810066 0.32387242657028298 850.81766805834525
decision_type=2 2 2 2
left_child=-1 2 3 -2
right_child=1 -3 -4 -5
leaf_value=0.0019407168894152466 -2.0267589887469421e-05 -0.0012653601244286014 0.00063697883742861458 -0.00074964705431325874
leaf_weight=11.999999999999998 433 11.999999999999998 13.999999999999998 10.999999999999998
leaf_count=12 433 12 14 11
internal_value=0 -4.95502e-05 -1.76949e-05 -3.83378e-05
internal_weight=0 470 458 444
internal_count=482 470 458 444
is_linear=0
shrinkage=0.1


Tree=50
num_leaves=5
num_cat=0
split_feature=33 8 27 8
split_gain=0.00426947 0.00124074 0.00115801 0.000469742
threshold=884.54944890876823 0.70536080156810066 28.016253631542316 0.11315205782310041
decision_type=2 2 2 2
left_child=1 2 -1 -4
right_child=-2 -3 3 -5
leaf_value=-0.00099182705744169661 0.0018626098055392504 -0.0010971028050831095 -2.6257335755571969e-05 0.00035533599888107608
leaf_weight=11.999999999999998 11.999999999999998 10.999999999999998 412 35
leaf_count=12 12 11 412 35
internal_value=0 -4.7556e-05 -2.24035e-05 3.62134e-06
internal_weight=0 470 459 447
internal_count=482 470 459 447
is_linear=0
shrinkage=0.1


Tree=51
num_leaves=5
num_cat=0
split_feature=8 33 27 8
split_gain=0.00435444 0.00201358 0.000947975 0.000587279
threshold=0.74291520973425884 884.54944890876823 28.016253631542316 0.32387242657028298
decision_type=2 2 2 2
left_child=1 2 -1 -4
right_child=-2 -3 3 -5
leaf_value=-0.00089264433869781594 0.0019667839761082595 -0.0014497943222522736 -1.4022167644985869e-05 0.0006029155731084757
leaf_weight=11.999999999999998 10.999999999999998 9.9999999999999982 433 15.999999999999998
leaf_count=12 11 10 433 16
internal_value=0 -4.59334e-05 -1.54809e-05 7.96225e-06
internal_weight=0 471 461 449
internal_count=482 471 461 449
is_linear=0
shrinkage=0.1


Tree=52
num_leaves=5
num_cat=0
split_feature=27 8 33 8
split_gain=0.00407958 0.00163643 0.000532443 0.000347018
threshold=27.23246698113697 0.70536080156810066 850.81766805834525 0.11315205782310041
decision_type=2 2 2 2
left_child=-1 2 3 -2
right_child=1 -3 -4 -5
leaf_value=0.0018207171388591331 -2.5445585234922448e-05 -0.0011992538738316702 -0.00070360676935789267 0.00029834028812527122
leaf_weight=11.999999999999998 411 11.999999999999998 10.999999999999998 36
leaf_count=12 411 12 11 36
internal_value=0 -4.64864e-05 -1.62829e-05 6.31129e-07
internal_weight=0 470 458 447
internal_count=482 470 458 447
is_linear=0
shrinkage=0.1


Tree=53
num_leaves=5
num_cat=0
split_feature=33 20 27 4
split_gain=0.00388064 0.0013186 0.00104596 0.000519842
threshold=884.54944890876823 38.225000000000001 28.016253631542316 24.997884623914455
decision_type=2 2 2 2
left_child=1 2 -1 -4
right_child=-2 -3 3 -5
leaf_value=-0.0009419957622109602 0.0017757683449114365 -0.0011813587509095669 6.8079985466052887e-05 -0.00017714665199701604
leaf_weight=11.999999999999998 11.999999999999998 9.9999999999999982 331 117
leaf_count=12 12 10 331 117
internal_value=0 -4.53388e-05 -2.06427e-05 4.03642e-06
internal_weight=0 470 460 448
internal_count=482 470 460 448
is_linear=0
shrinkage=0.1


Tree=54
num_leaves=5
num_cat=0
split_feature=8 33 27 8
split_gain=0.00370045 0.00197394 0.000860274 0.000452727
threshold=0.74291520973425884 884.54944890876823 28.016253631542316 0.32387242657028298
decision_type=2 2 2 2
left_child=1 2 -1 -4
right_child=-2 -3 3 -5
leaf_value=-0.00084779620713864776 0.0018130828287791123 -0.0014323178306221962 -9.162478085846019e-06 0.00053251090648700485
leaf_weight=11.999999999999998 10.999999999999998 9.9999999999999982 433 15.999999999999998
leaf_count=12 11 10 433 16
internal_value=0 -4.23438e-05 -1.21925e-05 1.01399e-05
internal_weight=0 471 461 449
internal_count=482 471 461 449
is_linear=0
shrinkage=0.1


Tree=55
num_leaves=5
num_cat=0
split_feature=27 8 33 20
split_gain=0.00359937 0.00170052 0.000465257 0.000304171
threshold=27.23246698113697 0.70536080156810066 850.81766805834525 37.745000000000005
decision_type=2 2 2 2
left_child=-1 2 3 -2
right_child=1 -3 -4 -5
leaf_value=0.0017102035722928123 -1.0167246754892838e-05 -0.0012187884616044662 -0.00065537248526445848 0.00052227600932713944
leaf_weight=11.999999999999998 436 11.999999999999998 10.999999999999998 10.999999999999998
leaf_count=12 436 12 11 11
internal_value=0 -4.36648e-05 -1.28755e-05 2.93538e-06
internal_weight=0 470 458 447
internal_count=482 470 458 447
is_linear=0
shrinkage=0.1


Tree=56
num_leaves=5
num_cat=0
split_feature=33 9 27 4
split_gain=0.00354996 0.00130214 0.000949871 0.000453611
threshold=884.54944890876823 3.9100236664054235 28.016253631542316 24.997793170672431
decision_type=2 2 2 2
left_child=1 2 -1 -4
right_child=-2 -3 3 -5
leaf_value=-0.0008910276791236053 0.001698426203802228 -0.00096008930316505341 7.4434139244799175e-05 -0.00014986559559647936
leaf_weight=11.999999999999998 11.999999999999998 14.999999999999998 317 126
leaf_count=12 12 15 317 126
internal_value=0 -4.33641e-05 -1.31424e-05 1.06378e-05
internal_weight=0 470 455 443
internal_count=482 470 455 443
is_linear=0
shrinkage=0.1


Tree=57
num_leaves=5
num_cat=0
split_feature=24 8 21 33
split_gain=0.00320074 0.00139503 0.000311551 0.000291284
threshold=37.992927247985513 0.70536080156810066 29.065000000000005 850.81766805834525
decision_type=2 2 2 2
left_child=1 2 -1 -4
right_child=-2 -3 3 -5
leaf_value=0.00048952631865783287 0.0016127250040881337 -0.0011055269458665861 -1.4578640903837703e-05 -0.00056044055148959156
leaf_weight=11.999999999999998 11.999999999999998 11.999999999999998 436 9.9999999999999982
leaf_count=12 12 12 436 10
internal_value=0 -4.1176e-05 -1.3289e-05 -2.68177e-05
internal_weight=0 470 458 446
internal_count=482 470 458 446
is_linear=0
shrinkage=0.1


Tree=58
num_leaves=5
num_cat=0
split_feature=8 24 21 5
split_gain=0.00340047 0.00209254 0.000249629 0.000263177
threshold=0.74291520973425884 37.992927247985513 29.065000000000005 -0.004208851868408899
decision_type=2 2 2 2
left_child=1 2 -1 -4
right_child=-2 -3 3 -5
leaf_value=0.00044057369620228813 0.0017380413285784679 -0.0014717156393453479 -0.00012598727469501764 3.4561026817387656e-05
leaf_weight=11.999999999999998 10.999999999999998 9.9999999999999982 157 292
leaf_count=12 11 10 157 292
internal_value=0 -4.05912e-05 -9.54728e-06 -2.15772e-05
internal_weight=0 471 461 449
internal_count=482 471 461 449
is_linear=0
shrinkage=0.1


Tree=59
num_leaves=6
num_cat=0
split_feature=24 9 6 4 15
split_gain=0.00293805 0.0013413 0.000611254 0.00101871 0.000520465
threshold=37.992927247985513 3.9100236664054235 58.137309495089994 24.998135046885462 0.50588304347635138
decision_type=2 2 2 2 2
left_child=1 2 4 -4 -1
right_child=-2 -3 3 -5 -6
leaf_value=4.1300464400240371e-05 0.0015451281525505087 -0.0010035717173845374 -5.8196964136112842e-05 -0.00074835385102778676 0.00054777465516467198
leaf_weight=261 11.999999999999998 13.999999999999998 148 25 22
leaf_count=261 12 14 148 25 22
internal_value=0 -3.94501e-05 -9.84985e-06 -0.000157931 8.0673e-05
internal_weight=0 470 456 173 283
internal_count=482 470 456 173 283
is_linear=0
shrinkage=0.1


Tree=60
num_leaves=5
num_cat=0
split_feature=8 24 33 20
split_gain=0.00270175 0.00212705 0.000369342 0.000204156
threshold=0.74291520973425884 37.992927247985513 850.81766805834525 37.745000000000005
decision_type=2 2 2 2
left_child=1 2 3 -1
right_child=-2 -3 -4 -5
leaf_value=-1.550193170624799e-06 0.0015492212567055092 -0.001479056924581528 -0.00057738002982329233 0.00043462262573567309
leaf_weight=439 10.999999999999998 9.9999999999999982 10.999999999999998 10.999999999999998
leaf_count=439 11 10 11 11
internal_value=0 -3.61814e-05 -4.88257e-06 9.11181e-06
internal_weight=0 471 461 450
internal_count=482 471 461 450
is_linear=0
shrinkage=0.1


Tree=61
num_leaves=5
num_cat=0
split_feature=33 8 27 8
split_gain=0.00282077 0.00153785 0.000782703 0.000232421
threshold=884.54944890876823 0.70536080156810066 28.016253631542316 0.10719621957015146
decision_type=2 2 2 2
left_child=1 2 -1 -4
right_child=-2 -3 3 -5
leaf_value=-0.00080764651453743379 0.0015139738990304372 -0.0012071243292170535 -1.3973706722708813e-05 0.00022110470974362118
leaf_weight=11.999999999999998 11.999999999999998 10.999999999999998 400 47
leaf_count=12 12 11 400 47
internal_value=0 -3.86547e-05 -1.06521e-05 1.07437e-05
internal_weight=0 470 459 447
internal_count=482 470 459 447
is_linear=0
shrinkage=0.1


Tree=62
num_leaves=5
num_cat=0
split_feature=27 8 33 8
split_gain=0.00266939 0.00145981 0.000545001 0.000217745
threshold=27.23246698113697 0.70536080156810066 850.81766805834525 0.10719621957015146
decision_type=2 2 2 2
left_child=-1 2 3 -2
right_child=1 -3 -4 -5
leaf_value=0.0014727912862629942 -1.6171571918223441e-05 -0.0011263868926713863 -0.00070445790294219152 0.00020926336769662158
leaf_weight=11.999999999999998 399 11.999999999999998 10.999999999999998 48
leaf_count=12 399 12 11 48
internal_value=0 -3.76032e-05 -9.0761e-06 8.03621e-06
internal_weight=0 470 458 447
internal_count=482 470 458 447
is_linear=0
shrinkage=0.1


Tree=63
num_leaves=5
num_cat=0
split_feature=8 27 33 8
split_gain=0.00263829 0.00209133 0.00059955 0.000490065
threshold=0.74291520973425884 27.23246698113697 850.81766805834525 0.43440706682721014
decision_type=2 2 2 2
left_child=1 -1 3 -3
right_child=-2 2 -4 -5
leaf_value=-0.0014664611988700928 0.0015309181839587506 -1.8432708839773404e-06 -0.00070230045433466635 0.00070613147458061572
leaf_weight=9.9999999999999982 10.999999999999998 439 11.999999999999998 9.9999999999999982
leaf_count=10 11 439 12 10
internal_value=0 -3.57539e-05 -4.71906e-06 1.39245e-05
internal_weight=0 471 461 449
internal_count=482 471 461 449
is_linear=0
shrinkage=0.1


Tree=64
num_leaves=5
num_cat=0
split_feature=27 8 33 21
split_gain=0.00248916 0.0014851 0.000348723 0.000173786
threshold=27.23246698113697 0.70536080156810066 850.81766805834525 29.065000000000005
decision_type=2 2 2 2
left_child=-1 2 3 -2
right_child=1 -3 -4 -5
leaf_value=0.0014222018876656271 0.00038156139198690657 -0.0011344833968905733 -0.00056378205137496643 -4.2063347279048914e-06
leaf_weight=11.999999999999998 11.999999999999998 11.999999999999998 10.999999999999998 435
leaf_count=12 12 12 11 435
internal_value=0 -3.63115e-05 -7.53847e-06 6.14985e-06
internal_weight=0 470 458 447
internal_count=482 470 458 447
is_linear=0
shrinkage=0.1


Tree=65
num_leaves=5
num_cat=0
split_feature=33 21 27 15
split_gain=0.002547 0.00106182 0.000821483 0.000467251
threshold=850.81766805834525 27.810000000000006 28.016253631542316 0.51484404221003965
decision_type=2 2 2 2
left_child=1 -1 -3 -4
right_child=-2 2 3 -5
leaf_value=-0.0010605521860998124 0.0012826376284162204 -0.00083534486863451698 4.3575835307264799e-05 -0.00025644332670556952
leaf_weight=9.9999999999999982 14.999999999999998 11.999999999999998 385 60
leaf_count=10 15 12 385 60
internal_value=0 -4.11982e-05 -1.88929e-05 3.12381e-06
internal_weight=0 467 457 445
internal_count=482 467 457 445
is_linear=0
shrinkage=0.1


Tree=66
num_leaves=5
num_cat=0
split_feature=8 33 24 8
split_gain=0.00233935 0.00192615 0.000694882 0.000237344
threshold=0.74291520973425884 884.54944890876823 37.458001062923437 0.11315205782310041
decision_type=2 2 2 2
left_child=1 2 3 -1
right_child=-2 -3 -4 -5
leaf_value=-4.3664268970224158e-06 0.0014415780587693338 -0.0014067137707024814 -0.00069762013819334775 0.0002569033648653299
leaf_weight=409 10.999999999999998 9.9999999999999982 13.999999999999998 38
leaf_count=409 11 10 14 38
internal_value=0 -3.36674e-05 -3.88335e-06 1.78444e-05
internal_weight=0 471 461 447
internal_count=482 471 461 447
is_linear=0
shrinkage=0.1


Tree=67
num_leaves=6
num_cat=0
split_feature=33 20 7 7 9
split_gain=0.00240484 0.00135273 0.000797766 0.00178593 0.000443142
threshold=884.54944890876823 38.225000000000001 0.7918923666019666 0.89941101575694771 3.2192064245158867
decision_type=2 2 2 2 2
left_child=1 2 4 -4 -1
right_child=-2 -3 3 -5 -6
leaf_value=-1.4121669660061569e-05 0.001397905432774375 -0.0011863189027644695 -0.0015800013727130129 0.00026648314722644336 0.00033115721873799907
leaf_weight=398 11.999999999999998 9.9999999999999982 10.000000000000002 10.999999999999998 41
leaf_count=398 12 10 10 11 41
internal_value=0 -3.56912e-05 -1.06776e-05 -0.000612795 1.81253e-05
internal_weight=0 470 460 21 439
internal_count=482 470 460 21 439
is_linear=0
shrinkage=0.1


Tree=68
num_leaves=5
num_cat=0
split_feature=27 8 33 21
split_gain=0.00214027 0.00140535 0.000445691 0.000269486
threshold=27.23246698113697 0.70536080156810066 850.81766805834525 29.065000000000005
decision_type=2 2 2 2
left_child=-1 2 3 -2
right_child=1 -3 -4 -5
leaf_value=0.001318769629385012 0.00047727978380862623 -0.0011019519418672039 -0.00063452279533852236 -3.1021131881505888e-06
leaf_weight=11.999999999999998 11.999999999999998 11.999999999999998 10.999999999999998 435
leaf_count=12 12 12 11 435
internal_value=0 -3.36707e-05 -5.68081e-06 9.79405e-06
internal_weight=0 470 458 447
internal_count=482 470 458 447
is_linear=0
shrinkage=0.1


Tree=69
num_leaves=5
num_cat=0
split_feature=8 27 33 21
split_gain=0.00212376 0.00208551 0.00036101 0.000218284
threshold=0.70536080156810066 27.23246698113697 850.81766805834525 29.065000000000005
decision_type=2 2 2 2
left_child=1 -1 3 -3
right_child=-2 2 -4 -5
leaf_value=-0.0014649242185987533 0.001213633958416592 0.00042955179087584839 -0.00057107051834464078 -2.7919024672172229e-06
leaf_weight=9.9999999999999982 13.999999999999998 11.999999999999998 10.999999999999998 435
leaf_count=10 14 12 11 435
internal_value=0 -3.63053e-05 -5.11273e-06 8.81464e-06
internal_weight=0 468 458 447
internal_count=482 468 458 447
is_linear=0
shrinkage=0.1


Tree=70
num_leaves=5
num_cat=0
split_feature=24 8 20 5
split_gain=0.00216853 0.0014343 0.000190377 0.000253661
threshold=37.992927247985513 0.70536080156810066 37.745000000000005 -0.0026989611279279496
decision_type=2 2 2 2
left_child=1 2 3 -1
right_child=-2 -3 -4 -5
leaf_value=-9.7208818989616991e-05 0.0013274477193287264 -0.0011131200907887736 0.00040537509511605926 5.3916847014551125e-05
leaf_weight=206 11.999999999999998 11.999999999999998 10.999999999999998 241
leaf_count=206 12 12 11 241
internal_value=0 -3.38923e-05 -5.61557e-06 -1.57294e-05
internal_weight=0 470 458 447
internal_count=482 470 458 447
is_linear=0
shrinkage=0.1


Tree=71
num_leaves=5
num_cat=0
split_feature=33 20 24 32
split_gain=0.00203973 0.00130432 0.000642307 0.000561329
threshold=850.81766805834525 38.225000000000001 37.458001062923437 330.83511710310933
decision_type=2 2 2 2
left_child=1 2 3 -1
right_child=-2 -3 -4 -5
leaf_value=-2.0863543155551511e-05 0.0011478258715942502 -0.0011666439683176578 -0.00067903167551516428 0.00043424145160002054
leaf_weight=414 14.999999999999998 9.9999999999999982 13.999999999999998 29
leaf_count=414 15 10 14 29
internal_value=0 -3.68681e-05 -1.21465e-05 8.92888e-06
internal_weight=0 467 457 443
internal_count=482 467 457 443
is_linear=0
shrinkage=0.1


Tree=72
num_leaves=5
num_cat=0
split_feature=27 20 33 5
split_gain=0.00184425 0.00106036 0.000589401 0.000436632
threshold=27.23246698113697 38.225000000000001 850.81766805834525 -0.011892749917579997
decision_type=2 2 2 2
left_child=-1 2 3 -2
right_child=1 -3 -4 -5
leaf_value=0.0012241779225102315 0.00023690543283419815 -0.0010499794455245137 -0.00070074131169045974 -3.3426344353498449e-05
leaf_weight=11.999999999999998 71 9.9999999999999982 11.999999999999998 377
leaf_count=12 71 10 12 377
internal_value=0 -3.12556e-05 -9.10944e-06 9.41641e-06
internal_weight=0 470 460 448
internal_count=482 470 460 448
is_linear=0
shrinkage=0.1


Tree=73
num_leaves=5
num_cat=0
split_feature=8 27 20 5
split_gain=0.0018601 0.00210373 0.000340732 0.000230667
threshold=0.70536080156810066 27.23246698113697 37.745000000000005 -0.0026989611279279496
decision_type=2 2 2 2
left_child=1 -1 3 -3
right_child=-2 2 -4 -5
leaf_value=-0.0014688214648049325 0.0011358038081587959 -9.3877892167371307e-05 0.00054718478634392588 5.0235581222061903e-05
leaf_weight=9.9999999999999982 13.999999999999998 206 10.999999999999998 241
leaf_count=10 14 206 11 241
internal_value=0 -3.3977e-05 -2.64855e-06 -1.61791e-05
internal_weight=0 468 458 447
internal_count=482 468 458 447
is_linear=0
shrinkage=0.1


Tree=74
num_leaves=5
num_cat=0
split_feature=33 8 24 20
split_gain=0.00172544 0.00124044 0.000506155 0.000262418
threshold=850.81766805834525 0.70536080156810066 37.458001062923437 37.745000000000005
decision_type=2 2 2 2
left_child=1 2 3 -1
right_child=-2 -3 -4 -5
leaf_value=-2.1550134853449091e-06 0.001055697308620438 -0.0010832478702385824 -0.00060057494976847794 0.00049246630276849669
leaf_weight=431 14.999999999999998 10.999999999999998 13.999999999999998 10.999999999999998
leaf_count=431 15 11 14 11
internal_value=0 -3.39089e-05 -8.5959e-06 1.01546e-05
internal_weight=0 467 456 442
internal_count=482 467 456 442
is_linear=0
shrinkage=0.1


Tree=75
num_leaves=5
num_cat=0
split_feature=27 20 33 15
split_gain=0.00179857 0.00103858 0.000659762 0.000417419
threshold=27.23246698113697 38.225000000000001 850.81766805834525 0.51484404221003965
decision_type=2 2 2 2
left_child=-1 2 3 -2
right_child=1 -3 -4 -5
leaf_value=0.0012089220637183948 4.8610286090788765e-05 -0.0010390758002176881 -0.00074069931482275331 -0.00023481180339937665
leaf_weight=11.999999999999998 388 9.9999999999999982 11.999999999999998 60
leaf_count=12 388 10 12 60
internal_value=0 -3.08661e-05 -8.9485e-06 1.0652e-05
internal_weight=0 470 460 448
internal_count=482 470 460 448
is_linear=0
shrinkage=0.1


Tree=76
num_leaves=8
num_cat=0
split_feature=22 8 8 27 20 4 33
split_gain=0.00174005 0.00896914 0.00189733 0.00199472 0.000327064 0.000129441 5.38997e-05
threshold=217.79000000000005 0.21744659695476928 0.70536080156810066 28.734581582666273 37.050000000000004 24.443573441369992 517.71812599790019
decision_type=2 2 2 2 2 2 2
left_child=2 5 3 -1 -5 -2 -7
right_child=1 -3 -4 4 -6 6 -8
leaf_value=-0.0013161846340760046 0.00035063924547102944 0.003229372347705066 -0.0013782209356908094 -2.4849499757234851e-05 0.00046759840167526689 5.4294913346158408e-06 -0.00025024150651006496
leaf_weight=11.999999999999998 9.9999999999999982 9.9999999999999982 10.999999999999998 368 13.999999999999998 47 9.9999999999999982
leaf_count=12 10 10 11 368 14 47 10
internal_value=0 0.000435752 -8.28466e-05 -4.66814e-05 -6.80167e-06 1.87935e-05 -3.94251e-05
internal_weight=0 77 405 394 382 67 57
internal_count=482 77 405 394 382 67 57
is_linear=0
shrinkage=0.1


Tree=77
num_leaves=5
num_cat=0
split_feature=8 24 20 5
split_gain=0.00182778 0.00163837 0.000266894 0.000218864
threshold=0.70536080156810066 37.992927247985513 37.745000000000005 -0.0026989611279279496
decision_type=2 2 2 2
left_child=1 2 3 -1
right_child=-2 -3 -4 -5
leaf_value=-9.369321619532042e-05 0.0011258940615724506 -0.0012999205430969597 0.00048059130045162012 4.6684593021231217e-05
leaf_weight=206 13.999999999999998 9.9999999999999982 10.999999999999998 241
leaf_count=206 14 10 11 241
internal_value=0 -3.36806e-05 -6.03343e-06 -1.80085e-05
internal_weight=0 468 458 447
internal_count=482 468 458 447
is_linear=0
shrinkage=0.1


Tree=78
num_leaves=6
num_cat=0
split_feature=24 9 15 8 4
split_gain=0.00195368 0.00130659 0.000420154 0.00272812 0.00234894
threshold=37.992927247985513 3.9100236664054235 0.51484404221003965 0.43440706682721014 24.997948481002769
decision_type=2 2 2 2 2
left_child=1 2 3 -1 -4
right_child=-2 -3 4 -5 -6
leaf_value=-1.0701959407826282e-05 0.0012599728341835242 -0.00098373745817558053 3.9189774775258368e-05 0.0015863032313063741 -0.0016486245096893983
leaf_weight=388 11.999999999999998 13.999999999999998 47 10.999999999999998 9.9999999999999982
leaf_count=388 12 14 47 11 10
internal_value=0 -3.21695e-05 -2.95472e-06 3.33258e-05 -0.000256918
internal_weight=0 470 456 399 57
internal_count=482 470 456 399 57
is_linear=0
shrinkage=0.1


Tree=79
num_leaves=5
num_cat=0
split_feature=24 8 21 5
split_gain=0.00158248 0.00140564 0.000242884 0.000200458
threshold=37.992927247985513 0.70536080156810066 29.065000000000005 -0.0026989611279279496
decision_type=2 2 2 2
left_child=1 2 -1 -4
right_child=-2 -3 3 -5
leaf_value=0.00044300017422453197 0.0011339754331856967 -0.0010973445062215129 -8.5595056327109694e-05 4.8927018913284534e-05
leaf_weight=11.999999999999998 11.999999999999998 11.999999999999998 205 241
leaf_count=12 12 12 205 241
internal_value=0 -2.89526e-05 -9.59766e-07 -1.29049e-05
internal_weight=0 470 458 446
internal_count=482 470 458 446
is_linear=0
shrinkage=0.1


end of trees

feature_importances:
DHW_Heating_(kWh)=187
6h_Direct_Solar_Radiation_(W/m2)=31
6h_Outdoor_Relative_Humidity_(%)=28
Equipment_Electric_Power_(kWh)=27
6h_Outdoor_Drybulb_Temperature_(C)=26
Outdoor_Drybulb_Temperature_(C)=17
Average_Unmet_Cooling_Setpoint_Difference_(C)=16
Indoor_Temperature_(C)=15
Cooling_Load_(kWh)=14
Outdoor_Relative_Humidity_(%)=14
Direct_Solar_Radiation_(W/m2)=10
24h_Diffuse_Solar_Radiation_(W/m2)=10
kg_CO2/kWh=8
Hour=6
Indoor_Relative_Humidity_(%)=6
24h_Outdoor_Relative_Humidity_(%)=4
Solar_Generation_(W/kW)=3
Diffuse_Solar_Radiation_(W/m2)=3
12h_Outdoor_Relative_Humidity_(%)=3
6h_Diffuse_Solar_Radiation_(W/m2)=2
Day_Type=1
12h_Outdoor_Drybulb_Temperature_(C)=1

parameters:
[boosting: gbdt]
[objective: regression]
[metric: l2]
[tree_learner: serial]
[device_type: cpu]
[data: ]
[valid: ]
[num_iterations: 80]
[learning_rate: 0.1]
[num_leaves: 16]
[num_threads: 1]
[deterministic: 0]
[force_col_wise: 0]
[force_row_wise: 0]
[histogram_pool_size: -1]
[max_depth: 4]
[min_data_in_leaf: 10]
[min_sum_hessian_in_leaf: 0.001]
[bagging_fraction: 0.9]
[pos_bagging_fraction: 1]
[neg_bagging_fraction: 1]
[bagging_freq: 0]
[bagging_seed: 3]
[feature_fraction: 0.9]
[feature_fraction_bynode: 1]
[feature_fraction_seed: 2]
[extra_trees: 0]
[extra_seed: 6]
[early_stopping_round: 0]
[first_metric_only: 0]
[max_delta_step: 0]
[lambda_l1: 0]
[lambda_l2: 0]
[linear_lambda: 0]
[min_gain_to_split: 0]
[drop_rate: 0.1]
[max_drop: 50]
[skip_drop: 0.5]
[xgboost_dart_mode: 0]
[uniform_drop: 0]
[drop_seed: 4]
[top_rate: 0.2]
[other_rate: 0.1]
[min_data_per_group: 100]
[max_cat_threshold: 32]
[cat_l2: 10]
[cat_smooth: 10]
[max_cat_to_onehot: 4]
[top_k: 20]
[monotone_constraints: ]
[monotone_constraints_method: basic]
[monotone_penalty: 0]
[feature_contri: ]
[forcedsplits_filename: ]
[refit_decay_rate: 0.9]
[cegb_tradeoff: 1]
[cegb_penalty_split: 0]
[cegb_penalty_feature_lazy: ]
[cegb_penalty_feature_coupled: ]
[path_smooth: 0]
[interaction_constraints: ]
[verbosity: -1]
[saved_feature_importance_type: 0]
[linear_tree: 0]
[max_bin: 255]
[max_bin_by_feature: ]
[min_data_in_bin: 3]
[bin_construct_sample_cnt: 200000]
[data_random_seed: 1]
[is_enable_sparse: 1]
[enable_bundle: 1]
[use_missing: 1]
[zero_as_missing: 0]
[feature_pre_filter: 1]
[pre_partition: 0]
[two_round: 0]
[header: 0]
[label_column: ]
[weight_column: ]
[group_column: ]
[ignore_column: ]
[categorical_feature: ]
[forcedbins_filename: ]
[precise_float_parser: 0]
[parser_config_file: ]
[objective_seed: 5]
[num_class: 1]
[is_unbalance: 0]
[scale_pos_weight: 1]
[sigmoid: 1]
[boost_from_average: 1]
[reg_sqrt: 0]
[alpha: 0.9]
[fair_c: 1]
[poisson_max_delta_step: 0.7]
[tweedie_variance_power: 1.5]
[lambdarank_truncation_level: 30]
[lambdarank_norm: 1]
[label_gain: ]
[lambdarank_position_bias_regularization: 0]
[eval_at: ]
[multi_error_top_k: 1]
[auc_mu_weights: ]
[num_machines: 1]
[local_listen_port: 12400]
[time_out: 120]
[machine_list_filename: ]
[machines: ]
[gpu_platform_id: -1]
[gpu_device_id: -1]
[gpu_use_dp: 0]
[num_gpu: 1]

end of parameters

pandas_categorical:[]
