tree
version=v4
num_class=1
num_tree_per_iteration=1
label_index=0
max_feature_idx=35
objective=regression
feature_names=Month Hour Day_Type Daylight_Savings_Status Indoor_Temperature_(C) Average_Unmet_Cooling_Setpoint_Difference_(C) Indoor_Relative_Humidity_(%) Equipment_Electric_Power_(kWh) DHW_Heating_(kWh) Cooling_Load_(kWh) Heating_Load_(kWh) Solar_Generation_(W/kW) Occupant_Count_(people) Temperature_Set_Point_(C) HVAC_Mode_(Off/Cooling/Heating) kg_CO2/kWh Electricity_Pricing__$/kWh_ 6h_Prediction_Electricity_Pricing__$/kWh_ 12h_Prediction_Electricity_Pricing__$/kWh_ 24h_Prediction_Electricity_Pricing__$/kWh_ Outdoor_Drybulb_Temperature_(C) Outdoor_Relative_Humidity_(%) Diffuse_Solar_Radiation_(W/m2) Direct_Solar_Radiation_(W/m2) 6h_Outdoor_Drybulb_Temperature_(C) 12h_Outdoor_Drybulb_Temperature_(C) 24h_Outdoor_Drybulb_Temperature_(C) 6h_Outdoor_Relative_Humidity_(%) 12h_Outdoor_Relative_Humidity_(%) 24h_Outdoor_Relative_Humidity_(%) 6h_Diffuse_Solar_Radiation_(W/m2) 12h_Diffuse_Solar_Radiation_(W/m2) 24h_Diffuse_Solar_Radiation_(W/m2) 6h_Direct_Solar_Radiation_(W/m2) 12h_Direct_Solar_Radiation_(W/m2) 24h_Direct_Solar_Radiation_(W/m2)
feature_infos=none [1:24] [1:7] none [19.999913713398435:27.222233402985371] [-0.2386741579688198:0.35350276263234898] [46.463528256975707:67.854748901629137] [0.33485604895556981:7.4589685167779072] [0:4.565351196299142] [0:10.608548931041424] none [0:687.15852178569139] [0:3] [20:27.222222222222225] none [0.33751525247131398:0.54505021691256927] [0.028930000000000001:0.05867] [0.028930000000000001:0.05867] [0.028930000000000001:0.05867] [0.028930000000000001:0.05867] [21.379999999999999:40.32] [24.120000000000001:98.25] [0:408.69999999999999] [0:886.92999999999995] [21.385895012807637:40.448030901483051] [20.812239003382171:41.761423383460262] [20.947013524362529:40.33298102857114] [19.430299457014652:100] [18.750454935186248:100] [16.665542474905589:100] [0:448.59393372529718] [0:524.90876332100106] [0:486.88891634473225] [0:998.78608636720685] [0:1096.818864330259] [0:1148.8024499653848]
tree_sizes=868 875 772 892 777 877 891 795 795 793 801 801 789 808 784 885 782 807 889 890 702 926 700 702 811 887 912 820 801 817 820 802 725 706 722 722 723 823 724 714 821 740 741 725 895 726 720 621 837 625 626 726 835 736 620 641 637 622 639 637 705 918 625 974 620 637 916 625 796 624 624 839 636 636 616 637 636 1021 723 941

Tree=0
num_leaves=8
num_cat=0
split_feature=7 7 7 7 7 7 7
split_gain=229.742 30.0755 3.17162 0.699869 0.442805 0.307485 0.083941
threshold=2.025773392628142 0.9706086681480498 0.49508331539275779 0.63933930585058441 0.38783604733752902 1.4833363860865016 1.4205524262232798
decision_type=2 2 2 2 2 2 2
left_child=1 2 4 -4 -1 6 -3
right_child=-2 5 3 -5 -6 -7 -8
leaf_value=0.58831302906058958 1.0464946975186984 0.68473236460243847 0.60924795222813155 0.63502786999573502 0.59553182085956036 0.71151946960643131 0.69713768182948421
leaf_weight=167 11.999999999999998 12.000000000000002 86 11.999999999999998 173 9.9999999999999982 9.9999999999999982
leaf_count=167 12 12 86 12 173 10 10
internal_value=0.614424 0.603392 0.596555 0.612405 0.591986 0.69698 0.690371
internal_weight=0 470 438 98 340 32 22
internal_count=482 470 438 98 340 32 22
is_linear=0
shrinkage=1


Tree=1
num_leaves=8
num_cat=0
split_feature=7 7 7 7 7 7 7
split_gain=186.091 24.3993 2.26989 0.60968 0.362113 0.315429 0.0983654
threshold=2.025773392628142 0.86571867074525899 0.47240336348574274 1.4090136251712961 0.58227284782595479 0.38783604733752902 1.4833363860865016
decision_type=2 2 2 2 2 2 2
left_child=1 2 5 -3 -4 -1 -5
right_child=-2 3 4 6 -6 -7 -8
leaf_value=-0.02349962660830892 0.38886388738950095 0.052124286442995077 -0.0082644986727881051 0.074194088807472788 0.0038102105782344578 -0.017325368396392683 0.087386171817779551
leaf_weight=167 11.999999999999998 11.999999999999998 63 13.000000000000002 41 164 9.9999999999999982
leaf_count=167 12 12 63 13 41 164 10
internal_value=0 -0.00992844 -0.0163914 0.0703965 -0.00350428 -0.0204405 0.0799298
internal_weight=0 470 435 35 104 331 23
internal_count=482 470 435 35 104 331 23
is_linear=0
shrinkage=0.1


Tree=2
num_leaves=7
num_cat=0
split_feature=7 7 7 7 7 7
split_gain=150.734 19.8468 2.08717 0.430172 0.374629 0.197439
threshold=2.025773392628142 0.9706086681480498 0.50340072857991325 0.63933930585058441 0.41836724045114232 1.4574206296343737
decision_type=2 2 2 2 2 2
left_child=1 2 4 -4 -1 -3
right_child=-2 5 3 -5 -6 -7
leaf_value=-0.019888163259787154 0.34997749328613281 0.060592349265751091 -0.0034371339827775956 0.016954857126499214 -0.012485240479951264 0.076585822380506083
leaf_weight=258 11.999999999999998 19 75 11.999999999999998 93 12.999999999999998
leaf_count=258 12 19 75 12 93 13
internal_value=0 -0.0089356 -0.01449 -0.000624446 -0.0179267 0.0670897
internal_weight=0 470 438 87 351 32
internal_count=482 470 438 87 351 32
is_linear=0
shrinkage=0.1


Tree=3
num_leaves=8
num_cat=0
split_feature=7 7 7 7 7 7 5
split_gain=122.094 16.0759 1.69398 0.346243 0.320193 0.163687 0.0482648
threshold=2.025773392628142 0.9706086681480498 0.52268953248044159 0.41190673974746544 0.63933930585058441 1.4833363860865016 5.0269606681752074e-06
decision_type=2 2 2 2 2 2 2
left_child=1 2 3 -1 -4 6 -3
right_child=-2 5 4 -5 -6 -7 -8
leaf_value=-0.017941581875670191 0.31497974395751954 0.059834559261798842 -0.0024780829478778057 -0.011095363302872731 0.015259371565965317 0.070988975167274468 0.050427885949611666
leaf_weight=255 11.999999999999998 12.000000000000002 67 104 11.999999999999998 9.9999999999999982 9.9999999999999982
leaf_count=255 12 12 67 104 12 10 10
internal_value=0 -0.00804204 -0.013041 -0.0159583 0.000216214 0.0603807 0.0555588
internal_weight=0 470 438 359 79 32 22
internal_count=482 470 438 359 79 32 22
is_linear=0
shrinkage=0.1


Tree=4
num_leaves=7
num_cat=0
split_feature=7 7 7 7 7 7
split_gain=98.8964 13.0215 1.3849 0.328092 0.202059 0.133736
threshold=2.025773392628142 0.9706086681480498 0.47240336348574274 0.63933930585058441 0.37838280369375238 1.4574206296343737
decision_type=2 2 2 2 2 2
left_child=1 2 4 -4 -1 -3
right_child=-2 5 3 -5 -6 -7
leaf_value=-0.017472765358708661 0.28348175675297776 0.048995237915139454 -0.0038149591398082281 0.013733434537425638 -0.012529477415715948 0.062158112342541039
leaf_weight=161 11.999999999999998 19 95 11.999999999999998 170 12.999999999999998
leaf_count=161 12 19 95 12 170 13
internal_value=0 -0.00723783 -0.0117369 -0.00184691 -0.0149339 0.0543427
internal_weight=0 470 438 107 331 32
internal_count=482 470 438 107 331 32
is_linear=0
shrinkage=0.1


Tree=5
num_leaves=8
num_cat=0
split_feature=7 7 7 7 7 7 7
split_gain=80.1061 10.5641 0.997152 0.299805 0.213634 0.150709 0.0382392
threshold=2.025773392628142 0.86571867074525899 0.45862207618542844 1.4090136251712961 0.58227284782595479 0.37838280369375238 1.4833363860865016
decision_type=2 2 2 2 2 2 2
left_child=1 2 5 -3 -4 -1 -5
right_child=-2 3 4 6 -6 -7 -8
leaf_value=-0.015725487979672711 0.25513358668734631 0.03352683944006761 -0.0059341122544762023 0.049449060971920297 0.0031800107167261403 -0.011418467383013994 0.057674263715744023
leaf_weight=161 11.999999999999998 11.999999999999998 69 13.000000000000002 41 164 9.9999999999999982
leaf_count=161 12 12 69 13 41 164 10
internal_value=0 -0.00651405 -0.0107667 0.0463401 -0.00253703 -0.0135521 0.0530252
internal_weight=0 470 435 35 110 325 23
internal_count=482 470 435 35 110 325 23
is_linear=0
shrinkage=0.1


Tree=6
num_leaves=8
num_cat=0
split_feature=7 7 7 7 7 7 7
split_gain=64.886 8.59028 0.933143 0.235114 0.146693 0.0883866 0.027109
threshold=2.025773392628142 0.9706086681480498 0.53620341860955145 0.42753892853054781 0.63933930585058441 1.4205524262232798 1.4833363860865016
decision_type=2 2 2 2 2 2 2
left_child=1 2 3 -1 -4 -3 -7
right_child=-2 5 4 -5 -6 6 -8
leaf_value=-0.013082351777351129 0.22962022610008717 0.037369372571508096 -0.00090016992097454417 -0.0074909282227357231 0.011283419126023849 0.044543544650077808 0.051906838715076446
leaf_weight=265 11.999999999999998 11.999999999999998 56 105 11.999999999999998 10.000000000000002 9.9999999999999982
leaf_count=265 12 12 56 105 12 10 10
internal_value=0 -0.00586264 -0.00951685 -0.0114956 0.00124988 0.0441543 0.0482252
internal_weight=0 470 438 370 68 32 20
internal_count=482 470 438 370 68 32 20
is_linear=0
shrinkage=0.1


Tree=7
num_leaves=7
num_cat=0
split_feature=7 7 7 7 7 7
split_gain=52.5576 7.01462 0.862136 0.190442 0.179786 0.0289127
threshold=2.025773392628142 1.3441443105976141 0.53620341860955145 0.42753892853054781 0.79091310600533793 1.4833363860865016
decision_type=2 2 2 2 2 2
left_child=1 2 3 -1 -4 -3
right_child=-2 5 4 -5 -6 -7
leaf_value=-0.011774116538043292 0.20665820588668191 0.040073115888394802 -0.00058512554456621919 -0.0067418351911363158 0.012842223498349389 0.046716154813766481
leaf_weight=265 11.999999999999998 19.000000000000004 59 105 11.999999999999998 9.9999999999999982
leaf_count=265 12 19 59 105 12 10
internal_value=0 -0.00527638 -0.00840918 -0.010346 0.00168429 0.0423638
internal_weight=0 470 441 370 71 29
internal_count=482 470 441 370 71 29
is_linear=0
shrinkage=0.1


Tree=8
num_leaves=7
num_cat=0
split_feature=7 7 7 7 7 7
split_gain=42.5717 5.68185 0.711488 0.199696 0.105796 0.0234193
threshold=2.025773392628142 1.3441443105976141 0.55944214711449336 0.43792942352421943 0.79091310600533793 1.4833363860865016
decision_type=2 2 2 2 2 2
left_child=1 2 3 -1 -4 -3
right_child=-2 5 4 -5 -6 -7
leaf_value=-0.010570857559900676 0.18599238606790702 0.036065804958343502 0.00088244655691995856 -0.0056624225868533058 0.01155800133322676 0.042044539749622349
leaf_weight=268 11.999999999999998 19.000000000000004 41 120 11.999999999999998 9.9999999999999982
leaf_count=268 12 19 41 120 12 10
internal_value=0 -0.00474874 -0.00756826 -0.00905278 0.00329955 0.0381274
internal_weight=0 470 441 388 53 29
internal_count=482 470 441 388 53 29
is_linear=0
shrinkage=0.1


Tree=9
num_leaves=7
num_cat=0
split_feature=7 7 7 7 7 7
split_gain=34.4831 4.60229 0.576305 0.167456 0.0856949 0.0189696
threshold=2.025773392628142 1.3441443105976141 0.55944214711449336 0.38783604733752902 0.79091310600533793 1.4833363860865016
decision_type=2 2 2 2 2 2
left_child=1 2 3 -1 -4 -3
right_child=-2 5 4 -5 -6 -7
leaf_value=-0.010537366283510975 0.1673931458964944 0.032459224054687895 0.00079420189850214055 -0.0063415946565332469 0.0104022009880282 0.037840085029602052
leaf_weight=167 11.999999999999998 19.000000000000004 41 221 11.999999999999998 9.9999999999999982
leaf_count=167 12 19 41 221 12 10
internal_value=0 -0.00427387 -0.00681144 -0.00814751 0.0029696 0.0343147
internal_weight=0 470 441 388 53 29
internal_count=482 470 441 388 53 29
is_linear=0
shrinkage=0.1


Tree=10
num_leaves=7
num_cat=0
split_feature=7 7 7 7 7 11
split_gain=27.9313 3.72786 0.478433 0.111846 0.0935971 0.0180114
threshold=2.025773392628142 1.3441443105976141 0.50340072857991325 0.79091310600533793 0.36207895403215967 407.83390734311348
decision_type=2 2 2 2 2 2
left_child=1 2 4 -4 -1 -3
right_child=-2 5 3 -5 -6 -7
leaf_value=-0.0096450817468878517 0.1506538361310959 0.029075225325007184 -0.0010083595481820598 0.0093619810014691513 -0.0063543583365715103 0.034318420588970187
leaf_weight=154 11.999999999999998 19.000000000000004 78 11.999999999999998 197 9.9999999999999982
leaf_count=154 12 19 78 12 197 10
internal_value=0 -0.00384648 -0.00613029 0.000374353 -0.00779815 0.0308832
internal_weight=0 470 441 90 351 29
internal_count=482 470 441 90 351 29
is_linear=0
shrinkage=0.1


Tree=11
num_leaves=7
num_cat=0
split_feature=7 7 7 7 7 15
split_gain=22.6243 3.01957 0.391391 0.10728 0.0632621 0.0156056
threshold=2.025773392628142 1.3441443105976141 0.54683880438438137 0.40681873989128553 0.79091310600533793 0.47674831523034261
decision_type=2 2 2 2 2 2
left_child=1 2 3 -1 -4 -3
right_child=-2 5 4 -5 -6 -7
leaf_value=-0.0079366887859519449 0.13558845221996307 0.025393732211419509 0.00032460536731749169 -0.0044078017909531348 0.0084257828537374745 0.030035992364088694
leaf_weight=248 11.999999999999998 14.000000000000002 49 132 11.999999999999998 14.999999999999998
leaf_count=248 12 14 49 132 12 15
internal_value=0 -0.00346183 -0.00551726 -0.00671086 0.00191828 0.0277949
internal_weight=0 470 441 380 61 29
internal_count=482 470 441 380 61 29
is_linear=0
shrinkage=0.1


Tree=12
num_leaves=7
num_cat=0
split_feature=7 7 7 7 7 7
split_gain=18.3257 2.44585 0.324121 0.0999009 0.0495953 0.0152213
threshold=2.025773392628142 1.3441443105976141 0.45862207618542844 0.61742250434855817 0.36207895403215967 1.4833363860865016
decision_type=2 2 2 2 2 2
left_child=1 2 4 -4 -1 -3
right_child=-2 5 3 -5 -6 -7
leaf_value=-0.0078869049134966621 0.12202960948149365 0.023353338868994461 -0.0021999818765941789 0.0044316961880653139 -0.0054128825904158828 0.028173349350690841
leaf_weight=154 11.999999999999998 19.000000000000004 85 31 171 9.9999999999999982
leaf_count=154 12 19 85 31 171 10
internal_value=0 -0.00311565 -0.00496554 -0.000427723 -0.00658519 0.0250154
internal_weight=0 470 441 116 325 29
internal_count=482 470 441 116 325 29
is_linear=0
shrinkage=0.1


Tree=13
num_leaves=7
num_cat=0
split_feature=9 11 22 1 5 19
split_gain=4.13146 0.645429 1.59901 0.426991 0.811649 0.650889
threshold=6.6489014733917653 643.06683058051306 122.96500000000002 16.500000000000004 -0.00040750775350234997 0.043910000000000005
decision_type=2 2 2 2 2 2
left_child=1 3 -3 5 -5 -1
right_child=-2 2 -4 4 -6 -7
leaf_value=-0.0036969312947047386 0.051658389059205848 -0.010836608030579304 0.044414308443665507 0.018746304861269891 -0.0013315218344330788 -0.027471828895310565
leaf_weight=285 14.999999999999998 11.000000000000002 9.9999999999999982 24 125 11.999999999999998
leaf_count=285 15 11 10 24 125 12
internal_value=0 -0.00165926 0.0154734 -0.00246596 0.00190249 -0.00465753
internal_weight=0 467 21 446 149 297
internal_count=482 467 21 446 149 297
is_linear=0
shrinkage=0.1


Tree=14
num_leaves=7
num_cat=0
split_feature=7 7 7 7 7 25
split_gain=14.3787 1.86502 0.233567 0.0695824 0.0328377 0.0177164
threshold=2.025773392628142 1.3441443105976141 0.58227284782595479 0.44428913086081206 0.79091310600533793 25.307761805546331
decision_type=2 2 2 2 2 2
left_child=1 2 3 -1 -4 -3
right_child=-2 5 4 -5 -6 -7
leaf_value=-0.0060389645249191402 0.10809229090809823 0.018863104780515033 0.00074034555948206365 -0.0031376000959426166 0.0068022716014335561 0.023881583441706267
leaf_weight=276 11.999999999999998 12.000000000000002 35 118 11.999999999999998 17
leaf_count=276 12 12 35 118 12 17
internal_value=0 -0.0027598 -0.00437517 -0.00517003 0.00228807 0.021805
internal_weight=0 470 441 394 47 29
internal_count=482 470 441 394 47 29
is_linear=0
shrinkage=0.1


Tree=15
num_leaves=8
num_cat=0
split_feature=7 7 7 27 7 7 7
split_gain=11.6468 1.51353 0.142251 0.0432089 0.0423485 0.0264372 0.0134626
threshold=2.025773392628142 0.86571867074525899 0.45040173027019842 48.888328885380503 0.60266104855051561 0.37838280369375238 1.4285659468805383
decision_type=2 2 2 2 2 2 2
left_child=1 2 5 -3 -4 -1 -5
right_child=-2 3 4 6 -6 -7 -8
leaf_value=-0.006139970013166067 0.097283061345418309 0.021825297496148519 -0.0023592944962884041 0.011997654736042019 0.0018046047637295542 -0.0042851086642567799 0.017067309536717156
leaf_weight=161 11.999999999999998 13.999999999999998 94 10.000000000000002 33 147 10.999999999999998
leaf_count=161 12 14 94 10 33 147 11
internal_value=0 -0.00248382 -0.00409349 0.017522 -0.00127734 -0.0052547 0.0146532
internal_weight=0 470 435 35 127 308 21
internal_count=482 470 435 35 127 308 21
is_linear=0
shrinkage=0.1


Tree=16
num_leaves=7
num_cat=0
split_feature=7 7 7 7 7 25
split_gain=9.43387 1.23547 0.151687 0.048894 0.021028 0.013464
threshold=2.025773392628142 1.3441443105976141 0.58227284782595479 0.39998345821811748 0.79091310600533793 25.307761805546331
decision_type=2 2 2 2 2 2
left_child=1 2 3 -1 -4 -3
right_child=-2 5 4 -5 -6 -7
leaf_value=-0.0053333819232648239 0.087554761519034713 0.015193360671401019 0.00058102536015212534 -0.0031046932469102517 0.0054319314503421395 0.019568288501571208
leaf_weight=192 11.999999999999998 12.000000000000002 35 202 11.999999999999998 17
leaf_count=192 12 12 35 202 12 17
internal_value=0 -0.00223544 -0.0035502 -0.00419075 0.00181955 0.017758
internal_weight=0 470 441 394 47 29
internal_count=482 470 441 394 47 29
is_linear=0
shrinkage=0.1


Tree=17
num_leaves=7
num_cat=0
split_feature=7 7 7 7 7 22
split_gain=7.64143 1.00073 0.123857 0.0367275 0.0231445 0.0122944
threshold=2.025773392628142 1.3441443105976141 0.48545488891626282 0.63933930585058441 0.37838280369375238 156.78000000000003
decision_type=2 2 2 2 2 2
left_child=1 2 4 -4 -1 -3
right_child=-2 5 3 -5 -6 -7
leaf_value=-0.0049926346457152635 0.078799278785785049 0.014372586376137201 -0.00094991528214572862 0.0043990761165817582 -0.0033335452367530462 0.018616051091389221
leaf_weight=161 11.999999999999998 18.000000000000004 89 14.999999999999998 176 10.999999999999998
leaf_count=161 12 18 89 15 176 11
internal_value=0 -0.0020119 -0.00319518 -0.000178426 -0.00412617 0.0159822
internal_weight=0 470 441 104 337 29
internal_count=482 470 441 104 337 29
is_linear=0
shrinkage=0.1


Tree=18
num_leaves=8
num_cat=0
split_feature=7 7 7 7 7 28 7
split_gain=6.18956 0.812454 0.0718946 0.0449422 0.0194556 0.0126918 0.0105424
threshold=2.025773392628142 0.81072200538797934 0.44646301831439167 1.3667937842849642 0.60266104855051561 70.209371279307973 0.37838280369375238
decision_type=2 2 2 2 2 2 2
left_child=1 2 6 -3 -4 -5 -1
right_child=-2 3 4 5 -6 -7 -8
leaf_value=-0.004493371224875406 0.070919352273146316 0.007145657390356064 -0.0018156862750306334 0.01733881257474422 0.001046448132644097 0.012797436024993659 -0.0032748004018263084
leaf_weight=161 11.999999999999998 11.999999999999998 114 10.000000000000002 30 15.999999999999998 127
leaf_count=161 12 12 114 10 30 16 127
internal_value=0 -0.00181071 -0.00304381 0.0122078 -0.00121941 0.0145441 -0.00395602
internal_weight=0 470 432 38 144 26 288
internal_count=482 470 432 38 144 26 288
is_linear=0
shrinkage=0.1


Tree=19
num_leaves=8
num_cat=0
split_feature=9 5 9 9 20 22 11
split_gain=2.1486 0.450361 0.950885 1.95633 0.877394 0.282959 0.0990538
threshold=6.6489014733917653 9.2297837888111206e-06 4.1844661011092237 4.672320016570338 36.820000000000007 274.38000000000005 620.35170700960498
decision_type=2 2 2 2 2 2 2
left_child=1 2 6 -4 5 -3 -1
right_child=-2 4 3 -5 -6 -7 -8
leaf_value=-0.0014700269561766413 0.037253531018892921 -0.002313801853938586 0.054259492168857837 0.0016148042431268551 -0.033679360358510171 -0.018843230090781371 0.0054393310666732168
leaf_weight=212 14.999999999999998 177 9.9999999999999982 24 9.9999999999999982 10.999999999999998 23
leaf_count=212 15 177 10 24 10 11 23
internal_value=0 -0.00119658 0.00146769 0.0170985 -0.00481622 -0.00328095 -0.000793792
internal_weight=0 467 269 34 198 188 235
internal_count=482 467 269 34 198 188 235
is_linear=0
shrinkage=0.1


Tree=20
num_leaves=6
num_cat=0
split_feature=7 7 9 7 25
split_gain=4.7679 0.63619 0.0708229 0.0789508 0.0147801
threshold=2.025773392628142 1.3441443105976141 6.6489014733917653 0.45462845863023366 25.307761805546331
decision_type=2 2 2 2 2
left_child=1 2 3 -1 -3
right_child=-2 4 -4 -5 -6
leaf_value=-0.0031464404806214839 0.062244146650967502 0.010070869078238802 -0.010852348208427429 -6.9180968633762241e-05 0.014654636207748862
leaf_weight=318 11.999999999999998 12.000000000000002 9.9999999999999982 113 17
leaf_count=318 12 12 10 113 17
internal_value=0 -0.00158921 -0.00253267 -0.00233964 0.0127579
internal_weight=0 470 441 431 29
internal_count=482 470 441 431 29
is_linear=0
shrinkage=0.1


Tree=21
num_leaves=8
num_cat=0
split_feature=7 7 7 29 9 9 6
split_gain=3.86974 0.367641 0.0394387 0.0308006 0.0139054 0.0115223 0.00570145
threshold=1.5797160216062323 0.81072200538797934 0.44428913086081206 42.975924959534929 6.3051963544310965 6.0758436534531155 59.434382236320822
decision_type=2 2 2 2 2 2 2
left_child=1 2 5 -3 -4 -1 -5
right_child=-2 3 4 6 -6 -7 -8
leaf_value=-0.0029975349673497164 0.049995389456550285 0.0035610611550509932 -0.00088648728421117395 0.01197727061808109 -0.0047410717955790466 -0.0064552071504294876 0.0088946713382999105
leaf_weight=266 14.999999999999998 9.9999999999999982 146 10.000000000000002 9.9999999999999982 9.9999999999999982 14.999999999999998
leaf_count=266 15 10 146 10 10 10 15
internal_value=0 -0.00160585 -0.00240448 0.00825153 -0.00113358 -0.00312281 0.0101277
internal_weight=0 467 432 35 156 276 25
internal_count=482 467 432 35 156 276 25
is_linear=0
shrinkage=0.1


Tree=22
num_leaves=6
num_cat=0
split_feature=7 7 9 7 9
split_gain=3.20343 0.409728 0.0537475 0.0584131 0.00922652
threshold=2.025773392628142 1.3441443105976141 6.6489014733917653 0.61742250434855817 2.8409704128885376
decision_type=2 2 2 2 2
left_child=1 2 3 -1 -3
right_child=-2 4 -4 -5 -6
leaf_value=-0.002204309710891065 0.051020193720857303 0.012334191085149842 -0.0093074619770050059 0.002442786307876994 0.0087125715854413366
leaf_weight=402 11.999999999999998 12.000000000000002 9.9999999999999982 29 17
leaf_count=402 12 12 10 29 17
internal_value=0 -0.00130264 -0.00205979 -0.00189163 0.0102112
internal_weight=0 470 441 431 29
internal_count=482 470 441 431 29
is_linear=0
shrinkage=0.1


Tree=23
num_leaves=6
num_cat=0
split_feature=7 7 9 7 28
split_gain=2.59477 0.33188 0.0435355 0.0493699 0.00780505
threshold=2.025773392628142 1.3441443105976141 6.6489014733917653 0.58227284782595479 66.582208980574066
decision_type=2 2 2 2 2
left_child=1 2 3 -1 -3
right_child=-2 4 -4 -5 -6
leaf_value=-0.0020678960095121108 0.045918174522618455 0.01145139422267675 -0.0083767159655690187 0.0014321185563070079 0.0079998771451707737
leaf_weight=386 11.999999999999998 10.000000000000002 9.9999999999999982 45 19
leaf_count=386 12 10 10 45 19
internal_value=0 -0.00117238 -0.00185381 -0.00170247 0.00919006
internal_weight=0 470 441 431 29
internal_count=482 470 441 431 29
is_linear=0
shrinkage=0.1


Tree=24
num_leaves=7
num_cat=0
split_feature=7 7 7 9 4 15
split_gain=2.10177 0.268823 0.036558 0.0273049 0.00873902 0.00537241
threshold=2.025773392628142 1.3441443105976141 0.40362550015737703 6.495777510162303 24.444449122736021 0.47618961459791737
decision_type=2 2 2 2 2 2
left_child=1 2 5 -4 -3 -1
right_child=-2 4 3 -5 -6 -7
leaf_value=-0.0028456936013296339 0.041326356555024785 0.0068125766400686074 -0.00045292903552726605 -0.0058080191211774953 0.010337220411747694 -0.0017929795722855066
leaf_weight=163 11.999999999999998 17.000000000000004 199 9.9999999999999982 11.999999999999998 69
leaf_count=163 12 17 199 10 12 69
internal_value=0 -0.00105514 -0.00166843 -0.000709153 0.00827105 -0.0025326
internal_weight=0 470 441 209 29 232
internal_count=482 470 441 209 29 232
is_linear=0
shrinkage=0.1


Tree=25
num_leaves=8
num_cat=0
split_feature=7 7 29 7 7 29 15
split_gain=1.7167 0.158837 0.0258711 0.0220663 0.00627196 0.00538022 0.00435166
threshold=1.5797160216062323 0.79091310600533793 42.104087250661941 0.40362550015737703 0.58227284782595479 54.900567400154991 0.47618961459791737
decision_type=2 2 2 2 2 2 2
left_child=1 3 -3 6 -5 -4 -1
right_child=-2 2 5 4 -6 -7 -8
leaf_value=-0.0025611241913737698 0.033299370771273977 0.00076093253912404182 0.0084096184847029746 -0.0011024245836094373 0.00037376889892454658 0.0055713201485238697 -0.0016136816004291177
leaf_weight=163 14.999999999999998 9.9999999999999982 11.000000000000002 162 35 17 69
leaf_count=163 15 10 11 162 35 17 69
internal_value=0 -0.00106957 0.00512704 -0.00161846 -0.000840157 0.00668637 -0.00227934
internal_weight=0 467 38 429 197 28 232
internal_count=482 467 38 429 197 28 232
is_linear=0
shrinkage=0.1


Tree=26
num_leaves=8
num_cat=0
split_feature=7 7 7 6 9 1 7
split_gain=1.41124 0.174041 0.0190199 0.0161668 0.012048 0.00922408 0.00394538
threshold=2.025773392628142 0.81072200538797934 0.40362550015737703 54.266178847298626 6.3908005089353113 12.500000000000002 0.35075788559200116
decision_type=2 2 2 2 2 2 2
left_child=1 2 6 -3 -4 -5 -1
right_child=-2 3 4 5 -6 -7 -8
leaf_value=-0.0027342629799198721 0.03386378465220332 0.0090750715136528031 -0.0005245962780855599 0.0057438256270769565 -0.0037927563088790829 0.0019558759639039637 -0.0018023661337792875
leaf_weight=62 11.999999999999998 9.9999999999999982 188 18.000000000000004 11.999999999999998 9.9999999999999982 170
leaf_count=62 12 10 188 18 12 10 170
internal_value=0 -0.000864607 -0.00143533 0.00562364 -0.000720686 0.00439099 -0.00205141
internal_weight=0 470 432 38 200 28 232
internal_count=482 470 432 38 200 28 232
is_linear=0
shrinkage=0.1


Tree=27
num_leaves=7
num_cat=0
split_feature=9 19 7 22 7 29
split_gain=1.33735 0.514412 1.50772 1.31606 0.092382 0.0237075
threshold=6.6489014733917653 0.043910000000000005 1.5290592336381574 198.78500000000005 0.62970858167127763 35.34680492855022
decision_type=2 2 2 2 2 2
left_child=1 2 4 5 -1 -3
right_child=-2 3 -4 -5 -6 -7
leaf_value=-0.0013606044206101149 0.029390793160224957 -0.0035453268928298098 0.038377933129668237 -0.043264377806335685 0.0039360901461703984 0.0026185031228054029
leaf_weight=386 14.999999999999998 12.000000000000002 9.9999999999999982 9.9999999999999982 36 12.999999999999998
leaf_count=386 15 12 10 10 36 13
internal_value=0 -0.00094403 6.60348e-07 -0.0126042 -0.000908754 -0.000340135
internal_weight=0 467 432 35 422 25
internal_count=482 467 432 35 422 25
is_linear=0
shrinkage=0.1


Tree=28
num_leaves=7
num_cat=0
split_feature=7 7 4 7 5 20
split_gain=1.00481 0.107691 0.0206701 0.0133571 0.00867332 0.00792743
threshold=2.025773392628142 1.3441443105976141 24.443964046744117 0.45462845863023366 2.8863353431773935e-06 34.050000000000004
decision_type=2 2 2 2 2 2
left_child=1 2 5 -4 -3 -1
right_child=-2 4 3 -5 -6 -7
leaf_value=-0.0016983808684599352 0.02857435674717029 0.0073855276120329168 -0.0010836017112458702 0.00046971983066886546 0.0038213519276016289 -0.0045834813045803465
leaf_weight=200 11.999999999999998 11.000000000000002 139 92 18 9.9999999999999982
leaf_count=200 12 11 139 92 18 10
internal_value=0 -0.000729558 -0.00111773 -0.000464963 0.00517328 -0.00183577
internal_weight=0 470 441 231 29 210
internal_count=482 470 441 231 29 210
is_linear=0
shrinkage=0.1


Tree=29
num_leaves=7
num_cat=0
split_feature=9 19 7 7 7 22
split_gain=1.04626 0.437488 1.1533 1.08801 0.0637845 0.0141246
threshold=6.6489014733917653 0.043910000000000005 0.55944214711449336 1.5290592336381574 0.79091310600533793 158.60000000000005
decision_type=2 2 2 2 2 2
left_child=1 3 5 4 -1 -3
right_child=-2 2 -4 -5 -6 -7
leaf_value=-0.001064072080621857 0.025996104081471762 -0.00064969835814106475 -0.036719062745881575 0.032637182062026114 0.0038754699128081224 0.004349267381476239
leaf_weight=394 14.999999999999998 13.000000000000002 11.999999999999998 9.9999999999999982 28 9.9999999999999982
leaf_count=394 15 13 12 10 28 10
internal_value=0 -0.000834993 -0.0115881 3.6205e-05 -0.00073633 0.00152377
internal_weight=0 467 35 432 422 23
internal_count=482 467 35 432 422 23
is_linear=0
shrinkage=0.1


Tree=30
num_leaves=7
num_cat=0
split_feature=9 19 22 7 7 29
split_gain=0.847467 0.354365 1.12049 0.881287 0.0526564 0.0296053
threshold=6.6489014733917653 0.043910000000000005 198.78500000000005 1.5290592336381574 0.62970858167127763 35.34680492855022
decision_type=2 2 2 2 2 2
left_child=1 3 5 4 -1 -3
right_child=-2 2 -4 -5 -6 -7
leaf_value=-0.001003832540560334 0.023396494040886562 -0.002694832769824036 -0.038719694055616857 0.029373463187366722 0.0029950343188829723 0.0041931538376957182
leaf_weight=386 14.999999999999998 12.000000000000002 9.9999999999999982 9.9999999999999982 36 12.999999999999998
leaf_count=386 15 12 10 10 36 13
internal_value=0 -0.000751493 -0.0104293 3.25845e-05 -0.000662697 0.00088692
internal_weight=0 467 35 432 422 25
internal_count=482 467 35 432 422 25
is_linear=0
shrinkage=0.1


Tree=31
num_leaves=7
num_cat=0
split_feature=35 19 7 7 7 4
split_gain=0.73237 0.457779 1.74367 1.59244 0.0463306 0.0313533
threshold=871.9874599222677 0.043910000000000005 1.5290592336381574 0.9706086681480498 0.79091310600533793 24.444368834677832
decision_type=2 2 2 2 2 2
left_child=1 2 4 5 -1 -3
right_child=-2 3 -4 -5 -6 -7
leaf_value=-0.0010228276856156671 0.021749760458866757 -0.0037369408458471282 0.041513106413185598 -0.045481601655483248 0.0031884194559617233 0.0031807895774315846
leaf_weight=390 14.999999999999998 10.000000000000002 9.9999999999999982 9.9999999999999982 28 19
leaf_count=390 15 10 10 10 28 19
internal_value=0 -0.0006986 0.000246505 -0.0110705 -0.000740735 0.000795365
internal_weight=0 467 428 39 418 29
internal_count=482 467 428 39 418 29
is_linear=0
shrinkage=0.1


Tree=32
num_leaves=6
num_cat=0
split_feature=9 7 7 19 25
split_gain=0.706592 0.362354 0.0786266 0.0287152 0.027628
threshold=6.6489014733917653 1.5797160216062323 0.9706086681480498 0.043910000000000005 26.78144990856854
decision_type=2 2 2 2 2
left_child=1 2 3 -1 -4
right_child=-2 -3 4 -5 -6
leaf_value=-0.00076947736465785184 0.021363561178247135 -0.017838524592419466 0.0086268853473787481 0.0025994362486892863 0.0020879567999924934
leaf_weight=402 14.999999999999998 11.999999999999998 12.000000000000002 27 13.999999999999998
leaf_count=402 15 12 12 27 14
internal_value=0 -0.000686196 -0.000233827 -0.000557448 0.00510592
internal_weight=0 467 455 429 26
internal_count=482 467 455 429 26
is_linear=0
shrinkage=0.1


Tree=33
num_leaves=6
num_cat=0
split_feature=7 9 19 7 22
split_gain=0.602367 0.238497 0.0642777 0.0296564 0.026335
threshold=2.025773392628142 6.6489014733917653 0.043910000000000005 0.53620341860955145 163.51000000000002
decision_type=2 2 2 2 2
left_child=1 2 3 -1 -4
right_child=-2 -3 4 -5 -6
leaf_value=-0.000941499271895011 0.022124080608288448 -0.014481522577504317 0.0020459370066722234 0.001146244751974283 0.0080859154801477089
leaf_weight=341 11.999999999999998 11.999999999999998 21 85 10.999999999999998
leaf_count=341 12 12 21 85 11
internal_value=0 -0.00056487 -0.000200242 -0.000524931 0.00412218
internal_weight=0 470 458 426 32
internal_count=482 470 458 426 32
is_linear=0
shrinkage=0.1


Tree=34
num_leaves=6
num_cat=0
split_feature=35 26 29 7 7
split_gain=0.557738 0.4322 0.320981 3.20651 1.75932
threshold=871.9874599222677 38.528582390861466 55.815379832920222 1.4833363860865016 1.4090136251712961
decision_type=2 2 2 2 2
left_child=1 2 3 -1 -4
right_child=-2 -3 4 -5 -6
leaf_value=-0.00029108347962501725 0.018980355076491835 -0.021175269974628465 -0.00074125897820286578 0.055459872722117748 -0.043455144707113508
leaf_weight=166 14.999999999999998 9.9999999999999982 270 10.999999999999998 9.9999999999999982
leaf_count=166 15 10 270 11 10
internal_value=0 -0.000609647 -0.000159634 0.00317367 -0.00226675
internal_weight=0 467 457 177 280
internal_count=482 467 457 177 280
is_linear=0
shrinkage=0.1


Tree=35
num_leaves=6
num_cat=0
split_feature=9 35 29 7 7
split_gain=0.529115 0.354737 0.214672 1.44297 1.2523
threshold=6.6489014733917653 852.19375244149285 57.670012682654281 1.4574206296343737 1.3667937842849642
decision_type=2 2 2 2 2
left_child=1 2 3 -1 -4
right_child=-2 -3 4 -5 -6
leaf_value=0.00030715585355351051 0.018486910462379456 -0.015723078520968558 -0.00050578535360052258 0.037610188329761679 -0.034984017400579021
leaf_weight=181 14.999999999999998 14.999999999999998 249 10.999999999999998 10.999999999999998
leaf_count=181 15 15 249 11 11
internal_value=0 -0.000593798 -9.17201e-05 0.00244431 -0.00196448
internal_weight=0 467 452 192 260
internal_count=482 467 452 192 260
is_linear=0
shrinkage=0.1


Tree=36
num_leaves=6
num_cat=0
split_feature=9 7 7 20 26
split_gain=0.428583 0.344038 0.05076 0.0322089 0.0216391
threshold=6.6489014733917653 1.5797160216062323 0.79091310600533793 31.335000000000004 38.009923043576656
decision_type=2 2 2 2 2
left_child=1 2 4 -4 -1
right_child=-2 -3 3 -5 -6
leaf_value=-0.0005366735607485344 0.016638219753901166 -0.017247621878050269 0.005897151929358105 -0.0003810990028656446 0.0033311934792436661
leaf_weight=405 14.999999999999998 11.999999999999998 22 12.999999999999998 14.999999999999998
leaf_count=405 15 12 22 13 15
internal_value=0 -0.000534418 -9.36304e-05 0.00356523 -0.000398535
internal_weight=0 467 455 35 420
internal_count=482 467 455 35 420
is_linear=0
shrinkage=0.1


Tree=37
num_leaves=7
num_cat=0
split_feature=35 19 7 7 9 4
split_gain=0.488608 0.523831 1.50763 1.48901 0.0718334 0.0353729
threshold=871.9874599222677 0.043910000000000005 0.9706086681480498 1.5290592336381574 6.3051963544310965 24.444368834677832
decision_type=2 2 2 2 2 2
left_child=1 3 5 4 -1 -3
right_child=-2 2 -4 -5 -6 -7
leaf_value=-0.00026669450891110021 0.017765179996689161 -0.0049340991582721462 -0.045147760976105927 0.038574583306908605 -0.0088453889545053246 0.0024137010191273142
leaf_weight=408 14.999999999999998 10.000000000000002 9.9999999999999982 9.9999999999999982 9.9999999999999982 19
leaf_count=408 15 10 10 10 10 19
internal_value=0 -0.000570616 -0.0116656 0.000440375 -0.000471926 -0.000120023
internal_weight=0 467 39 428 418 29
internal_count=482 467 39 428 418 29
is_linear=0
shrinkage=0.1


Tree=38
num_leaves=6
num_cat=0
split_feature=7 9 7 21 7
split_gain=0.396551 0.301874 0.0562786 0.0456753 0.019971
threshold=2.025773392628142 6.6489014733917653 0.9706086681480498 68.530000000000015 0.40362550015737703
decision_type=2 2 2 2 2
left_child=1 2 4 -4 -1
right_child=-2 -3 3 -5 -6
leaf_value=-0.00097095307190497621 0.017950824772318207 -0.016115234047174454 0.00111299990158942 0.0092921263453635307 0.00039720973208154397
leaf_weight=230 11.999999999999998 11.999999999999998 18.000000000000004 10.999999999999998 199
leaf_count=230 12 12 18 11 199
internal_value=0 -0.000458319 -4.80941e-05 0.00421543 -0.000336304
internal_weight=0 470 458 29 429
internal_count=482 470 458 29 429
is_linear=0
shrinkage=0.1


Tree=39
num_leaves=6
num_cat=0
split_feature=9 7 19 15 7
split_gain=0.426032 0.397068 0.04482 0.0272071 0.0192843
threshold=6.6489014733917653 1.5797160216062323 0.043910000000000005 0.51551598922955033 0.48545488891626282
decision_type=2 2 2 2 2
left_child=1 2 4 -4 -1
right_child=-2 -3 3 -5 -6
leaf_value=-0.00072270544272096842 0.016588616122802099 -0.018487984764700136 0.0015833371029905473 0.0078741257614456123 0.00083537282595709669
leaf_weight=317 14.999999999999998 11.999999999999998 22 9.9999999999999982 106
leaf_count=317 15 12 22 10 106
internal_value=0 -0.000532825 -5.92823e-05 0.00354921 -0.000332265
internal_weight=0 467 455 32 423
internal_count=482 467 455 32 423
is_linear=0
shrinkage=0.1


Tree=40
num_leaves=7
num_cat=0
split_feature=35 19 7 7 9 4
split_gain=0.380121 0.45485 1.23054 1.20416 0.0595943 0.0283286
threshold=871.9874599222677 0.043910000000000005 0.9706086681480498 1.5290592336381574 6.3051963544310965 24.444368834677832
decision_type=2 2 2 2 2 2
left_child=1 3 5 4 -1 -3
right_child=-2 2 -4 -5 -6 -7
leaf_value=-0.00019470014391183491 0.015669315258661907 -0.0047193447023164466 -0.041091233305633072 0.034731977432966236 -0.0080084631871432076 0.0018562402570080992
leaf_weight=408 14.999999999999998 10.000000000000002 9.9999999999999982 9.9999999999999982 9.9999999999999982 19
leaf_count=408 15 10 10 10 10 19
internal_value=0 -0.000503297 -0.010842 0.000438779 -0.000381632 -0.000411203
internal_weight=0 467 39 428 418 29
internal_count=482 467 39 428 418 29
is_linear=0
shrinkage=0.1


Tree=41
num_leaves=6
num_cat=0
split_feature=9 7 7 4 35
split_gain=0.37522 0.379693 0.0511418 0.0460538 0.0262761
threshold=6.6489014733917653 1.5797160216062323 0.9706086681480498 24.444430706547823 871.9874599222677
decision_type=2 2 2 2 2
left_child=1 2 4 -4 -1
right_child=-2 -3 3 -5 -6
leaf_value=-0.00017707120522592488 0.015567982569336891 -0.018057948164641856 0.0088154159331073328 0.00037303989353988854 -0.0053639069572091105
leaf_weight=419 14.999999999999998 11.999999999999998 12.000000000000002 13.999999999999998 9.9999999999999982
leaf_count=419 15 12 12 14 10
internal_value=0 -0.000500042 -3.69766e-05 0.00426952 -0.000297976
internal_weight=0 467 455 26 429
internal_count=482 467 455 26 429
is_linear=0
shrinkage=0.1


Tree=42
num_leaves=6
num_cat=0
split_feature=7 9 7 22 35
split_gain=0.348696 0.312937 0.0444291 0.0358154 0.0212837
threshold=2.025773392628142 6.6489014733917653 0.9706086681480498 135.05500000000004 871.9874599222677
decision_type=2 2 2 2 2
left_child=1 2 4 -4 -1
right_child=-2 -3 3 -5 -6
leaf_value=-0.00015936408954141007 0.016832866768042246 -0.016370997826258341 0.00060835434705950307 0.0076748177552452461 -0.0048275161907076836
leaf_weight=419 11.999999999999998 11.999999999999998 16.000000000000004 12.999999999999998 9.9999999999999982
leaf_count=419 12 12 16 13 10
internal_value=0 -0.000429775 -1.21013e-05 0.00377608 -0.000268179
internal_weight=0 470 458 29 429
internal_count=482 470 458 29 429
is_linear=0
shrinkage=0.1


Tree=43
num_leaves=6
num_cat=0
split_feature=9 7 19 15 35
split_gain=0.347607 0.362945 0.042357 0.02818 0.0202611
threshold=6.6489014733917653 1.5797160216062323 0.043910000000000005 0.51551598922955033 852.19375244149285
decision_type=2 2 2 2 2
left_child=1 2 4 -4 -1
right_child=-2 -3 3 -5 -6
leaf_value=-0.0001862371241208448 0.014984206731120745 -0.017647602160771689 0.0014786762555807154 0.0078809521673247219 -0.0047416349314153197
leaf_weight=413 14.999999999999998 11.999999999999998 22 9.9999999999999982 9.9999999999999982
leaf_count=413 15 12 22 10 10
internal_value=0 -0.000481291 -2.85536e-05 0.00347939 -0.00029393
internal_weight=0 467 455 32 423
internal_count=482 467 455 32 423
is_linear=0
shrinkage=0.1


Tree=44
num_leaves=8
num_cat=0
split_feature=35 19 22 29 9 20 28
split_gain=0.321512 0.403393 1.10449 0.199558 0.398985 0.388017 0.0438291
threshold=871.9874599222677 0.043910000000000005 217.79000000000005 55.815379832920222 4.1844661011092237 35.150000000000006 99.786444150302444
decision_type=2 2 2 2 2 2 2
left_child=1 3 6 4 -1 -5 -3
right_child=-2 2 -4 5 -6 -7 -8
leaf_value=6.5834922207841376e-05 0.014410790205001831 -0.0033561556102035361 -0.038857376128435137 -0.00047855223370140586 0.011214239257387819 -0.020550505104474724 0.004655964435501531
leaf_weight=112 14.999999999999998 18 9.9999999999999982 261 45 9.9999999999999982 11.000000000000002
leaf_count=112 15 18 10 261 45 10 11
internal_value=0 -0.000462873 -0.0101992 0.000424316 0.00326124 -0.00121921 -0.000317076
internal_weight=0 467 39 428 157 271 29
internal_count=482 467 39 428 157 271 29
is_linear=0
shrinkage=0.1


Tree=45
num_leaves=6
num_cat=0
split_feature=7 9 19 22 26
split_gain=0.339096 0.269133 0.0463833 0.0312533 0.0165766
threshold=2.025773392628142 6.6489014733917653 0.043910000000000005 174.63000000000002 38.345210320065497
decision_type=2 2 2 2 2
left_child=1 2 4 -4 -1
right_child=-2 -3 3 -5 -6
leaf_value=-0.00041385134584491327 0.016599547242124878 -0.015207304246723653 0.0015283234555020253 0.0082706831395626072 0.0035192228853702548
leaf_weight=415 11.999999999999998 11.999999999999998 22 9.9999999999999982 10.999999999999998
leaf_count=415 12 12 22 10 11
internal_value=0 -0.000423818 -3.6478e-05 0.00363531 -0.000312293
internal_weight=0 470 458 32 426
internal_count=482 470 458 32 426
is_linear=0
shrinkage=0.1


Tree=46
num_leaves=6
num_cat=0
split_feature=9 35 29 7 7
split_gain=0.344796 0.361709 0.147248 1.19361 1.13494
threshold=6.6489014733917653 852.19375244149285 57.670012682654281 1.4574206296343737 1.3667937842849642
decision_type=2 2 2 2 2
left_child=1 2 3 -1 -4
right_child=-2 -3 4 -5 -6
leaf_value=0.00018426012454622937 0.014923484722773234 -0.015756579864149294 -0.00013472039489346183 0.034111333181234924 -0.032957632909528911
leaf_weight=181 14.999999999999998 14.999999999999998 249 10.999999999999998 10.999999999999998
leaf_count=181 15 15 249 11 11
internal_value=0 -0.000479341 2.76469e-05 0.002128 -0.00152338
internal_weight=0 467 452 192 260
internal_count=482 467 452 192 260
is_linear=0
shrinkage=0.1


Tree=47
num_leaves=5
num_cat=0
split_feature=21 9 29 22
split_gain=0.307984 0.469619 0.293769 0.154331
threshold=27.810000000000006 6.6489014733917653 27.2777553207426 290.08500000000004
decision_type=2 2 2 2
left_child=-1 2 -2 -4
right_child=1 -3 3 -5
leaf_value=-0.017366469280095772 -0.013474761049656081 0.019110817376237651 0.00079338879185673243 -0.0070085002032876089
leaf_weight=9.9999999999999982 15.999999999999998 12.999999999999998 416 27
leaf_count=10 16 13 416 27
internal_value=0 0.000367934 -0.000162911 0.000317879
internal_weight=0 472 459 443
internal_count=482 472 459 443
is_linear=0
shrinkage=0.1


Tree=48
num_leaves=7
num_cat=0
split_feature=35 19 7 7 9 9
split_gain=0.292469 0.370158 1.04531 1.01005 0.0829315 0.0331712
threshold=871.9874599222677 0.043910000000000005 0.9706086681480498 1.5290592336381574 6.3051963544310965 5.517689762139816
decision_type=2 2 2 2 2 2
left_child=1 3 5 4 -1 -3
right_child=-2 2 -4 -5 -6 -7
leaf_value=-0.00012248116641321935 0.013744506090879441 0.0022992187187283932 -0.037647872939705854 0.031816146485507492 -0.0093400821811519576 -0.004816235800972209
leaf_weight=408 14.999999999999998 19.000000000000004 9.9999999999999982 9.9999999999999982 9.9999999999999982 9.9999999999999982
leaf_count=408 15 19 10 10 10 10
internal_value=0 -0.000441472 -0.0097681 0.000408384 -0.000342998 -0.000154386
internal_weight=0 467 39 428 418 29
internal_count=482 467 39 428 418 29
is_linear=0
shrinkage=0.1


Tree=49
num_leaves=5
num_cat=0
split_feature=21 7 9 19
split_gain=0.259353 0.845336 0.185321 0.0435397
threshold=27.810000000000006 2.025773392628142 6.6489014733917653 0.043910000000000005
decision_type=2 2 2 2
left_child=-1 2 3 -2
right_child=1 -3 -4 -5
leaf_value=-0.015936517110094427 -0.00028446189439515973 0.027734312279657888 -0.013780903527513148 0.0035990579526931528
leaf_weight=9.9999999999999982 420 10.999999999999998 9.9999999999999982 31
leaf_count=10 420 11 10 31
internal_value=0 0.000337638 -0.000316079 -1.75237e-05
internal_weight=0 472 461 451
internal_count=482 472 461 451
is_linear=0
shrinkage=0.1


Tree=50
num_leaves=5
num_cat=0
split_feature=26 7 15 5
split_gain=0.263928 1.01435 0.0363387 0.0235952
threshold=38.528582390861466 2.025773392628142 0.53892994434524277 0.0075188626280677509
decision_type=2 2 2 2
left_child=1 2 3 -1
right_child=-2 -3 -4 -5
leaf_value=-0.00021051552980621394 -0.014644597581354902 0.0303831620649858 0.0050852513231802732 -0.0023726219606409172
leaf_weight=389 11.999999999999998 10.999999999999998 11.999999999999998 58
leaf_count=389 12 11 12 58
internal_value=0 0.000373905 -0.000345271 -0.000491057
internal_weight=0 470 459 447
internal_count=482 470 459 447
is_linear=0
shrinkage=0.1


Tree=51
num_leaves=6
num_cat=0
split_feature=9 7 19 15 35
split_gain=0.257301 0.497218 0.03865 0.0297938 0.0236828
threshold=6.6489014733917653 1.5797160216062323 0.043910000000000005 0.51551598922955033 852.19375244149285
decision_type=2 2 2 2 2
left_child=1 2 4 -4 -1
right_child=-2 -3 3 -5 -6
leaf_value=-2.1239054259685061e-05 0.012891698076079289 -0.020506399369332941 0.0014095513131720013 0.0079925887752324339 -0.0049462969973683366
leaf_weight=413 14.999999999999998 11.999999999999998 22 9.9999999999999982 9.9999999999999982
leaf_count=413 15 12 22 10 10
internal_value=0 -0.00041408 0.000115827 0.00346675 -0.000137671
internal_weight=0 467 455 32 423
internal_count=482 467 455 32 423
is_linear=0
shrinkage=0.1


Tree=52
num_leaves=7
num_cat=0
split_feature=35 19 7 7 9 6
split_gain=0.222016 0.345066 0.880701 0.69833 0.0629848 0.025897
threshold=871.9874599222677 0.043910000000000005 0.9706086681480498 1.5290592336381574 6.3051963544310965 58.241086740080029
decision_type=2 2 2 2 2 2
left_child=1 3 5 4 -1 -3
right_child=-2 2 -4 -5 -6 -7
leaf_value=3.3107807007136037e-06 0.0119751567269365 0.0016027014806719595 -0.034980236254632473 0.02655129473656416 -0.0080296537373214967 -0.0046843528002500539
leaf_weight=408 14.999999999999998 19.000000000000004 9.9999999999999982 9.9999999999999982 9.9999999999999982 9.9999999999999982
leaf_count=408 15 19 10 10 10 10
internal_value=0 -0.000384641 -0.0093896 0.000435905 -0.000188865 -0.000565248
internal_weight=0 467 39 428 418 29
internal_count=482 467 39 428 418 29
is_linear=0
shrinkage=0.1


Tree=53
num_leaves=6
num_cat=0
split_feature=9 7 7 4 35
split_gain=0.232209 0.447333 0.0407249 0.0646227 0.034634
threshold=6.6489014733917653 1.5797160216062323 1.3667937842849642 24.444447069089257 871.9874599222677
decision_type=2 2 2 2 2
left_child=1 2 4 -4 -1
right_child=-2 -3 3 -5 -6
leaf_value=3.8333031503961536e-05 0.012246963270008564 -0.019451132419635545 0.0102282248577103 -0.00087900352452627631 -0.0059157271985895935
leaf_weight=424 14.999999999999998 11.999999999999998 10.000000000000002 10.999999999999998 9.9999999999999982
leaf_count=424 15 12 10 11 10
internal_value=0 -0.000393371 0.000109251 0.00441015 -9.88573e-05
internal_weight=0 467 455 21 434
internal_count=482 467 455 21 434
is_linear=0
shrinkage=0.1


Tree=54
num_leaves=5
num_cat=0
split_feature=21 7 9 7
split_gain=0.21779 0.623608 0.171672 0.0405124
threshold=27.810000000000006 2.025773392628142 6.6489014733917653 0.9706086681480498
decision_type=2 2 2 2
left_child=-1 2 3 -2
right_child=1 -3 -4 -5
leaf_value=-0.014603829158004372 -0.00020856834549450506 0.023840332573110409 -0.013211535587906838 0.0037190858416059724
leaf_weight=9.9999999999999982 423 10.999999999999998 9.9999999999999982 28
leaf_count=10 423 11 10 28
internal_value=0 0.000309403 -0.000252072 3.52771e-05
internal_weight=0 472 461 451
internal_count=482 472 461 451
is_linear=0
shrinkage=0.1


Tree=55
num_leaves=5
num_cat=0
split_feature=9 7 21 15
split_gain=0.209076 0.430391 0.0471288 0.0285745
threshold=6.6489014733917653 1.5797160216062323 29.815000000000001 0.53892994434524277
decision_type=2 2 2 2
left_child=1 2 -1 -4
right_child=-2 -3 3 -5
leaf_value=0.0065857061901293829 0.011620947420597078 -0.019066651941587531 -0.00017414859850414699 0.0047729214880140114
leaf_weight=10.999999999999998 14.999999999999998 11.999999999999998 432 11.999999999999998
leaf_count=11 15 12 432 12
internal_value=0 -0.000373264 0.000119749 -4.0444e-05
internal_weight=0 467 455 444
internal_count=482 467 455 444
is_linear=0
shrinkage=0.1


Tree=56
num_leaves=5
num_cat=0
split_feature=23 7 9 26
split_gain=0.195967 0.555983 0.252326 0.0610947
threshold=843.23500000000013 2.025773392628142 6.6489014733917653 38.345210320065497
decision_type=2 2 2 2
left_child=1 2 3 -1
right_child=-2 -3 -4 -5
leaf_value=-1.6291184315730905e-05 -0.013194183275548063 0.022526029429652476 -0.014533515018410981 0.0078887403430417183
leaf_weight=438 10.999999999999998 10.999999999999998 11.999999999999998 9.9999999999999982
leaf_count=438 11 11 12 10
internal_value=0 0.000308144 -0.000223153 0.00016016
internal_weight=0 471 460 448
internal_count=482 471 460 448
is_linear=0
shrinkage=0.1


Tree=57
num_leaves=5
num_cat=0
split_feature=26 35 11 22
split_gain=0.20006 0.427736 0.204407 0.138777
threshold=38.528582390861466 844.18097860460705 645.73290081417292 343.50500000000005
decision_type=2 2 2 2
left_child=1 2 3 -1
right_child=-2 -3 -4 -5
leaf_value=-0.00019611833847383697 -0.012750135284538069 0.015442758847984807 -0.013153476101433626 0.011720456785988063
leaf_weight=430 11.999999999999998 18 11.999999999999998 9.9999999999999982
leaf_count=430 12 18 12 10
internal_value=0 0.000325535 -0.000276478 7.47129e-05
internal_weight=0 470 452 440
internal_count=482 470 452 440
is_linear=0
shrinkage=0.1


Tree=58
num_leaves=5
num_cat=0
split_feature=9 7 35 21
split_gain=0.186865 0.396835 0.0452307 0.0435255
threshold=6.6489014733917653 1.5797160216062323 871.9874599222677 30.095000000000002
decision_type=2 2 2 2
left_child=1 2 3 -1
right_child=-2 -3 -4 -5
leaf_value=0.0062180763343349099 0.010986356250941754 -0.018302762291083734 -0.0062138839878819211 0.00011243892038742667
leaf_weight=11.999999999999998 14.999999999999998 11.999999999999998 10.999999999999998 432
leaf_count=12 15 12 11 432
internal_value=0 -0.000352881 0.000120523 0.000277456
internal_weight=0 467 455 444
internal_count=482 467 455 444
is_linear=0
shrinkage=0.1


Tree=59
num_leaves=5
num_cat=0
split_feature=21 7 9 26
split_gain=0.183522 0.478853 0.158953 0.0488366
threshold=27.810000000000006 2.025773392628142 6.6489014733917653 38.345210320065497
decision_type=2 2 2 2
left_child=-1 2 3 -2
right_child=1 -3 -4 -5
leaf_value=-0.013405755921266974 -8.8190341344039671e-05 0.020903800292448566 -0.012678149119019509 0.0069789175805635749
leaf_weight=9.9999999999999982 441 10.999999999999998 9.9999999999999982 9.9999999999999982
leaf_count=10 441 11 10 10
internal_value=0 0.00028402 -0.000207992 6.85083e-05
internal_weight=0 472 461 451
internal_count=482 472 461 451
is_linear=0
shrinkage=0.1


Tree=60
num_leaves=6
num_cat=0
split_feature=9 35 22 6 27
split_gain=0.170479 0.33742 0.132707 0.335095 0.0902638
threshold=6.6489014733917653 852.19375244149285 290.08500000000004 55.940524039564956 96.650361174679361
decision_type=2 2 2 2 2
left_child=1 2 4 -4 -1
right_child=-2 -3 3 -5 -6
leaf_value=4.7430233923957426e-05 0.010493597878764074 -0.015092432494275271 -0.021192297287052492 0.0016387841403128632 0.0044954487547958985
leaf_weight=372 14.999999999999998 14.999999999999998 10.000000000000002 18 52
leaf_count=372 15 15 10 18 52
internal_value=0 -0.000337053 0.000152616 -0.00651517 0.000592942
internal_weight=0 467 452 28 424
internal_count=482 467 452 28 424
is_linear=0
shrinkage=0.1


Tree=61
num_leaves=8
num_cat=0
split_feature=29 7 7 9 9 26 7
split_gain=0.17188 2.15634 1.28759 0.0701737 0.0544826 0.0366407 0.0143489
threshold=56.680077343322758 1.5290592336381574 1.4090136251712961 6.3908005089353113 6.0758436534531155 38.345210320065497 0.61742250434855817
decision_type=2 2 2 2 2 2 2
left_child=1 3 4 5 6 -1 -2
right_child=2 -3 -4 -5 -6 -7 -8
leaf_value=-0.00015825544208008285 -0.00025001174921487554 0.045269544896754353 -0.036849329173564913 -0.0080062400904187762 -0.0075452380697242916 0.0055591961912189927 0.0024202357564883478
leaf_weight=170 236 10.999999999999998 9.9999999999999982 10.999999999999998 9.9999999999999982 11.999999999999998 22
leaf_count=170 236 11 10 11 10 12 22
internal_value=0 0.00220443 -0.00161764 -0.000250061 -0.000303022 0.000218719 -2.23162e-05
internal_weight=0 204 278 193 268 182 258
internal_count=482 204 278 193 268 182 258
is_linear=0
shrinkage=0.1


Tree=62
num_leaves=5
num_cat=0
split_feature=26 35 20 22
split_gain=0.192109 0.357871 0.185457 0.0995988
threshold=38.528582390861466 844.18097860460705 36.885000000000005 343.50500000000005
decision_type=2 2 2 2
left_child=1 2 3 -1
right_child=-2 -3 -4 -5
leaf_value=-0.00010001325074618108 -0.012494197146346172 0.014146622932619519 -0.011561530462599227 0.0099958218494430179
leaf_weight=428 11.999999999999998 18 13.999999999999998 9.9999999999999982
leaf_count=428 12 18 14 10
internal_value=0 0.000319001 -0.000231657 0.000130485
internal_weight=0 470 452 438
internal_count=482 470 452 438
is_linear=0
shrinkage=0.1


Tree=63
num_leaves=9
num_cat=0
split_feature=19 22 29 9 4 9 28 28
split_gain=0.176308 0.842515 0.224336 0.10273 0.199894 0.195349 0.0880881 0.0678496
threshold=0.043910000000000005 217.79000000000005 27.494542750351968 5.402342127039411 24.444454754884351 4.1844661011092237 78.869848552856681 99.786444150302444
decision_type=2 2 2 2 2 2 2 2
left_child=2 6 -1 5 -5 -4 -2 -8
right_child=1 -3 3 4 -6 -7 7 -9
leaf_value=0.011854283591074979 0.0099713128933217338 -0.029966876624067402 -0.00019210528278315245 -0.013665024487612146 0.0026605741182963057 0.0071014349002436533 -0.0073935323115438215 0.0039876373908059159
leaf_weight=17 10.000000000000002 10.999999999999998 352 15.000000000000002 14.999999999999998 41 10 11
leaf_count=17 10 11 352 15 15 41 10 11
internal_value=0 -0.00619033 0.000590895 0.000138229 -0.00550223 0.000568798 0.00224651 -0.00143197
internal_weight=0 42 440 423 30 393 31 21
internal_count=482 42 440 423 30 393 31 21
is_linear=0
shrinkage=0.1


Tree=64
num_leaves=5
num_cat=0
split_feature=26 7 9 7
split_gain=0.152326 0.558115 0.122247 0.0354472
threshold=38.528582390861466 2.025773392628142 6.6489014733917653 1.3667937842849642
decision_type=2 2 2 2
left_child=1 2 3 -1
right_child=-2 -3 -4 -5
leaf_value=-0.0002006096778144745 -0.011125568998977542 0.022543939406221566 -0.010664330926639112 0.0038300106220919153
leaf_weight=425 11.999999999999998 10.999999999999998 10.999999999999998 23
leaf_count=425 12 11 11 23
internal_value=0 0.000284057 -0.000249404 6.31949e-06
internal_weight=0 470 459 448
internal_count=482 470 459 448
is_linear=0
shrinkage=0.1


Tree=65
num_leaves=5
num_cat=0
split_feature=9 7 26 35
split_gain=0.151029 0.396281 0.052129 0.0334678
threshold=6.6489014733917653 1.5797160216062323 38.345210320065497 871.9874599222677
decision_type=2 2 2 2
left_child=1 2 3 -1
right_child=-2 -3 -4 -5
leaf_value=0.0001183588145274236 0.0098768845386803163 -0.018254597981770836 0.0066593027751271922 -0.005467339012433182
leaf_weight=432 14.999999999999998 11.999999999999998 11.999999999999998 10.999999999999998
leaf_count=432 15 12 12 11
internal_value=0 -0.000317245 0.000155828 -2.0338e-05
internal_weight=0 467 455 443
internal_count=482 467 455 443
is_linear=0
shrinkage=0.1


Tree=66
num_leaves=8
num_cat=0
split_feature=5 7 7 9 7 9 26
split_gain=0.146973 1.49154 0.964801 0.14394 0.0426519 0.0233437 0.0195636
threshold=7.9636329921584109e-06 1.5290592336381574 1.4833363860865016 6.495777510162303 1.3667937842849642 5.1734936496521939 37.634701348017124
decision_type=2 2 2 2 2 2 2
left_child=1 4 3 5 6 -2 -1
right_child=2 -3 -4 -5 -6 -7 -8
leaf_value=-0.00044291332239790294 -0.00027799277779165288 0.039506977908313277 -0.032215522420592606 -0.012168968012556434 0.0052689933466414617 0.0029797804774716499 0.0038794093405489223
leaf_weight=218 183 9.9999999999999982 9.9999999999999982 9.9999999999999982 14.999999999999998 25 10.999999999999998
leaf_count=218 183 10 10 10 15 25 11
internal_value=0 0.00165442 -0.00184308 -0.000449853 0.000103087 0.000113567 -0.000235291
internal_weight=0 254 228 218 244 208 229
internal_count=482 254 228 218 244 208 229
is_linear=0
shrinkage=0.1


Tree=67
num_leaves=5
num_cat=0
split_feature=9 7 20 25
split_gain=0.153832 0.384509 0.0433443 0.0360629
threshold=6.6489014733917653 1.5797160216062323 37.465000000000011 23.064234952108635
decision_type=2 2 2 2
left_child=1 2 3 -1
right_child=-2 -3 -4 -5
leaf_value=0.0042621463010283677 0.0099680907155076659 -0.017989086049298445 0.0066567068081349132 -0.00019061073586963689
leaf_weight=19 14.999999999999998 11.999999999999998 9.9999999999999982 426
leaf_count=19 15 12 10 426
internal_value=0 -0.000320174 0.000145819 -4.9302e-07
internal_weight=0 467 455 445
internal_count=482 467 455 445
is_linear=0
shrinkage=0.1


Tree=68
num_leaves=7
num_cat=0
split_feature=19 7 8 12 9 20
split_gain=0.152236 1.32571 0.600661 0.0860419 0.0631436 0.0309252
threshold=0.043910000000000005 1.5797160216062323 0.057987815507794603 2.5000000000000004 6.3051963544310965 37.360000000000007
decision_type=2 2 2 2 2 2
left_child=1 4 3 -2 5 -1
right_child=2 -3 -4 -5 -6 -7
leaf_value=-0.00026772632487051193 0.0096648439914653328 0.034828246317126534 -0.019561155017517096 -0.0024801331292837858 -0.007808602550490336 0.0053610550693701953
leaf_weight=408 14 10.999999999999998 18 10 10.999999999999998 9.9999999999999982
leaf_count=408 14 11 18 10 11 10
internal_value=0 0.000549078 -0.00575225 0.00460444 -0.000329875 -0.000133066
internal_weight=0 440 42 24 429 418
internal_count=482 440 42 24 429 418
is_linear=0
shrinkage=0.1


Tree=69
num_leaves=5
num_cat=0
split_feature=26 7 9 19
split_gain=0.143204 0.413194 0.103313 0.0363785
threshold=38.528582390861466 2.025773392628142 6.6489014733917653 0.043910000000000005
decision_type=2 2 2 2
left_child=1 2 3 -1
right_child=-2 -3 -4 -5
leaf_value=-0.00019419418306779008 -0.010787284808854262 0.019428472491827879 -0.0097580131312662924 0.0033564949460748224
leaf_weight=417 11.999999999999998 10.999999999999998 10.999999999999998 31
leaf_count=417 12 11 11 31
internal_value=0 0.00027542 -0.000183586 5.15008e-05
internal_weight=0 470 459 448
internal_count=482 470 459 448
is_linear=0
shrinkage=0.1


Tree=70
num_leaves=5
num_cat=0
split_feature=9 7 26 7
split_gain=0.136789 0.450427 0.0419219 0.0261084
threshold=6.6489014733917653 1.5797160216062323 38.345210320065497 1.3667937842849642
decision_type=2 2 2 2
left_child=1 2 3 -1
right_child=-2 -3 -4 -5
leaf_value=-0.00012679595919469052 0.0093997355053822215 -0.019425474169353644 0.0060345500261367617 0.0034858544711910545
leaf_weight=422 14.999999999999998 11.999999999999998 11.999999999999998 21
leaf_count=422 15 12 12 21
internal_value=0 -0.000301919 0.000202439 4.44584e-05
internal_weight=0 467 455 443
internal_count=482 467 455 443
is_linear=0
shrinkage=0.1


Tree=71
num_leaves=7
num_cat=0
split_feature=19 7 1 2 9 20
split_gain=0.136827 1.07945 0.570959 0.0912157 0.0507424 0.0259492
threshold=0.043910000000000005 1.5797160216062323 16.500000000000004 3.5000000000000004 6.3051963544310965 37.360000000000007
decision_type=2 2 2 2 2 2
left_child=1 4 -2 -4 5 -1
right_child=2 -3 3 -5 -6 -7
leaf_value=-0.00021950251824680926 -0.021942311832806032 0.03145249296318401 0.007045326081828937 -0.004866480259224773 -0.0069768060676076203 0.0049365784274414187
leaf_weight=408 13.999999999999998 10.999999999999998 18.000000000000004 9.9999999999999982 10.999999999999998 9.9999999999999982
leaf_count=408 14 11 18 10 11 10
internal_value=0 0.000520548 -0.00545336 0.00279111 -0.000272578 -9.61513e-05
internal_weight=0 440 42 28 429 418
internal_count=482 440 42 28 429 418
is_linear=0
shrinkage=0.1


Tree=72
num_leaves=5
num_cat=0
split_feature=23 20 20 7
split_gain=0.143025 0.346895 0.423437 0.27873
threshold=843.23500000000013 37.360000000000007 36.790000000000006 1.5797160216062323
decision_type=2 2 2 2
left_child=1 2 3 -1
right_child=-2 -3 -4 -5
leaf_value=-7.6514101480729533e-05 -0.011271893326193095 0.017047587097234404 -0.019558998214250264 0.016808193698525428
leaf_weight=438 10.999999999999998 11.999999999999998 10.999999999999998 9.9999999999999982
leaf_count=438 11 12 11 10
internal_value=0 0.00026325 -0.000175556 0.000300377
internal_weight=0 471 459 448
internal_count=482 471 459 448
is_linear=0
shrinkage=0.1


Tree=73
num_leaves=5
num_cat=0
split_feature=21 9 35 23
split_gain=0.176293 0.196414 0.265162 0.123014
threshold=27.810000000000006 6.6489014733917653 852.19375244149285 836.68500000000006
decision_type=2 2 2 2
left_child=-1 2 3 -2
right_child=1 -3 -4 -5
leaf_value=-0.013139083115383983 0.00012417914540324701 0.012399689452006268 -0.013141534396757682 0.011342412512749435
leaf_weight=9.9999999999999982 434 12.999999999999998 14.999999999999998 9.9999999999999982
leaf_count=10 434 13 15 10
internal_value=0 0.00027837 -6.49349e-05 0.000376842
internal_weight=0 472 459 444
internal_count=482 472 459 444
is_linear=0
shrinkage=0.1


Tree=74
num_leaves=5
num_cat=0
split_feature=21 35 29 7
split_gain=0.142797 0.162134 0.207235 0.156176
threshold=27.810000000000006 871.9874599222677 27.2777553207426 1.5797160216062323
decision_type=2 2 2 2
left_child=-1 2 -2 -4
right_child=1 -3 3 -5
leaf_value=-0.01182517412584275 -0.010907613447702982 0.01085122358386538 5.7487701282226334e-05 0.012698681913316252
leaf_weight=9.9999999999999982 17 13.999999999999998 431 9.9999999999999982
leaf_count=10 17 14 431 10
internal_value=0 0.000250533 -7.35053e-05 0.000344136
internal_weight=0 472 458 441
internal_count=482 472 458 441
is_linear=0
shrinkage=0.1


Tree=75
num_leaves=5
num_cat=0
split_feature=23 20 20 7
split_gain=0.124245 0.338262 0.330244 0.187429
threshold=843.23500000000013 37.360000000000007 36.790000000000006 1.5797160216062323
decision_type=2 2 2 2
left_child=1 2 3 -1
right_child=-2 -3 -4 -5
leaf_value=-7.6703917201397529e-05 -0.010505832153880462 0.01681953404719631 -0.017305979486991419 0.013769183680415154
leaf_weight=438 10.999999999999998 11.999999999999998 10.999999999999998 9.9999999999999982
leaf_count=438 11 12 11 10
internal_value=0 0.000245359 -0.000187953 0.000232356
internal_weight=0 471 459 448
internal_count=482 471 459 448
is_linear=0
shrinkage=0.1


Tree=76
num_leaves=5
num_cat=0
split_feature=21 9 35 23
split_gain=0.148312 0.150241 0.23439 0.114904
threshold=27.810000000000006 6.6489014733917653 852.19375244149285 836.68500000000006
decision_type=2 2 2 2
left_child=-1 2 3 -2
right_child=1 -3 -4 -5
leaf_value=-0.012051356532610955 0.00012623317375576331 0.010856586995606239 -0.012339384703276059 0.010968351229093969
leaf_weight=9.9999999999999982 434 12.999999999999998 14.999999999999998 9.9999999999999982
leaf_count=10 434 13 15 10
internal_value=0 0.000255325 -4.49282e-05 0.000370425
internal_weight=0 472 459 444
internal_count=482 472 459 444
is_linear=0
shrinkage=0.1


Tree=77
num_leaves=9
num_cat=0
split_feature=29 7 7 15 7 6 13 20
split_gain=0.130334 1.23284 1.14848 0.0397545 0.0405953 0.0202932 0.0166123 0.0127304
threshold=56.680077343322758 1.4090136251712961 1.5290592336381574 0.51726984914042184 0.40451984906128835 58.905050666432494 22.111111111111111 33.160000000000004
decision_type=2 2 2 2 2 2 2 2
left_child=2 6 3 5 -5 -1 -2 -8
right_child=1 -3 -4 4 -6 -7 7 -9
leaf_value=-1.8324628662311525e-05 -0.0036092248870632972 -0.035883216760121288 0.033348487740890546 -4.9498131764786574e-05 0.0077109021528695646 -0.0032792171987239271 -0.00011480042508441504 0.0029870289427760457
leaf_weight=144 12.999999999999998 9.9999999999999982 10.999999999999998 14.000000000000002 12.999999999999998 22 241 13.999999999999998
leaf_count=144 13 10 11 14 13 22 241 14
internal_value=0 -0.00140864 0.00191961 0.000128328 0.00368699 -0.000450491 -0.00012227 5.54961e-05
internal_weight=0 278 204 193 27 166 268 255
internal_count=482 278 204 193 27 166 268 255
is_linear=0
shrinkage=0.1


Tree=78
num_leaves=6
num_cat=0
split_feature=21 8 7 9 19
split_gain=0.133331 0.435591 0.227106 0.118432 0.0476096
threshold=30.470000000000002 0.10517419635887931 1.5797160216062323 6.6489014733917653 0.043910000000000005
decision_type=2 2 2 2 2
left_child=1 -1 3 4 -2
right_child=2 -3 -4 -5 -6
leaf_value=0.0052399136725095243 5.8898540091213718e-06 -0.023019297961145643 0.015269068367779255 -0.010728570707142353 0.0042672297459960522
leaf_weight=12.000000000000002 412 9.9999999999999982 9.9999999999999982 9.9999999999999982 28
leaf_count=12 412 10 10 10 28
internal_value=0 -0.00760518 0.000363726 3.24963e-05 0.000277066
internal_weight=0 22 460 450 440
internal_count=482 22 460 450 440
is_linear=0
shrinkage=0.1


Tree=79
num_leaves=8
num_cat=0
split_feature=19 7 22 28 9 24 20
split_gain=0.121462 0.594978 0.511907 0.0629581 0.0442387 0.0416615 0.0332399
threshold=0.043910000000000005 1.5797160216062323 217.79000000000005 78.869848552856681 6.3051963544310965 26.495230003288817 36.790000000000006
decision_type=2 2 2 2 2 2 2
left_child=1 4 3 -2 6 -5 -1
right_child=2 -3 -4 5 -6 -7 -8
leaf_value=-0.00010569193437679977 0.0079689467907883196 0.023454928558997133 -0.02367145023732023 0.002575297545990906 -0.0063582418655807327 -0.0063429752504453076 0.0046885506461452073
leaf_weight=403 10.000000000000002 10.999999999999998 10.999999999999998 11.000000000000002 10.999999999999998 9.9999999999999982 14.999999999999998
leaf_count=403 10 11 11 11 11 10 15
internal_value=0 0.00049045 -0.00513805 0.00143832 -9.83829e-05 -0.0016715 6.63503e-05
internal_weight=0 440 42 31 429 21 418
internal_count=482 440 42 31 429 21 418
is_linear=0
shrinkage=0.1


end of trees

feature_importances:
Equipment_Electric_Power_(kWh)=208
Cooling_Load_(kWh)=59
24h_Prediction_Electricity_Pricing__$/kWh_=23
24h_Direct_Solar_Radiation_(W/m2)=22
Diffuse_Solar_Radiation_(W/m2)=16
Outdoor_Drybulb_Temperature_(C)=14
24h_Outdoor_Drybulb_Temperature_(C)=14
24h_Outdoor_Relative_Humidity_(%)=14
Outdoor_Relative_Humidity_(%)=11
kg_CO2/kWh=9
Indoor_Temperature_(C)=8
Average_Unmet_Cooling_Setpoint_Difference_(C)=6
12h_Outdoor_Relative_Humidity_(%)=6
Indoor_Relative_Humidity_(%)=5
Direct_Solar_Radiation_(W/m2)=5
12h_Outdoor_Drybulb_Temperature_(C)=5
Solar_Generation_(W/kW)=4
Hour=3
DHW_Heating_(kWh)=2
6h_Outdoor_Relative_Humidity_(%)=2
Day_Type=1
Occupant_Count_(people)=1
Temperature_Set_Point_(C)=1
6h_Outdoor_Drybulb_Temperature_(C)=1

parameters:
[boosting: gbdt]
[objective: regression]
[metric: l2]
[tree_learner: serial]
[device_type: cpu]
[data: ]
[valid: ]
[num_iterations: 80]
[learning_rate: 0.1]
[num_leaves: 16]
[num_threads: 1]
[deterministic: 0]
[force_col_wise: 0]
[force_row_wise: 0]
[histogram_pool_size: -1]
[max_depth: 4]
[min_data_in_leaf: 10]
[min_sum_hessian_in_leaf: 0.001]
[bagging_fraction: 0.9]
[pos_bagging_fraction: 1]
[neg_bagging_fraction: 1]
[bagging_freq: 0]
[bagging_seed: 3]
[feature_fraction: 0.9]
[feature_fraction_bynode: 1]
[feature_fraction_seed: 2]
[extra_trees: 0]
[extra_seed: 6]
[early_stopping_round: 0]
[first_metric_only: 0]
[max_delta_step: 0]
[lambda_l1: 0]
[lambda_l2: 0]
[linear_lambda: 0]
[min_gain_to_split: 0]
[drop_rate: 0.1]
[max_drop: 50]
[skip_drop: 0.5]
[xgboost_dart_mode: 0]
[uniform_drop: 0]
[drop_seed: 4]
[top_rate: 0.2]
[other_rate: 0.1]
[min_data_per_group: 100]
[max_cat_threshold: 32]
[cat_l2: 10]
[cat_smooth: 10]
[max_cat_to_onehot: 4]
[top_k: 20]
[monotone_constraints: ]
[monotone_constraints_method: basic]
[monotone_penalty: 0]
[feature_contri: ]
[forcedsplits_filename: ]
[refit_decay_rate: 0.9]
[cegb_tradeoff: 1]
[cegb_penalty_split: 0]
[cegb_penalty_feature_lazy: ]
[cegb_penalty_feature_coupled: ]
[path_smooth: 0]
[interaction_constraints: ]
[verbosity: -1]
[saved_feature_importance_type: 0]
[linear_tree: 0]
[max_bin: 255]
[max_bin_by_feature: ]
[min_data_in_bin: 3]
[bin_construct_sample_cnt: 200000]
[data_random_seed: 1]
[is_enable_sparse: 1]
[enable_bundle: 1]
[use_missing: 1]
[zero_as_missing: 0]
[feature_pre_filter: 1]
[pre_partition: 0]
[two_round: 0]
[header: 0]
[label_column: ]
[weight_column: ]
[group_column: ]
[ignore_column: ]
[categorical_feature: ]
[forcedbins_filename: ]
[precise_float_parser: 0]
[parser_config_file: ]
[objective_seed: 5]
[num_class: 1]
[is_unbalance: 0]
[scale_pos_weight: 1]
[sigmoid: 1]
[boost_from_average: 1]
[reg_sqrt: 0]
[alpha: 0.9]
[fair_c: 1]
[poisson_max_delta_step: 0.7]
[tweedie_variance_power: 1.5]
[lambdarank_truncation_level: 30]
[lambdarank_norm: 1]
[label_gain: ]
[lambdarank_position_bias_regularization: 0]
[eval_at: ]
[multi_error_top_k: 1]
[auc_mu_weights: ]
[num_machines: 1]
[local_listen_port: 12400]
[time_out: 120]
[machine_list_filename: ]
[machines: ]
[gpu_platform_id: -1]
[gpu_device_id: -1]
[gpu_use_dp: 0]
[num_gpu: 1]

end of parameters

pandas_categorical:[]
