tree
version=v4
num_class=1
num_tree_per_iteration=1
label_index=0
max_feature_idx=26
objective=regression
feature_names=Solar_Generation_(W/kW) Hour Diffuse_Solar_Radiation_(W/m2) Direct_Solar_Radiation_(W/m2) 24h_Diffuse_Solar_Radiation_(W/m2) Equipment_Electric_Power_(kWh) 12h_Diffuse_Solar_Radiation_(W/m2) 12h_Direct_Solar_Radiation_(W/m2) 24h_Direct_Solar_Radiation_(W/m2) Outdoor_Drybulb_Temperature_(C) Outdoor_Relative_Humidity_(%) 12h_Outdoor_Drybulb_Temperature_(C) 24h_Outdoor_Drybulb_Temperature_(C) 6h_Outdoor_Drybulb_Temperature_(C) Occupant_Count_(people) 12h_Outdoor_Relative_Humidity_(%) Cooling_Load_(kWh) 6h_Outdoor_Relative_Humidity_(%) 24h_Outdoor_Relative_Humidity_(%) 12h_Prediction_Electricity_Pricing__$/kWh_ Electricity_Pricing__$/kWh_ 6h_Prediction_Electricity_Pricing__$/kWh_ 24h_Prediction_Electricity_Pricing__$/kWh_ 6h_Diffuse_Solar_Radiation_(W/m2) Average_Unmet_Cooling_Setpoint_Difference_(C) kg_CO2/kWh Indoor_Temperature_(C)
feature_infos=[0:687.15852178569139] [1:24] [0:408.69999999999999] [0:886.92999999999995] [0:486.88891634473225] [0.39715520629195489:8.3977398689543179] [0:524.90876332100106] [0:1096.818864330259] [0:1148.8024499653848] [21.379999999999999:40.32] [24.120000000000001:98.25] [20.812239003382171:41.761423383460262] [20.947013524362529:40.33298102857114] [21.385895012807637:40.448030901483051] [0:2] [18.750454935186248:100] [0:5.7120455301242288] [19.430299457014652:100] [16.665542474905589:100] [0.028930000000000001:0.05867] [0.028930000000000001:0.05867] [0.028930000000000001:0.05867] [0.028930000000000001:0.05867] [0:448.59393372529718] [-0.26199352089311739:0.092478093357026794] [0.33751525247131398:0.54505021691256927] [22.77789557214593:24.444466550450691]
tree_sizes=1494 1507 1532 1528 1548 1535 1528 1517 1518 1376 1536 1519 1488 1510 1506 1503 1397 1533 1508 1522 1513 1519 1524 1537 1492 1538 1570 1562 1505 1496 1424 1514 1410 1368 1489 1384 1420 1450 1363 1357 1198 1297 1311 1401 1205 1187 1232 1290 1479 1240 1205 1383 1125 1132 1360 1215 1416 983 1010 1139 1316 1131 1236 1079 1105 1130 1096 1057 1077 1063 1317 771 1000 983 1265 866 891 614 1139 891

Tree=0
num_leaves=16
num_cat=0
split_feature=0 0 0 0 0 0 0 0 0 0 0 0 0 0 0
split_gain=2.29612e+07 1.82813e+06 1.41498e+06 222805 149785 140909 108243 38427.6 25182.7 20573.2 14893.3 14313.4 9852.06 2952.69 2853.14
threshold=267.93788541802502 491.96019737094161 99.885893180609756 372.15877522979605 591.83792254323657 179.84314958096294 35.825706835636552 429.46876122877069 638.10924504559512 551.38861713573863 230.09959639665263 22.309058836359188 311.70364619134472 68.758391293228883 125.69057196187192
decision_type=2 2 2 2 2 2 2 2 2 2 2 2 2 2 2
left_child=2 3 6 12 9 14 11 -5 -6 -3 -7 -1 -2 -8 -4
right_child=1 4 5 7 8 10 13 -9 -10 -11 -12 -13 -14 -15 -16
leaf_value=172.71501690961298 202.31325215436394 225.41572334916106 184.53950383283075 213.12635341281845 234.1360098527056 193.18112815238413 178.4393810631571 219.0913443818759 238.58794285870965 230.1968404281541 197.72922178259202 175.64603832447571 206.15748046653843 180.5439067055521 186.72015176234024
leaf_weight=224 15.000000000000002 18 12.000000000000002 27 27 12.000000000000002 12.000000000000002 18 24 18 18 18 11.999999999999998 14.999999999999998 11.999999999999998
leaf_count=224 15 18 12 27 27 12 12 18 24 18 18 18 12 15 12
internal_value=191.882 222.99 176.569 211.203 232.745 191.341 173.603 215.512 236.231 227.806 195.91 172.933 204.022 179.609 185.63
internal_weight=0 159 323 72 87 54 269 45 51 36 30 242 27 27 24
internal_count=482 159 323 72 87 54 269 45 51 36 30 242 27 27 24
is_linear=0
shrinkage=1


Tree=1
num_leaves=16
num_cat=0
split_feature=0 0 0 0 0 0 0 0 0 0 0 4 0 0 2
split_gain=1.85986e+07 1.48079e+06 1.14614e+06 180472 121931 114136 87676.7 31126.4 19951.8 17102.2 12063.6 11652.3 7980.17 2391.68 2336.38
threshold=267.93788541802502 491.96019737094161 99.885893180609756 372.15877522979605 598.49159565106504 179.84314958096294 35.825706835636552 429.46876122877069 551.38861713573863 632.36260193472901 230.09959639665263 38.851864395295173 311.70364619134472 68.758391293228883 130.04500000000004
decision_type=2 2 2 2 2 2 2 2 2 2 2 2 2 2 2
left_child=2 3 6 12 8 14 11 -5 -3 -6 -7 -1 -2 -8 -4
right_child=1 4 5 7 9 10 13 -9 -10 -11 -12 -13 -14 -15 -16
leaf_value=-17.25656192249247 9.3881861877441377 30.180411105685767 -6.5344880030705355 19.119976411042391 38.010884166899181 1.1692747721448538 -12.098297882080075 24.488469272189672 34.717505028134305 41.815891407154226 5.2625591701931427 -14.676774035002055 12.847991371154786 -10.204224446614583 -4.5542859684337271
leaf_weight=223 15.000000000000002 18 13.000000000000002 27 21 12.000000000000002 12.000000000000002 18 21 27 18 19 11.999999999999998 14.999999999999998 10.999999999999998
leaf_count=223 15 18 13 27 21 12 12 18 21 27 18 19 12 15 11
internal_value=0 27.9975 -13.7821 17.3893 36.7767 -0.486817 -16.451 21.2674 32.6235 40.1512 3.62525 -17.054 10.9259 -11.046 -5.6269
internal_weight=0 159 323 72 87 54 269 45 39 48 30 242 27 27 24
internal_count=482 159 323 72 87 54 269 45 39 48 30 242 27 27 24
is_linear=0
shrinkage=0.1


Tree=2
num_leaves=16
num_cat=0
split_feature=0 0 0 0 0 0 0 0 0 0 0 0 0 0 0
split_gain=1.50649e+07 1.1997e+06 928370 132984 116761 92734 71018.1 22990.3 22988.5 13437.7 9569.46 5744.23 5573.32 3083.53 1975.71
threshold=267.93788541802502 482.35266010692504 99.885893180609756 353.11301562976502 583.35909686961884 191.58447424418529 35.825706835636552 626.41552195601673 417.71776654472609 526.36409674171705 22.309058836359188 239.77368222065829 129.05127696284308 304.11917870848453 72.135296633937202
decision_type=2 2 2 2 2 2 2 2 2 2 2 2 2 2 2
left_child=2 3 6 13 9 12 10 -6 -5 -3 -1 -7 -4 -2 -8
right_child=1 4 5 8 7 11 14 -9 -10 -11 -12 -13 -14 -15 -16
leaf_value=-15.52687269619533 8.1323443094889303 25.40023282368978 -5.8672128041585276 16.369100443522136 33.427116789641204 2.0751356909672416 -10.706542256673174 37.449353332519529 20.899598984491259 29.595108758835568 -13.13029670715332 5.01049664815267 -2.9758498589197799 10.399328422546388 -8.9850422541300468
leaf_weight=224 12.000000000000002 11.999999999999998 15.000000000000002 24 27 12.000000000000002 15.000000000000002 30 21 21 18 14.999999999999998 11.999999999999998 11.999999999999998 11.999999999999998
leaf_count=224 12 12 15 24 27 12 15 30 21 21 18 15 12 12 12
internal_value=0 25.1978 -12.4038 15.2772 32.8035 -0.438135 -14.8059 35.5441 18.4833 28.0697 -15.3486 3.70589 -4.58216 9.26584 -9.94143
internal_weight=0 159 323 69 90 54 269 57 45 33 242 27 27 24 27
internal_count=482 159 323 69 90 54 269 57 45 33 242 27 27 24 27
is_linear=0
shrinkage=0.1


Tree=3
num_leaves=16
num_cat=0
split_feature=0 0 0 0 0 0 0 0 0 0 0 0 0 0 0
split_gain=1.22025e+07 972646 751980 120255 81193.3 75899.9 57524.7 18069.3 15733 10949 10515.9 7903.02 7785.84 1636.88 1594.57
threshold=267.93788541802502 491.96019737094161 99.885893180609756 384.2960108978541 601.91685410628656 179.84314958096294 35.825706835636552 446.09083056276785 561.35884639646224 650.72187301003771 315.9525481862193 230.09959639665263 1.6815734031754033 68.758391293228883 125.69057196187192
decision_type=2 2 2 2 2 2 2 2 2 2 2 2 2 2 2
left_child=2 3 6 10 8 14 12 -5 -3 -6 -2 -7 -1 -8 -4
right_child=1 4 5 7 9 11 13 -9 -10 -11 -12 -13 -14 -15 -16
leaf_value=-13.988600821516634 7.7162039438883454 24.695555405389698 -5.4010201772054023 15.988471871835214 31.64151306152344 0.97110834618409447 -9.8178136825561495 20.317271321614584 28.566451735723589 34.950443318684897 11.537907028198243 4.2841762754652235 -11.973695191882905 -8.2508675130208342 -3.7708012104034427
leaf_weight=221 18.000000000000004 21 12.000000000000002 27 30 12.000000000000002 12.000000000000002 14.999999999999998 21 14.999999999999998 11.999999999999998 18 21 14.999999999999998 11.999999999999998
leaf_count=221 18 21 12 27 30 12 12 15 21 15 12 18 21 15 12
internal_value=0 22.678 -11.1635 14.0805 29.7932 -0.394322 -13.3253 17.5345 26.631 32.7445 9.24489 2.95895 -13.8138 -8.94729 -4.58591
internal_weight=0 159 323 72 87 54 269 42 42 45 30 30 242 27 24
internal_count=482 159 323 72 87 54 269 42 42 45 30 30 242 27 24
is_linear=0
shrinkage=0.1


Tree=4
num_leaves=16
num_cat=0
split_feature=0 0 0 0 0 0 0 0 0 0 0 0 0 4 0
split_gain=9.88607e+06 737425 669314 92115.2 68851 56768.9 46666.4 15713.2 12515.6 11957.3 6568.2 4943.04 4288.35 3848.92 3691.89
threshold=294.12631031700511 511.19662065866697 99.885893180609756 390.40449646439055 191.58447424418529 611.90566907398704 31.001628907845127 456.92402115541114 567.88834999537767 326.67128244104327 657.7810542567413 245.88264482122534 59.992981526363586 9.3530661407103945 129.05127696284308
decision_type=2 2 2 2 2 2 2 2 2 2 2 2 2 2 2
left_child=2 3 6 9 14 8 13 -5 -3 -2 -7 -6 -8 -1 -4
right_child=1 5 4 7 11 10 12 -9 -10 -11 -12 -13 -14 -15 -16
leaf_value=-12.590502978018506 7.4145569271511498 22.865444365001864 -4.7729938507080067 14.858107277199075 1.9499318949381508 28.995750709816264 -9.9784990946451835 18.89484090169271 26.208288828531906 11.489773305257161 31.807540384928387 4.5171727498372398 -7.6087540399460565 -10.935176391601564 -2.4197324732939407
leaf_weight=221 18.000000000000004 21 15.000000000000002 27 15.000000000000002 27 11.999999999999998 14.999999999999998 24 11.999999999999998 11.999999999999998 14.999999999999998 21 14.999999999999998 11.999999999999998
leaf_count=221 18 21 15 27 15 27 12 15 24 12 12 15 21 15 12
internal_value=0 20.7031 -9.90699 13.2768 -0.0635987 27.0684 -11.9928 16.2998 24.6483 9.04464 29.8609 3.23355 -8.47048 -12.4853 -3.7271
internal_weight=0 156 326 72 57 84 269 42 45 30 39 30 33 236 27
internal_count=482 156 326 72 57 84 269 42 45 30 39 30 33 236 27
is_linear=0
shrinkage=0.1


Tree=5
num_leaves=16
num_cat=0
split_feature=0 0 0 0 0 0 0 0 0 0 0 0 0 0 2
split_gain=8.00802e+06 682922 446608 82638.4 63141.1 50006.7 31162.6 14859.2 13106.4 6231.18 4085.17 3958.5 2578.42 1559.49 1053.16
threshold=260.2753914084721 482.35266010692504 85.56995186494477 353.11301562976502 575.42782231131889 179.84314958096294 29.153701705854989 620.35170700960498 424.68914868663541 526.36409674171705 230.09959639665263 49.340319167600519 299.27789965433936 124.16571796818438 1.0000000180025095e-35
decision_type=2 2 2 2 2 2 2 2 2 2 2 2 2 2 2
left_child=2 3 6 12 9 13 14 -6 -5 -3 -7 -8 -2 -4 -1
right_child=1 4 5 8 7 10 11 -9 -10 -11 -12 -13 -14 -15 -16
leaf_value=-11.332759391714674 5.3903853416442864 18.412096532185867 -4.7724286397298163 12.087437551992911 24.056177322952838 0.7882459610079724 -9.3592422993977866 27.219433778705021 15.571043650309244 21.353936004638673 3.2636750539143886 -7.2322735377720422 7.3570138549804689 -3.2429710714022324 -10.370500946044922
leaf_weight=218 12.000000000000002 12.000000000000002 12.000000000000002 27 27 12.000000000000002 14.999999999999998 33 18 18 14.999999999999998 21 14.999999999999998 14.999999999999998 11.999999999999998
leaf_count=218 12 12 12 27 27 12 15 33 18 18 15 21 15 15 12
internal_value=0 18.1158 -9.1711 10.8567 23.923 -0.879623 -10.8543 25.796 13.4809 20.1772 2.16348 -8.11851 6.48296 -3.92273 -11.2826
internal_weight=0 162 320 72 90 54 266 60 45 30 27 36 27 27 230
internal_count=482 162 320 72 90 54 266 60 45 30 27 36 27 27 230
is_linear=0
shrinkage=0.1


Tree=6
num_leaves=16
num_cat=0
split_feature=0 0 0 0 0 0 0 0 0 0 0 0 0 0 0
split_gain=6.48838e+06 484150 439797 62195.7 39362 37858.3 36733.7 9598.37 8579.2 6912.22 5761.98 5282.28 4412.92 1840.84 1061.87
threshold=294.12631031700511 511.19662065866697 111.71917833878005 397.13700121790947 205.04652447132213 605.81101020234337 49.340319167600519 326.67128244104327 456.92402115541114 561.35884639646224 657.7810542567413 22.309058836359188 137.22089415409701 251.96822515084042 74.974281071809841
decision_type=2 2 2 2 2 2 2 2 2 2 2 2 2 2 2
left_child=2 3 6 7 12 9 11 -2 -5 -3 -7 -1 -4 -6 -8
right_child=1 5 4 8 13 10 14 -9 -10 -11 -12 -13 -14 -15 -16
leaf_value=-10.190492762838092 6.0029543134901262 18.325635782877605 -3.6259515635172521 12.285981019337973 2.1787111918131505 23.312099965413413 -6.722802073160806 9.4280586751302078 15.334609883626303 20.917973772684732 25.904842122395834 -8.531822168259394 -1.0531370182832083 3.8404150803883876 -5.4607370694478359
leaf_weight=224 18 18 15.000000000000002 24 15.000000000000002 30 15.000000000000002 14.999999999999998 14.999999999999998 24 11.999999999999998 21 11.999999999999998 11.999999999999998 11.999999999999998
leaf_count=224 18 18 15 24 15 30 15 15 15 24 12 21 12 12 12
internal_value=0 16.7722 -8.02598 10.755 0.217384 21.9299 -9.66254 7.55982 13.4585 19.807 24.0529 -10.0483 -2.48248 2.91725 -6.16188
internal_weight=0 156 326 72 54 84 272 33 39 42 42 245 27 27 27
internal_count=482 156 326 72 54 84 272 33 39 42 42 245 27 27 27
is_linear=0
shrinkage=0.1


Tree=7
num_leaves=16
num_cat=0
split_feature=0 0 0 0 0 0 0 0 0 0 0 0 4 0 0
split_gain=5.25559e+06 392162 356235 50378.5 31883.2 30702.5 29770.8 7774.68 7022.88 6691.64 4024.73 3574.46 3475.44 1550.02 1312.97
threshold=294.12631031700511 511.19662065866697 111.71917833878005 397.13700121790947 205.04652447132213 611.90566907398704 35.825706835636552 326.67128244104327 446.09083056276785 575.42782231131889 657.7810542567413 137.22089415409701 38.851864395295173 245.88264482122534 74.974281071809841
decision_type=2 2 2 2 2 2 2 2 2 2 2 2 2 2 2
left_child=2 3 6 7 11 9 12 -2 -5 -3 -7 -4 -1 -6 -8
right_child=1 5 4 8 13 10 14 -9 -10 -11 -12 -13 -14 -15 -16
leaf_value=-9.1752508154899015 5.4026587592230904 16.816446431477868 -3.2633564376831048 10.870304834275018 1.7784086008866624 21.11331561053241 -6.2650607426961251 8.4852528889973957 13.562112384372288 19.260762314569384 23.314358011881509 -0.94782333249847095 -7.7663403962787827 3.3032120641072589 -4.9146634419759119
leaf_weight=223 18 24 15.000000000000002 21 12.000000000000002 27 18.000000000000004 14.999999999999998 18 21 11.999999999999998 11.999999999999998 19 14.999999999999998 11.999999999999998
leaf_count=223 18 24 15 21 12 27 18 15 18 21 12 12 19 15 12
internal_value=0 15.095 -7.22339 9.67946 0.195646 19.7369 -8.69628 6.80384 12.1127 17.9571 21.7906 -2.23423 -9.06463 2.62552 -5.7249
internal_weight=0 156 326 72 54 84 272 33 39 45 39 27 242 27 30
internal_count=482 156 326 72 54 84 272 33 39 45 39 27 242 27 30
is_linear=0
shrinkage=0.1


Tree=8
num_leaves=16
num_cat=0
split_feature=0 0 0 0 0 0 0 0 0 0 0 0 0 2 8
split_gain=4.25749e+06 364556 237681 39528.2 39041.1 26959.2 16510.4 8749.38 5878.31 4754.24 2471.07 2093.38 1375.14 690.11 222.71
threshold=260.2753914084721 470.89492240009264 85.56995186494477 353.11301562976502 575.42782231131889 179.84314958096294 26.004298198679859 638.10924504559512 410.79203152752024 540.10947511399502 59.992981526363586 230.09959639665263 304.11917870848453 130.04500000000004 1.0000000180025095e-35
decision_type=2 2 2 2 2 2 2 2 2 2 2 2 2 2 2
left_child=2 3 6 12 9 13 14 -6 -5 -3 -8 -7 -2 -4 -1
right_child=1 4 5 8 7 11 10 -9 -10 -11 -12 -13 -14 -15 -16
leaf_value=-8.2628337772211164 4.0781859334309889 13.436685774061415 -3.2918798565864558 8.4376949855259493 17.828639178805883 0.6116134077310561 -6.7512418292817618 20.293584823608398 10.803785959879558 15.84723378499349 -5.1545220481024856 2.3836392593383788 5.5143987337748213 -2.2629527915607799 -7.7801610565185548
leaf_weight=217 15.000000000000002 18 16.000000000000004 21 36 12.000000000000002 21 24 21 14.999999999999998 18 14.999999999999998 11.999999999999998 10.999999999999998 9.9999999999999982
leaf_count=217 15 18 16 21 36 12 21 24 21 15 18 15 12 11 10
internal_value=0 13.209 -6.68707 7.70169 17.2951 -0.638308 -7.91502 18.8146 9.62074 14.5324 -6.01429 1.59607 4.7165 -2.87269 -8.24157
internal_weight=0 162 320 69 93 54 266 60 42 33 39 27 27 27 227
internal_count=482 162 320 69 93 54 266 60 42 33 39 27 27 27 227
is_linear=0
shrinkage=0.1


Tree=9
num_leaves=14
num_cat=0
split_feature=6 10 1 3 9 1 3 10 4 1 3 15 16
split_gain=3.00417e+06 537068 225650 62653.4 56553.9 25949.3 13951.5 8045.95 3657.55 2627.81 371.834 29.8563 0.83728
threshold=1.0000000180025095e-35 57.780000000000008 16.500000000000004 429.76500000000004 27.695000000000004 17.500000000000004 36.190000000000005 68.220000000000013 140.30993489122196 7.5000000000000009 323.40500000000003 91.703614695349373 3.5483070080656502
decision_type=2 2 2 2 2 2 2 2 2 2 2 2 2
left_child=1 2 3 -1 8 -4 11 -6 -3 -8 -11 12 -2
right_child=6 4 5 -5 7 -7 9 -9 -10 10 -12 -13 -14
leaf_value=8.8953217155055011 -7.43932737100004 -3.0418133567361263 7.3565297365188602 15.169765698179908 2.5658740962545079 1.5670730082194009 -6.3119482943886212 5.409356880187989 -0.63161495149135594 -5.0753858126126792 -4.2643002700805672 -7.2961425542831426 -7.4096698760986328
leaf_weight=19 198 17.000000000000004 15.999999999999998 98 24 15.000000000000002 19 17 9.9999999999999982 13.000000000000002 9.9999999999999982 15.999999999999998 9.9999999999999982
leaf_count=19 198 17 16 98 24 15 19 17 10 13 10 16 10
internal_value=0 8.76098 12.1409 14.1508 1.4046 4.55518 -7.11418 3.74488 -2.14915 -5.44167 -4.72274 -7.42778 -7.4379
internal_weight=0 216 148 117 68 31 266 41 27 42 23 224 208
internal_count=482 216 148 117 68 31 266 41 27 42 23 224 208
is_linear=0
shrinkage=0.1


Tree=10
num_leaves=16
num_cat=0
split_feature=0 0 0 0 0 0 0 0 0 0 0 8 0 0 0
split_gain=2.80748e+06 218401 186023 28928.8 17783.5 17673.5 15579.4 5140.53 3275.54 3093.11 2367.57 2274.69 1561.18 964.002 390.729
threshold=294.12631031700511 517.53978419121631 111.71917833878005 390.40449646439055 615.69423073993039 205.04652447132213 49.340319167600519 456.92402115541114 575.42782231131889 326.67128244104327 657.7810542567413 31.272178505465401 137.22089415409701 251.96822515084042 74.974281071809841
decision_type=2 2 2 2 2 2 2 2 2 2 2 2 2 2 2
left_child=2 3 6 9 8 12 11 -5 -3 -2 -6 -1 -4 -7 -8
right_child=1 4 5 7 10 13 14 -9 -10 -11 -12 -13 -14 -15 -16
leaf_value=-6.6907469728067852 3.909803485870361 12.395730990455265 -2.4074695587158197 7.8751343903718167 15.716279347737633 1.3564231554667154 -4.4042767079671217 10.056820551554363 14.105875078837077 5.9824806849161787 17.436587015787762 -5.6249366413463244 -0.87718601127465579 2.5589215119679771 -3.6387097199757896
leaf_weight=223 18.000000000000004 21 15.000000000000002 27 24 15.000000000000002 15.000000000000002 18 24 11.999999999999998 11.999999999999998 22 11.999999999999998 11.999999999999998 11.999999999999998
leaf_count=223 18 21 15 27 24 15 15 18 24 12 12 22 12 12 12
internal_value=0 11.0327 -5.27944 7.14424 14.6331 0.0817617 -6.3438 8.74781 13.3078 4.73887 16.2897 -6.59504 -1.72734 1.89087 -4.06402
internal_weight=0 156 326 75 81 54 272 45 45 30 36 245 27 27 27
internal_count=482 156 326 75 81 54 272 45 45 30 36 245 27 27 27
is_linear=0
shrinkage=0.1


Tree=11
num_leaves=16
num_cat=0
split_feature=0 0 0 0 0 0 0 0 0 0 0 0 12 0 0
split_gain=2.27406e+06 176904 150679 23433.1 14451.6 14404.7 12619.3 4952.53 2789.75 2680.94 1935.19 1861.67 1439.05 384.836 316.49
threshold=294.12631031700511 517.53978419121631 111.71917833878005 384.2960108978541 217.70208383118117 615.69423073993039 49.340319167600519 446.09083056276785 147.07668861018783 567.88834999537767 645.73290081417292 22.309058836359188 34.322767861605215 251.96822515084042 74.974281071809841
decision_type=2 2 2 2 2 2 2 2 2 2 2 2 2 2 2
left_child=2 3 6 12 8 9 11 -5 -4 -3 -7 -1 -2 -6 -8
right_child=1 5 4 7 13 10 14 -9 -10 -11 -12 -13 -14 -15 -16
leaf_value=-6.0199396848678592 3.5130799349616546 11.031697506374783 -2.1769872135586206 6.8596931598804618 1.5021591345469154 13.927563815646701 -3.9638489532470693 8.9072822570800785 -0.20857290476560594 12.607246681495951 15.393923950195314 -5.0352469852992465 5.024885883331299 2.3030293464660647 -3.2748387495676674
leaf_weight=224 17.000000000000004 18 18.000000000000004 27 12.000000000000002 18 15.000000000000002 21 11.999999999999998 27 18 21 9.9999999999999982 11.999999999999998 11.999999999999998
leaf_count=224 17 18 18 27 12 18 15 21 12 27 18 21 10 12 12
internal_value=0 9.92942 -4.7515 6.42981 0.0735855 13.1698 -5.70942 7.75551 -1.38962 11.977 14.6607 -5.93554 4.07301 1.90259 -3.65762
internal_weight=0 156 326 75 54 81 272 48 30 45 36 245 27 24 27
internal_count=482 156 326 75 54 81 272 48 30 45 36 245 27 24 27
is_linear=0
shrinkage=0.1


Tree=12
num_leaves=16
num_cat=0
split_feature=0 0 0 0 0 0 0 0 0 0 0 0 0 24 0
split_gain=1.84199e+06 143293 122261 19308 15272.9 11709.3 7028.65 3525.85 2595.27 2239.23 1659.24 1498.55 881.935 380.293 229.45
threshold=294.12631031700511 517.53978419121631 85.56995186494477 405.04670552529581 179.84314958096294 605.81101020234337 29.153701705854989 353.11301562976502 466.37531191632894 645.73290081417292 551.38861713573863 230.09959639665263 59.992981526363586 3.5556470585618176e-06 1.2308560157227673
decision_type=2 2 2 2 2 2 2 2 2 2 2 2 2 2 2
left_child=2 3 6 7 13 10 14 -2 -5 -7 -3 -6 -8 -4 -1
right_child=1 5 4 8 11 9 12 -9 -10 -11 -12 -13 -14 -15 -16
leaf_value=-5.4229008910852841 3.2804164341517854 9.6267052968343094 -1.4733061838150021 6.6834672927856449 0.3528990204135577 12.379055309295655 -4.3917608896891274 5.2877887471516933 8.3602324930826821 13.854530588785806 11.039938326235172 1.753752660751343 -3.4018480512830949 -2.2504774205824911 -4.9737531979878753
leaf_weight=218 21 11.999999999999998 10.000000000000002 24 11.999999999999998 24 18 14.999999999999998 14.999999999999998 18 27 21 18 17 11.999999999999998
leaf_count=218 21 12 10 24 12 24 18 15 15 18 27 21 18 17 12
internal_value=0 8.93647 -4.27635 5.78683 -0.198793 11.8528 -5.1961 4.11682 7.32838 13.0114 10.6051 1.24435 -3.8968 -1.96264 -5.39947
internal_weight=0 156 326 75 60 81 266 36 39 42 39 33 36 27 230
internal_count=482 156 326 75 60 81 266 36 39 42 39 33 36 27 230
is_linear=0
shrinkage=0.1


Tree=13
num_leaves=16
num_cat=0
split_feature=0 0 0 0 0 0 0 0 0 0 0 0 3 24 0
split_gain=1.49274e+06 140670 72354.4 16565.7 15328.3 8285.75 5695.65 2842.56 2682.49 1973.31 939.716 882.166 654.933 314.396 13.9236
threshold=255.47189978865663 470.89492240009264 85.56995186494477 591.83792254323657 353.11301562976502 179.84314958096294 22.309058836359188 540.10947511399502 643.06683058051306 407.83390734311348 59.992981526363586 304.11917870848453 417.83000000000004 3.9685805006683958e-06 0.46112941669935287
decision_type=2 2 2 2 2 2 2 2 2 2 2 2 2 2 2
left_child=2 4 6 7 11 13 14 -3 -5 -6 -8 -2 -7 -4 -1
right_child=1 3 5 8 9 12 10 -9 -10 -11 -12 -13 -14 -15 -16
leaf_value=-4.882790336968764 2.2259781837463377 7.862067370944553 -1.3848574002583818 10.887093633015951 4.8368200514051658 0.26490170781811073 -4.0174942334493009 9.5244750340779625 12.360706728980656 6.2219195683797208 -3.0616632249620226 3.332879400253296 1.3096769452095032 -2.0715847905476887 -4.7720664660135901
leaf_weight=212 18.000000000000004 18 12.000000000000002 30 18 12.000000000000002 24 24 21 24 18 11.999999999999998 11.999999999999998 14.999999999999998 11.999999999999998
leaf_count=212 18 18 12 30 18 12 24 24 21 24 18 12 12 15 12
internal_value=0 7.7136 -4.01496 10.2827 4.39515 -0.564649 -4.67649 8.81201 11.4939 5.62831 -3.60785 2.66874 0.787289 -1.76637 -4.87686
internal_weight=0 165 317 93 72 51 266 42 51 42 42 30 24 27 224
internal_count=482 165 317 93 72 51 266 42 51 42 42 30 24 27 224
is_linear=0
shrinkage=0.1


Tree=14
num_leaves=16
num_cat=0
split_feature=0 0 0 0 0 0 0 0 0 0 0 0 0 0 15
split_gain=1.20912e+06 113943 58607.1 13454.7 12415.9 6786.06 4639.98 2471.15 1947.36 1598.39 1189.08 714.554 569.307 143.935 138.17
threshold=255.47189978865663 470.89492240009264 85.56995186494477 587.82495589224288 353.11301562976502 147.07668861018783 29.153701705854989 643.06683058051306 540.10947511399502 407.83390734311348 217.70208383118117 304.11917870848453 59.992981526363586 1.2308560157227673 56.012253373021714
decision_type=2 2 2 2 2 2 2 2 2 2 2 2 2 2 2
left_child=2 4 6 8 11 14 13 -5 -3 -6 -7 -2 -8 -1 -4
right_child=1 3 5 7 9 10 12 -9 -10 -11 -12 -13 -14 -15 -16
leaf_value=-4.3926365598626091 2.0033803754382662 7.0758605745103624 -1.447773628234863 9.7369864955092922 4.3531380547417537 -0.16259658268342411 -3.5508353975084095 11.124635896228609 8.4933161780947728 5.599727551142375 1.1729274304707846 2.9995914936065677 -2.7554968833923343 -4.0368998527526854 -1.934458691733224
leaf_weight=218 18.000000000000004 18 10.000000000000002 33 18 12.000000000000002 18 21 21 24 14.999999999999998 11.999999999999998 18 11.999999999999998 13.999999999999998
leaf_count=218 18 18 10 33 18 12 18 21 21 24 15 12 18 12 14
internal_value=0 6.94224 -3.61347 9.25444 3.95564 -0.508184 -4.20884 10.2766 7.83911 5.06547 0.579361 2.40186 -3.15317 -4.37408 -1.73167
internal_weight=0 165 317 93 72 51 266 54 39 42 27 30 36 230 24
internal_count=482 165 317 93 72 51 266 54 39 42 27 30 36 230 24
is_linear=0
shrinkage=0.1


Tree=15
num_leaves=16
num_cat=0
split_feature=0 0 0 0 0 0 0 0 0 0 0 0 8 0 15
split_gain=979629 76472.2 65001.8 11257.6 6254.36 5726.53 5392.45 1818.97 1690.47 1172.64 956.805 892.142 539.11 377.501 176.546
threshold=294.12631031700511 526.36409674171705 111.71917833878005 405.04670552529581 217.70208383118117 620.35170700960498 32.419828931202254 326.67128244104327 466.37531191632894 147.07668861018783 587.82495589224288 657.7810542567413 31.272178505465401 65.684646773337462 73.971604195471244
decision_type=2 2 2 2 2 2 2 2 2 2 2 2 2 2 2
left_child=2 3 6 7 9 10 12 -2 -5 -4 -3 -7 -1 -8 -6
right_child=1 5 4 8 14 11 13 -9 -10 -11 -12 -13 -14 -15 -16
leaf_value=-3.9534554947652092 2.2945841789245605 7.5660697778066002 -1.4225303279028996 4.8658520221710209 1.5249873797098792 9.3386776878720248 -2.9969430128733321 3.7162321832444931 6.1478467729356554 -0.14633692440887291 8.4903477623349151 10.419548288981121 -3.352523732185364 -2.2938448815118697 0.98254497249921169
leaf_weight=223 18 24 18.000000000000004 24 12.000000000000002 21 11.999999999999998 18 18 11.999999999999998 21 11.999999999999998 15.999999999999998 21 11.999999999999998
leaf_count=223 18 24 18 24 12 21 12 18 18 12 21 12 16 21 12
internal_value=0 6.51709 -3.11861 4.30303 0.0505333 8.73115 -3.74778 3.00541 5.41528 -0.912053 7.9974 9.73172 -3.91323 -2.54952 1.25377
internal_weight=0 156 326 78 54 78 272 36 42 30 45 33 239 33 24
internal_count=482 156 326 78 54 78 272 36 42 30 45 33 239 33 24
is_linear=0
shrinkage=0.1


Tree=16
num_leaves=14
num_cat=0
split_feature=6 10 1 3 9 1 8 2 2 1 3 6 15
split_gain=687256 122250 52042.5 13583.6 12845.9 6044.16 3374.25 3350.57 1035.82 628.432 98.7979 8.88515 3.00378
threshold=1.0000000180025095e-35 57.780000000000008 16.500000000000004 405.44000000000005 27.695000000000004 17.500000000000004 211.25459973798155 38.735000000000007 150.66500000000005 7.5000000000000009 246.465 70.397617129039546 92.907578952590583
decision_type=2 2 2 2 2 2 2 2 2 2 2 2 2
left_child=1 2 3 -1 8 -4 -6 11 -3 -9 -11 -2 -13
right_child=7 4 5 -5 6 -7 -8 9 -10 10 -12 12 -14
leaf_value=4.060994958877564 -3.4642324256896972 -1.488141340367934 3.5119001567363739 7.197023129227138 0.1987126371264458 0.71779288450876866 2.3112280937933156 -3.0086450074848377 -0.20551955223083498 -2.4479534149169915 -2.0330464442571006 -3.5580476480371814 -3.6141815948486329
leaf_weight=15.999999999999998 9.9999999999999982 17.000000000000004 15.999999999999998 101 9.9999999999999982 15.000000000000002 31 19 9.9999999999999982 11.000000000000002 11.999999999999998 204 9.9999999999999982
leaf_count=16 10 17 16 101 10 15 31 19 10 11 12 204 10
internal_value=0 4.19034 5.80292 6.76816 0.680612 2.15991 1.79598 -3.40268 -1.0131 -2.58305 -2.23148 -3.55637 -3.56067
internal_weight=0 216 148 117 68 31 41 266 27 42 23 224 214
internal_count=482 216 148 117 68 31 41 266 27 42 23 224 214
is_linear=0
shrinkage=0.1


Tree=17
num_leaves=16
num_cat=0
split_feature=0 0 0 0 0 0 0 0 0 0 0 0 8 0 0
split_gain=646129 53135.5 41796.1 7238.62 4638.49 4129.87 3628.53 1347.36 798.124 726.194 722.635 599.058 541.13 176.824 159.174
threshold=294.12631031700511 526.36409674171705 121.85126842534468 390.40449646439055 620.35170700960498 49.340319167600519 217.70208383118117 466.37531191632894 575.42782231131889 326.67128244104327 657.7810542567413 147.07668861018783 31.272178505465401 78.17198972478819 251.96822515084042
decision_type=2 2 2 2 2 2 2 2 2 2 2 2 2 2 2
left_child=2 3 5 9 8 12 11 -5 -3 -2 -6 -4 -1 -7 -8
right_child=1 4 6 7 10 13 14 -9 -10 -11 -12 -13 -14 -15 -16
leaf_value=-3.2026362047067138 1.8269384225209551 5.9621650907728414 -1.1199885304768877 3.7983952267964685 7.685107676188152 -2.1111271964179141 0.73369254469871503 4.8927702797783752 6.8218185424804689 2.8312306722005207 8.6578913370768245 -0.17204999191065629 -2.6827955506064676 -1.6155579646428426 1.2487560490767162
leaf_weight=223 18.000000000000004 18 15.000000000000002 30 21 18.000000000000004 12.000000000000002 18 27 11.999999999999998 11.999999999999998 11.999999999999998 22 11.999999999999998 11.999999999999998
leaf_count=223 18 18 15 30 21 18 12 18 27 12 12 12 22 12 12
internal_value=0 5.29277 -2.53273 3.4472 7.13833 -3.02035 0.0965678 4.20879 6.47796 2.22866 8.03885 -0.698683 -3.15596 -1.9129 0.991224
internal_weight=0 156 326 78 78 275 51 48 45 30 33 27 245 30 24
internal_count=482 156 326 78 78 275 51 48 45 30 33 27 245 30 24
is_linear=0
shrinkage=0.1


Tree=18
num_leaves=16
num_cat=0
split_feature=0 0 0 0 0 0 0 0 0 0 0 0 3 0 0
split_gain=523540 40532.2 37611 4312.36 3789.87 3623.9 3345.2 919.21 680.141 542.931 541.851 485.237 439.137 189.458 143.227
threshold=299.27789965433936 121.85126842534468 526.36409674171705 410.79203152752024 615.69423073993039 217.70208383118117 49.340319167600519 353.11301562976502 657.7810542567413 470.89492240009264 583.35909686961884 147.07668861018783 18.735000000000003 251.96822515084042 78.17198972478819
decision_type=2 2 2 2 2 2 2 2 2 2 2 2 2 2 2
left_child=1 6 3 7 10 11 12 -2 -6 -5 -4 -3 -1 -7 -8
right_child=2 5 4 9 8 13 14 -9 -10 -11 -12 -13 -14 -15 -16
leaf_value=-2.884480176036714 1.8832083320617679 -1.0079896958669026 5.4199730827694852 3.7007049923851376 6.8700524648030594 0.66032329301039361 -1.9000145170423715 2.908159673781622 7.792102305094402 4.4884182993570967 6.1383385976155607 -0.15484500403205556 -2.4340978701909384 1.173291614982817 -1.4540021896362305
leaf_weight=221 14.999999999999998 15.000000000000002 21 21 24 12.000000000000002 18.000000000000004 21 11.999999999999998 14.999999999999998 21 11.999999999999998 24 18 11.999999999999998
leaf_count=221 15 15 21 21 24 12 18 21 12 15 21 12 24 18 12
internal_value=0 -2.21528 4.90314 3.25501 6.4245 0.211669 -2.71832 2.4811 7.1774 4.02892 5.77916 -0.628814 -2.84036 0.968104 -1.72161
internal_weight=0 332 150 72 78 57 275 36 36 36 42 27 245 30 30
internal_count=482 332 150 72 78 57 275 36 36 36 42 27 245 30 30
is_linear=0
shrinkage=0.1


Tree=19
num_leaves=16
num_cat=0
split_feature=0 0 0 0 0 0 0 0 0 16 0 0 8 0 13
split_gain=424067 32831.1 30464.9 3493.01 3069.8 2935.36 2709.61 744.56 550.913 474.214 448.393 393.042 358.673 153.461 126.098
threshold=299.27789965433936 121.85126842534468 526.36409674171705 410.79203152752024 615.69423073993039 217.70208383118117 49.340319167600519 353.11301562976502 657.7810542567413 2.2207830724522721 575.42782231131889 147.07668861018783 31.272178505465401 251.96822515084042 28.256627706938371
decision_type=2 2 2 2 2 2 2 2 2 2 2 2 2 2 2
left_child=1 6 3 7 10 11 12 -2 -6 -5 -4 -3 -1 -7 -8
right_child=2 5 4 9 8 13 14 -9 -10 -11 -12 -13 -14 -15 -16
leaf_value=-2.5943285185125378 1.6948875617980956 -0.90719071070353174 4.8239512973361549 3.1127509435017906 6.1830472469329836 0.59429095784823083 -1.6944188213348388 2.6173437118530276 7.0128916422526046 3.8826650222142542 5.4842068831125896 -0.13936049863696098 -2.1711061737754132 1.0559624579217699 -1.2595082473754884
leaf_weight=223 14.999999999999998 15.000000000000002 18 11.999999999999998 24 12.000000000000002 20.000000000000004 21 11.999999999999998 24 24 11.999999999999998 22 18 9.9999999999999982
leaf_count=223 15 15 18 12 24 12 20 21 12 24 24 12 22 18 10
internal_value=0 -1.99375 4.41283 2.92951 5.78205 0.190502 -2.44648 2.23299 6.45966 3.62603 5.20124 -0.565933 -2.55632 0.871294 -1.54945
internal_weight=0 332 150 72 78 57 275 36 36 36 42 27 245 30 30
internal_count=482 332 150 72 78 57 275 36 36 36 42 27 245 30 30
is_linear=0
shrinkage=0.1


Tree=20
num_leaves=16
num_cat=0
split_feature=0 0 0 0 0 0 0 0 0 0 0 0 3 0 0
split_gain=343508 28208.1 22201 3930.49 2848.76 2507.53 1300 799.146 460.681 374.52 365.868 299.692 225.833 149.47 28.5972
threshold=294.12631031700511 526.36409674171705 85.56995186494477 390.40449646439055 179.84314958096294 620.35170700960498 29.153701705854989 446.09083056276785 591.83792254323657 657.7810542567413 326.67128244104327 245.88264482122534 210.59000000000003 65.684646773337462 0.87510067015646287
decision_type=2 2 2 2 2 2 2 2 2 2 2 2 2 2 2
left_child=2 3 6 10 12 8 14 -5 -3 -7 -2 -6 -4 -8 -1
right_child=1 5 4 7 11 9 13 -9 -10 -11 -12 -13 -14 -15 -16
leaf_value=-2.335417505308639 1.3313964102003308 4.4570587723343458 -1.2197137442502104 2.6676184177398685 0.23903270893626744 5.6112868536086316 -1.8520703815278552 3.4836790482203166 5.1101715299818258 6.3116027832031252 2.0442424694697063 0.84425218105316169 -0.63111541271209726 -1.4387635358174642 -2.1926068878173832
leaf_weight=215 18.000000000000004 27 11.000000000000002 24 18 21 21 24 18 11.999999999999998 11.999999999999998 14.999999999999998 15.999999999999998 14.999999999999998 14.999999999999998
leaf_count=215 18 27 11 24 18 21 21 24 18 12 12 15 16 15 15
internal_value=0 3.85915 -1.84671 2.51445 -0.109139 5.20385 -2.23864 3.07565 4.7183 5.86595 1.61653 0.514132 -0.870915 -1.67986 -2.3261
internal_weight=0 156 326 78 60 78 266 48 45 33 30 33 27 36 230
internal_count=482 156 326 78 60 78 266 48 45 33 30 33 27 36 230
is_linear=0
shrinkage=0.1


Tree=21
num_leaves=16
num_cat=0
split_feature=0 0 0 0 0 0 0 0 0 0 0 0 8 15 3
split_gain=278406 21590.8 20114.4 2865.76 1931.82 1754.79 1553.65 494.605 487.213 249.739 249.701 245.005 239.19 109.804 102.103
threshold=299.27789965433936 121.85126842534468 543.67253322860859 410.79203152752024 217.70208383118117 49.340319167600519 626.41552195601673 470.89492240009264 372.15877522979605 147.07668861018783 598.49159565106504 657.7810542567413 31.272178505465401 73.971604195471244 323.40500000000003
decision_type=2 2 2 2 2 2 2 2 2 2 2 2 2 2 2
left_child=1 5 3 8 9 12 10 -5 -2 -3 -4 -8 -1 -6 -7
right_child=2 4 6 7 13 14 11 -9 -10 -11 -12 -13 -14 -15 -16
leaf_value=-2.1020190551141988 1.4403645899560718 -0.7298161538441974 4.1770459334055579 2.6809609095255538 0.9126774804932728 -1.4220315484439623 5.0971027586195197 3.3672933306012838 2.1761281596289743 -0.11776403362552326 4.6697578218248159 5.6804423014322918 -1.7564054315740412 0.52919399626553065 -1.0497388913081243
leaf_weight=223 18 15.000000000000002 24 21 14.000000000000002 17.000000000000004 18.000000000000004 21 18 11.999999999999998 18 11.999999999999998 22 15.999999999999998 12.999999999999998
leaf_count=223 18 15 24 21 14 17 18 21 18 12 18 12 22 16 13
internal_value=0 -1.61545 3.57552 2.46295 0.155863 -1.98259 4.7808 3.02413 1.80825 -0.457793 4.38821 5.33044 -2.07098 0.708153 -1.2607
internal_weight=0 332 150 78 57 275 72 42 36 27 42 30 245 30 30
internal_count=482 332 150 78 57 275 72 42 36 27 42 30 245 30 30
is_linear=0
shrinkage=0.1


Tree=22
num_leaves=16
num_cat=0
split_feature=0 0 0 0 0 0 2 0 0 0 23 3 4 1 7
split_gain=225603 22070.3 10589.2 3110.61 2171.25 1217.03 846.508 506.527 437.238 372.632 270.484 184.827 155.891 136.919 2.11349
threshold=255.47189978865663 511.19662065866697 85.56995186494477 372.15877522979605 601.91685410628656 179.84314958096294 38.735000000000007 429.46876122877069 650.72187301003771 543.67253322860859 170.33881374291408 210.59000000000003 172.73717437516527 7.5000000000000009 63.769545983669538
decision_type=2 2 2 2 2 2 2 2 2 2 2 2 2 2 2
left_child=2 3 6 10 9 11 14 -5 -6 -3 -2 -4 -7 -8 -1
right_child=1 4 5 7 8 12 13 -9 -10 -11 -12 -13 -14 -15 -16
leaf_value=-1.8462334537506102 1.3513184014488671 3.1246459325154623 -1.0170103723352601 2.0482925379717791 4.3873189163208011 0.49263063711779448 -1.6005966939424212 2.7031253814697269 5.0485587819417326 3.7943763874195242 0.77846558541059496 -0.4845236510038376 -0.024322836995124816 -1.2378400802612306 -1.8932680691514063
leaf_weight=9.9999999999999982 17 11.999999999999998 11.000000000000002 27 30 14.000000000000002 19 21 14.999999999999998 27 15.999999999999998 15.999999999999998 9.9999999999999982 23 214
leaf_count=10 17 12 11 27 30 14 19 21 15 27 16 16 10 23 214
internal_value=0 2.99872 -1.56085 1.82096 4.13443 -0.2409 -1.81392 2.33478 4.60773 3.58831 1.07357 -0.701463 0.277233 -1.40194 -1.89117
internal_weight=0 165 317 81 84 51 266 48 45 39 33 27 24 42 224
internal_count=482 165 317 81 84 51 266 48 45 39 33 27 24 42 224
is_linear=0
shrinkage=0.1


Tree=23
num_leaves=16
num_cat=0
split_feature=0 0 0 0 0 0 0 11 0 5 0 0 8 15 0
split_gain=183104 15293.6 12209.1 1601.91 1349.36 1127.25 1056.06 376.505 313.812 218.673 160.71 159.695 158.547 79.1058 67.6949
threshold=304.11917870848453 121.85126842534468 543.67253322860859 429.46876122877069 217.70208383118117 49.340319167600519 626.41552195601673 26.35099173180723 372.15877522979605 1.014414532824796 147.07668861018783 598.49159565106504 19.415262734916102 75.643083933054086 251.96822515084042
decision_type=2 2 2 2 2 2 2 2 2 2 2 2 2 2 2
left_child=1 5 3 8 10 12 11 -5 -2 -8 -3 -4 -1 -7 -6
right_child=2 4 6 7 14 13 9 -9 -10 -11 -12 -13 -14 -15 -16
leaf_value=-1.7040655567635239 1.2729944427808126 -0.58708271026611314 3.379903785387675 2.8260994865780784 0.39489895304044093 -0.8762284293770789 4.0730547904968253 2.1239296754201251 1.8434632477936923 4.6142250061035162 -0.096099391835741704 3.7739325629340281 -1.4334456006685894 -1.201720816748483 0.69263719944726854
leaf_weight=221 14.999999999999998 15.000000000000002 24 21 11.999999999999998 16.000000000000004 16.000000000000004 11.999999999999998 27 13.999999999999998 11.999999999999998 18 24 13.999999999999998 21
leaf_count=221 15 15 24 21 12 16 16 12 27 14 12 18 24 14 21
internal_value=0 -1.29111 2.94231 2.04938 0.155412 -1.60671 3.87245 2.57077 1.63972 4.3256 -0.368868 3.54877 -1.67756 -1.02812 0.584369
internal_weight=0 335 147 75 60 275 72 33 42 30 27 42 245 30 33
internal_count=482 335 147 75 60 275 72 33 42 30 27 42 245 30 33
is_linear=0
shrinkage=0.1


Tree=24
num_leaves=16
num_cat=0
split_feature=0 0 0 0 0 0 0 26 0 26 0 0 3 4 15
split_gain=148314 12387.8 9889.35 1297.55 1092.98 916.501 855.406 323.12 259.758 206.321 130.175 130.036 103.787 84.7362 61.1457
threshold=304.11917870848453 121.85126842534468 543.67253322860859 429.46876122877069 217.70208383118117 32.419828931202254 626.41552195601673 23.888897551470944 390.40449646439055 23.888894845548609 147.07668861018783 591.83792254323657 323.40500000000003 9.3530661407103945 73.971604195471244
decision_type=2 2 2 2 2 2 2 2 2 2 2 2 2 2 2
left_child=1 5 3 8 10 13 11 -5 -2 -8 -3 -4 -7 -1 -6
right_child=2 4 6 7 14 12 9 -9 -10 -11 -12 -13 -14 -15 -16
leaf_value=-1.53388317505159 1.227060943274271 -0.52837443510691318 3.0179383686610635 2.7562156850641428 0.68450834069933209 -1.1033110597859259 4.2639146423339831 2.0924249302257194 1.724443006515503 3.7076039028167731 -0.086489445591966307 3.3698534102666948 -0.74981292394491339 -1.3082510153452556 0.40908605487723099
leaf_weight=221 21 15.000000000000002 21 10.999999999999998 13.999999999999998 23 10.000000000000002 22 21 20 11.999999999999998 21 12.999999999999998 18 19
leaf_count=221 21 15 21 11 14 23 10 22 21 20 12 21 13 18 19
internal_value=0 -1.16199 2.64808 1.84444 0.139871 -1.44604 3.48521 2.31369 1.47575 3.89304 -0.331981 3.1939 -0.975659 -1.51689 0.525932
internal_weight=0 335 147 75 60 275 72 33 42 30 27 42 36 239 33
internal_count=482 335 147 75 60 275 72 33 42 30 27 42 36 239 33
is_linear=0
shrinkage=0.1


Tree=25
num_leaves=16
num_cat=0
split_feature=0 0 0 0 0 0 0 11 5 23 0 4 0 2 15
split_gain=120134 10034.2 8010.37 1059.49 885.909 747.443 695.694 283.882 220.201 205.28 131.964 103.036 86.5373 69.8356 61.8856
threshold=304.11917870848453 121.85126842534468 543.67253322860859 410.79203152752024 205.04652447132213 49.340319167600519 632.36260193472901 26.35099173180723 1.014414532824796 1.0000000180025095e-35 598.49159565106504 9.3530661407103945 251.96822515084042 143.68500000000003 75.643083933054086
decision_type=2 2 2 2 2 2 2 2 2 2 2 2 2 2 2
left_child=1 5 3 9 13 11 10 -5 -8 -2 -4 -1 -6 -3 -7
right_child=2 4 6 7 12 14 8 -9 -10 -11 -12 -13 -14 -15 -16
leaf_value=-1.3804948634151959 1.4636616335974801 -0.54656491041183453 2.7357206026713055 2.197103962531457 0.25617777297894162 -0.69594938606023771 3.262791892460414 1.6617430746555328 3.8343442623431869 0.96276479085286459 3.0789766220819383 -1.1623346090316773 0.57066105604171757 -0.2005617380142212 -0.98384255341121141
leaf_weight=221 18 10.000000000000002 24 26 14.999999999999998 16.000000000000004 14.000000000000002 15.999999999999998 12.999999999999998 14.999999999999998 21 24 21 13.999999999999998 13.999999999999998
leaf_count=221 18 10 24 26 15 16 14 16 13 15 21 24 21 14 14
internal_value=0 -1.0458 2.38327 1.66 0.125884 -1.30143 3.13669 1.99316 3.53798 1.23598 2.89591 -1.35912 0.439626 -0.34473 -0.8303
internal_weight=0 335 147 75 60 275 72 42 27 33 45 245 36 24 30
internal_count=482 335 147 75 60 275 72 42 27 33 45 245 36 24 30
is_linear=0
shrinkage=0.1


Tree=26
num_leaves=16
num_cat=0
split_feature=0 0 0 0 0 0 0 4 3 0 11 17 24 11 0
split_gain=97340.4 8071.72 6263.44 914.895 890.671 778.645 357.369 352.099 235.932 148.915 127.904 98.0663 71.6347 46.2921 4.75027
threshold=294.12631031700511 511.19662065866697 85.56995186494477 605.81101020234337 390.40449646439055 191.58447424418529 29.153701705854989 221.77090640957269 836.68500000000006 551.38861713573863 24.659296718992127 75.368345624526853 3.3480775769589859e-06 32.794605129853387 0.46112941669935287
decision_type=2 2 2 2 2 2 2 2 2 2 2 2 2 2 2
left_child=2 4 6 9 10 11 14 -6 -5 -3 -2 -4 -7 -8 -1
right_child=1 3 5 8 7 12 13 -9 -10 -11 -12 -13 -14 -15 -16
leaf_value=-1.2412735624133417 1.0819569928305488 2.1376339467366541 -0.29253156870603558 2.9004111735026044 1.412771999835968 0.45463285446166984 -0.82792835052196789 2.0925737762451173 3.425058174133301 2.5306100774694373 0.66807277053594594 -0.67606702446937561 0.14558110316594441 -1.0811017417907716 -1.1877655347188314
leaf_weight=212 14.000000000000002 14.999999999999998 20.000000000000004 30 32 15.000000000000002 26 9.9999999999999982 11.999999999999998 27 15.999999999999998 9.9999999999999982 14.999999999999998 9.9999999999999982 18
leaf_count=212 14 15 20 30 32 15 26 10 12 27 16 10 15 10 18
internal_value=0 2.05433 -0.983052 2.72029 1.27738 -0.0601349 -1.19123 1.57463 3.05031 2.39026 0.861219 -0.420377 0.300107 -0.898254 -1.23709
internal_weight=0 156 326 84 72 60 266 42 42 42 30 30 30 36 230
internal_count=482 156 326 84 72 60 266 42 42 42 30 30 30 36 230
is_linear=0
shrinkage=0.1


Tree=27
num_leaves=16
num_cat=0
split_feature=0 0 0 0 0 0 0 0 12 26 4 0 0 15 3
split_gain=78936.2 6577.44 5240.85 734.621 583.384 484.21 469.745 199.523 181.595 146.409 83.8923 82.4378 73.0034 56.1736 36.4474
threshold=304.11917870848453 121.85126842534468 543.67253322860859 466.37531191632894 217.70208383118117 59.992981526363586 626.41552195601673 390.40449646439055 37.114569411669443 23.888899602764653 65.182998925917005 147.07668861018783 587.82495589224288 73.971604195471244 323.40500000000003
decision_type=2 2 2 2 2 2 2 2 2 2 2 2 2 2 2
left_child=1 5 3 7 11 10 12 -2 -8 -5 -1 -3 -4 -6 -7
right_child=2 4 6 9 13 14 8 -9 -10 -11 -12 -13 -14 -15 -16
leaf_value=-1.11100392744008 0.89573919773101807 -0.40010345220565791 2.1731678962707521 2.0953105258941647 0.53495558883462635 -0.76449359144483275 2.6562991794786952 1.2976325913270315 3.1668506448919125 1.5943242277417866 -0.82850519527088518 -0.048454927156368899 2.4395801782608033 0.27096863859578185 -0.53196323651533861
leaf_weight=237 21 15.000000000000002 18 10.000000000000002 13.999999999999998 14.000000000000002 19.000000000000004 30 10.999999999999998 13.999999999999998 10.999999999999998 11.999999999999998 24 19 12.999999999999998
leaf_count=237 21 15 18 10 14 14 19 30 11 14 11 12 24 19 13
internal_value=0 -0.847717 1.93187 1.34684 0.100913 -1.05469 2.54128 1.13215 2.8435 1.80307 -1.09847 -0.243815 2.3254 0.382963 -0.652535
internal_weight=0 335 147 75 60 275 72 51 30 24 248 27 42 33 27
internal_count=482 335 147 75 60 275 72 51 30 24 248 27 42 33 27
is_linear=0
shrinkage=0.1


Tree=28
num_leaves=16
num_cat=0
split_feature=0 0 0 0 0 10 0 16 3 23 20 10 18 1 15
split_gain=63967.1 6425.29 2972.85 833.53 615.274 363.754 240.011 210.123 207.286 150.527 111.824 62.7736 52.5543 44.774 5.88227
threshold=255.47189978865663 470.89492240009264 85.56995186494477 598.49159565106504 353.11301562976502 66.220000000000013 22.309058836359188 3.8256730170785036 836.68500000000006 170.33881374291408 0.043910000000000005 50.870000000000005 58.653618212032598 7.5000000000000009 94.506512885976676
decision_type=2 2 2 2 2 2 2 2 2 2 2 2 2 2 2
left_child=2 4 6 7 9 10 14 -3 -5 -2 -4 -6 -7 -8 -1
right_child=1 3 5 8 11 12 13 -9 -10 -11 -12 -13 -14 -15 -16
leaf_value=-1.0028467225137159 0.78113245112555352 1.9521504647391184 -0.03571006163954734 2.315734836790297 1.2404889325300852 -0.19304981483862946 -0.86507229010264075 1.432383441925049 2.7956494013468429 0.3321354603394866 0.4372040998935699 0.99344662692811758 -0.45691184202830004 -0.65643313229084022 -1.0813141918182374
leaf_weight=214 14.000000000000002 35 10 36 24 13.000000000000002 18 9.9999999999999982 11.999999999999998 15.999999999999998 10 18 18 24 9.9999999999999982
leaf_count=214 14 35 10 36 24 13 18 10 12 16 10 18 18 24 10
internal_value=0 1.59677 -0.831127 2.14584 0.887553 -0.131747 -0.965218 1.83665 2.43571 0.541667 0.200747 1.13461 -0.34626 -0.74585 -1.00635
internal_weight=0 165 317 93 72 51 266 45 48 30 20 42 31 42 224
internal_count=482 165 317 93 72 51 266 45 48 30 20 42 31 42 224
is_linear=0
shrinkage=0.1


Tree=29
num_leaves=15
num_cat=0
split_feature=6 10 1 23 2 13 10 2 18 7 15 17 11 6
split_gain=44423.6 7871.31 3422.21 1547.65 955.949 420.466 318.952 234.266 49.5618 16.5951 6.37584 1.246 3.19747 2.70254
threshold=1.0000000180025095e-35 60.405000000000008 16.500000000000004 180.67105160208402 245.30000000000004 27.231690175536063 66.220000000000013 38.735000000000007 62.492858339018547 264.71051094526217 75.643083933054086 98.771665555398883 26.78144990856854 114.8108701933124
decision_type=2 2 2 2 2 2 2 2 2 2 2 2 2 2
left_child=1 2 3 -1 6 -4 -3 11 10 -10 -9 12 -2 -13
right_child=7 4 5 -5 -6 -7 -8 8 9 -11 -12 13 -14 -15
leaf_value=1.8239390110301081 -0.8475965118408203 0.34067881852388382 0.27589259176027209 0.70585785721029559 0.7528230961631327 1.017924072345098 -0.27880974968566613 -0.47798545062541947 -0.67266884247461933 -0.8470946788787842 -0.59090876102447509 -0.96708590507507319 -0.90568372452456658 -0.90481588114862854
leaf_weight=107 9.9999999999999982 10.999999999999998 21 13.999999999999998 17 11.999999999999998 34 10.000000000000002 12.000000000000002 9.9999999999999982 9.9999999999999982 9.9999999999999982 181 23
leaf_count=107 10 11 21 14 17 12 34 10 12 10 10 10 181 23
internal_value=0 1.06536 1.44839 1.69457 0.113967 0.545722 -0.127379 -0.865106 -0.648379 -0.751953 -0.534447 -0.905743 -0.902643 -0.923686
internal_weight=0 216 154 121 62 33 45 266 42 22 20 224 191 33
internal_count=482 216 154 121 62 33 45 266 42 22 20 224 191 33
is_linear=0
shrinkage=0.1


Tree=30
num_leaves=15
num_cat=0
split_feature=0 0 0 0 0 0 3 3 5 0 4 1 15 7
split_gain=42328.1 3413.48 3039.3 371.5 336.172 283.413 252.569 180.348 116.141 81.3763 74.0538 67.9077 47.142 5.39354
threshold=304.11917870848453 121.85126842534468 543.67253322860859 410.79203152752024 645.73290081417292 217.70208383118117 48.790000000000006 516.10500000000013 0.9540144347311561 598.49159565106504 97.883658137816383 7.5000000000000009 75.408733334121919 59.434383365856625
decision_type=2 2 2 2 2 2 2 2 2 2 2 2 2 2
left_child=1 6 3 8 9 10 13 -5 -2 -4 -3 -8 -7 -1
right_child=2 5 4 7 -6 12 11 -9 -10 -11 -12 -13 -14 -15
leaf_value=-0.74969261426192069 0.91144418716430664 0.022083097967234521 1.6167450745900471 1.5142996614629574 2.2530084027184381 0.3901413663228353 -0.70365844567616787 1.0429929964004025 0.53606878448935125 1.8637921206156414 -0.31497075110673906 -0.45290463108707357 0.1501039054658678 -0.81600572041102826
leaf_weight=12.999999999999998 15.999999999999998 11.000000000000002 24 10.999999999999998 18 14.999999999999998 18 31 17 30 15.999999999999998 27 18 217
leaf_count=13 16 11 24 11 18 15 18 31 17 30 16 27 18 217
internal_value=0 -0.620765 1.41467 0.969151 1.87875 0.0626229 -0.769867 1.16643 0.718069 1.75399 -0.177653 -0.553206 0.259212 -0.812258
internal_weight=0 335 147 75 72 60 275 42 33 54 27 45 33 230
internal_count=482 335 147 75 72 60 275 42 33 54 27 45 33 230
is_linear=0
shrinkage=0.1


Tree=31
num_leaves=16
num_cat=0
split_feature=0 0 0 0 0 0 2 8 12 5 22 15 4 1 15
split_gain=34298.8 2651.34 2549.21 359.654 257.083 235.426 186.958 171.438 153.687 117.006 86.7597 62.0702 61.9701 34.0376 4.31543
threshold=299.27789965433936 517.53978419121631 111.71917833878005 620.35170700960498 179.84314958096294 410.79203152752024 227.79500000000004 29.317525852257216 37.372909491647953 0.99082281204171985 0.029040000000000003 75.408733334121919 132.96454122228536 7.5000000000000009 94.506512885976676
decision_type=2 2 2 2 2 2 2 2 2 2 2 2 2 2 2
left_child=2 5 7 10 12 9 -7 14 -5 -2 -3 -6 -4 -9 -1
right_child=1 3 4 8 11 6 -8 13 -10 -11 -12 -13 -14 -15 -16
leaf_value=-0.73135739895099772 0.79314848247327308 1.3022073319083767 -0.095323529026725043 1.7548581247744353 0.32612425154075031 0.82409256805073139 1.3290116353468462 -0.63252032179581497 2.2244400405883789 0.43202657909954295 1.577125749916866 0.069646421139654899 -0.43928066372871399 -0.46146364003419882 -0.79857369422912594
leaf_weight=213 19 19 11.000000000000002 23 15.999999999999998 22 10.999999999999998 19 9.9999999999999982 17 29 23 9.9999999999999982 30 9.9999999999999982
leaf_count=213 19 19 11 23 16 22 11 19 10 17 29 23 10 30 10
internal_value=0 1.25499 -0.567013 1.64302 0.0229748 0.79947 0.992399 -0.697157 1.89716 0.622619 1.4683 0.174868 -0.259113 -0.527792 -0.734372
internal_weight=0 150 332 81 60 69 33 272 33 36 48 39 21 49 223
internal_count=482 150 332 81 60 69 33 272 33 36 48 39 21 49 223
is_linear=0
shrinkage=0.1


Tree=32
num_leaves=15
num_cat=0
split_feature=0 0 0 0 0 0 0 12 26 0 3 4 11 6
split_gain=27782 2161.57 2064.86 300.5 229.687 208.237 139.271 99.8143 94.6228 54.1196 51.833 50.1958 24.8558 1.19555
threshold=299.27789965433936 543.67253322860859 111.71917833878005 466.37531191632894 645.73290081417292 179.84314958096294 26.004298198679859 32.568584721004036 23.888899602764653 587.82495589224288 353.05500000000001 132.96454122228536 32.794605129853387 78.082896383098898
decision_type=2 2 2 2 2 2 2 2 2 2 2 2 2 2
left_child=2 3 6 7 9 11 13 -2 -5 -3 -7 -4 -8 -1
right_child=1 4 5 8 -6 10 12 -9 -10 -11 -12 -13 -14 -15
leaf_value=-0.63714744719592009 0.48191323652863505 1.2799035416709055 -0.085791180621493934 1.2941288948059078 1.8339602046542698 0.05064857364410446 -0.41678263410445188 0.75552013913790395 0.89137516702924458 1.492270408736335 0.28190277682410347 -0.39535258591175082 -0.57731961522783548 -0.66167809277046019
leaf_weight=22 24 18 11.000000000000002 10.000000000000002 18 21 31 30 13.999999999999998 36 18 9.9999999999999982 13.999999999999998 205
leaf_count=22 24 18 11 10 18 21 31 30 14 36 18 10 14 205
internal_value=0 1.12949 -0.510311 0.76477 1.5246 0.0206774 -0.627441 0.633917 1.05919 1.42148 0.157381 -0.233201 -0.466727 -0.659301
internal_weight=0 150 332 78 72 60 272 54 24 54 39 21 45 227
internal_count=482 150 332 78 72 60 272 54 24 54 39 21 45 227
is_linear=0
shrinkage=0.1


Tree=33
num_leaves=14
num_cat=0
split_feature=0 0 0 0 0 0 11 12 12 14 3 0 4
split_gain=22514.9 1818.52 1639.31 275.398 250.896 172.491 131.384 107.657 86.6788 84.2618 58.9938 40.9975 33.5325
threshold=304.11917870848453 147.07668861018783 551.38861713573863 65.684646773337462 456.92402115541114 650.72187301003771 26.35099173180723 28.264021039933684 32.568584721004036 1.5000000000000002 412.48500000000007 611.90566907398704 65.182998925917005
decision_type=2 2 2 2 2 2 2 2 2 2 2 2 2
left_child=1 3 4 12 8 11 -6 -3 -2 -9 -5 -4 -1
right_child=2 7 5 10 6 -7 -8 9 -10 -11 -12 -13 -14
leaf_value=-0.59147346215087826 0.40239320094179781 0.4280938304122538 1.2255411926905315 -0.37929060003823706 1.1037588972794381 1.6867990461985269 0.66948917995799673 0.16109505199516816 0.67996811469395957 -0.17313647434136578 -0.11281156055629254 1.4008926868438722 -0.42653972368973953
leaf_weight=238 18 9.9999999999999982 30 27 19.000000000000004 14.999999999999998 10.999999999999998 24 30 10.999999999999998 11.999999999999998 24 12.999999999999998
leaf_count=238 18 10 30 27 19 15 11 24 30 11 12 24 13
internal_value=0 -0.452739 1.03175 -0.544518 0.717666 1.38681 0.944527 0.138727 0.575878 0.0560509 -0.297297 1.30348 -0.582931
internal_weight=0 335 147 290 78 69 30 45 48 35 39 54 251
internal_count=482 335 147 290 78 69 30 45 48 35 39 54 251
is_linear=0
shrinkage=0.1


Tree=34
num_leaves=15
num_cat=0
split_feature=0 0 0 0 23 16 26 0 4 24 8 17 7 11
split_gain=18246.4 1941.49 816.025 284.194 236.027 135.11 111.966 108.684 112.917 90.3992 54.7469 45.9934 13.3372 3.82181
threshold=255.47189978865663 470.89492240009264 78.17198972478819 605.81101020234337 250.93368486639699 3.8256730170785036 23.888895370686502 147.07668861018783 145.32520234305426 2.9519180877457534e-06 29.317525852257216 45.056389000768029 211.54439716643301 25.886209036497572
decision_type=2 2 2 2 2 2 2 2 2 2 2 2 2 2
left_child=2 4 10 5 9 -3 -5 11 -9 -2 13 -4 -12 -1
right_child=1 3 7 6 -6 -7 -8 8 -10 -11 12 -13 -14 -15
leaf_value=-0.59633482456207276 0.28919138660033544 1.081348958313465 -0.12346049376646986 1.605422814687093 0.012128998413681985 0.68561560240658848 1.2439996067682904 0.24912148745996607 -0.16016337473232012 0.59482602798938755 -0.35112242221832279 -0.3890882427042181 -0.46660940289497382 -0.53307952892052735
leaf_weight=9.9999999999999982 11.999999999999998 40 16.000000000000004 11.999999999999998 9.9999999999999982 10.999999999999998 30 14.000000000000002 12.999999999999998 50 20 10.999999999999998 20 213
leaf_count=10 12 40 16 12 10 11 30 14 13 50 20 11 20 213
internal_value=0 0.85281 -0.443892 1.15463 0.462957 0.995995 1.34726 -0.0898104 0.0520584 0.535671 -0.516593 -0.231679 -0.408866 -0.535916
internal_weight=0 165 317 93 72 51 42 54 27 62 263 27 40 223
internal_count=482 165 317 93 72 51 42 54 27 62 263 27 40 223
is_linear=0
shrinkage=0.1


Tree=35
num_leaves=14
num_cat=0
split_feature=0 0 0 0 17 0 3 9 3 5 17 11 9
split_gain=14822.1 1176.27 1081.52 172.298 124.662 121.067 106.027 95.4778 77.1335 67.1976 31.8906 20.1534 2.2048
threshold=304.11917870848453 111.71917833878005 551.38861713573863 410.79203152752024 82.510009022241476 650.72187301003771 477.91000000000003 27.310000000000002 44.635000000000005 0.9540144347311561 55.118115814637321 32.794605129853387 30.555000000000003
decision_type=2 2 2 2 2 2 2 2 2 2 2 2 2
left_child=1 8 3 9 7 10 -5 -3 12 -2 -4 -10 -1
right_child=2 4 5 6 -6 -7 -8 -9 11 -11 -12 -13 -14
leaf_value=-0.47870454399238738 0.555553475022316 -0.14798518367684807 1.0923482483083553 0.97915950688448827 -0.28383028068664401 1.3768527571360272 0.62198622647453761 0.16494609249325901 -0.29059686678151292 0.27002509566544391 0.89451387882232669 -0.4325595696767171 -0.51967241764068606
leaf_weight=213 15.999999999999998 12.999999999999998 44 10.999999999999998 10.999999999999998 14.999999999999998 34 39 30 17 9.9999999999999982 14.999999999999998 13.999999999999998
leaf_count=213 16 13 44 11 11 15 34 39 30 17 10 15 14
internal_value=0 -0.36734 0.837135 0.58202 0.0220152 1.12553 0.709295 0.0867133 -0.457521 0.408463 1.05571 -0.337918 -0.481231
internal_weight=0 335 147 78 63 69 45 52 272 33 54 45 227
internal_count=482 335 147 78 63 69 45 52 272 33 54 45 227
is_linear=0
shrinkage=0.1


Tree=36
num_leaves=14
num_cat=0
split_feature=0 0 0 0 23 12 12 4 20 24 4 3 16
split_gain=12012.7 1290.9 528.243 192.925 170.247 116.574 100.665 81.0511 104.539 65.4643 35.8643 15.3182 9.14032
threshold=255.47189978865663 470.89492240009264 78.17198972478819 591.83792254323657 250.93368486639699 37.114569411669443 36.387489498583541 187.50747483572351 0.043910000000000005 2.9519180877457534e-06 62.800901219226084 166.11000000000004 1.3563746761820399
decision_type=2 2 2 2 2 2 2 2 2 2 2 2 2
left_child=2 4 10 6 9 -5 -3 8 -4 -2 11 -1 -12
right_child=1 3 7 5 -6 -7 -8 -9 -10 -11 12 -13 -14
leaf_value=-0.43533494861229605 0.22607868462800981 0.88301579786528794 -0.11033126445066543 0.97578059531546923 -0.0088135184627026325 1.3145634378705706 0.54813257272426907 -0.31751253171400595 0.23728577221433322 0.48616799512505537 -0.35528266827265415 -0.31453895243731411 -0.22583284109830856
leaf_weight=230 11.999999999999998 29 31 37 9.9999999999999982 13.999999999999998 12.999999999999998 10.999999999999998 11.999999999999998 50 12.000000000000002 10.999999999999998 9.9999999999999982
leaf_count=230 12 29 31 37 10 14 13 11 12 50 12 11 10
internal_value=0 0.691965 -0.360171 0.938075 0.374072 1.06878 0.779361 -0.0752866 -0.0133219 0.435828 -0.418664 -0.429821 -0.296442
internal_weight=0 165 317 93 72 51 42 54 43 62 263 241 22
internal_count=482 165 317 93 72 51 42 54 43 62 263 241 22
is_linear=0
shrinkage=0.1


Tree=37
num_leaves=15
num_cat=0
split_feature=0 0 0 3 0 11 25 10 3 2 6 11 4 4
split_gain=9755.91 767.29 709.184 125.365 124.449 113.579 112.293 116.814 59.8025 85.2536 38.7198 38.7169 24.22 21.2202
threshold=299.27789965433936 543.67253322860859 147.07668861018783 221.65500000000003 390.40449646439055 26.35099173180723 0.48053815287816953 34.410000000000004 210.59000000000003 143.68500000000003 51.695303798369522 24.570394344398149 183.29035199372035 72.258518653456562
decision_type=2 2 2 2 2 2 2 2 2 2 2 2 2 2
left_child=2 4 3 13 11 -6 12 -8 -4 -10 -5 -2 -3 -1
right_child=1 6 8 10 5 -7 7 -9 9 -11 -12 -13 -14 -15
leaf_value=-0.39136084758220835 0.41283680379390708 0.68815581615154564 -0.087108757985489713 -0.076517112772254384 0.63878223763571851 0.33113139081849824 1.3135322224010118 0.89990052117241748 0.014904670394025741 0.36750666325291004 -0.27953022831962226 0.15520933079200663 0.85156971295674644 -0.2756654332665836
leaf_weight=235 10.000000000000002 12.999999999999998 13.999999999999998 17 36 18 11.000000000000002 18 16.000000000000004 11.999999999999998 21 13.999999999999998 30 17
leaf_count=235 10 13 14 17 36 18 11 18 16 12 21 14 30 17
internal_value=0 0.66932 -0.302404 -0.358024 0.452023 0.536232 0.904725 1.0568 0.0816436 0.16602 -0.188709 0.262554 0.802166 -0.383556
internal_weight=0 150 332 290 78 54 72 29 42 28 38 24 43 252
internal_count=482 150 332 290 78 54 72 29 42 28 38 24 43 252
is_linear=0
shrinkage=0.1


Tree=38
num_leaves=14
num_cat=0
split_feature=0 0 0 0 0 26 2 12 15 14 13 23 8
split_gain=7904.9 628.571 585.88 126.563 91.5241 90.7133 80.3981 77.8914 62.3193 44.7233 32.0355 26.596 10.8523
threshold=304.11917870848453 147.07668861018783 567.88834999537767 456.92402115541114 65.684646773337462 23.888893552742505 227.79500000000004 28.264021039933684 66.983480007291547 1.5000000000000002 35.407023122232367 74.379219804870431 29.317525852257216
decision_type=2 2 2 2 2 2 2 2 2 2 2 2 2
left_child=1 4 3 8 12 -4 -5 -3 -2 -9 -6 -7 -1
right_child=2 7 5 6 10 11 -8 9 -10 -11 -12 -13 -14
leaf_value=-0.35173427973092941 0.51911441282584114 0.32560556381940842 1.1027691494334828 0.46097905378450044 -0.25135380759214365 0.84094720031275905 0.76752717580114105 0.085675537962621701 0.26270959470953259 -0.15782454027370973 -0.065060815387405463 0.69243021795624182 -0.28568525984883308
leaf_weight=223 12.999999999999998 9.9999999999999982 10.999999999999998 22 24 33 13.999999999999998 24 35 10.999999999999998 14.999999999999998 19 28
leaf_count=223 13 10 11 22 24 33 14 24 35 11 15 19 28
internal_value=0 -0.268263 0.611348 0.438455 -0.322222 0.841871 0.580192 0.0794711 0.332153 0.00914694 -0.179703 0.786681 -0.344366
internal_weight=0 335 147 84 290 63 36 45 48 35 39 52 251
internal_count=482 335 147 84 290 63 36 45 48 35 39 52 251
is_linear=0
shrinkage=0.1


Tree=39
num_leaves=14
num_cat=0
split_feature=0 0 0 0 16 4 11 3 3 11 22 6 4
split_gain=6404.58 505.571 463.824 94.8207 100.249 85.8952 123.592 85.2239 48.8105 47.9105 39.763 25.657 14.1824
threshold=299.27789965433936 511.19662065866697 147.07668861018783 638.10924504559512 2.7620669543765426 267.59968117759564 24.570394344398149 221.65500000000003 210.59000000000003 23.799109730210283 0.029040000000000003 51.695303798369522 72.258518653456562
decision_type=2 2 2 2 2 2 2 2 2 2 2 2 2
left_child=2 5 7 10 -5 6 -2 12 -4 -10 -3 -9 -1
right_child=1 3 8 4 -6 -7 -8 11 9 -11 -12 -13 -14
leaf_value=-0.31743132076364883 0.4677674288776788 0.53814172893762591 -0.086888934459005085 0.70029900499752573 1.1148539304733276 0.59028349816799164 0.16177622418511997 -0.059071798578781247 -0.0092483932152390459 0.25508002532878893 0.7043139225906796 -0.22432898935817538 -0.22284765006864773
leaf_weight=235 22 24 13.999999999999998 14.000000000000002 9.9999999999999982 10.999999999999998 33 17 12.000000000000002 15.999999999999998 36 21 17
leaf_count=235 22 24 14 14 10 11 33 17 12 16 36 21 17
internal_value=0 0.542307 -0.245018 0.705041 0.87303 0.335191 0.284173 -0.29 0.065568 0.141796 0.637845 -0.150398 -0.311051
internal_weight=0 150 332 84 24 66 55 290 42 28 60 38 252
internal_count=482 150 332 84 24 66 55 290 42 28 60 38 252
is_linear=0
shrinkage=0.1


Tree=40
num_leaves=12
num_cat=0
split_feature=6 10 3 2 12 12 4 3 3 15 4
split_gain=4338.38 847.05 339.27 514.33 128.621 114.742 30.0537 26.2211 14.9257 8.75715 6.45276
threshold=1.0000000180025095e-35 63.090000000000011 632.82000000000005 227.79500000000004 30.130195385859775 37.114569411669443 65.182998925917005 301.86500000000007 166.11000000000004 66.983480007291547 1.0000000180025095e-35
decision_type=2 2 2 2 2 2 2 2 2 2 2
left_child=1 2 3 -1 7 -4 8 -3 10 -8 -2
right_child=6 4 5 -5 -6 -7 9 -9 -10 -11 -12
leaf_value=0.073087654533711341 -0.28196569170270647 -0.19873378217220306 0.53797592043078379 0.5539084028204283 0.19940255690169961 0.83459826777963075 -0.21863511741161337 -0.023830306132634482 -0.1832711881399155 -0.086293514370918284 -0.35201195010117126
leaf_weight=44 217 20 56 45 19 17 10.000000000000002 14.999999999999998 14.999999999999998 9.9999999999999982 13.999999999999998
leaf_count=44 217 20 56 45 19 17 10 15 15 10 14
internal_value=0 0.332931 0.447263 0.316199 -0.0100645 0.607052 -0.27035 -0.123775 -0.279934 -0.152464 -0.286211
internal_weight=0 216 162 89 54 73 266 35 246 20 231
internal_count=482 216 162 89 54 73 266 35 246 20 231
is_linear=0
shrinkage=0.1


Tree=41
num_leaves=13
num_cat=0
split_feature=0 0 0 2 9 0 12 3 14 15 3 8
split_gain=4238.93 346.289 326.905 81.5492 68.985 68.4049 60.0879 56.697 37.9975 27.2691 17.9087 9.98724
threshold=304.11917870848453 567.88834999537767 147.07668861018783 343.50500000000005 36.885000000000005 429.46876122877069 28.264021039933684 221.65500000000003 1.5000000000000002 83.65302116517536 417.83000000000004 285.56451151416536
decision_type=2 2 2 2 2 2 2 2 2 2 2 2
left_child=2 3 7 5 9 -2 -4 11 -8 -3 -9 -1
right_child=1 4 6 -5 -6 -7 8 10 -10 -11 -12 -13
leaf_value=-0.2565750240787002 0.18495912584966345 0.61858869638198466 0.27051112681627271 0.5827922523021698 0.85242406888441613 0.37731990002923543 0.063101491642494997 -0.16251946677054679 -0.16134335723790258 0.45135148671957159 -0.0066199044883251193 -0.15459497451782228
leaf_weight=242 38 39 9.9999999999999982 9.9999999999999982 10.999999999999998 36 24 28 10.999999999999998 12.999999999999998 9.9999999999999982 9.9999999999999982
leaf_count=242 38 39 10 10 11 36 24 28 11 13 10 10
internal_value=0 0.447681 -0.196445 0.314761 0.624908 0.27854 0.0543282 -0.235358 -0.00743832 0.576779 -0.121493 -0.252528
internal_weight=0 147 335 84 63 74 45 290 35 52 38 252
internal_count=482 147 335 84 63 74 45 290 35 52 38 252
is_linear=0
shrinkage=0.1


Tree=42
num_leaves=13
num_cat=0
split_feature=0 0 0 16 9 8 24 12 3 14 13 3
split_gain=3433.54 282.971 264.793 99.3325 128.064 59.9595 63.6387 48.6712 46.4684 30.778 16.3589 9.71084
threshold=304.11917870848453 470.89492240009264 147.07668861018783 3.6571652505752055 36.885000000000005 256.45267856848466 2.9519180877457534e-06 28.264021039933684 323.40500000000003 1.5000000000000002 36.209300425415314 52.830000000000005
decision_type=2 2 2 2 2 2 2 2 2 2 2 2
left_child=2 5 8 4 -3 -2 -7 -4 11 -9 -10 -1
right_child=1 3 7 -5 -6 6 -8 9 10 -11 -12 -13
leaf_value=-0.23103679270191765 -0.00019890025258064272 0.50698606922770995 0.24346001207828524 0.29011771538678338 0.89100081682205201 0.062766994264992812 0.34050404053520072 0.056791339690486588 -0.14833393182073318 -0.14520902714946055 0.019129216223955154 -0.17307598979184124
leaf_weight=233 9.9999999999999982 66 9.9999999999999982 17 9.9999999999999982 10.999999999999998 33 24 14.000000000000002 10.999999999999998 9.9999999999999982 33
leaf_count=233 10 66 10 17 10 11 33 24 14 11 10 33
internal_value=0 0.402913 -0.176801 0.508635 0.557514 0.220835 0.27107 0.0488954 -0.211822 -0.00669449 -0.0785576 -0.223846
internal_weight=0 147 335 93 76 54 44 45 290 35 24 266
internal_count=482 147 335 93 76 54 44 45 290 35 24 266
is_linear=0
shrinkage=0.1


Tree=43
num_leaves=14
num_cat=0
split_feature=0 0 0 25 12 4 11 13 26 3 20 0 11
split_gain=2785.39 312.947 165.327 82.3224 78.9247 59.6393 100.138 57.1614 54.7753 37.6394 20.7402 13.4253 8.06261
threshold=372.15877522979605 147.07668861018783 567.88834999537767 0.52284534374033409 29.027791559990089 227.05473217458095 24.570394344398149 31.236187225232523 23.888894845548609 323.40500000000003 0.029040000000000003 85.56995186494477 24.953527237992756
decision_type=2 2 2 2 2 2 2 2 2 2 2 2 2
left_child=1 9 5 4 -3 6 -2 -7 -4 12 -10 -11 -1
right_child=2 3 8 -5 -6 7 -8 -9 10 11 -12 -13 -14
leaf_value=-0.13264278415590525 0.38347707607529385 0.35852651750160891 0.67536358992258716 -0.15206707460539681 0.05144402549735138 0.26096602201461788 0.096065188709784435 0.59908241912722582 0.36767307975712948 -0.15200949798930771 0.50511573476176108 -0.0019030890785730803 -0.20586595963910226
leaf_weight=15.999999999999998 22 10.999999999999998 14.999999999999998 13.999999999999998 35 10.000000000000002 27 9.9999999999999982 17 11.000000000000002 31 12.999999999999998 250
leaf_count=16 22 11 15 14 35 10 27 10 17 11 31 13 250
internal_value=0 -0.147629 0.391441 0.0602566 0.124877 0.284503 0.225107 0.430024 0.508563 -0.19064 0.456438 -0.0707019 -0.201462
internal_weight=0 350 132 60 46 69 49 20 63 290 48 24 266
internal_count=482 350 132 60 46 69 49 20 63 290 48 24 266
is_linear=0
shrinkage=0.1


Tree=44
num_leaves=12
num_cat=0
split_feature=0 0 3 13 25 2 15 12 3 0 2
split_gain=2267.66 208.013 153.704 82.2895 82.71 81.9561 46.1014 70.1121 37.1386 31.7089 10.5216
threshold=299.27789965433936 466.37531191632894 210.59000000000003 36.904761139432814 0.47891877298668845 143.68500000000003 66.983480007291547 32.568584721004036 417.83000000000004 179.84314958096294 94.820000000000007
decision_type=2 2 2 2 2 2 2 2 2 2 2
left_child=2 6 9 4 -3 8 -2 -8 -4 10 -1
right_child=1 3 5 -5 -6 -7 7 -9 -10 -11 -12
leaf_value=-0.18246480519207064 0.32185850313731601 0.28583299142205054 -0.14525907071573393 0.682522430419922 0.48218263474906364 0.2055643478408456 -0.069406647980213163 0.20816548902254839 0.024264409206807613 -0.020841406658291817 -0.27482341688412887
leaf_weight=241 13.999999999999998 45 28 9.9999999999999982 41 13.999999999999998 13.999999999999998 26 24 11.999999999999998 12.999999999999998
leaf_count=241 14 45 28 10 41 14 14 26 24 12 13
internal_value=0 0.322692 -0.145795 0.411012 0.379442 -0.00919708 0.165678 0.111015 -0.0670175 -0.179687 -0.187192
internal_weight=0 150 332 96 86 66 54 40 52 266 254
internal_count=482 150 332 96 86 66 54 40 52 266 254
is_linear=0
shrinkage=0.1


Tree=45
num_leaves=12
num_cat=0
split_feature=0 0 3 2 2 11 3 3 2 3 2
split_gain=1836.8 175.331 124.501 66.3844 59.9131 71.0582 43.7419 30.0823 26.3752 21.0952 12.1088
threshold=299.27789965433936 551.38861713573863 210.59000000000003 143.68500000000003 343.50500000000005 24.570394344398149 843.23500000000013 417.83000000000004 150.66500000000005 791.71500000000015 83.52500000000002
decision_type=2 2 2 2 2 2 2 2 2 2 2
left_child=2 4 8 7 5 -2 9 -4 10 -3 -1
right_child=1 6 3 -5 -6 -7 -8 -9 -10 -11 -12
leaf_value=-0.16543553492140073 0.27200005631293023 0.40369053340476491 -0.13073316424020701 0.18500791820032259 0.41980239212512971 0.070291044749319562 0.59038961204615503 0.021837964964409672 -0.041205986238577789 0.25481045419971149 -0.27775422751903539
leaf_weight=239 31 46 28 13.999999999999998 9.9999999999999982 40 10.999999999999998 24 17 11.999999999999998 9.9999999999999982
leaf_count=239 31 46 28 14 10 40 11 24 17 12 10
internal_value=0 0.290423 -0.131215 -0.00827737 0.190638 0.158361 0.407562 -0.0603157 -0.161719 0.372888 -0.169946
internal_weight=0 150 332 66 81 71 69 52 266 58 249
internal_count=482 150 332 66 81 71 69 52 266 58 249
is_linear=0
shrinkage=0.1


Tree=46
num_leaves=12
num_cat=0
split_feature=0 0 25 0 24 25 16 11 4 16 6
split_gain=1493.44 181.369 92.938 88.6784 64.7969 44.4475 51.2671 20.9784 19.9713 17.8864 5.23102
threshold=390.40449646439055 147.07668861018783 0.43949292758711506 657.7810542567413 3.1442227488298617e-06 0.52284534374033409 1.1931674130177001 26.848343851996564 66.714751627447626 1.3230607897176176 65.599639024452316
decision_type=2 2 2 2 2 2 2 2 2 2 2
left_child=1 8 7 4 -4 6 -3 -2 10 -10 -1
right_child=2 5 3 -5 -6 -7 -8 -9 9 -11 -12
leaf_value=-0.098669708128038214 0.20866079643368718 0.2938380867242813 0.085812129887441801 0.60293127786029466 0.33460820448107836 -0.10017206324264408 0.040690276771783829 0.0085368637334216728 -0.12287496022135019 0.018300631189984935 -0.15324666051129843
leaf_weight=19 10.000000000000002 9.9999999999999982 11.999999999999998 10.999999999999998 82 15.999999999999998 40 10.999999999999998 25 13.999999999999998 232
leaf_count=19 10 10 12 11 82 16 40 11 25 14 232
internal_value=0 -0.10472 0.295876 0.334284 0.302847 0.0448976 0.0913198 0.103834 -0.138771 -0.0721965 -0.149115
internal_weight=0 356 126 105 94 66 50 21 290 39 251
internal_count=482 356 126 105 94 66 50 21 290 39 251
is_linear=0
shrinkage=0.1


Tree=47
num_leaves=13
num_cat=0
split_feature=0 0 3 25 0 2 8 11 3 11 15 15
split_gain=1212.41 126.002 85.9458 65.822 56.5409 47.6822 39.0571 29.4188 21.5201 18.8755 22.0911 21.6417
threshold=299.27789965433936 456.92402115541114 210.59000000000003 0.42657879891086897 657.7810542567413 143.68500000000003 256.45267856848466 24.110275924217127 417.83000000000004 24.494289382702139 95.295116489169104 97.204239128756385
decision_type=2 2 2 2 2 2 2 2 2 2 2 2
left_child=2 6 9 -3 -5 8 -2 -8 -4 11 -11 -1
right_child=1 3 5 4 -6 -7 7 -9 -10 10 -12 -13
leaf_value=-0.13775351684201845 -0.058621001514521515 0.071106309105049489 -0.1081230611141239 0.30026691256018428 0.54263817424123939 0.15935015110298992 0.27101864495447708 0.091217835820638221 0.020921332699557149 -0.13207935648605876 -0.25733071486155196 0.06550974279642105
leaf_weight=11 10.999999999999998 10.999999999999998 28 77 10.999999999999998 13.999999999999998 13.999999999999998 26 24 230 14.999999999999998 10
leaf_count=11 11 11 28 77 11 14 14 26 24 230 15 10
internal_value=0 0.235952 -0.106605 0.301735 0.330563 -0.00446109 0.108257 0.154148 -0.0485641 -0.131949 -0.139748 -0.0409615
internal_weight=0 150 332 99 88 66 51 40 52 266 245 21
internal_count=482 150 332 99 88 66 51 40 52 266 245 21
is_linear=0
shrinkage=0.1


Tree=48
num_leaves=15
num_cat=0
split_feature=0 0 0 5 0 25 12 22 5 9 4 8 16 25
split_gain=983.629 103.85 70.2334 55.1476 50.3723 46.574 54.06 39.8841 58.6024 23.9842 22.8502 13.9328 12.7921 3.80381
threshold=372.15877522979605 147.07668861018783 598.49159565106504 1.014414532824796 645.73290081417292 0.52284534374033409 29.027791559990089 0.029040000000000003 1.0187439002356535 33.855000000000011 221.77090640957269 162.68015776423752 1.1064203239247801 0.52135585665838169
decision_type=2 2 2 2 2 2 2 2 2 2 2 2 2 2
left_child=1 11 7 10 -5 6 -3 9 -9 -2 -4 13 -13 -1
right_child=2 5 3 4 -6 -7 -8 8 -10 -11 -12 12 -14 -15
leaf_value=-0.11921653305259297 -0.041421158313751205 0.27400375794280663 0.1481838877711977 0.29723461717367167 0.6146376550197602 -0.12767701175596033 0.019855877310037615 0.15822283121178282 0.38252280091538149 0.14825288221240043 0.32885790701423373 -0.11220021286736365 -0.0042500950041271393 -0.18218464851379396
leaf_weight=236 10.000000000000002 10.999999999999998 14.000000000000002 10.000000000000002 9.9999999999999982 13.999999999999998 35 37 17 20 13.999999999999998 23 21 9.9999999999999982
leaf_count=236 10 11 14 10 10 14 35 37 17 20 14 23 21 10
internal_value=0 -0.0877294 0.232616 0.329111 0.455936 0.0320253 0.0806304 0.177476 0.228836 0.0850282 0.238521 -0.112506 -0.0606786 -0.121776
internal_weight=0 350 132 48 20 60 46 84 54 30 28 290 44 246
internal_count=482 350 132 48 20 60 46 84 54 30 28 290 44 246
is_linear=0
shrinkage=0.1


Tree=49
num_leaves=12
num_cat=0
split_feature=0 0 2 25 10 16 15 12 9 9 0
split_gain=803.636 95.6808 54.0698 48.4172 77.3011 44.1083 39.9906 65.4138 39.2624 29.7182 22.2724
threshold=294.12631031700511 456.92402115541114 143.68500000000003 0.48425529101475195 35.560000000000009 3.8256730170785036 66.983480007291547 32.568584721004036 28.515000000000004 35.150000000000006 129.05127696284308
decision_type=2 2 2 2 2 2 2 2 2 2 2
left_child=2 6 9 5 -5 -3 -2 -8 -4 10 -1
right_child=1 3 8 4 -6 -7 7 -9 -10 -11 -12
leaf_value=-0.10216910602478145 0.22360744789242745 0.23063276092775845 -0.061654142898817849 0.57637228012084962 0.24544949258367221 0.0023172248899936678 -0.14310011565685274 0.12163787358440459 0.18102599143361053 0.067921950146555901 -0.25405936896800996
leaf_weight=279 14.999999999999998 55 15.000000000000002 9.9999999999999982 24 9.9999999999999982 13.999999999999998 28 11.999999999999998 9.9999999999999982 9.9999999999999982
leaf_count=279 15 55 15 10 24 10 14 28 12 10 10
internal_value=0 0.186661 -0.0893223 0.246086 0.34278 0.195507 0.0834486 0.0333919 0.0462037 -0.10156 -0.107425
internal_weight=0 156 326 99 34 65 57 42 27 299 289
internal_count=482 156 326 99 34 65 57 42 27 299 289
is_linear=0
shrinkage=0.1


Tree=50
num_leaves=12
num_cat=0
split_feature=0 0 3 25 24 22 8 5 26 11 15
split_gain=650.945 77.5014 48.8361 44.8599 45.8972 42.1798 33.3758 18.8618 18.4512 11.8835 24.537
threshold=294.12631031700511 456.92402115541114 210.59000000000003 0.42657879891086897 3.3480775769589859e-06 0.043910000000000005 256.45267856848466 0.8624839040220339 24.444447396362531 24.393981987772587 95.295116489169104
decision_type=2 2 2 2 2 2 2 2 2 2 2
left_child=2 6 9 -3 -5 8 -2 -8 -4 -1 -11
right_child=1 3 5 4 -6 -7 7 -9 -10 10 -12
leaf_value=-0.023158349292842967 -0.065673647247827968 0.031081772934306751 -0.087970710545778277 0.054202834516763693 0.272572797169159 0.17659516856074334 0.19921005999340732 0.064744441983876397 0.033430602224100207 -0.097148884299280355 -0.22916965444882709
leaf_weight=19 12.999999999999998 10.999999999999998 31 10.999999999999998 77 10.999999999999998 17 27 21 229 14.999999999999998
leaf_count=19 13 11 31 11 77 11 17 27 21 229 15
internal_value=0 0.167995 -0.08039 0.221477 0.245277 -0.00130956 0.0751037 0.116697 -0.0389433 -0.0993333 -0.105265
internal_weight=0 156 326 99 88 63 57 44 52 263 244
internal_count=482 156 326 99 88 63 57 44 52 263 244
is_linear=0
shrinkage=0.1


Tree=51
num_leaves=14
num_cat=0
split_feature=0 0 2 2 3 13 9 9 3 15 4 8 5
split_gain=527.266 64.2324 40.1317 39.3297 55.0197 30.9832 88.0811 28.3339 24.5476 23.9405 20.7282 9.25143 6.70251
threshold=294.12631031700511 551.38861713573863 143.68500000000003 299.36000000000007 621.04500000000019 32.240849387950526 35.595000000000006 28.515000000000004 417.83000000000004 89.491866310076048 103.41810149106414 483.90544437367811 0.81629391209062729
decision_type=2 2 2 2 2 2 2 2 2 2 2 2 2
left_child=2 3 8 4 -2 11 -7 -4 10 -5 -1 -3 -10
right_child=1 5 7 9 -6 6 -8 -9 12 -11 -12 -13 -14
leaf_value=-0.085582419009703523 -0.035664556152892837 0.22822202444076531 -0.047217936416467023 0.31393733756108716 0.1483633510535583 0.19278659777981896 0.53853017210960397 0.15893933139741423 -0.035322378575801838 0.10530303290261972 -0.22567513205788356 0.11135938509943939 0.072745238786393954
leaf_weight=265 33 10.000000000000002 15.000000000000002 11 32 28 9.9999999999999982 11.999999999999998 12.000000000000002 11 10.999999999999998 21 10.999999999999998
leaf_count=265 33 10 15 11 32 28 10 12 12 11 11 21 11
internal_value=0 0.151195 -0.072351 0.0940499 0.0549338 0.223248 0.283772 0.0444075 -0.0828944 0.20962 -0.0911658 0.149057 0.0163621
internal_weight=0 156 326 87 65 69 38 27 299 22 276 31 23
internal_count=482 156 326 87 65 69 38 27 299 22 276 31 23
is_linear=0
shrinkage=0.1


Tree=52
num_leaves=11
num_cat=0
split_feature=0 0 13 23 20 15 12 13 22 16
split_gain=427.085 53.2518 35.8937 50.2362 33.9541 29.2337 44.4759 16.6284 27.9467 7.43177
threshold=294.12631031700511 456.92402115541114 36.904761139432814 117.59916819655781 0.043910000000000005 66.983480007291547 31.413772166905385 36.209300425415314 0.029040000000000003 4.183556526039367
decision_type=2 2 2 2 2 2 2 2 2 2
left_child=4 5 3 -3 7 -2 -7 9 -9 -1
right_child=1 2 -4 -5 -6 6 -8 8 -10 -11
leaf_value=-0.082652982402750957 0.17891160368919373 0.19132328874954624 0.34253718908876185 -0.015472831896373204 0.072475807368755349 -0.15647334483536809 0.077577333476754939 -0.092008257943850286 0.12456388473510741 0.001176503977992318
leaf_weight=274 14.999999999999998 73 11.999999999999998 13.999999999999998 17 10.999999999999998 31 13 11 10.999999999999998
leaf_count=274 15 73 12 14 17 11 31 13 11 11
internal_value=0 0.136076 0.180408 0.158046 -0.0651159 0.0590766 0.0162783 -0.0726857 0.00725397 -0.0794175
internal_weight=0 156 99 87 326 57 42 309 24 285
internal_count=482 156 99 87 326 57 42 309 24 285
is_linear=0
shrinkage=0.1


Tree=53
num_leaves=11
num_cat=0
split_feature=0 2 3 25 5 0 4 4 11 22
split_gain=346.328 47.3283 34.6955 34.5532 46.6549 43.8199 28.3573 27.673 23.9782 7.60798
threshold=384.2960108978541 245.30000000000004 417.83000000000004 0.43949292758711506 1.014414532824796 643.06683058051306 262.35314743674593 183.29035199372035 24.110275924217127 0.029040000000000003
decision_type=2 2 2 2 2 2 2 2 2 2
left_child=1 2 7 6 8 -6 -2 -1 -5 -4
right_child=3 -3 9 4 5 -7 -8 -9 -10 -11
leaf_value=-0.064640626938178625 -0.077557661570608602 0.10672225016686653 -0.028025168801347419 0.22149885217348736 0.18498968059016813 0.41730792265046723 0.15045193672180177 -0.22623108029365541 0.077342353999614713 0.070960451865738086
leaf_weight=290 12.000000000000002 18 11.999999999999998 14.999999999999998 31 10.999999999999998 9.9999999999999982 10.999999999999998 50 22
leaf_count=290 12 18 12 15 31 11 10 11 50 22
internal_value=0 -0.0512422 -0.0597298 0.140221 0.163688 0.245835 0.0260831 -0.0705459 0.110609 0.0360244
internal_weight=0 353 335 129 107 42 22 301 65 34
internal_count=482 353 335 129 107 42 22 301 65 34
is_linear=0
shrinkage=0.1


Tree=54
num_leaves=13
num_cat=0
split_feature=0 8 22 26 8 23 18 13 11 13 11 2
split_gain=281.152 39.5103 32.701 32.3304 55.5103 36.994 39.4947 25.5305 19.607 16.183 14.4541 5.79187
threshold=390.40449646439055 192.44120336851037 0.029040000000000003 23.888893974456035 688.06897356810248 117.59916819655781 56.872259032699453 27.984035608940761 23.916630029975767 36.843604440244029 25.16322854278614 79.635000000000005
decision_type=2 2 2 2 2 2 2 2 2 2 2 2
left_child=1 8 11 4 -2 7 -7 -5 -1 -4 -10 -3
right_child=3 2 9 5 -6 6 -8 -9 10 -11 -12 -13
leaf_value=0.046401213308175406 0.33005683819452919 -0.025768403575888693 0.030417256742172567 0.0039313734819491708 0.052392141769329707 0.098071329593658441 -0.1584914606064558 0.16393960193983453 -0.17397094128223567 0.16489135893908413 -0.065696633930579146 -0.11384205464273692
leaf_weight=14.999999999999998 18.000000000000004 14.000000000000002 48 11.999999999999998 11.999999999999998 15.000000000000002 9.9999999999999982 59 12.999999999999998 10.999999999999998 239 15.999999999999998
leaf_count=15 18 14 48 12 12 15 10 59 13 11 239 16
internal_value=0 -0.0454368 0.0122652 0.128377 0.218991 0.10006 -0.00455379 0.136896 -0.0646708 0.0554887 -0.0712822 -0.072741
internal_weight=0 356 89 126 30 96 25 71 267 59 252 30
internal_count=482 356 89 126 30 96 25 71 267 59 252 30
is_linear=0
shrinkage=0.1


Tree=55
num_leaves=12
num_cat=0
split_feature=0 2 15 5 18 23 10 20 15 25 16
split_gain=229.624 55.62 42.2019 31.9998 63.8814 36.4867 25.7651 24.2619 21.7051 16.6372 10.5447
threshold=410.79203152752024 245.30000000000004 82.619192451196525 1.014414532824796 33.387633473777917 120.54393205009343 31.685000000000006 0.043910000000000005 83.946699530806441 0.49964676363299493 4.183556526039367
decision_type=2 2 2 2 2 2 2 2 2 2 2
left_child=1 7 -3 5 -5 6 -2 10 -6 -9 -1
right_child=3 2 -4 4 8 -7 -8 9 -10 -11 -12
leaf_value=-0.059954314464337979 0.0081296184483696434 0.2647121719270944 -0.0004982575650016467 0.40901021137833599 0.17060096001913472 -0.099444423019886027 0.15818774149487061 0.11841818645064317 0.0070967999371615333 -0.050463363006711004 0.032001829842248787
leaf_weight=306 17 10 15 9.9999999999999982 31 9.9999999999999982 35 14.000000000000002 10.999999999999998 9.9999999999999982 12.999999999999998
leaf_count=306 17 10 15 10 31 10 35 14 11 10 13
internal_value=0 -0.0384161 0.105586 0.12401 0.181861 0.0754892 0.10913 -0.0489119 0.127778 0.0480509 -0.0562069
internal_weight=0 368 25 114 52 62 52 343 42 24 319
internal_count=482 368 25 114 52 62 52 343 42 24 319
is_linear=0
shrinkage=0.1


Tree=56
num_leaves=14
num_cat=0
split_feature=0 3 22 5 18 22 25 11 0 5 8 13 0
split_gain=185.995 32.0494 31.0313 25.9198 51.744 23.9852 23.1909 20.5118 35.3759 7.26033 12.2778 6.20243 5.77048
threshold=410.79203152752024 117.39000000000001 0.029040000000000003 1.014414532824796 33.387633473777917 0.029040000000000003 0.45108398177735554 24.883161238261817 567.88834999537767 1.1673651252208763 167.83448721782221 27.172627326233542 540.10947511399502
decision_type=2 2 2 2 2 2 2 2 2 2 2 2 2
left_child=1 9 11 7 -5 -6 -4 12 -9 10 -1 -3 -2
right_child=3 2 6 4 5 -7 -8 8 -10 -11 -12 -13 -14
leaf_value=-0.055479925857971749 0.19079548884183162 -0.12131543559106915 0.17682438514505824 0.36810919731855396 0.039430970201889681 0.19057022936287382 0.024323938614530964 -0.096701453228791562 0.099063450781007617 -0.12458141866539206 0.052698145561258902 -0.034927827059565222 0.090522766926071863
leaf_weight=227 12.000000000000002 10.999999999999998 11.999999999999998 9.9999999999999982 21 21 59 14.999999999999998 24 13.999999999999998 10.999999999999998 34 10.999999999999998
leaf_count=227 12 11 12 10 21 21 59 15 24 14 11 34 11
internal_value=0 -0.0345745 0.00892232 0.111609 0.163675 0.115001 0.0500987 0.0679403 0.0237693 -0.0545968 -0.0504801 -0.0560448 0.142839
internal_weight=0 368 116 114 52 42 71 62 39 252 238 45 23
internal_count=482 368 116 114 52 42 71 62 39 252 238 45 23
is_linear=0
shrinkage=0.1


Tree=57
num_leaves=9
num_cat=0
split_feature=0 2 25 25 24 13 10 0
split_gain=150.656 40.7187 33.5946 23.3828 32.0689 47.2752 18.6517 23.2848
threshold=410.79203152752024 245.30000000000004 0.52284534374033409 0.42657879891086897 3.1442227488298617e-06 32.240849387950526 32.250000000000007 311.70364619134472
decision_type=2 2 2 2 2 2 2 2
left_child=1 6 -3 -2 -5 -6 -1 -8
right_child=3 2 -4 4 5 -7 7 -9
leaf_value=0.094468362554907814 -0.025788493798329284 0.21274920888245102 -0.019279929851360907 -0.044481917402961035 0.075839685733025936 0.22313840546318003 -0.039251010404807163 -0.18720751011913472
leaf_weight=9.9999999999999982 12.999999999999998 12.000000000000002 12.999999999999998 10.999999999999998 53 37 322 10.999999999999998
leaf_count=10 13 12 13 11 53 37 322 11
internal_value=0 -0.031117 0.0920941 0.100448 0.116696 0.136396 -0.0400974 -0.0441385
internal_weight=0 368 25 114 101 90 343 333
internal_count=482 368 25 114 101 90 343 333
is_linear=0
shrinkage=0.1


Tree=58
num_leaves=10
num_cat=0
split_feature=0 23 17 12 17 2 23 2 3
split_gain=124.012 25.0972 24.0374 37.8491 26.3183 21.567 25.9024 15.3319 6.6939
threshold=294.12631031700511 199.50874705994974 59.747905032582935 37.114569411669443 75.368345624526853 143.68500000000003 251.83068949583816 113.28000000000002 417.83000000000004
decision_type=2 2 2 2 2 2 2 2 2
left_child=5 2 3 -2 -4 7 -7 8 -1
right_child=1 -3 4 -5 -6 6 -8 -9 -10
leaf_value=-0.042754962239985712 0.084427198318143687 -0.037733629138933293 -0.040613617658615118 0.24243703202197425 0.11552444551336138 0.12562651594772056 -0.077201397102326152 -0.16455141305923462 0.017209987193346026
leaf_weight=269 75 18 25 19 19 17.000000000000004 9.9999999999999982 9.9999999999999982 20
leaf_count=269 75 18 25 19 19 17 10 10 20
internal_value=0 0.0733254 0.0878114 0.116365 0.0268096 -0.0350882 0.0505051 -0.0428174 -0.0386051
internal_weight=0 156 138 94 44 326 27 299 289
internal_count=482 156 138 94 44 326 27 299 289
is_linear=0
shrinkage=0.1


Tree=59
num_leaves=11
num_cat=0
split_feature=0 13 23 16 16 0 2 18 4 4
split_gain=100.45 22.5458 31.7001 37.0066 25.3421 17.8066 17.4693 23.4034 13.2484 11.8949
threshold=294.12631031700511 36.843604440244029 117.59916819655781 1.9970860439582263 3.2970779756868147 466.37531191632894 143.68500000000003 57.877976882464516 135.21949538457667 93.10103520041524
decision_type=2 2 2 2 2 2 2 2 2 2
left_child=6 2 4 -4 -2 -3 8 -8 9 -1
right_child=1 5 3 -5 -6 -7 7 -9 -10 -11
leaf_value=-0.039848624167420882 0.12478784070773559 0.070769910067319849 0.047676604948937898 -0.17445424248774846 0.025896462813323858 0.25948475599288939 -0.037818049316604929 0.14954531993716955 -0.15169637143611908 0.044098991124580308
leaf_weight=271 55 10.000000000000002 20 11.999999999999998 49 9.9999999999999982 15.000000000000002 11.999999999999998 9.9999999999999982 18
leaf_count=271 55 10 20 12 49 10 15 12 10 18
internal_value=0 0.0659929 0.0514143 -0.0356225 0.0781948 0.165127 -0.0315794 0.0454546 -0.0385356 -0.0346201
internal_weight=0 156 136 32 104 20 326 27 299 289
internal_count=482 156 136 32 104 20 326 27 299 289
is_linear=0
shrinkage=0.1


Tree=60
num_leaves=13
num_cat=0
split_feature=3 2 3 0 9 22 25 9 4 0 13 3
split_gain=83.5059 30.7932 51.7536 42.5256 25.3573 20.6238 29.1544 6.51658 35.7653 26.7692 4.26084 3.85504
threshold=190.69500000000002 227.79500000000004 621.04500000000019 315.9525481862193 36.885000000000005 0.029040000000000003 0.47674831523034261 28.100000000000005 119.3028552162463 137.22089415409701 25.408389699530563 64.405000000000015
decision_type=2 2 2 2 2 2 2 2 2 2 2 2
left_child=7 2 3 -2 -4 -3 -7 9 10 11 -9 -1
right_child=1 5 4 -5 -6 6 -8 8 -10 -11 -12 -13
leaf_value=-0.033279945781503464 0.0058723685449905815 0.014629917778074743 0.056994039837330104 -0.17235544775338735 0.21039072646974374 0.29683578252792359 0.099674447228511182 -0.045235222135041213 -0.2289027621630918 0.13102145642042159 0.025652508276768706 -0.094169026257639579
leaf_weight=190 63 15.999999999999998 63 17 12.999999999999998 9.9999999999999982 30 37 10.999999999999998 9.9999999999999982 10.999999999999998 10.999999999999998
leaf_count=190 63 16 63 17 13 10 30 37 11 10 11 11
internal_value=0 0.0469731 0.0241386 -0.032001 0.0832329 0.110583 0.148965 -0.0368826 -0.066262 -0.0286675 -0.0289901 -0.0366122
internal_weight=0 212 156 80 76 56 40 270 59 211 48 201
internal_count=482 212 156 80 76 56 40 270 59 211 48 201
is_linear=0
shrinkage=0.1


Tree=61
num_leaves=11
num_cat=0
split_feature=3 23 16 9 15 13 22 12 3 9
split_gain=67.8063 26.5456 46.1288 34.3361 29.6435 27.4613 19.6602 6.45291 11.2499 4.15861
threshold=201.94500000000002 117.59916819655781 3.2809249031048915 36.555000000000007 77.596147900098302 27.984035608940761 0.029040000000000003 32.963842290428524 105.53500000000001 30.555000000000003
decision_type=2 2 2 2 2 2 2 2 2 2
left_child=7 2 3 -2 6 -4 -3 8 9 -1
right_child=1 4 5 -5 -6 -7 -8 -9 -10 -11
leaf_value=-0.028695913952491853 0.094633458405733117 -0.050333728974995523 -0.050857787333532349 0.28682422786951067 -0.16746225148439409 0.074461748100378936 0.067878508567810067 0.028800025075906888 -0.13119000823547441 -0.083039387265841175
leaf_weight=230 60 24 36 10.999999999999998 9.9999999999999982 34 34 15.999999999999998 11.999999999999998 14.999999999999998
leaf_count=230 60 24 36 11 10 34 34 16 12 15
internal_value=0 0.0428667 0.0676163 0.124409 -0.00845239 0.0100117 0.0189631 -0.0328173 -0.0366534 -0.0320231
internal_weight=0 209 141 71 68 70 58 273 257 245
internal_count=482 209 141 71 68 70 58 273 257 245
is_linear=0
shrinkage=0.1


Tree=62
num_leaves=12
num_cat=0
split_feature=3 2 3 0 12 22 26 11 9 15 4
split_gain=54.9231 24.0337 36.9577 34.2033 21.0304 17.295 25.7096 5.41004 27.4022 10.8152 3.62268
threshold=201.94500000000002 227.79500000000004 621.04500000000019 315.9525481862193 37.114569411669443 0.029040000000000003 23.893986718490087 24.659296718992127 27.890000000000004 95.295116489169104 72.258518653456562
decision_type=2 2 2 2 2 2 2 2 2 2 2
left_child=7 2 3 -2 -4 -3 -7 8 -1 10 -9
right_child=1 5 4 -5 -6 6 -8 9 -10 -11 -12
leaf_value=0.096487068419810362 0.0051252733765830916 0.0088162543252110481 0.042263407388427224 -0.15498789049246733 0.17442950348059338 0.069932160743822663 0.24045016116329601 -0.031656498671932654 -0.10854336809028278 -0.11648239914327861 0.027148364213379947
leaf_weight=16.000000000000004 62 15.999999999999998 61 17 14.999999999999998 24 13.999999999999998 220 10.999999999999998 14.999999999999998 10.999999999999998
leaf_count=16 62 16 61 17 15 24 14 220 11 15 11
internal_value=0 0.03858 0.0185644 -0.0293295 0.0683488 0.0960321 0.132755 -0.0295356 0.0129561 -0.0341993 -0.0288563
internal_weight=0 209 155 79 76 54 38 273 27 246 231
internal_count=482 209 155 79 76 54 38 273 27 246 231
is_linear=0
shrinkage=0.1


Tree=63
num_leaves=10
num_cat=0
split_feature=0 26 8 11 23 20 5 23 2
split_gain=44.7955 17.9347 41.9925 55.3977 17.0545 12.4831 10.5561 8.49423 12.1345
threshold=294.12631031700511 23.888894845548609 742.48642559791949 25.588101778451801 199.50874705994974 0.043910000000000005 1.3375241529837947 348.27722719491709 179.32000000000002
decision_type=2 2 2 2 2 2 2 2 2
left_child=5 2 3 -2 6 7 -3 8 -1
right_child=1 4 -4 -5 -6 -7 -8 -9 -10
leaf_value=-0.026670326688982754 0.042134309077964102 0.027064712136314159 -0.075655840039253242 0.31636146903038026 -0.075336828877528517 0.062338658794760707 0.12697868657608827 -0.10816254355013372 0.072130061743351126
leaf_weight=284 17.000000000000004 89 9.9999999999999982 12.999999999999998 14.999999999999998 17 11.999999999999998 11.999999999999998 12.999999999999998
leaf_count=284 17 89 10 13 15 17 12 12 13
internal_value=0 0.0440697 0.101811 0.160966 0.0241591 -0.0210886 0.0389357 -0.0256784 -0.0223457
internal_weight=0 156 40 30 116 326 101 309 297
internal_count=482 156 40 30 116 326 101 309 297
is_linear=0
shrinkage=0.1


Tree=64
num_leaves=11
num_cat=0
split_feature=3 15 9 2 16 3 16 4 11 6
split_gain=37.103 17.8397 45.8953 36.5482 23.9752 23.8456 7.32812 5.6349 9.1672 4.434
threshold=201.94500000000002 84.373605339763841 36.885000000000005 245.30000000000004 1.9970860439582263 621.04500000000019 2.7620669543765426 229.76083046938885 24.721761712477946 68.888707260434046
decision_type=2 2 2 2 2 2 2 2 2 2
left_child=7 3 6 5 -5 -2 -3 8 -1 -10
right_child=1 2 -4 4 -6 -7 -8 -9 9 -11
leaf_value=0.046042883087341724 -0.055226027321130522 -0.026967480718823419 0.25318404485781992 0.21886977305014932 0.043150943111289634 0.034797405377529296 0.060200614169720681 -0.083859258492787692 -0.068904110586101366 -0.021789481683123498
leaf_weight=19 62 13.999999999999998 11.999999999999998 11.999999999999998 22 56 31 14.999999999999998 22 217
leaf_count=19 62 14 12 12 22 56 31 15 22 217
internal_value=0 0.0317095 0.079419 0.0138184 0.105169 -0.012503 0.0330817 -0.0242758 -0.0208116 -0.0261264
internal_weight=0 209 57 152 34 118 45 273 258 239
internal_count=482 209 57 152 34 118 45 273 258 239
is_linear=0
shrinkage=0.1


Tree=65
num_leaves=11
num_cat=0
split_feature=3 23 16 15 17 13 18 4 8 11
split_gain=30.0847 17.0343 31.0382 24.9617 24.284 16.3496 14.0729 4.51801 9.38565 4.59652
threshold=190.69500000000002 117.59916819655781 3.2809249031048915 77.596147900098302 34.196032078598144 27.172627326233542 82.035601374686607 229.76083046938885 285.56451151416536 23.916630029975767
decision_type=2 2 2 2 2 2 2 2 2 2
left_child=7 2 4 6 -2 -4 -3 8 9 -1
right_child=1 3 5 -5 -6 -7 -8 -9 -10 -11
leaf_value=0.042935010343790055 -0.0073134343915929392 0.036827099747569397 -0.062561926202705273 -0.15870888948440554 0.1265014267170971 0.037458576866298575 -0.084505816269665968 -0.075473331399261961 0.063774319451588846 -0.026308342060756648
leaf_weight=9.9999999999999982 18 47 26 9.9999999999999982 55 44 11.999999999999998 14.999999999999998 12.999999999999998 232
leaf_count=10 18 47 26 10 55 44 12 15 13 232
internal_value=0 0.0281944 0.0478846 -0.0126128 0.093506 0.000308104 0.0121492 -0.0221378 -0.0190005 -0.023447
internal_weight=0 212 143 69 73 70 59 270 255 242
internal_count=482 212 143 69 73 70 59 270 255 242
is_linear=0
shrinkage=0.1


Tree=66
num_leaves=11
num_cat=0
split_feature=3 2 0 12 8 24 24 23 20 21
split_gain=24.7441 28.3566 25.6449 16.929 16.6268 30.4498 10.875 16.5337 9.31635 7.30023
threshold=621.04500000000019 227.79500000000004 315.9525481862193 37.749903452559955 586.65982995022796 4.2645608413494082e-06 5.84871866493586e-06 130.18696045242041 0.043910000000000005 0.029040000000000003
decision_type=2 2 2 2 2 2 2 2 2 2
left_child=1 2 8 6 5 -3 7 -2 -1 -8
right_child=3 4 -4 -5 -6 -7 9 -9 -10 -11
leaf_value=-0.019348873463949482 -0.066739963069558136 0.22071786175171534 -0.14135247723144645 0.17169954106211663 -0.03157371308873682 0.033928036247380076 0.018809427345792454 0.067396508474998618 0.056721248696832094 0.11015008528317725
leaf_weight=304 20 11.999999999999998 17 9.9999999999999982 17 32 14.999999999999998 17 17 21
leaf_count=304 20 12 17 10 17 32 15 17 17 21
internal_value=0 -0.0103339 -0.0216591 0.0496775 0.052419 0.0848707 0.0329621 -0.00510969 -0.0153202 0.0720915
internal_weight=0 399 338 83 61 44 73 37 321 36
internal_count=482 399 338 83 61 44 73 37 321 36
is_linear=0
shrinkage=0.1


Tree=67
num_leaves=10
num_cat=0
split_feature=9 13 13 4 8 2 12 20 15
split_gain=21.4191 23.8158 18.635 24.0029 30.8162 15.7046 13.6852 8.12472 10.8529
threshold=35.150000000000006 32.240849387950526 36.843604440244029 109.38584550852501 544.05553534756598 227.79500000000004 37.634701348017124 0.043910000000000005 79.457344876189481
decision_type=2 2 2 2 2 2 2 2 2
left_child=2 5 7 -4 -5 6 -2 8 -1
right_child=1 -3 3 4 -6 -7 -8 -9 -10
leaf_value=-0.01163919408930069 0.022349476963281632 0.15479138726368546 -0.043818301388195591 0.25332761883735649 0.015638123825192453 0.098273344494794551 -0.092526248310293477 0.052697964667459019 -0.05732899259601254
leaf_weight=277 40 15.999999999999998 13.999999999999998 10.000000000000002 11.999999999999998 19 13.999999999999998 15.999999999999998 64
leaf_count=277 40 16 14 10 12 19 14 16 64
internal_value=0 0.0442974 -0.0100317 0.058541 0.123679 0.0200795 -0.00743312 -0.0169466 -0.0202144
internal_weight=0 89 393 36 22 73 54 357 341
internal_count=482 89 393 36 22 73 54 357 341
is_linear=0
shrinkage=0.1


Tree=68
num_leaves=10
num_cat=0
split_feature=12 25 2 4 23 2 2 12 23
split_gain=19.5824 38.0145 15.8007 15.3027 30.0314 14.7928 18.8983 10.8852 10.7808
threshold=37.114569411669443 0.48696672212188302 241.90000000000003 335.25739419290204 117.59916819655781 187.45000000000002 143.68500000000003 38.345210320065497 120.54393205009343
decision_type=2 2 2 2 2 2 2 2 2
left_child=2 7 5 4 -4 6 -1 -2 -7
right_child=1 -3 3 -5 -6 8 -8 -9 -10
leaf_value=-0.013986650661392484 0.068796647272326705 0.22613541863181374 0.07343246602806551 0.14486278494199117 -0.10947919900600728 -0.036916336926974741 0.066459304327145224 -0.071884744817560367 -0.16519318349659443
leaf_weight=334 11.000000000000002 10.999999999999998 29 11.999999999999998 12.999999999999998 19.000000000000004 32 10.999999999999998 9.9999999999999982
leaf_count=334 11 11 29 12 13 19 32 11 10
internal_value=0 0.0743491 -0.00546441 0.0452716 0.016817 -0.0124005 -0.00695312 -0.00154405 -0.0811497
internal_weight=0 33 449 54 42 395 366 22 29
internal_count=482 33 449 54 42 395 366 22 29
is_linear=0
shrinkage=0.1


Tree=69
num_leaves=10
num_cat=0
split_feature=13 17 9 13 26 2 11 16 11
split_gain=16.4569 34.4718 15.6883 14.0297 12.4538 12.1357 4.93685 20.68 11.1033
threshold=36.843604440244029 33.943331893200188 35.150000000000006 32.240849387950526 24.001294109637723 285.25000000000006 24.298047033153942 3.2528657974110859 25.096910496336591
decision_type=2 2 2 2 2 2 2 2 2
left_child=2 4 6 5 -2 -4 7 -1 -8
right_child=1 -3 3 -5 -6 -7 8 -9 -10
leaf_value=0.061802091515592995 -0.070880506760798948 0.20329930232837798 -0.00042972037243464635 0.12857077511457296 0.065044030972889494 0.11815370082855225 -0.09542532130661939 -0.084629999846220022 -0.014517127485553019
leaf_weight=31 13.000000000000002 11.999999999999998 63 12.999999999999998 13.999999999999998 9.9999999999999982 18 13.999999999999998 294
leaf_count=31 13 12 63 13 14 10 18 14 294
internal_value=0 0.0622759 -0.00548253 0.0328591 -0.000401117 0.0158146 -0.0147189 0.0162454 -0.0191849
internal_weight=0 39 443 86 27 73 357 45 312
internal_count=482 39 443 86 27 73 357 45 312
is_linear=0
shrinkage=0.1


Tree=70
num_leaves=13
num_cat=0
split_feature=3 5 4 0 2 0 15 4 13 24 11 4
split_gain=14.9462 16.259 26.4195 14.9107 14.3392 19.5985 12.1003 21.7778 13.7693 10.3626 7.0463 6.24116
threshold=621.04500000000019 0.9958207711095689 190.13368798245668 643.06683058051306 227.79500000000004 315.9525481862193 71.923266628857689 191.54233153652902 30.008849126689054 4.8199735509513184e-06 25.029019755569198 168.0115471901166
decision_type=2 2 2 2 2 2 2 2 2 2 2 2
left_child=4 3 -3 10 5 11 7 -6 -8 -4 -2 -1
right_child=1 2 9 -5 6 -7 8 -9 -10 -11 -12 -13
leaf_value=-0.0070459631404265867 0.078028334238949948 0.21920715272426605 -0.028089820937468448 -0.10719789698719979 -0.0087442451715469324 -0.120720824643093 0.052226444613188511 0.1951569969003851 -0.067535745166242125 0.10731280334293843 -0.0076906533911824228 -0.066134727981529737
leaf_weight=302 17 10.999999999999998 13.000000000000002 9.9999999999999982 10.000000000000002 17 24 10.999999999999998 15.999999999999998 9.9999999999999982 22 19
leaf_count=302 17 11 13 10 10 17 24 11 16 10 22 19
internal_value=0 0.038609 0.0917423 0.00174099 -0.00803145 -0.0160849 0.0365926 0.0980612 0.00432157 0.0307809 0.029674 -0.0105434
internal_weight=0 83 34 49 399 338 61 21 40 23 39 321
internal_count=482 83 34 49 399 338 61 21 40 23 39 321
is_linear=0
shrinkage=0.1


Tree=71
num_leaves=7
num_cat=0
split_feature=12 2 8 24 2 2
split_gain=14.0201 12.2413 11.5439 19.1912 11.4594 8.54689
threshold=38.528582390861466 227.79500000000004 586.65982995022796 4.2645608413494082e-06 209.35500000000002 143.68500000000003
decision_type=2 2 2 2 2 2
left_child=1 4 3 -3 5 -1
right_child=-2 2 -4 -5 -6 -7
leaf_value=-0.01200726151915644 0.1067358994235595 0.17321264147758486 -0.029970902701218924 0.026116888005943861 -0.10539933368563653 0.031158260333369367
leaf_weight=341 11.999999999999998 11.999999999999998 18 34 11.999999999999998 53
leaf_count=341 12 12 18 34 12 53
internal_value=0 -0.00272517 0.0379227 0.0644897 -0.00913271 -0.00620073
internal_weight=0 470 64 46 406 394
internal_count=482 470 64 46 406 394
is_linear=0
shrinkage=0.1


Tree=72
num_leaves=9
num_cat=0
split_feature=12 25 10 2 25 11 4 17
