tree
version=v4
num_class=1
num_tree_per_iteration=1
label_index=0
max_feature_idx=26
objective=regression
feature_names=Cooling_Load_(kWh) Hour Outdoor_Drybulb_Temperature_(C) Outdoor_Relative_Humidity_(%) Equipment_Electric_Power_(kWh) 24h_Outdoor_Drybulb_Temperature_(C) 12h_Outdoor_Drybulb_Temperature_(C) 6h_Diffuse_Solar_Radiation_(W/m2) 24h_Outdoor_Relative_Humidity_(%) Solar_Generation_(W/kW) 6h_Direct_Solar_Radiation_(W/m2) 12h_Outdoor_Relative_Humidity_(%) kg_CO2/kWh Diffuse_Solar_Radiation_(W/m2) Direct_Solar_Radiation_(W/m2) 12h_Prediction_Electricity_Pricing__$/kWh_ 24h_Direct_Solar_Radiation_(W/m2) 24h_Diffuse_Solar_Radiation_(W/m2) 6h_Outdoor_Drybulb_Temperature_(C) Electricity_Pricing__$/kWh_ 12h_Diffuse_Solar_Radiation_(W/m2) 24h_Prediction_Electricity_Pricing__$/kWh_ 12h_Direct_Solar_Radiation_(W/m2) Indoor_Relative_Humidity_(%) Indoor_Temperature_(C) Temperature_Set_Point_(C) 6h_Prediction_Electricity_Pricing__$/kWh_
feature_infos=[0:10.608548931041424] [1:24] [21.379999999999999:40.32] [24.120000000000001:98.25] [0.33485604895556981:7.4589685167779072] [20.947013524362529:40.33298102857114] [20.812239003382171:41.761423383460262] [0:448.59393372529718] [16.665542474905589:100] [0:687.15852178569139] [0:998.78608636720685] [18.750454935186248:100] [0.33751525247131398:0.54505021691256927] [0:408.69999999999999] [0:886.92999999999995] [0.028930000000000001:0.05867] [0:1148.8024499653848] [0:486.88891634473225] [21.385895012807637:40.448030901483051] [0.028930000000000001:0.05867] [0:524.90876332100106] [0.028930000000000001:0.05867] [0:1096.818864330259] [46.463528256975707:67.854748901629137] [19.999913713398435:27.222233402985371] [20:27.222222222222225] [0.028930000000000001:0.05867]
tree_sizes=1331 1376 1383 1387 1404 1427 1388 1410 1418 1012 1407 1423 1425 1427 1328 1213 1276 1252 1239 1237 1242 1236 1259 1250 1354 1353 1367 1188 1187 862 1199 1248 1216 958 956 979 962 1258 963 865 913 865 881 908 1253 881 813 878 892 724 718 702 982 719 723 699 931 627 966 695 631 627 810 816 698 634 623 892 981 1088 639 721 809 1087 715 1077 639 644 643 626

Tree=0
num_leaves=15
num_cat=0
split_feature=0 0 0 0 0 0 0 0 0 0 0 0 0 0
split_gain=934.61 213.35 147.823 35.7628 33.7732 27.5305 20.9651 5.21281 5.14093 4.14043 4.12849 2.63532 2.12878 1.22035
threshold=3.7036323731187832 1.9995618513729234 5.6118390259601414 2.8409704128885376 7.0483884579426892 0.95867432304703504 4.4333547542409608 3.2239592166671271 1.5400768439564076 5.0864724741407974 2.4314685079809304 0.51470381751823113 6.2398667656612741 4.0794947502470214
decision_type=2 2 2 2 2 2 2 2 2 2 2 2 2 2
left_child=1 5 6 10 12 11 13 -5 -7 -8 -3 -1 -4 -2
right_child=2 3 4 7 -6 8 9 -9 -10 -11 -12 -13 -14 -15
leaf_value=2.752713686955544 3.1173471642195243 2.9500054664109294 3.3256087216396191 3.02731907862163 3.5446989356801635 2.8577657998925172 3.202555026985225 3.0740151488812373 2.9044027800073566 3.2644721792134037 2.9885908349402692 2.8034342262756269 3.3766169726178772 3.1509619732027971
leaf_weight=20 27 57 18 45 11.999999999999998 60 27 51 39 18 54 21 14.999999999999998 18
leaf_count=20 27 57 18 45 12 60 27 51 39 18 54 21 15 18
internal_value=3.0298 2.94295 3.25305 3.00743 3.40104 2.8476 3.17906 3.05213 2.87614 3.22732 2.96878 2.77869 3.34879 3.13079
internal_weight=0 347 135 207 45 140 90 96 99 45 111 41 33 45
internal_count=482 347 135 207 45 140 90 96 99 45 111 41 33 45
is_linear=0
shrinkage=1


Tree=1
num_leaves=15
num_cat=0
split_feature=0 0 0 0 0 0 0 0 0 0 0 0 0 0
split_gain=757.654 154.143 140.663 31.6257 24.4002 20.5478 18.2536 3.69886 3.09768 2.94317 2.72275 2.53479 2.03663 1.97192
threshold=3.583257567914401 1.9313345573608798 5.4629831845412902 7.0483884579426892 2.7300157260613962 1.0478144086710011 4.4333547542409608 3.141315785933029 6.0758436534531155 1.4695313451945811 2.2913140223181974 0.6078313593329252 3.9981626258515317 4.935198344640491
decision_type=2 2 2 2 2 2 2 2 2 2 2 2 2 2
left_child=1 5 6 8 10 11 12 -6 -4 -7 -3 -1 -2 -8
right_child=2 4 3 -5 7 9 13 -9 -10 -11 -12 -13 -14 -15
leaf_value=-0.24603950251703677 0.06735814693901275 -0.083040294127586567 0.24732230504353844 0.46340801119804387 -0.0093444819001618912 -0.15663574139277142 0.15250309507052107 0.030223857345325608 0.30385564168294277 -0.12038774646463848 -0.049419986823248489 -0.19798611743109568 0.10496564954519272 0.19872262001037599
leaf_weight=23 36 39 18 11.999999999999998 54 48 24 42 21 42 63 21 24 14.999999999999998
leaf_count=23 36 39 18 12 54 48 24 42 21 42 63 21 24 15
internal_value=0 -0.084273 0.186524 0.321444 -0.0282183 -0.1671 0.11702 0.00796667 0.277763 -0.13972 -0.0622748 -0.223105 0.0824011 0.17028
internal_weight=0 332 150 51 198 134 99 96 39 90 102 44 60 39
internal_count=482 332 150 51 198 134 99 96 39 90 102 44 60 39
is_linear=0
shrinkage=0.1


Tree=2
num_leaves=15
num_cat=0
split_feature=0 0 0 0 0 0 0 0 0 0 0 0 0 0
split_gain=614.026 143.447 93.7671 22.9696 22.0527 20.0671 12.5579 3.34971 3.07733 2.99005 2.95347 2.33279 1.54123 0.988234
threshold=3.779012751494629 2.0600444956288348 5.6118390259601414 2.9028007148221779 7.0483884579426892 1.1350579143902708 4.6379930903251685 3.3312360475236025 0.66595707017730821 1.6575151282711023 2.5319473008132918 5.0864724741407974 6.3051963544310965 4.1219476869652381
decision_type=2 2 2 2 2 2 2 2 2 2 2 2 2 2
left_child=1 5 6 10 12 8 13 -5 -1 -7 -3 -8 -4 -2
right_child=2 3 4 7 -6 9 11 -9 -10 -11 -12 -13 -14 -15
leaf_value=-0.21865412776286786 0.074368182597336949 -0.059338505520965118 0.24242752052488781 0.0042813994045204978 0.41706720987955737 -0.13125147422154745 0.14208825131257374 0.04241742459791048 -0.17045307026969062 -0.094439223739835959 -0.026114665600988601 0.18971163895395068 0.28735280434290567 0.10461766719818116
leaf_weight=26 27 66 21 51 11.999999999999998 57 24 42 27 36 45 18 11.999999999999998 18
leaf_count=26 27 66 21 51 12 57 24 42 27 36 45 18 12 18
internal_value=0 -0.0693143 0.183788 -0.015155 0.300978 -0.144989 0.123172 0.0215041 -0.194099 -0.117002 -0.0458694 0.162498 0.258764 0.086468
internal_weight=0 350 132 204 45 146 87 93 53 93 111 42 33 45
internal_count=482 350 132 204 45 146 87 93 53 93 111 42 33 45
is_linear=0
shrinkage=0.1


Tree=3
num_leaves=15
num_cat=0
split_feature=0 0 0 0 0 0 0 0 0 0 0 0 0 0
split_gain=497.937 99.0515 95.5101 23.2886 16.5514 12.3954 9.55958 3.21013 2.36633 2.13113 1.86472 1.58765 0.960187 0.860379
threshold=3.5443808955766705 1.860061617188751 5.3320206116088764 7.0483884579426892 2.683064522218372 0.95867432304703504 4.2885305249541608 6.0015376422335587 3.1018861628301586 2.2514023842991016 1.3978590967854281 0.43710517837399876 3.889190702016017 4.8625990308160816
decision_type=2 2 2 2 2 2 2 2 2 2 2 2 2 2
left_child=1 5 6 7 9 11 12 -4 -6 -3 -7 -1 -2 -8
right_child=2 4 3 -5 8 10 13 -9 -10 -11 -12 -13 -14 -15
leaf_value=-0.20678278277902043 0.049748409489790597 -0.070412996837071015 0.19001979260217577 0.37536046902338666 -0.0093613792898530074 -0.13294993425026919 0.1164111782003332 0.24355656107266746 0.022287026207361903 -0.041332286146898121 -0.10351161248981953 -0.16683987031380337 0.075742387771606454 0.14859256545702618
leaf_weight=17 30 42 21 11.999999999999998 54 39 27 24 42 63 48 24 27 11.999999999999998
leaf_count=17 30 42 21 12 54 39 27 24 42 63 48 24 27 12
internal_value=0 -0.0693125 0.149044 0.251581 -0.0255261 -0.138071 0.0881636 0.218573 0.0044848 -0.0529646 -0.116708 -0.183402 0.0620613 0.126313
internal_weight=0 329 153 57 201 128 96 45 96 105 87 41 57 39
internal_count=482 329 153 57 201 128 96 45 96 105 87 41 57 39
is_linear=0
shrinkage=0.1


Tree=4
num_leaves=15
num_cat=0
split_feature=0 0 0 0 0 0 0 0 0 0 0 0 0 0
split_gain=403.493 85.9833 70.8265 15.5133 13.8801 11.6723 9.68144 2.2594 2.13181 1.68379 1.38383 1.28302 1.26127 0.843444
threshold=3.6319146607587851 1.9663546163085937 5.517689762139816 7.0483884579426892 2.7705647784696121 1.1909410589253289 4.4333547542409608 0.66595707017730821 3.183923593749848 2.3563288648777898 6.3051963544310965 5.0864724741407974 1.6004984900876946 3.9981626258515317
decision_type=2 2 2 2 2 2 2 2 2 2 2 2 2 2
left_child=1 5 6 10 9 7 13 -1 -6 -3 -4 -8 -7 -2
right_child=2 4 3 -5 8 12 11 -9 -10 -11 -12 -13 -14 -15
leaf_value=-0.17749307705805853 0.051399517953395847 -0.057006183639168741 0.19267118970553082 0.33782442013422648 -0.0045948971901203081 -0.10688863371809323 0.11356585092014737 -0.13721739371617636 0.025267094042566086 -0.031585924248946344 0.23426187435785928 0.15004234870274863 -0.081492395653869176 0.076550715416669857
leaf_weight=26 30 48 24 11.999999999999998 51 48 27 30 45 57 11.999999999999998 14.999999999999998 33 24
leaf_count=26 30 48 24 12 51 48 27 30 45 57 12 15 33 24
internal_value=0 -0.0597197 0.140175 0.239357 -0.0180797 -0.120812 0.0905845 -0.155917 0.00940291 -0.0432066 0.206535 0.126593 -0.096542 0.0625778
internal_weight=0 338 144 48 201 137 96 56 96 105 36 42 81 54
internal_count=482 338 144 48 201 137 96 56 96 105 36 42 81 54
is_linear=0
shrinkage=0.1


Tree=5
num_leaves=15
num_cat=0
split_feature=0 0 0 0 0 0 0 0 0 0 0 0 0 0
split_gain=327.293 66.4031 62.1238 15.6242 10.1829 7.87155 6.95759 1.68455 1.43022 1.34726 1.25992 1.00843 0.799104 0.595688
threshold=3.4879554085591278 5.3320206116088764 1.8205802055644764 6.6489014733917653 2.622608472384985 0.89271111997907537 4.2885305249541608 5.8864877481530113 3.0088675150870361 2.2161312860699796 1.3607705379660742 0.31231232785292518 3.8689109385340976 4.7758107720356353
decision_type=2 2 2 2 2 2 2 2 2 2 2 2 2 2
left_child=2 6 5 7 9 11 12 -3 -6 -4 -7 -1 -2 -8
right_child=1 3 4 -5 8 10 13 -9 -10 -11 -12 -13 -14 -15
leaf_value=-0.17650318362496117 0.037851609334801188 0.14573968966801962 -0.058706755013692949 0.29150438944498702 -0.011058882134510022 -0.10977680087089539 0.09256302416324616 0.18753612129776567 0.013400488884912598 -0.035354685932397843 -0.085578855375448862 -0.14058320787217882 0.060402016242345175 0.11796634435653686
leaf_weight=10.999999999999998 33 14.999999999999998 42 14.999999999999998 51 39 24 27 45 60 48 27 30 14.999999999999998
leaf_count=11 33 15 42 15 51 39 24 27 45 60 48 27 30 15
internal_value=0 0.117448 -0.0578152 0.203897 -0.0229694 -0.113011 0.0691389 0.172609 0.000406448 -0.0449702 -0.0964262 -0.150981 0.0485899 0.102334
internal_weight=0 159 323 57 198 125 102 42 96 102 87 38 63 39
internal_count=482 159 323 57 198 125 102 42 96 102 87 38 63 39
is_linear=0
shrinkage=0.1


Tree=6
num_leaves=15
num_cat=0
split_feature=0 0 0 0 0 0 0 0 0 0 0 0 0 0
split_gain=265.107 53.7865 50.3203 12.6936 8.27728 6.43837 5.66433 1.80667 1.38159 1.25538 1.00706 0.61235 0.570764 0.537349
threshold=3.4879554085591278 5.3320206116088764 1.8205802055644764 7.0483884579426892 2.6014054978328764 0.83644397961847816 4.2279978876930215 5.932656241888524 1.3074431353743978 3.0460097669473001 2.186777656183843 4.7160749933377799 0.31231232785292518 3.8127138523587885
decision_type=2 2 2 2 2 2 2 2 2 2 2 2 2 2
left_child=2 6 5 7 10 12 13 -3 -7 -6 -4 -8 -1 -2
right_child=1 3 4 -5 9 8 11 -9 -10 -11 -12 -13 -14 -15
leaf_value=-0.15885286547920921 0.033045321504275006 0.13459808362854853 -0.053628528576630807 0.27489154736200966 -0.0098925799268232504 -0.10483201417055997 0.078316374052138565 0.1754984732027407 -0.079357890884081531 0.012892123577850207 -0.0329871799548467 0.10246570649601164 -0.13073402302605766 0.051972359518210103
leaf_weight=10.999999999999998 30 18 39 11.999999999999998 57 33 21 27 60 42 60 21 21 30
leaf_count=11 30 18 39 12 57 33 21 27 60 42 60 21 21 30
internal_value=0 0.105704 -0.0520337 0.183507 -0.0206725 -0.10171 0.062225 0.159138 -0.0883971 -0.000226342 -0.0411186 0.090391 -0.1404 0.0425088
internal_weight=0 159 323 57 198 125 102 45 93 99 99 42 32 60
internal_count=482 159 323 57 198 125 102 45 93 99 99 42 32 60
is_linear=0
shrinkage=0.1


Tree=7
num_leaves=15
num_cat=0
split_feature=0 0 0 0 0 0 0 0 0 0 0 0 0 0
split_gain=214.821 48.2019 35.5179 7.81118 7.16346 6.75977 5.75085 1.29625 1.22901 1.00067 0.964604 0.940722 0.508756 0.457051
threshold=3.6770134884858816 2.1067405105012793 5.8864877481530113 1.1909410589253289 7.0483884579426892 2.9263586898606788 4.6379930903251685 0.43710517837399876 1.680431079064886 2.4755495827513783 5.1734936496521939 3.3312360475236025 6.3051963544310965 4.1219476869652381
decision_type=2 2 2 2 2 2 2 2 2 2 2 2 2 2
left_child=1 3 6 7 12 9 13 -1 -5 -3 -8 -7 -4 -2
right_child=2 5 4 8 -6 11 10 -9 -10 -11 -12 -13 -14 -15
leaf_value=-0.13707978164448459 0.041864951090379195 -0.03463077299427568 0.14535094632042775 -0.076400090518750643 0.24740239381790163 0.0031332861444146455 0.085949056236832244 -0.10399098549133692 -0.05336212615172068 -0.015349514753210778 0.11583470304807027 0.02451775707304478 0.17193300823370616 0.061674476994408506
leaf_weight=17 33 57 18.000000000000004 57 11.999999999999998 48 27 39 39 51 18 36 11.999999999999998 18
leaf_count=17 33 57 18 57 12 48 27 39 39 51 18 36 12 18
internal_value=0 -0.0422839 0.105403 -0.0843548 0.182103 -0.00897782 0.0718472 -0.114036 -0.0670409 -0.0255257 0.0979033 0.0122981 0.155984 0.0488565
internal_weight=0 344 138 152 42 192 96 56 96 108 45 84 30 51
internal_count=482 344 138 152 42 192 96 56 96 108 45 84 30 51
is_linear=0
shrinkage=0.1


Tree=8
num_leaves=15
num_cat=0
split_feature=0 0 0 23 0 0 0 0 0 0 0 0 0 0
split_gain=174.147 34.362 33.8855 7.22755 5.28819 5.22484 4.71573 0.804909 0.795223 0.792013 0.705834 0.659675 0.62912 0.481983
threshold=3.5083579586036691 5.517689762139816 1.8996203234042068 60.219075067585386 2.6444711125010172 4.3764009799558572 1.0743857556257013 3.0671412268180007 0.37128067703291445 6.1574605403144052 4.8625990308160816 2.3247499676185961 1.4957109480362136 3.9140915266387597
decision_type=2 2 2 2 2 2 2 2 2 2 2 2 2 2
left_child=2 5 6 9 11 13 8 -6 -1 -3 -7 -4 -8 -2
right_child=1 3 4 -5 7 10 12 -9 -10 -11 -12 -13 -14 -15
leaf_value=-0.12625053269522532 0.029439575721820196 0.12045678272843362 -0.039785824840267499 0.23293415188789368 -0.0065075196869050465 0.069913335144519806 -0.074217990040779114 0.011950606733028378 -0.097807736469037621 0.14969740076498553 0.095017304023106902 -0.023452416559060416 -0.056730213430192737 0.047114314966731602
leaf_weight=13.999999999999998 36 15.999999999999998 48 9.9999999999999982 54 24 48 42 33 22 21 51 36 27
leaf_count=14 36 16 48 10 54 24 48 42 33 22 21 51 36 27
internal_value=0 0.0868922 -0.0415803 0.157292 -0.0151552 0.0556037 -0.0809154 0.00156791 -0.10628 0.137386 0.0816285 -0.0313716 -0.0667232 0.0370145
internal_weight=0 156 326 48 195 108 131 96 47 38 45 99 84 63
internal_count=482 156 326 48 195 108 131 96 47 38 45 99 84 63
is_linear=0
shrinkage=0.1


Tree=9
num_leaves=10
num_cat=0
split_feature=3 25 24 25 23 1 1 3 9
split_gain=43.0683 17.928 16.1527 14.35 8.71653 11.4073 7.20631 5.12486 1.54309
threshold=44.000000000000007 22.111111111111111 24.390759044900218 25.027777777777782 52.765183677797808 14.500000000000002 15.500000000000002 67.095000000000013 410.79203152752024
decision_type=2 2 2 2 2 2 2 2 2
left_child=2 -2 -1 6 8 -6 -3 -5 -4
right_child=1 3 4 7 5 -7 -8 -9 -10
leaf_value=0.16624055972153493 0.085766540588520013 -0.024326194540543009 0.025122191699651571 -0.035692646796815101 0.01828446571966388 0.094338384052602253 0.0097059511589587394 -0.094274406507611277 -0.018333481760187585
leaf_weight=10.999999999999998 15.999999999999998 188 12.999999999999998 28 38 41 93 32 22
leaf_count=11 16 188 13 28 38 41 93 32 22
internal_value=0 -0.0176879 0.0505167 -0.0225421 0.0393503 0.0577555 -0.0130629 -0.0669363 -0.0021928
internal_weight=0 357 125 341 114 79 281 60 35
internal_count=482 357 125 341 114 79 281 60 35
is_linear=0
shrinkage=0.1


Tree=10
num_leaves=15
num_cat=0
split_feature=0 0 0 0 0 0 0 0 0 0 0 0 0 0
split_gain=127.463 25.4968 22.9222 7.32079 3.9897 2.82355 2.64462 0.566083 0.556832 0.507009 0.451928 0.40406 0.296127 0.272368
threshold=3.4427940974765865 5.3320206116088764 1.7725036003599139 6.6489014733917653 2.5595293085801676 4.1844661011092237 0.83644397961847816 2.9651162019955701 5.932656241888524 2.1461411127269296 1.3237829894139319 4.672320016570338 3.8689109385340976 0.31231232785292518
decision_type=2 2 2 2 2 2 2 2 2 2 2 2 2 2
left_child=2 5 6 8 9 12 13 -6 -3 -4 -8 -7 -2 -1
right_child=1 3 4 -5 7 11 10 -9 -10 -11 -12 -13 -14 -15
leaf_value=-0.1091147850860249 0.023676589666268764 0.090675140420595809 -0.039671483100988926 0.18535606026649476 -0.0095062441609183312 0.050246332751380074 -0.071324200265937374 0.0054190439692926402 0.11394238670667012 -0.024874478317143626 -0.05669036963406731 0.069588768040692361 0.037794532254338264 -0.089690396331605471
leaf_weight=10.999999999999998 39 18 39 14.999999999999998 54 18 36 48 24 57 51 27 24 21
leaf_count=11 39 18 39 15 54 18 36 48 24 57 51 27 24 21
internal_value=0 0.0712782 -0.0371006 0.125388 -0.0162538 0.0427202 -0.0717869 -0.00248258 0.103971 -0.0308858 -0.0627457 0.0618518 0.0290549 -0.0963675
internal_weight=0 165 317 57 198 108 119 102 42 96 87 45 63 32
internal_count=482 165 317 57 198 108 119 102 42 96 87 45 63 32
is_linear=0
shrinkage=0.1


Tree=11
num_leaves=15
num_cat=0
split_feature=0 0 0 23 0 0 0 0 0 0 0 0 0 0
split_gain=103.245 20.6524 18.573 6.27296 3.08529 2.29209 2.24276 0.77647 0.434677 0.433619 0.410951 0.291219 0.289143 0.220618
threshold=3.4427940974765865 5.3320206116088764 1.7931174242024073 60.219075067585386 2.574614267897485 4.2279978876930215 0.83644397961847816 6.0758436534531155 1.4125429918239751 2.9918314666471475 2.1757825890427331 3.8127138523587885 4.7758107720356353 0.31231232785292518
decision_type=2 2 2 2 2 2 2 2 2 2 2 2 2 2
left_child=2 5 6 7 10 11 13 -3 -8 -6 -4 -2 -7 -1
right_child=1 3 4 -5 9 12 8 -9 -10 -11 -12 -13 -14 -15
leaf_value=-0.098203303597190164 0.020763029489252304 0.08441734599030537 -0.03492810015495007 0.1847688150405884 -0.0075392353792012095 0.05052598207085221 -0.061985033575226278 0.11012968719005585 -0.047960532322908062 0.0058516551086324311 -0.021606357892354332 0.034103470295667647 0.067842208941777546 -0.080721357039042888
leaf_weight=10.999999999999998 36 23 39 9.9999999999999982 57 27 51 24 39 42 57 30 14.999999999999998 21
leaf_count=11 36 23 39 10 57 27 51 24 39 42 57 30 15 21
internal_value=0 0.0641503 -0.0333906 0.112849 -0.0142447 0.0384482 -0.0639925 0.0975471 -0.0559077 -0.00185825 -0.0270183 0.0268269 0.0567103 -0.0867308
internal_weight=0 165 317 57 195 108 122 47 90 99 96 66 42 32
internal_count=482 165 317 57 195 108 122 47 90 99 96 66 42 32
is_linear=0
shrinkage=0.1


Tree=12
num_leaves=15
num_cat=0
split_feature=0 0 0 23 0 0 0 0 0 0 0 0 0 0
split_gain=83.6495 17.3429 14.6994 4.01517 3.39853 2.48626 1.74452 0.565454 0.430041 0.377739 0.277101 0.244423 0.227829 0.139893
threshold=3.417406071933168 5.8864877481530113 1.7725036003599139 59.510637423015567 4.672320016570338 2.4755495827513783 0.75258526456234065 3.9579103898514467 2.8553566110064676 1.2428821323317385 2.1461411127269296 4.935198344640491 6.3908005089353113 0.31231232785292518
decision_type=2 2 2 2 2 2 2 2 2 2 2 2 2 2
left_child=2 4 6 12 7 10 13 -2 -7 -8 -4 -6 -3 -1
right_child=1 3 5 -5 11 8 9 -9 -10 -11 -12 -13 -14 -15
leaf_value=-0.088382972912354876 0.020190303115283744 0.087393257898442891 -0.032111275425324069 0.16791331112384797 0.052820384005705517 -0.010505404385427635 -0.060457589824994412 0.036989794536070396 0.0024266576842637733 -0.046714617460966112 -0.020913737632480323 0.068235754221677783 0.104301917552948 -0.074068853590223527
leaf_weight=11.000000000000002 51 17 39 9.9999999999999982 18 45 30 33 60 60 51 24 14.999999999999998 18
leaf_count=11 51 17 39 10 18 45 30 33 60 60 51 24 15 18
internal_value=0 0.0569532 -0.0304718 0.112604 0.0384031 -0.0135697 -0.0581685 0.0267901 -0.00311565 -0.0512956 -0.025766 0.0616292 0.0953192 -0.0794983
internal_weight=0 168 314 42 126 195 119 84 105 90 90 42 32 29
internal_count=482 168 314 42 126 195 119 84 105 90 90 42 32 29
is_linear=0
shrinkage=0.1


Tree=13
num_leaves=15
num_cat=0
split_feature=0 0 0 0 0 0 0 0 0 0 0 17 0 0
split_gain=67.8017 14.3467 11.6087 3.52336 2.88796 1.90972 1.41306 0.368147 0.358737 0.320403 0.305968 0.233724 0.18208 0.113314
threshold=3.3852440978222109 5.8864877481530113 1.7725036003599139 7.0483884579426892 4.3764009799558572 2.4549233703165121 0.75258526456234065 4.8625990308160816 2.8409704128885376 3.8689109385340976 1.2428821323317385 96.690171779125592 2.1219333975664649 0.31231232785292518
decision_type=2 2 2 2 2 2 2 2 2 2 2 2 2 2
left_child=2 4 6 11 9 12 13 -6 -7 -2 -8 -3 -4 -1
right_child=1 3 5 -5 7 8 10 -9 -10 -11 -12 -13 -14 -15
leaf_value=-0.079544678059491225 0.016465291000074812 0.071424552527340965 -0.029285242656866713 0.14713875899712245 0.043544743396341803 -0.010248773455775033 -0.054411830604076387 0.060566645639914055 0.0013497825739129136 0.029438053297274044 -0.042043156474828723 0.08974091379266036 -0.019877200139065587 -0.066661966840426121
leaf_weight=11.000000000000002 45 11.000000000000002 36 11.999999999999998 24 48 30 27 60 33 60 19 48 18
leaf_count=11 45 11 36 12 24 48 30 27 60 33 60 19 48 18
internal_value=0 0.05058 -0.0278109 0.101343 0.0340525 -0.0126007 -0.0523517 0.0525563 -0.00380513 0.0219538 -0.046166 0.0830249 -0.0239092 -0.0715485
internal_weight=0 171 311 42 129 192 119 51 108 78 90 30 84 29
internal_count=482 171 311 42 129 192 119 51 108 78 90 30 84 29
is_linear=0
shrinkage=0.1


Tree=14
num_leaves=14
num_cat=0
split_feature=0 0 0 0 8 0 0 0 0 0 0 0 0
split_gain=54.9982 12.0504 9.57833 2.76799 2.26893 1.7778 1.75749 0.378664 0.371735 0.35666 0.285346 0.201859 0.199925
threshold=3.6496670497194108 2.0783722255279735 6.3908005089353113 4.8625990308160816 40.916055365593969 1.2428821323317385 2.7865912322997812 4.1844661011092237 0.43710517837399876 3.2619723069093634 1.6004984900876946 5.8864877481530113 2.3951908609178409
decision_type=2 2 2 2 2 2 2 2 2 2 2 2 2
left_child=1 5 3 7 -4 8 12 -2 -1 -8 -7 -5 -3
right_child=2 6 4 11 -6 10 9 -9 -10 -11 -12 -13 -14
leaf_value=-0.069027895436567427 0.022556501474135963 -0.019902908660116653 0.083494971557096981 0.05450998180442386 0.14930980026721954 -0.039847128788630171 -0.00096903206409748501 0.037111223692243754 -0.051501461650644037 0.011317847301030443 -0.028585679928461713 0.067582314213116973 -0.010703748257623779
leaf_weight=17 39 42 11.000000000000002 27 9.9999999999999982 45 54 33 42 42 45 21 54
leaf_count=17 39 42 11 27 10 45 54 33 42 42 45 21 54
internal_value=0 -0.0217212 0.0525313 0.0416281 0.114835 -0.0430605 -0.00516095 0.0292274 -0.0565515 0.00440648 -0.0342164 0.0602291 -0.0147284
internal_weight=0 341 141 120 21 149 192 72 59 96 90 48 96
internal_count=482 341 141 120 21 149 192 72 59 96 90 48 96
is_linear=0
shrinkage=0.1


Tree=15
num_leaves=13
num_cat=0
split_feature=0 0 0 0 0 0 0 0 0 0 0 0
split_gain=44.5485 9.76989 7.79888 2.4908 1.55341 1.34115 0.308982 0.290187 0.244386 0.23007 0.215638 0.195153
threshold=3.6496670497194108 2.034756797210322 6.495777510162303 4.8625990308160816 2.7865912322997812 1.0983899428541122 4.0794947502470214 3.2239592166671271 1.6004984900876946 0.43710517837399876 5.8864877481530113 2.3951908609178409
decision_type=2 2 2 2 2 2 2 2 2 2 2 2
left_child=1 5 3 6 11 9 -2 -6 -7 -1 -5 -3
right_child=2 4 -4 10 7 8 -8 -9 -10 -11 -12 -13
leaf_value=-0.062125105542295125 0.019183110129652601 -0.018396730348467828 0.10875661698066526 0.049058983944080495 -0.0011986245711644492 -0.036721944919338938 0.032330613143933123 0.0098188782504035378 -0.02633351072286948 -0.0478054224541693 0.062086458380023635 -0.009633373372532705
leaf_weight=17 33 48 18 27 51 54 39 45 39 33 24 54
leaf_count=17 33 48 18 27 51 54 39 45 39 33 24 54
internal_value=0 -0.019549 0.0472782 0.0382813 -0.00516427 -0.0394664 0.0263047 0.00396583 -0.0323655 -0.0526741 0.0551896 -0.0137573
internal_weight=0 341 141 123 198 143 72 96 93 50 51 102
internal_count=482 341 141 123 198 143 72 96 93 50 51 102
is_linear=0
shrinkage=0.1


Tree=16
num_leaves=13
num_cat=0
split_feature=3 24 25 1 1 3 10 24 15 20 3 24
split_gain=9.97913 5.36255 4.34613 4.56835 4.48379 2.21681 2.0352 2.29177 1.83329 1.40223 0.459973 0.0833454
threshold=44.000000000000007 24.390759044900218 24.388888888888896 16.500000000000004 17.500000000000004 55.845000000000006 312.33402639083016 26.257666862808865 0.029040000000000003 133.46309021758438 70.280000000000015 24.444449122736021
decision_type=2 2 2 2 2 2 2 2 2 2 2 2
left_child=1 -1 4 10 9 -5 7 -3 -6 -2 -4 -8
right_child=2 6 3 5 8 -7 11 -9 -10 -11 -12 -13
leaf_value=0.090995207022536884 -0.011048238352171634 0.033528853863801646 -0.030958518153056502 0.023299023307239018 0.070720535997922204 -0.01362677415244333 -0.0155957122396847 -0.0029206043898897327 0.012746140900999306 0.0077815708403403952 -0.046539387313856019 -0.0032856736078181051
leaf_weight=10.999999999999998 101 69 40 21 12 72 11.000000000000002 23 10 65 36 10.999999999999998
leaf_count=11 101 69 40 21 12 72 11 23 10 65 36 11
internal_value=0 0.0243166 -0.0085142 -0.0201515 0.00194701 -0.00528869 0.0178826 0.0244165 0.0443685 -0.00367512 -0.0383389 -0.00944069
internal_weight=0 125 357 169 188 93 114 92 22 166 76 22
internal_count=482 125 357 169 188 93 114 92 22 166 76 22
is_linear=0
shrinkage=0.1


Tree=17
num_leaves=13
num_cat=0
split_feature=0 0 0 0 0 0 0 0 0 0 7 0
split_gain=31.6068 6.48449 5.5928 2.49846 0.818769 0.753307 0.28414 0.222999 0.214892 0.189099 0.0717709 0.0697439
threshold=3.4427940974765865 6.495777510162303 1.8996203234042068 4.672320016570338 2.8156836376790384 0.83644397961847816 5.8864877481530113 2.3247499676185961 1.4125429918239751 3.9579103898514467 217.40297085373717 3.141315785933029
decision_type=2 2 2 2 2 2 2 2 2 2 2 2
left_child=2 3 5 9 7 10 -5 -4 -7 -2 -1 -6
right_child=1 -3 4 6 11 8 -8 -9 -10 -11 -12 -13
leaf_value=-0.042904240265488627 0.012782551518951855 0.092146330450971925 -0.017657078399012486 0.038039668649435046 -0.0012371144562383137 -0.034510630836673814 0.051679461697737378 -0.0087814574278351192 -0.025188351422548296 0.022616074414867345 -0.052375967241823675 0.0052772380894532912
leaf_weight=15.999999999999998 48 18 48 42 42 51 24 69 48 33 15.999999999999998 27
leaf_count=16 48 18 48 42 42 51 24 69 48 33 16 27
internal_value=0 0.0354939 -0.0184748 0.0285569 -0.0073276 -0.034302 0.0429996 -0.0124227 -0.0299907 0.0167888 -0.0476401 0.00131198
internal_weight=0 165 317 147 186 131 66 117 99 81 32 69
internal_count=482 165 317 147 186 131 66 117 99 81 32 69
is_linear=0
shrinkage=0.1


Tree=18
num_leaves=13
num_cat=0
split_feature=0 0 0 0 0 0 0 0 0 0 0 24
split_gain=25.6015 5.25243 4.54229 2.03787 0.853245 0.486428 0.213025 0.175952 0.142444 0.105041 0.0926839 0.0634129
threshold=3.4427940974765865 6.495777510162303 1.7087218083313092 4.7160749933377799 2.4755495827513783 0.83644397961847816 4.0374701175328367 5.8864877481530113 2.8409704128885376 2.1757825890427331 1.4125429918239751 27.220310980455753
decision_type=2 2 2 2 2 2 2 2 2 2 2 2
left_child=2 3 5 6 9 11 -2 -5 -6 -4 -7 -1
right_child=1 -3 4 7 8 10 -8 -9 -10 -11 -12 -13
leaf_value=-0.04655830609171014 0.012055065010294871 0.082931698175768065 -0.018025779492325252 0.0354576137330797 -0.0060402018716558814 -0.031059567279675428 0.022253196234955933 0.046511514981587732 0.0014094810190286038 -0.011300739971920848 -0.02425814505779382 -0.037494398080385648
leaf_weight=19 54 18 45 36 42 51 33 24 66 48 33 12.999999999999998
leaf_count=19 54 18 45 36 42 51 33 24 66 48 33 13
internal_value=0 0.0319445 -0.0166273 0.0257012 -0.00753362 -0.0323844 0.0159233 0.0398792 -0.00148762 -0.0145548 -0.0283876 -0.0428761
internal_weight=0 165 317 147 201 116 87 60 108 93 84 32
internal_count=482 165 317 147 201 116 87 60 108 93 84 32
is_linear=0
shrinkage=0.1


Tree=19
num_leaves=13
num_cat=0
split_feature=0 0 0 0 0 0 0 0 0 0 0 0
split_gain=20.7973 4.52253 3.72141 1.26507 0.761146 0.543645 0.145668 0.138007 0.123531 0.119874 0.104168 0.054073
threshold=3.6496670497194108 2.1757825890427331 6.6489014733917653 4.7758107720356353 1.2778575735929316 2.8409704128885376 0.43710517837399876 5.932656241888524 1.7087218083313092 3.2723358682055728 4.1219476869652381 2.4549233703165121
decision_type=2 2 2 2 2 2 2 2 2 2 2 2
left_child=1 4 3 10 6 11 -1 -5 -6 -7 -2 -3
right_child=2 5 -4 7 8 9 -8 -9 -10 -11 -12 -13
leaf_value=-0.042108681797981266 0.013870785039358048 -0.010581623585451217 0.079388531570633247 0.03352624728824153 -0.023317387258564984 -0.00016133259327319799 -0.031243245237403447 0.043492334708571438 -0.016223201519913143 0.0072035691199394377 0.021649047404979218 -0.0056684043634049885
leaf_weight=17 36 42 14.999999999999998 33 54 51 45 24 45 39 33 48
leaf_count=17 36 42 15 33 54 51 45 24 45 39 33 48
internal_value=0 -0.0133571 0.0323034 0.026698 -0.025534 -0.00246556 -0.0342225 0.0377225 -0.0200928 0.00303012 0.0175908 -0.00796124
internal_weight=0 341 141 126 161 180 62 57 99 90 69 90
internal_count=482 341 141 126 161 180 62 57 99 90 69 90
is_linear=0
shrinkage=0.1


Tree=20
num_leaves=13
num_cat=0
split_feature=0 0 0 0 0 0 0 0 0 9 0 0
split_gain=16.8458 3.66344 3.01494 0.919157 0.569619 0.487355 0.121263 0.0971041 0.0888743 0.0881418 0.0858262 0.060208
threshold=3.6496670497194108 2.1219333975664649 6.495777510162303 4.7758107720356353 1.2778575735929316 2.8409704128885376 0.75258526456234065 3.2919851153480244 1.6004984900876946 0.46112941669935287 4.3764009799558572 2.3831553875723346
decision_type=2 2 2 2 2 2 2 2 2 2 2 2
left_child=1 4 3 10 6 11 -1 -7 -6 -5 -2 -3
right_child=2 5 -4 9 8 7 -8 -9 -10 -11 -12 -13
leaf_value=-0.035517886383780117 0.013498957808284709 -0.010976002613703411 0.067297945833868458 0.025692485397060712 -0.02183241375855037 4.5154152044064915e-05 -0.02665441103956916 0.0067500496541874275 -0.015620579775057587 0.035410387849523904 0.021163817131448361 -0.0057032714675491064
leaf_weight=29 48 33 18 11.999999999999998 42 54 33 36 51 42 21 63
leaf_count=29 48 33 18 12 42 54 33 36 51 42 21 63
internal_value=0 -0.0120214 0.029073 0.0234792 -0.0233756 -0.00255954 -0.0308002 0.00272711 -0.0184259 0.0332509 0.0158317 -0.00751577
internal_weight=0 341 141 123 155 186 62 90 93 54 69 96
internal_count=482 341 141 123 155 186 62 90 93 54 69 96
is_linear=0
shrinkage=0.1


Tree=21
num_leaves=13
num_cat=0
split_feature=0 0 0 0 0 0 0 0 0 0 0 0
split_gain=13.6451 2.97127 2.542 0.915777 0.49846 0.36512 0.131125 0.109392 0.0934558 0.0765257 0.0562649 0.0312395
threshold=3.6496670497194108 2.1757825890427331 7.0483884579426892 4.935198344640491 1.3375258032265795 3.0088675150870361 0.75258526456234065 4.6379930903251685 5.932656241888524 2.5595293085801676 1.7087218083313092 3.2919851153480244
decision_type=2 2 2 2 2 2 2 2 2 2 2 2
left_child=1 4 3 7 6 9 -1 -2 -5 -3 -6 -7
right_child=2 5 -4 8 10 11 -8 -9 -10 -11 -12 -13
leaf_value=-0.031966097909828711 0.012539572358407356 -0.00805839055252296 0.070189009917279097 0.02784007749071828 -0.018189927704987074 0.0015752829723944027 -0.023343182868427702 0.021045405736991339 0.036160323741259402 -0.0029282489730533038 -0.01310075107547972 0.0060750446812663644
leaf_weight=29 54 54 11.999999999999998 27 42 27 45 21 27 63 45 36
leaf_count=29 54 54 12 27 42 27 45 21 27 63 45 36
internal_value=0 -0.0108193 0.0261657 0.0220706 -0.0206893 -0.0019911 -0.0267224 0.0149212 0.0320002 -0.00529601 -0.0155576 0.00414658
internal_weight=0 341 141 129 161 180 74 75 54 117 87 63
internal_count=482 341 141 129 161 180 74 75 54 117 87 63
is_linear=0
shrinkage=0.1


Tree=22
num_leaves=13
num_cat=0
split_feature=0 0 0 0 0 0 0 0 0 0 0 0
split_gain=11.0526 2.40673 2.05902 0.74178 0.408132 0.297493 0.0943886 0.0886075 0.0756992 0.0677274 0.0471275 0.0432527
threshold=3.6496670497194108 2.1757825890427331 7.0483884579426892 4.935198344640491 1.2778575735929316 2.943155467732153 0.31231232785292518 4.6379930903251685 5.932656241888524 1.6004984900876946 3.141315785933029 2.4549233703165121
decision_type=2 2 2 2 2 2 2 2 2 2 2 2
left_child=1 4 3 7 6 11 -1 -2 -5 -6 -7 -3
right_child=2 5 -4 8 9 10 -8 -9 -10 -11 -12 -13
leaf_value=-0.033383979038758713 0.011285615013912322 -0.0078083337151578494 0.063170108292251823 0.025056069703013814 -0.017682943776959465 -0.00052129805812405224 -0.023170487787209305 0.0189408649291311 0.032544291350576619 -0.01239072743215059 0.004645451588108771 -0.0036241939424993086
leaf_weight=10.999999999999998 54 42 11.999999999999998 27 42 27 51 21 27 57 51 60
leaf_count=11 54 42 12 27 42 27 51 21 27 57 51 60
internal_value=0 -0.00973734 0.0235492 0.0198635 -0.0186203 -0.00179199 -0.0249826 0.0134291 0.0288002 -0.0146359 0.00285696 -0.00534708
internal_weight=0 341 141 129 161 180 62 75 54 99 78 102
internal_count=482 341 141 129 161 180 62 75 54 99 78 102
is_linear=0
shrinkage=0.1


Tree=23
num_leaves=13
num_cat=0
split_feature=0 0 23 0 0 11 0 0 0 0 0 23
split_gain=8.96821 2.20561 1.65168 0.391014 0.279064 0.246601 0.328218 0.141854 0.107196 0.0453403 0.0326556 0.0228004
threshold=3.8689109385340976 2.2913140223181974 62.284256495887846 1.4125429918239751 3.141315785933029 73.802959529653535 5.3320206116088764 5.8864877481530113 0.75258526456234065 2.7865912322997812 1.7087218083313092 56.698173734316555
decision_type=2 2 2 2 2 2 2 2 2 2 2 2
left_child=1 3 5 8 9 7 -7 -2 -1 -3 -5 -6
right_child=2 4 -4 10 11 6 -8 -9 -10 -11 -12 -13
leaf_value=-0.026065030796774503 0.015502017718325887 -0.0049511797317083822 0.050098352771448466 -0.014148392528295518 0.0023571529076434673 0.013164658774621786 0.028180159849895015 0.0020388190448284152 -0.018527432834660566 -0.00090483964498465266 -0.010195586869591163 0.0061887643407893987
leaf_weight=29 36 72 19 33 25 24 37 9.9999999999999982 54 45 57 41
leaf_count=29 36 72 19 33 25 24 37 10 54 45 57 41
internal_value=0 -0.00811502 0.0229282 -0.0162105 -0.000461938 0.0181035 0.0222724 0.0125752 -0.0211611 -0.0033949 -0.0116449 0.0047374
internal_weight=0 356 126 173 183 107 61 46 83 117 90 66
internal_count=482 356 126 173 183 107 61 46 83 117 90 66
is_linear=0
shrinkage=0.1


Tree=24
num_leaves=14
num_cat=0
split_feature=0 0 8 0 0 0 0 0 7 0 0 0 0
split_gain=7.27697 1.8213 1.38919 1.30149 0.546613 0.205067 0.172351 0.0636337 0.04843 0.0470985 0.0423548 0.0360945 0.0204618
threshold=3.4427940974765865 6.3908005089353113 40.916055365593969 1.9663546163085937 4.672320016570338 0.95867432304703504 2.574614267897485 5.3320206116088764 237.84454258460448 4.0374701175328367 1.4479586409381058 3.141315785933029 2.3247499676185961
decision_type=2 2 2 2 2 2 2 2 2 2 2 2 2
left_child=3 4 -3 5 9 8 12 -6 -1 -2 -7 -8 -5
right_child=1 2 -4 6 7 10 11 -9 -10 -11 -12 -13 -14
leaf_value=-0.019379902333021167 0.0058801492426061525 0.020019747587767509 0.071518253833055503 -0.0082271656819752279 0.016335052072449965 -0.01591701273288992 -0.0016449802551606911 0.022757206629547808 -0.026425524149090052 0.010995402885600926 -0.011707852488639307 0.0026423819432104079 -0.0050462139818148732
leaf_weight=25 54 11.000000000000002 9.9999999999999982 42 27 45 72 36 15.999999999999998 27 51 27 39
leaf_count=25 54 11 10 42 27 45 72 36 16 27 51 27 39
internal_value=0 0.017031 0.0445428 -0.0088647 0.0130188 -0.0162093 -0.00327465 0.0200049 -0.0221294 0.00758523 -0.0136809 -0.0004757 -0.0066956
internal_weight=0 165 21 317 144 137 180 63 41 81 96 99 81
internal_count=482 165 21 317 144 137 180 63 41 81 96 99 81
is_linear=0
shrinkage=0.1


Tree=25
num_leaves=14
num_cat=0
split_feature=0 0 25 0 0 0 0 0 0 24 0 0 24
split_gain=5.89883 1.55746 1.19192 0.95026 0.506661 0.141593 0.134895 0.0518914 0.0467716 0.0407191 0.0271783 0.0254155 0.0120939
threshold=3.2919851153480244 6.3908005089353113 23.583333333333339 1.8205802055644764 4.672320016570338 0.89271111997907537 2.4450273379019323 5.402342127039411 4.0374701175328367 25.732117764088873 2.8156836376790384 1.4125429918239751 24.324601022345608
decision_type=2 2 2 2 2 2 2 2 2 2 2 2 2
left_child=3 4 -3 5 8 9 12 -6 -2 -1 -8 -7 -5
right_child=1 2 -4 6 7 11 10 -9 -10 -11 -12 -13 -14
leaf_value=-0.023856339559835547 0.0049552751324054879 0.065075328648090333 0.017373318428342995 -0.0056933896357400553 0.014994318683942159 -0.014552469857864911 -0.0032155387884510371 0.020740779156260422 0.0098958625699634914 -0.01727283742456209 1.4055774163193348e-05 -0.011132059911532063 -0.0082351223971599188
leaf_weight=17 66 10.000000000000002 10.999999999999998 36 30 45 48 33 27 21 57 42 39
leaf_count=17 66 10 11 36 30 45 48 33 27 21 57 42 39
internal_value=0 0.0145219 0.0400886 -0.00842745 0.0110802 -0.0151256 -0.00377598 0.0180044 0.00638964 -0.0202181 -0.00146233 -0.0129012 -0.00701509
internal_weight=0 177 21 305 156 125 180 63 93 38 105 87 75
internal_count=482 177 21 305 156 125 180 63 93 38 105 87 75
is_linear=0
shrinkage=0.1


Tree=26
num_leaves=14
num_cat=0
split_feature=0 0 0 8 0 0 0 3 24 0 0 0 0
split_gain=4.79056 1.04704 1.04466 0.986618 0.252854 0.166164 0.143998 0.0427298 0.0407798 0.0313716 0.0277959 0.0249963 0.0223261
threshold=3.6496670497194108 2.034756797210322 6.3908005089353113 40.916055365593969 4.7160749933377799 2.8156836376790384 0.95867432304703504 89.125000000000014 24.444459864452941 1.4479586409381058 3.141315785933029 2.3831553875723346 4.1844661011092237
decision_type=2 2 2 2 2 2 2 2 2 2 2 2 2
left_child=1 6 4 -4 12 11 7 -1 -6 -8 -7 -3 -2
right_child=2 5 3 -5 8 10 9 -9 -10 -11 -12 -13 -14
leaf_value=-0.015859460766459332 0.006059936161797781 -0.0062094972282648086 0.015413132038983427 0.058812935799360283 0.014685972731482859 -0.00052844833311003938 -0.012892867144611148 -0.022954707778990269 0.020230941368000851 -0.0093608317896723744 0.0029454880204581313 -0.003091678962809965 0.0099364276276901371
leaf_weight=29 39 45 11.000000000000002 9.9999999999999982 36 42 45 11.999999999999998 21 57 51 60 24
leaf_count=29 39 45 11 10 36 42 45 12 21 57 51 60 24
internal_value=0 -0.00641065 0.0155038 0.0360797 0.011903 -0.00170153 -0.012931 -0.0179361 0.0167289 -0.0109191 0.00137661 -0.00442789 0.00753669
internal_weight=0 341 141 21 120 198 143 41 57 102 93 105 63
internal_count=482 341 141 21 120 198 143 41 57 102 93 105 63
is_linear=0
shrinkage=0.1


Tree=27
num_leaves=12
num_cat=0
split_feature=0 23 0 0 0 0 0 0 0 0 5
split_gain=3.88197 1.1024 0.955486 0.449347 0.215411 0.157998 0.126903 0.0472769 0.0302108 0.0223492 0.0184714
threshold=3.8689109385340976 62.284256495887846 2.2161312860699796 6.6489014733917653 5.402342127039411 1.2428821323317385 3.1018861628301586 0.31231232785292518 1.7087218083313092 2.574614267897485 26.554770982769998
decision_type=2 2 2 2 2 2 2 2 2 2 2
left_child=2 3 5 4 -2 7 9 -1 -7 -4 -8
right_child=1 -3 6 -5 -6 8 10 -9 -10 -11 -12
leaf_value=-0.020925134894522756 0.0096038158738710848 0.037282160757795765 -0.0040214684718818056 -0.0090396500425413261 0.019358290354203847 -0.010159014716842458 0.0049886651613094196 -0.013656826006869474 -0.0068088185845636851 -0.0012608154356817925 0.0016361698723076621
leaf_weight=10.999999999999998 61 19 51 9.9999999999999982 36 57 27 48 51 69 42
leaf_count=11 61 19 51 10 36 57 27 48 51 69 42
internal_value=0 0.0150849 -0.00533903 0.0111433 0.013224 -0.0108504 -0.000469196 -0.0150119 -0.00857698 -0.00243409 0.00294802
internal_weight=0 126 356 107 97 167 189 59 108 120 69
internal_count=482 126 356 107 97 167 189 59 108 120 69
is_linear=0
shrinkage=0.1


Tree=28
num_leaves=12
num_cat=0
split_feature=0 23 0 0 0 0 0 0 3 0 0
split_gain=3.2019 1.32079 0.858597 0.391375 0.149542 0.137752 0.116304 0.0465607 0.0214619 0.0175175 0.0168394
threshold=4.0374701175328367 62.284256495887846 2.2913140223181974 6.6489014733917653 5.8864877481530113 1.3375258032265795 3.141315785933029 0.43710517837399876 54.470000000000006 1.7087218083313092 2.7865912322997812
decision_type=2 2 2 2 2 2 2 2 2 2 2
left_child=2 3 5 4 -2 7 10 -1 -8 -7 -4
right_child=1 -3 6 -5 -6 9 8 -9 -10 -11 -12
leaf_value=-0.017461659704499387 0.010171637902197789 0.042496669987837472 -0.0029264285982005984 -0.008135685431770982 0.019468355411663654 -0.0087147235160782224 0.00077173458894008197 -0.011498676541081646 0.0041670165759009814 -0.0060232412396815788 -0.00046048123596443072
leaf_weight=17 62 14.999999999999998 72 9.9999999999999982 24 42 29 57 52 57 45
leaf_count=17 62 15 72 10 24 42 29 57 52 57 45
internal_value=0 0.0149007 -0.00445815 0.0105888 0.0127661 -0.00960472 3.85891e-05 -0.0128686 0.00295142 -0.00716508 -0.00197799
internal_weight=0 111 371 96 86 173 198 74 81 99 117
internal_count=482 111 371 96 86 173 198 74 81 99 117
is_linear=0
shrinkage=0.1


Tree=29
num_leaves=8
num_cat=0
split_feature=4 9 3 23 14 12 4
split_gain=0.844228 0.664541 0.475032 0.479382 0.33716 0.188274 0.151619
threshold=1.4833363860865016 384.2960108978541 40.125000000000007 66.479277667319067 505.87500000000006 0.51406525080048471 0.40313876620275119
decision_type=2 2 2 2 2 2 2
left_child=2 -2 4 5 -1 -4 -6
right_child=1 -3 3 -5 6 -7 -8
leaf_value=0.017869892170549267 0.038175831164699039 0.0032713040282639364 -0.002225195638900231 0.017172027363752326 -0.005098147712353813 -0.0088394150808453562 0.0053400897416185436
leaf_weight=18 10.000000000000002 11.999999999999998 309 11.999999999999998 19 50 52
leaf_count=18 10 12 309 12 19 50 52
internal_value=0 0.019137 -0.000915248 -0.0024892 0.00564582 -0.0031464 0.00254676
internal_weight=0 22 460 371 89 359 71
internal_count=482 22 460 371 89 359 71
is_linear=0
shrinkage=0.1


Tree=30
num_leaves=12
num_cat=0
split_feature=0 23 0 0 0 0 0 3 3 0 0
split_gain=2.4019 1.48865 0.736428 0.34115 0.11863 0.108819 0.0744605 0.0476845 0.023295 0.0203062 0.0154109
threshold=4.3764009799558572 62.284256495887846 2.3247499676185961 6.6489014733917653 1.3074431353743978 3.2723358682055728 5.932656241888524 89.125000000000014 54.470000000000006 1.6004984900876946 2.8156836376790384
decision_type=2 2 2 2 2 2 2 2 2 2 2
left_child=2 3 4 6 7 10 -2 -1 -7 -6 -4
right_child=1 -3 5 -5 9 8 -8 -9 -10 -11 -12
leaf_value=-0.010025926558680986 0.0099044652818702159 0.047307840967550877 -0.0023392440209610631 -0.0077249356359243397 -0.008071237792953467 0.0010728152421858883 0.01700020315391677 -0.016313560644630343 0.0044895878535628859 -0.0052580177038908009 -8.3733908832073217e-05
leaf_weight=49 50 11.999999999999998 69 9.9999999999999982 39 31 21 15.999999999999998 56 75 54
leaf_count=49 50 12 69 10 39 31 21 16 56 75 54
internal_value=0 0.0144373 -0.0034516 0.00956763 -0.00816434 0.000565451 0.0120032 -0.0115737 0.00327212 -0.00622044 -0.00134902
internal_weight=0 93 389 81 179 210 71 65 87 114 123
internal_count=482 93 389 81 179 210 71 65 87 114 123
is_linear=0
shrinkage=0.1


Tree=31
num_leaves=12
num_cat=0
split_feature=0 13 0 8 24 0 0 24 3 0 24
split_gain=1.94554 0.818756 0.599258 0.310156 0.292132 0.114519 0.079111 0.0331075 0.0291947 0.0205718 0.0173233
threshold=4.3764009799558572 267.92000000000002 2.1219333975664649 91.243464959546586 23.335033089464748 3.0088675150870361 0.83644397961847816 27.220310980455753 44.000000000000007 1.4957109480362136 22.222473864613413
decision_type=2 2 2 2 2 2 2 2 2 2 2
left_child=2 3 6 4 -2 8 7 -1 -4 -8 -7
right_child=1 -3 5 -5 -6 10 9 -9 -10 -11 -12
leaf_value=-0.01501882787009603 -0.0079211214599622919 0.037371024955064058 -0.0055098417052067824 0.025870462106540801 0.0098063406596581148 -0.001349961046468128 -0.0080387204641564972 -0.0084696099878503722 -0.0013347005889778145 -0.0054514456447213892 0.002831043234909885
leaf_weight=19 10.999999999999998 11.999999999999998 20 9.9999999999999982 60 10.999999999999998 63 12.999999999999998 103 60 100
leaf_count=19 11 12 20 10 60 11 63 13 103 60 100
internal_value=0 0.0129936 -0.00310644 0.00938213 0.00705983 8.79648e-05 -0.00792896 -0.0123582 -0.00201359 -0.00677664 0.00241671
internal_weight=0 93 389 81 71 234 155 32 123 123 111
internal_count=482 93 389 81 71 234 155 32 123 123 111
is_linear=0
shrinkage=0.1


Tree=32
num_leaves=12
num_cat=0
split_feature=0 23 0 16 19 0 0 15 10 3 0
split_gain=1.64758 0.996717 0.586613 0.110843 0.0987489 0.0909813 0.0895191 0.0356906 0.0274012 0.0114 0.0100129
threshold=4.935198344640491 62.108632539719537 2.3951908609178409 742.48642559791949 0.043910000000000005 3.2919851153480244 1.4125429918239751 0.029040000000000003 397.24178762889755 45.285000000000004 2.034756797210322
decision_type=2 2 2 2 2 2 2 2 2 2 2
left_child=2 3 6 4 -2 9 7 -1 -7 -4 -8
right_child=1 -3 5 -5 -6 8 10 -9 -10 -11 -12
leaf_value=-0.0068251816151175832 0.0088070243905188847 0.043759174707811328 -0.002842272879333114 -5.6761559098958971e-05 0.019358542375266553 0.0024099867626339094 -0.0053678173121685787 -0.010972804794224298 0.0064215643331408502 -0.00035043228475202981 -0.0034300802246434617
leaf_weight=42 34 9.9999999999999982 23 9.9999999999999982 11.999999999999998 90 60 41 21 91 48
leaf_count=42 34 10 23 10 12 90 60 41 21 91 48
internal_value=0 0.0146783 -0.00232876 0.00948525 0.0115596 0.00113107 -0.00640448 -0.00887401 0.00316893 -0.000853172 -0.0045066
internal_weight=0 66 416 56 46 225 191 83 111 114 108
internal_count=482 66 416 56 46 225 191 83 111 114 108
is_linear=0
shrinkage=0.1


Tree=33
num_leaves=9
num_cat=0
split_feature=0 0 4 24 0 0 0 1
split_gain=1.35044 0.727057 0.687107 0.186497 0.189664 0.126389 0.0398185 0.0181822
threshold=6.3908005089353113 2.7865912322997812 0.53620341860955145 22.222225112644558 4.8625990308160816 1.6004984900876946 0.43710517837399876 10.500000000000002
decision_type=2 2 2 2 2 2 2 2
left_child=1 5 -2 -3 -5 6 -1 -7
right_child=2 3 -4 4 -6 7 -8 -9
leaf_value=-0.011929733349996455 0.0058287854678928837 -0.0095851998268203301 0.042046866515143354 0.0021903227699807738 0.0095988252430371096 -0.0016974254544700009 -0.0066382808284967849 -0.0039732063052554927
leaf_weight=17 10.000000000000002 10.999999999999998 10.999999999999998 161 44 66 87 75
leaf_count=17 10 11 11 161 44 66 87 75
internal_value=0 -0.00112973 0.0248002 0.00309978 0.00378044 -0.0048586 -0.00750323 -0.00290795
internal_weight=0 461 21 216 205 245 104 141
internal_count=482 461 21 216 205 245 104 141
is_linear=0
shrinkage=0.1


Tree=34
num_leaves=9
num_cat=0
split_feature=0 25 0 24 0 0 24 0
split_gain=1.09385 0.646073 0.591199 0.150249 0.176411 0.0801279 0.0349909 0.0228731
threshold=6.3908005089353113 23.583333333333339 2.574614267897485 22.222191438337514 4.8625990308160816 1.0983899428541122 25.021513763467002 2.034756797210322
decision_type=2 2 2 2 2 2 2 2
left_child=2 -2 5 -4 -5 6 -1 -7
right_child=1 -3 3 4 -6 7 -8 -9
leaf_value=-0.011420597614986558 0.040716316588222973 0.0055963509716093545 -0.0085347018980731562 0.0016013957841840402 0.0086389426586472185 -0.0047995545295497748 -0.0060607317385488546 -0.0024523835421229405
leaf_weight=21 10.000000000000002 10.999999999999998 11.999999999999998 187 44 93 29 75
leaf_count=21 10 11 12 187 44 93 29 75
internal_value=0 0.0223201 -0.00101675 0.00237514 0.00294188 -0.00479762 -0.00831188 -0.00375171
internal_weight=0 21 461 243 231 218 50 168
internal_count=482 21 461 243 231 218 50 168
is_linear=0
shrinkage=0.1


Tree=35
num_leaves=9
num_cat=0
split_feature=0 4 0 24 0 0 0 3
split_gain=0.886022 0.585264 0.489022 0.131159 0.106993 0.0960579 0.0309311 0.0165616
threshold=6.3908005089353113 0.53620341860955145 2.943155467732153 22.222225112644558 4.8625990308160816 1.6004984900876946 0.31231232785292518 44.000000000000007
decision_type=2 2 2 2 2 2 2 2
left_child=2 -2 5 -4 -5 6 -1 -7
right_child=1 -3 3 4 -6 7 -8 -9
leaf_value=-0.011118573339825327 0.0025790739315561945 0.036005454374985264 -0.0077732096256857564 0.0021360097767238123 0.0077750484906242831 -0.0043562696010259723 -0.0055109788816402197 -0.0017133830658097465
leaf_weight=10.999999999999998 10.000000000000002 10.999999999999998 10.999999999999998 143 44 29 93 130
leaf_count=11 10 11 11 143 44 29 93 130
internal_value=0 0.0200881 -0.000915078 0.00283862 0.00346284 -0.00374105 -0.00610409 -0.00219542
internal_weight=0 21 461 198 187 263 104 159
internal_count=482 21 461 198 187 263 104 159
is_linear=0
shrinkage=0.1


Tree=36
num_leaves=9
num_cat=0
split_feature=0 25 0 24 0 0 0 3
split_gain=0.717678 0.549808 0.396913 0.106199 0.0880682 0.0815734 0.0276174 0.0213816
threshold=6.3908005089353113 23.583333333333339 3.0088675150870361 22.222261444893622 1.7087218083313092 5.3320206116088764 0.6078313593329252 44.000000000000007
decision_type=2 2 2 2 2 2 2 2
left_child=2 -2 4 -4 6 -5 -1 -6
right_child=1 -3 3 5 7 -7 -8 -9
leaf_value=-0.0084103151224553582 0.035049722567200646 0.0026516753095413813 -0.0072267940640449533 0.0023179015726782384 -0.0041584381191381095 0.0078447333903926796 -0.004540280715226927 -0.001161669819008321
leaf_weight=23 10.000000000000002 10.999999999999998 9.9999999999999982 140 29 33 93 133
leaf_count=23 10 11 10 140 29 33 93 133
internal_value=0 0.0180793 -0.00082357 0.00279298 -0.00320425 0.00337215 -0.00530762 -0.00169813
internal_weight=0 21 461 183 278 173 116 162
internal_count=482 21 461 183 278 173 116 162
is_linear=0
shrinkage=0.1


Tree=37
num_leaves=12
num_cat=0
split_feature=0 13 12 11 0 0 24 24 3 0 14
split_gain=0.587578 0.475019 0.113819 0.122734 0.109151 0.0265261 0.0309896 0.0228489 0.0172187 0.0177184 0.00891879
threshold=3.5443808955766705 267.92000000000002 0.51127874219165192 45.746721229642169 2.034756797210322 0.6078313593329252 27.220310980455753 24.452580376823541 44.000000000000007 2.574614267897485 752.31500000000017
decision_type=2 2 2 2 2 2 2 2 2 2 2
left_child=4 2 3 -2 5 6 -1 -7 10 -10 -6
right_child=1 -3 -4 -5 8 7 -8 -9 9 -11 -12
leaf_value=-0.011083672523576144 -0.0016357201448609603 0.022020566298936804 -0.0069919093139469623 0.0057615259413565092 -0.001644548637809099 -0.0048013949255663454 -0.0037354045124216514 -0.0018350321560558912 -0.001544744428720728 0.00067948193199222863 -0.0049030153080821042
leaf_weight=12.000000000000002 29 14.999999999999998 9.9999999999999982 99 28 82 10.999999999999998 38 63 83 11.999999999999998
leaf_count=12 29 15 10 99 28 82 11 38 63 83 12
internal_value=0 0.0051199 0.00328287 0.00408559 -0.00238099 -0.00445832 -0.00756928 -0.00386205 -0.0007839 -0.000280287 -0.00262209
internal_weight=0 153 138 128 329 143 23 120 186 146 40
internal_count=482 153 138 128 329 143 23 120 186 146 40
is_linear=0
shrinkage=0.1


Tree=38
num_leaves=9
num_cat=0
split_feature=0 11 0 24 0 0 6 10
split_gain=0.530386 0.562246 0.258047 0.0799866 0.0855505 0.0379657 0.0216284 0.0120952
threshold=6.3908005089353113 75.408733334121919 2.5595293085801676 22.222191438337514 4.672320016570338 0.95867432304703504 29.947376574766512 247.49888850944464
decision_type=2 2 2 2 2 2 2 2
left_child=2 -2 5 -4 -5 6 -1 -7
right_child=1 -3 3 4 -6 7 -8 -9
leaf_value=-0.0087052565068006516 -0.0016190610826015467 0.031143391377885233 -0.0064588334780031195 0.000801946990783368 0.0052052062275124936 -0.0034370664810541166 -0.0040432391106151044 -0.0017694745096336686
leaf_weight=17 10.000000000000002 10.999999999999998 11.999999999999998 175 59 86 24 88
leaf_count=17 10 11 12 175 59 86 24 88
internal_value=0 0.0155422 -0.000707997 0.00150383 0.00191217 -0.00323874 -0.00597627 -0.00259369
internal_weight=0 21 461 246 234 215 41 174
internal_count=482 21 461 246 234 215 41 174
is_linear=0
shrinkage=0.1


Tree=39
num_leaves=8
num_cat=0
split_feature=0 0 23 0 0 3 12
split_gain=0.447098 0.231126 0.0762819 0.0617616 0.0484887 0.0246252 0.0146759
threshold=6.6489014733917653 3.3852440978222109 64.371522426661372 1.4957109480362136 5.932656241888524 89.125000000000014 0.51346549394565888
decision_type=2 2 2 2 2 2 2
left_child=1 3 4 5 -3 -1 -5
right_child=-2 2 -4 6 -6 -7 -8
leaf_value=-0.0033364089566829433 0.01699381500482559 0.0024980285365256618 -0.0047387894851943623 -0.00083684084430124496 0.0077003669525895803 -0.0070949677580400654 -0.003127956592167417
leaf_weight=72 14.999999999999998 122 12.999999999999998 183 21 23 33
leaf_count=72 15 122 13 183 21 23 33
internal_value=0 -0.00054584 0.00259528 -0.00212145 0.00326201 -0.00424638 -0.00118687
internal_weight=0 467 156 311 143 95 216
internal_count=482 467 156 311 143 95 216
is_linear=0
shrinkage=0.1


Tree=40
num_leaves=8
num_cat=0
split_feature=11 23 23 25 12 21 6
split_gain=0.220586 0.737667 0.173892 0.160391 0.074958 0.0294692 0.0140181
threshold=99.786444150302444 59.510637423015567 66.479277667319067 22.111111111111111 0.48927106785586233 0.029040000000000003 23.519456938056887
decision_type=2 2 2 2 2 2 2
left_child=2 5 3 -1 -5 -2 -7
right_child=1 -3 -4 4 -6 6 -8
leaf_value=-0.012421541731843415 0.0046325223334133621 0.030606275578029453 0.011709968938322907 9.5540566950735365e-05 -0.0029996955884797945 0.0012485977122560141 -0.003469883760108667
leaf_weight=11.999999999999998 9.9999999999999982 9.9999999999999982 10.999999999999998 307 105 10.000000000000002 17
leaf_count=12 10 10 11 307 105 10 17
internal_value=0 0.00650821 -0.000703186 -0.00102523 -0.000693294 -4.77901e-06 -0.0017223
internal_weight=0 47 435 424 412 37 27
internal_count=482 47 435 424 412 37 27
is_linear=0
shrinkage=0.1


Tree=41
num_leaves=8
num_cat=0
split_feature=0 0 25 0 0 24 11
split_gain=0.344716 0.190032 0.0498731 0.0586735 0.0322188 0.0225233 0.0126821
threshold=6.6489014733917653 2.7865912322997812 21.19444444444445 5.402342127039411 1.0983899428541122 25.021513763467002 95.295116489169104
decision_type=2 2 2 2 2 2 2
left_child=1 4 -3 -4 5 -1 -6
right_child=-2 2 3 -5 6 -7 -8
leaf_value=-0.0071582951272527381 0.014921763837337494 -0.0052613364160060891 0.0012129913648963836 0.0056437819833970735 -0.0015538378825009536 -0.0028580607830321994 -0.004273278114238852
leaf_weight=21 14.999999999999998 9.9999999999999982 176 36 176 29 19
leaf_count=21 15 10 176 36 176 29 19
internal_value=0 -0.000479286 0.00163986 0.00196539 -0.00239949 -0.00466416 -0.00181881
internal_weight=0 467 222 212 245 50 195
internal_count=482 467 222 212 245 50 195
is_linear=0
shrinkage=0.1


Tree=42
num_leaves=8
num_cat=0
split_feature=0 0 23 12 0 3 11
split_gain=0.27922 0.155147 0.0442517 0.054786 0.0301473 0.0190148 0.0137613
threshold=6.6489014733917653 2.943155467732153 64.371522426661372 0.51233582158304303 1.3375258032265795 89.125000000000014 95.295116489169104
decision_type=2 2 2 2 2 2 2
left_child=1 4 3 -3 5 -1 -6
right_child=-2 2 -4 -5 6 -7 -8
leaf_value=-0.002838873305154266 0.013429586191972097 0.0025346730114626033 -0.0035898025007918481 -0.0039663619012571876 -0.0010731616322834255 -0.0065750861436956465 -0.0038471350993495436
leaf_weight=56 14.999999999999998 175 14.999999999999998 13.999999999999998 169 18 20
leaf_count=56 15 175 15 14 169 18 20
internal_value=0 -0.000431357 0.00163819 0.00205311 -0.00203664 -0.00374768 -0.0013667
internal_weight=0 467 204 189 263 74 189
internal_count=482 467 204 189 263 74 189
is_linear=0
shrinkage=0.1


Tree=43
num_leaves=8
num_cat=0
split_feature=0 0 23 12 0 0 3
split_gain=0.226168 0.130363 0.0489987 0.0409262 0.0359692 0.0148689 0.00959654
threshold=6.6489014733917653 3.3852440978222109 64.371522426661372 0.51233582158304303 2.0783722255279735 0.31231232785292518 44.000000000000007
decision_type=2 2 2 2 2 2 2
left_child=1 4 3 -3 5 -1 -6
right_child=-2 2 -4 -5 6 -7 -8
leaf_value=-0.0062311655672436413 0.01208662768205007 0.0030172035505529496 -0.0039071318729279134 -0.0030843774749276538 -0.0021223272377204512 -0.0024108724043126924 -0.00016574413618490542
leaf_weight=10.999999999999998 14.999999999999998 131 12.999999999999998 11.999999999999998 31 138 131
leaf_count=11 15 131 13 12 31 138 131
internal_value=0 -0.000388221 0.00197082 0.00250518 -0.00157154 -0.00269291 -0.000540152
internal_weight=0 467 156 143 311 149 162
internal_count=482 467 156 143 311 149 162
is_linear=0
shrinkage=0.1


Tree=44
num_leaves=12
num_cat=0
split_feature=0 23 0 0 3 3 4 0 0 24 10
split_gain=0.188485 0.929064 0.741232 0.0539306 0.0473868 0.0244776 0.018433 0.0142214 0.014021 0.0173276 0.0124494
threshold=4.4333547542409608 62.284256495887846 6.6489014733917653 2.3831553875723346 44.250000000000007 47.715000000000011 0.40276524215730924 3.4512355069709204 0.6078313593329252 27.220310980455753 73.65063227312929
decision_type=2 2 2 2 2 2 2 2 2 2 2
left_child=3 2 4 8 -2 6 -5 -7 9 -1 -10
right_child=1 -3 -4 5 -6 7 -8 -9 10 -11 -12
leaf_value=-0.0071103425812907494 0.0021156249979035337 0.030030516100426514 -0.025278632380068302 -0.0052858629941262983 0.0078294180111870889 0.00018081050008785337 -0.00070912249978970394 0.0022832137943701223 -0.0028843747878828951 -0.0016156186519021339 -0.0011196542822290213
leaf_weight=12.000000000000002 47 11.999999999999998 9.9999999999999982 10.999999999999998 21 102 44 47 68 10.999999999999998 97
leaf_count=12 47 12 10 11 21 102 44 47 68 11 97
internal_value=0 0.00412702 0.00014187 -0.000947531 0.00388018 0.00017847 -0.00162447 0.000843985 -0.00216936 -0.00448243 -0.00184693
internal_weight=0 90 78 392 68 204 55 149 188 23 165
internal_count=482 90 78 392 68 204 55 149 188 23 165
is_linear=0
shrinkage=0.1


Tree=45
num_leaves=8
num_cat=0
split_feature=0 0 25 0 0 10 10
split_gain=0.206967 0.0792737 0.0496395 0.0434935 0.0130702 0.0163709 0.00750423
threshold=6.6489014733917653 2.4755495827513783 21.19444444444445 5.402342127039411 0.89271111997907537 586.46100543732643 247.49888850944464
decision_type=2 2 2 2 2 2 2
left_child=1 4 -3 -4 5 -1 -6
right_child=-2 2 3 -5 6 -7 -8
leaf_value=-0.0047369137908909974 0.01156219094991684 -0.0057716064832427291 0.00054587769857561235 0.0043065739050588388 -0.0021203479674503406 -2.33510322868824e-05 -0.00079523806851848969
leaf_weight=28 14.999999999999998 10.999999999999998 211 36 84 9.9999999999999982 87
leaf_count=28 15 11 211 36 84 10 87
internal_value=0 -0.000371377 0.000801276 0.001094 -0.00181896 -0.0034965 -0.00144617
internal_weight=0 467 258 247 209 38 171
internal_count=482 467 258 247 209 38 171
is_linear=0
shrinkage=0.1


Tree=46
num_leaves=7
num_cat=0
split_feature=0 0 25 0 20 0
split_gain=0.167643 0.0645206 0.0388566 0.038573 0.0128332 0.012006
threshold=6.6489014733917653 2.3831553875723346 21.19444444444445 5.932656241888524 344.9472295815583 0.43710517837399876
decision_type=2 2 2 2 2 2
left_child=1 4 -3 -4 5 -1
right_child=-2 2 3 -5 -6 -7
leaf_value=-0.004183596361690434 0.010405970513820648 -0.0051944458264518876 0.00051990431907308627 0.0049841788043046287 -0.0052519165351986889 -0.0013122103627401774
leaf_weight=15.999999999999998 14.999999999999998 10.999999999999998 247 21 9.9999999999999982 162
leaf_count=16 15 11 247 21 10 162
internal_value=0 -0.000334239 0.000630628 0.000869717 -0.00176614 -0.00157031
internal_weight=0 467 279 268 188 178
internal_count=482 467 279 268 188 178
is_linear=0
shrinkage=0.1


Tree=47
num_leaves=8
num_cat=0
split_feature=11 0 0 0 23 0 0
split_gain=0.14643 0.748864 0.24316 0.0517546 0.0546562 0.0168259 0.0106057
threshold=99.786444150302444 5.932656241888524 7.0483884579426892 3.3852440978222109 64.371522426661372 1.6004984900876946 3.141315785933029
decision_type=2 2 2 2 2 2 2
left_child=2 6 3 5 -5 -1 -2
right_child=1 -3 -4 4 -6 -7 -8
leaf_value=-0.002034462350245131 -0.0029075372473973977 0.029582850860897455 -0.015986224114894868 0.0020779252667095481 -0.0047455804386677654 -0.00042140604720921097 0.00047978577462749354
leaf_weight=97 19 9.9999999999999982 9.9999999999999982 121 12.999999999999998 194 18
leaf_count=97 19 10 10 121 13 194 18
internal_value=0 0.00530258 -0.000572923 -0.000210257 0.00141594 -0.000959091 -0.00125965
internal_weight=0 47 435 425 134 291 37
internal_count=482 47 435 425 134 291 37
is_linear=0
shrinkage=0.1


Tree=48
num_leaves=8
num_cat=0
split_feature=0 0 25 9 18 12 18
split_gain=0.149044 0.0403519 0.0299145 0.0289157 0.00948866 0.0174617 0.00500563
threshold=6.6489014733917653 2.574614267897485 21.19444444444445 583.35909686961884 32.363813307127828 0.38671813821190187 37.091576463048234
decision_type=2 2 2 2 2 2 2
left_child=1 4 -3 -4 5 -1 -6
right_child=-2 2 3 -5 6 -7 -8
leaf_value=-0.0058584390673786409 0.0098117589950561523 -0.0045437815641476351 0.0012782123206293294 -0.0016995949778132716 -7.1268294855006834e-05 -0.0015118324579995463 -0.0018771593717974611
leaf_weight=9.9999999999999982 14.999999999999998 10.999999999999998 199 39 66 122 20
leaf_count=10 15 11 199 39 66 122 20
internal_value=0 -0.000315153 0.000554612 0.000790252 -0.0013086 -0.00184112 -0.000491243
internal_weight=0 467 249 238 218 132 86
internal_count=482 467 249 238 218 132 86
is_linear=0
shrinkage=0.1


Tree=49
num_leaves=6
num_cat=0
split_feature=24 24 4 18 12
split_gain=0.152846 0.200702 0.123962 0.436771 0.0460496
threshold=20.456122844087123 22.222225112644558 1.4833363860865016 27.833681914649087 0.51233582158304303
decision_type=2 2 2 2 2
left_child=-1 -2 4 -4 -3
right_child=1 2 3 -5 -6
leaf_value=0.01165245543921959 -0.013038922702738397 0.00012587432085094059 0.022820919821970157 -0.0054765416930119201 -0.0027409092860056486
leaf_weight=10.999999999999998 11.999999999999998 371 10.000000000000002 11.999999999999998 66
leaf_count=11 12 371 10 12 66
internal_value=0 -0.000272138 6.16341e-05 0.00738594 -0.000307095
internal_weight=0 471 459 22 437
internal_count=482 471 459 22 437
is_linear=0
shrinkage=0.1


Tree=50
num_leaves=6
num_cat=0
split_feature=24 24 11 0 0
split_gain=0.123805 0.162569 0.113177 0.57916 0.18607
threshold=20.456122844087123 22.222225112644558 99.786444150302444 5.932656241888524 6.495777510162303
decision_type=2 2 2 2 2
left_child=-1 -2 4 -4 -3
right_child=1 2 3 -5 -6
leaf_value=0.010487209768457847 -0.011735030395599704 -0.00013971365559185716 -0.0010663679070972109 0.026057225018739701 -0.013949069197988138
leaf_weight=10.999999999999998 11.999999999999998 402 37 9.9999999999999982 9.9999999999999982
leaf_count=11 12 402 37 10 10
internal_value=0 -0.000244924 5.54707e-05 0.00470461 -0.000474892
internal_weight=0 471 459 47 412
internal_count=482 471 459 47 412
is_linear=0
shrinkage=0.1


Tree=51
num_leaves=6
num_cat=0
split_feature=0 24 0 12 11
split_gain=0.122848 0.026471 0.0344567 0.0355504 0.0135754
threshold=6.6489014733917653 21.706743839377246 3.6496670497194108 0.46769600427334185 35.793088105287609
decision_type=2 2 2 2 2
left_child=1 -1 4 -4 -3
right_child=-2 2 3 -5 -6
leaf_value=-0.0049221040176538134 0.0089078421890735632 0.00071778194034235196 0.0029819260555444494 -0.00044633687182795258 -0.00097683477990882892
leaf_weight=11.999999999999998 14.999999999999998 57 61 60 277
leaf_count=12 15 57 61 60 277
internal_value=0 -0.000286119 -0.000163851 0.00128196 -0.000687634
internal_weight=0 467 455 121 334
internal_count=482 467 455 121 334
is_linear=0
shrinkage=0.1


Tree=52
num_leaves=9
num_cat=0
split_feature=23 2 0 0 0 12 10 0
split_gain=0.111459 1.19701 0.602109 0.0464962 0.0463033 0.042623 0.0162403 0.00526805
threshold=62.284256495887846 27.695000000000004 6.6489014733917653 3.9579103898514467 3.9981626258515317 0.46394371310570387 247.49888850944464 3.3312360475236025
decision_type=2 2 2 2 2 2 2 2
left_child=2 4 3 6 7 -5 -1 -2
right_child=1 -3 -4 5 -6 -7 -8 -9
leaf_value=-0.0013896251023445992 -0.0004573873488030198 0.03408964816692539 -0.024976342245936395 0.0044178999117943218 -0.0070213736288926819 -6.353299991757263e-06 0.00012893741515008808 0.0017598088391913244
leaf_weight=163 61 10.999999999999998 9.9999999999999982 38 10.999999999999998 51 124 12.999999999999998
leaf_count=163 61 11 10 38 11 51 124 13
internal_value=0 0.00304925 -0.000758362 -0.000114267 -0.000967744 0.00188265 -0.000733521 -6.78799e-05
internal_weight=0 96 386 376 85 89 287 74
internal_count=482 96 386 376 85 89 287 74
is_linear=0
shrinkage=0.1


Tree=53
num_leaves=6
num_cat=0
split_feature=0 25 0 12 7
split_gain=0.113065 0.0246086 0.0249285 0.0223969 0.0106607
threshold=6.6489014733917653 21.19444444444445 2.3951908609178409 0.51233582158304303 297.16852385125304
decision_type=2 2 2 2 2
left_child=1 -1 4 -4 -3
right_child=-2 2 3 -5 -6
leaf_value=-0.0049483031330799518 0.0085458256304264072 -0.00081454797430276162 0.00075607829353713176 -0.0024472574921674097 -0.0035917530526057822
leaf_weight=10.999999999999998 14.999999999999998 176 241 24 14.999999999999998
leaf_count=11 15 176 241 24 15
internal_value=0 -0.000274491 -0.000161746 0.000465965 -0.00103265
internal_weight=0 467 456 265 191
internal_count=482 467 456 265 191
is_linear=0
shrinkage=0.1


Tree=54
num_leaves=6
num_cat=0
split_feature=4 18 24 0 0
split_gain=0.100477 0.335432 0.101855 0.226591 0.0179422
threshold=1.4833363860865016 27.984035608940761 20.456122844087123 6.495777510162303 1.6004984900876946
decision_type=2 2 2 2 2
left_child=2 -2 -1 4 -4
right_child=1 -3 3 -5 -6
leaf_value=0.0091911362314766095 0.018949874160303304 -0.0057457972357124994 -0.001356996289597681 -0.015433037038892509 0.00014659889966098301
leaf_weight=10.999999999999998 11.000000000000002 10.999999999999998 104 9.9999999999999982 335
leaf_count=11 11 11 104 10 335
internal_value=0 0.00660204 -0.00031575 -0.000548658 -0.000209606
internal_weight=0 22 460 449 439
internal_count=482 22 460 449 439
is_linear=0
shrinkage=0.1


Tree=55
num_leaves=6
num_cat=0
split_feature=0 25 0 12 6
split_gain=0.105476 0.0275251 0.0201228 0.0333921 0.0125905
threshold=6.6489014733917653 21.19444444444445 4.2279978876930215 0.48817222921615883 33.221661644090737
decision_type=2 2 2 2 2
left_child=1 -1 4 -4 -3
right_child=-2 2 3 -5 -6
leaf_value=-0.0052081402481152592 0.0082540413240591685 -0.00083640661596430857 0.0026317631229176189 -0.0018265149051633974 0.00041946678649211488
leaf_weight=10.999999999999998 14.999999999999998 261 56 24 115
leaf_count=11 15 261 56 24 115
internal_value=0 -0.000265119 -0.00014588 0.00129428 -0.000452296
internal_weight=0 467 456 80 376
internal_count=482 467 456 80 376
is_linear=0
shrinkage=0.1


Tree=56
num_leaves=8
num_cat=0
split_feature=13 24 0 16 25 0 5
split_gain=0.0892168 0.555343 0.104719 0.0233955 0.0227671 0.0204163 0.00605411
threshold=267.92000000000002 24.350727228987207 6.6489014733917653 245.94147737573951 21.19444444444445 2.4549233703165121 35.594356471560481
decision_type=2 2 2 2 2 2 2
left_child=2 -2 4 -3 -1 -6 -5
right_child=1 3 -4 6 5 -7 -8
leaf_value=-0.0046873262067410075 0.025047965747071434 -0.0056439487205352636 -0.010080037266016008 -0.0011302130200954918 -0.00088159166761464568 0.00053723445053659603 0.0019706504279747607
leaf_weight=10.999999999999998 9.9999999999999982 9.9999999999999982 10.999999999999998 17.000000000000004 179 234 9.9999999999999982
leaf_count=11 10 10 11 17 179 234 10
internal_value=0 0.004139 -0.000447202 -0.00151207 -0.000197294 -7.77047e-05 1.82549e-05
internal_weight=0 47 435 37 424 413 27
internal_count=482 47 435 37 424 413 27
is_linear=0
shrinkage=0.1


Tree=57
num_leaves=5
num_cat=0
split_feature=24 24 0 0
split_gain=0.0935229 0.122032 0.0992962 0.0168262
threshold=20.456122844087123 22.222225112644558 6.6489014733917653 4.2279978876930215
decision_type=2 2 2 2
left_child=-1 -2 3 -3
right_child=1 2 -4 -5
leaf_value=0.0091148519719188859 -0.010167897989352545 -0.00046882577409890122 0.0094338636168024761 0.0011313349445845233
leaf_weight=10.999999999999998 11.999999999999998 368 10.999999999999998 80
leaf_count=11 12 368 11 80
internal_value=0 -0.000212873 4.73887e-05 -0.000183083
internal_weight=0 471 459 448
internal_count=482 471 459 448
is_linear=0
shrinkage=0.1


Tree=58
num_leaves=9
num_cat=0
split_feature=23 3 0 0 0 3 11 23
split_gain=0.0871284 0.970063 0.529663 0.0283646 0.0226373 0.0566122 0.0134698 0.00354708
threshold=62.284256495887846 68.530000000000015 6.6489014733917653 3.9981626258515317 3.9579103898514467 44.250000000000007 36.51116064384518 64.002547981844202
decision_type=2 2 2 2 2 2 2 2
left_child=2 -2 4 7 6 -6 -1 -3
right_child=1 3 -4 -5 5 -7 -8 -9
leaf_value=0.0011796065924544366 0.032175016437540761 0.0005923588602364852 -0.023384843468666081 -0.0057384668383747344 -0.00051688802115426493 0.00477676353203283 -0.00077816371038618576 -0.00077445434934988219
leaf_weight=41 9.9999999999999982 39 9.9999999999999982 9.9999999999999982 58 31 246 37
leaf_count=41 10 39 10 10 58 31 246 37
internal_value=0 0.00269597 -0.000670499 -0.000731831 -6.63943e-05 0.00132697 -0.000498482 -7.30634e-05
internal_weight=0 96 386 86 376 89 287 76
internal_count=482 96 386 86 376 89 287 76
is_linear=0
shrinkage=0.1


Tree=59
num_leaves=6
num_cat=0
split_feature=0 25 11 0 0
split_gain=0.0873924 0.0241437 0.0137947 0.0145756 0.00632838
threshold=6.6489014733917653 21.19444444444445 36.51116064384518 5.3320206116088764 3.4512355069709204
decision_type=2 2 2 2 2
left_child=1 -1 4 -4 -3
right_child=-2 2 3 -5 -6
leaf_value=-0.0048707713552919984 0.0075132198631763462 0.0006080385881553715 -0.00058759403466972487 0.0014534926388221675 0.0027937431874520639
leaf_weight=10.999999999999998 14.999999999999998 60 340 39 17
leaf_count=11 15 60 340 39 17
internal_value=0 -0.000241324 -0.000129649 -0.000377561 0.0010906
internal_weight=0 467 456 379 77
internal_count=482 467 456 379 77
is_linear=0
shrinkage=0.1


Tree=60
num_leaves=5
num_cat=0
split_feature=23 25 0 12
split_gain=0.0737482 0.174512 0.0903457 0.0130454
threshold=66.479277667319067 22.111111111111111 6.6489014733917653 0.48817222921615883
decision_type=2 2 2 2
left_child=1 -1 3 -3
right_child=-2 2 -4 -5
leaf_value=-0.012102012910569709 0.0077412369699838271 0.0002436402412075993 0.0090674600140614944 -0.00094060166958859724
leaf_weight=11.999999999999998 11.999999999999998 315 10.999999999999998 132
leaf_count=12 12 315 11 132
internal_value=0 -0.000197649 0.000114256 -0.000106069
internal_weight=0 470 458 447
internal_count=482 470 458 447
is_linear=0
shrinkage=0.1


Tree=61
num_leaves=5
num_cat=0
split_feature=24 24 0 0
split_gain=0.0819844 0.0976957 0.0744397 0.0107879
threshold=20.456122844087123 22.222225112644558 6.6489014733917653 4.2279978876930215
decision_type=2 2 2 2
left_child=-1 -2 3 -3
right_child=1 2 -4 -5
leaf_value=0.008534071467478168 -0.009106546933374678 -0.00039478822204431629 0.0081607132472775196 0.00088647488999413324
leaf_weight=10.999999999999998 11.999999999999998 368 10.999999999999998 80
leaf_count=11 12 368 11 80
internal_value=0 -0.00019931 3.35594e-05 -0.000165991
internal_weight=0 471 459 448
internal_count=482 471 459 448
is_linear=0
shrinkage=0.1


Tree=62
num_leaves=7
num_cat=0
split_feature=11 0 0 8 24 24
split_gain=0.0669824 0.350395 0.247254 0.0172698 0.0128602 0.00665471
threshold=99.786444150302444 5.932656241888524 7.0483884579426892 27.2777553207426 21.706743839377246 24.444483293282357
decision_type=2 2 2 2 2 2
left_child=2 5 3 -1 -5 -2
right_child=1 -3 -4 4 -6 -7
leaf_value=0.0032011434188461865 -0.0022802990683380305 0.020194868678227069 -0.015930011831223966 -0.003373142805260917 -5.0374871088773652e-05 0.00040289760738807293
leaf_weight=15.999999999999998 18 9.9999999999999982 9.9999999999999982 11.999999999999998 397 19
leaf_count=16 18 10 10 12 397 19
internal_value=0 0.00358635 -0.00038749 -2.17841e-05 -0.000147864 -0.000902441
internal_weight=0 47 435 425 409 37
internal_count=482 47 435 425 409 37
is_linear=0
shrinkage=0.1


Tree=63
num_leaves=7
num_cat=0
split_feature=24 13 0 23 16 10
split_gain=0.0765483 0.0721378 0.409404 0.386685 0.0178414 0.0129363
threshold=20.456122844087123 267.92000000000002 6.495777510162303 59.239685589928577 256.45267856848466 247.49888850944464
decision_type=2 2 2 2 2 2
left_child=-1 2 5 4 -3 -2
right_child=1 3 -4 -5 -6 -7
leaf_value=0.0082462857223369861 -0.00055821174825985628 -0.0047992340463679289 -0.018812159278119606 0.020971908732317388 0.00014539198191077622 0.00057455917836209255
leaf_weight=10.999999999999998 236 9.9999999999999982 11.999999999999998 9.9999999999999982 27 176
leaf_count=11 236 10 12 10 27 176
internal_value=0 -0.000192588 -0.000604626 0.00352452 -0.00119099 -7.43096e-05
internal_weight=0 471 424 47 37 412
internal_count=482 471 424 47 37 412
is_linear=0
shrinkage=0.1


Tree=64
num_leaves=6
num_cat=0
split_feature=0 25 11 0 7
split_gain=0.0747783 0.0195981 0.0132947 0.0135983 0.00546531
threshold=6.6489014733917653 21.19444444444445 35.793088105287609 1.0478144086710011 176.98935958927731
decision_type=2 2 2 2 2
left_child=1 -1 4 -4 -3
right_child=-2 2 3 -5 -6
leaf_value=-0.0043941804758188402 0.0069498758763074878 0.0018725395596231381 -0.0021998288226313888 -0.00015933537099809575 2.7733737638650031e-05
leaf_weight=10.999999999999998 14.999999999999998 42 36 352 26
leaf_count=11 15 42 36 352 26
internal_value=0 -0.000223229 -0.000122614 -0.00034866 0.00116717
internal_weight=0 467 456 388 68
internal_count=482 467 456 388 68
is_linear=0
shrinkage=0.1


Tree=65
num_leaves=5
num_cat=0
split_feature=24 24 0 24
split_gain=0.0659612 0.0695698 0.0676909 0.00993265
threshold=20.456122844087123 22.222225112644558 6.6489014733917653 24.444483293282357
decision_type=2 2 2 2
left_child=-1 -2 3 -3
right_child=1 2 -4 -5
leaf_value=0.0076548192226751285 -0.0076952734186003617 -0.00048836220354591981 0.0077677293257279838 0.00052949038338169073
leaf_weight=10.999999999999998 11.999999999999998 309 10.999999999999998 139
leaf_count=11 12 309 11 139
internal_value=0 -0.000178775 1.77348e-05 -0.000172555
internal_weight=0 471 459 448
internal_count=482 471 459 448
is_linear=0
shrinkage=0.1


Tree=66
num_leaves=5
num_cat=0
split_feature=23 24 3 0
split_gain=0.0646414 0.133929 0.0597227 0.34683
threshold=66.479277667319067 22.220741945602736 30.095000000000002 6.495777510162303
decision_type=2 2 2 2
left_child=1 -1 -3 -4
right_child=-2 2 3 -5
leaf_value=-0.010193661842137002 0.0072475334386884541 -0.0053890642268877281 -9.2368302706337461e-05 0.018747305796714502
leaf_weight=12.999999999999998 11.999999999999998 19 428 9.9999999999999982
leaf_count=13 12 19 428 10
internal_value=0 -0.000185043 9.96657e-05 0.000337761
internal_weight=0 470 457 438
internal_count=482 470 457 438
is_linear=0
shrinkage=0.1


Tree=67
num_leaves=8
num_cat=0
split_feature=25 21 14 4 10 25 13
split_gain=0.064876 0.0549471 0.325788 0.0673833 0.0349398 0.0567058 0.0121064
threshold=20.000000000000007 0.043910000000000005 210.59000000000003 0.45862207618542844 231.52989503818119 22.222222222222232 166.61000000000004
decision_type=2 2 2 2 2 2 2
left_child=-1 4 -3 -4 5 -2 -6
right_child=1 2 3 -5 6 -7 -8
leaf_value=0.0075915908694944596 -0.0062940291400688398 0.019029638348147276 0.0042753771723558513 -0.0052032513404265054 0.00090585642862909795 -0.00084861193866676778 -0.00098055198276680053
leaf_weight=10.999999999999998 21 9.9999999999999982 11.999999999999998 20 150 214 44
leaf_count=11 21 10 12 20 150 214 44
internal_value=0 -0.000177298 0.00327466 -0.00164877 -0.000515253 -0.00133522 0.000478011
internal_weight=0 471 42 32 429 235 194
internal_count=482 471 42 32 429 235 194
is_linear=0
shrinkage=0.1


Tree=68
num_leaves=9
num_cat=0
split_feature=23 1 0 0 25 3 0 11
split_gain=0.0587671 0.696994 0.512498 0.0197796 0.0179697 0.0159757 0.0117738 0.00451127
threshold=62.284256495887846 15.500000000000002 6.6489014733917653 3.8689109385340976 22.805555555555561 88.780000000000015 3.779012751494629 50.695656766251979
decision_type=2 2 2 2 2 2 2 2
left_child=2 3 4 7 6 -6 -1 -2
right_child=1 -3 -4 -5 5 -7 -8 -9
leaf_value=0.00085720111539838132 0.00054606870599349753 0.027201930335722865 -0.02289391853613779 -0.0044574722958107792 -2.4057570532464968e-05 -0.0025650470957366959 0.0042378483988743812 -0.0010533429100178183
leaf_weight=39 45 9.9999999999999982 9.9999999999999982 11.999999999999998 296 27 13.999999999999998 29
leaf_count=39 45 10 10 12 296 27 14 29
internal_value=0 0.00221412 -0.000550663 -0.000691436 4.35729e-05 -0.000236462 0.0017502 -8.07277e-05
internal_weight=0 96 386 86 376 323 53 74
internal_count=482 96 386 86 376 323 53 74
is_linear=0
shrinkage=0.1


Tree=69
num_leaves=10
num_cat=0
split_feature=18 0 24 24 12 2 0 22 0
split_gain=0.0496118 0.447275 0.26937 0.0248559 0.0102775 0.0157719 0.0136989 0.00627551 0.00342151
threshold=25.277068926790935 6.6489014733917653 22.333933668541132 24.444502271866121 0.50826459968677506 34.860000000000007 0.6078313593329252 825.85090449585653 3.6770134884858816
decision_type=2 2 2 2 2 2 2 2 2
left_child=2 4 -1 7 6 -6 -2 -4 -5
right_child=1 -3 3 8 5 -7 -8 -9 -10
leaf_value=-0.017456855168566109 -0.0024745048489421607 0.020451902699741453 -0.0010142309017015471 0.0012037064077621499 -0.00016566402741268071 -0.0039390553385601377 0.00037274166635683473 -0.003697210673708469 0.0033690547419246287
leaf_weight=9.9999999999999982 18 10.999999999999998 68 27 36 15.999999999999998 276 9.9999999999999982 9.9999999999999982
leaf_count=10 18 11 68 27 36 16 276 10 10
internal_value=0 0.00060033 -0.00171454 -0.000345645 -3.07895e-05 -0.00132671 0.00019842 -0.0013582 0.00178894
internal_weight=0 357 125 115 346 52 294 78 37
internal_count=482 357 125 115 346 52 294 78 37
is_linear=0
shrinkage=0.1


Tree=70
num_leaves=5
num_cat=0
split_feature=23 25 16 0
split_gain=0.0524651 0.12359 0.0529512 0.174132
threshold=66.479277667319067 22.111111111111111 871.9874599222677 6.495777510162303
decision_type=2 2 2 2
left_child=1 -1 3 -3
right_child=-2 2 -4 -5
leaf_value=-0.010184794163797051 0.0065293482601797839 -2.2736106725292134e-05 -0.0057475657037381707 0.012718257646669041
leaf_weight=11.999999999999998 11.999999999999998 432 14.999999999999998 10.999999999999998
leaf_count=12 12 432 15 11
internal_value=0 -0.000166707 9.57759e-05 0.000293632
internal_weight=0 470 458 443
internal_count=482 470 458 443
is_linear=0
shrinkage=0.1


Tree=71
num_leaves=6
num_cat=0
split_feature=24 4 4 0 12
split_gain=0.0603383 0.0465494 0.24813 0.219965 0.0095365
threshold=20.456122844087123 1.4833363860865016 2.025773392628142 6.495777510162303 0.51233582158304303
decision_type=2 2 2 2 2
left_child=-1 3 -3 4 -2
right_child=1 2 -4 -5 -6
leaf_value=0.0073212818327275195 0.00013732049752084071 0.01595389766967855 -0.0053745993413031106 -0.01505618490278721 -0.001174983151498824
leaf_weight=10.999999999999998 374 10.000000000000002 11.999999999999998 9.9999999999999982 65
leaf_count=11 374 10 12 10 65
internal_value=0 -0.000170985 0.00432017 -0.000391042 -5.69841e-05
internal_weight=0 471 22 449 439
internal_count=482 471 22 449 439
is_linear=0
shrinkage=0.1


Tree=72
num_leaves=7
num_cat=0
split_feature=24 13 0 24 16 0
split_gain=0.048874 0.0437069 0.346055 0.257436 0.0168231 0.00899881
threshold=20.456122844087123 267.92000000000002 6.495777510162303 24.350727228987207 245.94147737573951 1.3375258032265795
decision_type=2 2 2 2 2 2
left_child=-1 2 5 -3 -5 -2
right_child=1 3 -4 4 -6 -7
leaf_value=0.0065891534979031843 -0.0010974529257509857 0.016975403833203017 -0.017214304798593125 -0.0046118692721938718 0.00018958144355565312 0.0002096542704239255
leaf_weight=10.999999999999998 62 9.9999999999999982 11.999999999999998 9.9999999999999982 27 350
leaf_count=11 62 10 12 10 27 350
internal_value=0 -0.000153887 -0.00047461 0.00273945 -0.00110811 1.29537e-05
internal_weight=0 471 424 47 37 412
internal_count=482 471 424 47 37 412
is_linear=0
shrinkage=0.1


Tree=73
num_leaves=10
num_cat=0
split_feature=23 3 0 18 24 24 0 5 7
split_gain=0.0416583 0.567842 0.400767 0.0174676 0.0138792 0.0137549 0.0107643 0.0106734 0.00294898
threshold=62.284256495887846 68.530000000000015 6.6489014733917653 26.495230003288817 22.776487724470091 24.444483293282357 3.779012751494629 24.618204273752955 176.98935958927731
decision_type=2 2 2 2 2 2 2 2 2
left_child=2 -2 4 7 6 -6 -1 -3 -5
right_child=1 3 -4 8 5 -7 -8 -9 -10
leaf_value=0.0007458264942550542 0.024418363543227316 -0.0010372301144525404 -0.020221783943707123 0.0008294859480142973 -0.00074120946582131376 0.00057373114734035483 0.0040794335305690769 -0.0056574988982174548 -0.00053006009368870702
leaf_weight=38 9.9999999999999982 10.000000000000002 9.9999999999999982 27 186 139 12.999999999999998 9.9999999999999982 39
leaf_count=38 10 10 10 27 186 139 13 10 39
internal_value=0 0.00186417 -0.000463627 -0.000758413 6.18556e-05 -0.000178819 0.00159557 -0.00334736 2.61178e-05
internal_weight=0 96 386 86 376 325 51 20 66
internal_count=482 96 386 86 376 325 51 20 66
is_linear=0
shrinkage=0.1


Tree=74
num_leaves=6
num_cat=0
split_feature=0 25 11 0 24
split_gain=0.0447194 0.0207537 0.0105497 0.0141059 0.0112563
threshold=6.6489014733917653 21.19444444444445 95.295116489169104 5.0864724741407974 24.444418036494643
decision_type=2 2 2 2 2
left_child=1 -1 3 -3 -4
right_child=-2 2 4 -5 -6
leaf_value=-0.0044647844032045794 0.0053744895818332835 -5.2039400167902186e-05 -0.0035962760564871134 0.0022754056345937507 -0.00045792512537445873
leaf_weight=10.999999999999998 14.999999999999998 372 15.999999999999998 28 40
leaf_count=11 15 372 16 28 40
internal_value=0 -0.000172628 -6.90893e-05 0.000110882 -0.0013546
internal_weight=0 467 456 400 56
internal_count=482 467 456 400 56
is_linear=0
shrinkage=0.1


Tree=75
num_leaves=10
num_cat=0
split_feature=18 0 0 24 11 5 8 20 3
split_gain=0.038291 0.382878 0.211601 0.0146301 0.00821787 0.00881319 0.00807387 0.0054466 0.00472847
threshold=25.277068926790935 6.6489014733917653 5.8864877481530113 24.444502271866121 36.403338927810559 35.886955923332728 62.946805030800626 124.62168858200252 61.125000000000007
decision_type=2 2 2 2 2 2 2 2 2
left_child=2 4 3 7 6 -6 -2 -1 -5
right_child=1 -3 -4 8 5 -7 -8 -9 -10
leaf_value=-0.0020607012629625387 -0.001563948845829476 0.018894378663125364 -0.015458788424730302 -0.00014656946251097208 -0.00056447673151536234 0.0009021122573176399 0.0013910356316924224 -0.00036927768564287656 0.0022394606868898419
leaf_weight=32 10.999999999999998 10.999999999999998 9.9999999999999982 12.999999999999998 227 50 58 47 23
leaf_count=32 11 11 10 13 227 50 58 47 23
internal_value=0 0.000527407 -0.00150627 -0.000293011 -5.65144e-05 -0.000299749 0.000919951 -0.00105441 0.00137784
internal_weight=0 357 125 115 346 277 69 79 36
internal_count=482 357 125 115 346 277 69 79 36
is_linear=0
shrinkage=0.1


Tree=76
num_leaves=5
num_cat=0
split_feature=23 25 4 4
split_gain=0.0379264 0.10068 0.0388803 0.215878
threshold=66.479277667319067 22.111111111111111 1.5797160216062323 1.4574206296343737
decision_type=2 2 2 2
left_child=1 -1 3 -3
right_child=-2 2 -4 -5
leaf_value=-0.0091837240111393229 0.0055514359730295844 -7.076353947956661e-05 -0.0049119511110135745 0.014790733626578005
leaf_weight=11.999999999999998 11.999999999999998 433 14.999999999999998 9.9999999999999982
leaf_count=12 12 433 15 10
internal_value=0 -0.000141739 9.51691e-05 0.00026471
internal_weight=0 470 458 443
internal_count=482 470 458 443
is_linear=0
shrinkage=0.1


Tree=77
num_leaves=5
num_cat=0
split_feature=24 16 4 0
split_gain=0.0463657 0.0365785 0.0853997 0.0389796
threshold=20.456122844087123 871.9874599222677 1.5290592336381574 6.495777510162303
decision_type=2 2 2 2
left_child=-1 2 3 -2
right_child=1 -3 -4 -5
leaf_value=0.0064178435766900138 -9.2073006886747924e-05 -0.0050088021606400921 0.0074302096106112006 -0.0061205456372011796
leaf_weight=10.999999999999998 430 14.999999999999998 14.999999999999998 10.999999999999998
leaf_count=11 430 15 15 11
internal_value=0 -0.000149886 9.94682e-06 -0.000242443
internal_weight=0 471 456 441
internal_count=482 471 456 441
is_linear=0
shrinkage=0.1


Tree=78
num_leaves=5
num_cat=0
split_feature=24 4 4 24
split_gain=0.0375562 0.0354015 0.179298 0.0297338
threshold=20.456122844087123 1.5797160216062323 1.4574206296343737 22.222225112644558
decision_type=2 2 2 2
left_child=-1 2 3 -2
right_child=1 -3 -4 -5
leaf_value=0.0057760589925402945 -0.005184924633552631 -0.0049149966736634571 0.013264935258775951 -0.00013880636283850474
leaf_weight=10.999999999999998 11.999999999999998 14.999999999999998 9.9999999999999982 434
leaf_count=11 12 15 10 434
internal_value=0 -0.000134897 2.23428e-05 -0.000274576
internal_weight=0 471 456 446
internal_count=482 471 456 446
is_linear=0
shrinkage=0.1


Tree=79
num_leaves=5
num_cat=0
split_feature=3 4 25 8
split_gain=0.0360558 0.0730928 0.0309224 0.0215072
threshold=30.095000000000002 1.5290592336381574 20.000000000000007 27.2777553207426
decision_type=2 2 2 2
left_child=-1 2 -2 -4
right_child=1 -3 3 -5
leaf_value=-0.0042695065372084324 0.0051984531550922182 0.0075675360231588669 0.0034293367367354225 -0.00030569673600862844
leaf_weight=19 10.999999999999998 12.999999999999998 15.999999999999998 423
leaf_count=19 11 13 16 423
internal_value=0 0.000175207 -3.83497e-05 -0.000169568
internal_weight=0 463 450 439
internal_count=482 463 450 439
is_linear=0
shrinkage=0.1


end of trees

feature_importances:
Cooling_Load_(kWh)=461
Indoor_Temperature_(C)=51
Indoor_Relative_Humidity_(%)=28
Outdoor_Relative_Humidity_(%)=27
Temperature_Set_Point_(C)=24
Equipment_Electric_Power_(kWh)=16
12h_Outdoor_Relative_Humidity_(%)=16
kg_CO2/kWh=15
6h_Direct_Solar_Radiation_(W/m2)=9
24h_Outdoor_Relative_Humidity_(%)=7
6h_Outdoor_Drybulb_Temperature_(C)=7
Hour=6
Diffuse_Solar_Radiation_(W/m2)=6
24h_Direct_Solar_Radiation_(W/m2)=6
6h_Diffuse_Solar_Radiation_(W/m2)=5
24h_Outdoor_Drybulb_Temperature_(C)=4
Solar_Generation_(W/kW)=4
12h_Outdoor_Drybulb_Temperature_(C)=3
Direct_Solar_Radiation_(W/m2)=3
12h_Diffuse_Solar_Radiation_(W/m2)=3
Outdoor_Drybulb_Temperature_(C)=2
12h_Prediction_Electricity_Pricing__$/kWh_=2
24h_Prediction_Electricity_Pricing__$/kWh_=2
24h_Diffuse_Solar_Radiation_(W/m2)=1
Electricity_Pricing__$/kWh_=1
12h_Direct_Solar_Radiation_(W/m2)=1

parameters:
[boosting: gbdt]
[objective: regression]
[metric: l2]
[tree_learner: serial]
[device_type: cpu]
[data: ]
[valid: ]
[num_iterations: 80]
[learning_rate: 0.1]
[num_leaves: 16]
[num_threads: 1]
[deterministic: 0]
[force_col_wise: 0]
[force_row_wise: 0]
[histogram_pool_size: -1]
[max_depth: 4]
[min_data_in_leaf: 10]
[min_sum_hessian_in_leaf: 0.001]
[bagging_fraction: 0.9]
[pos_bagging_fraction: 1]
[neg_bagging_fraction: 1]
[bagging_freq: 0]
[bagging_seed: 3]
[feature_fraction: 0.9]
[feature_fraction_bynode: 1]
[feature_fraction_seed: 2]
[extra_trees: 0]
[extra_seed: 6]
[early_stopping_round: 0]
[first_metric_only: 0]
[max_delta_step: 0]
[lambda_l1: 0]
[lambda_l2: 0]
[linear_lambda: 0]
[min_gain_to_split: 0]
[drop_rate: 0.1]
[max_drop: 50]
[skip_drop: 0.5]
[xgboost_dart_mode: 0]
[uniform_drop: 0]
[drop_seed: 4]
[top_rate: 0.2]
[other_rate: 0.1]
[min_data_per_group: 100]
[max_cat_threshold: 32]
[cat_l2: 10]
[cat_smooth: 10]
[max_cat_to_onehot: 4]
[top_k: 20]
[monotone_constraints: ]
[monotone_constraints_method: basic]
[monotone_penalty: 0]
[feature_contri: ]
[forcedsplits_filename: ]
[refit_decay_rate: 0.9]
[cegb_tradeoff: 1]
[cegb_penalty_split: 0]
[cegb_penalty_feature_lazy: ]
[cegb_penalty_feature_coupled: ]
[path_smooth: 0]
[interaction_constraints: ]
[verbosity: 1]
[saved_feature_importance_type: 0]
[linear_tree: 0]
[max_bin: 255]
[max_bin_by_feature: ]
[min_data_in_bin: 3]
[bin_construct_sample_cnt: 200000]
[data_random_seed: 1]
[is_enable_sparse: 1]
[enable_bundle: 1]
[use_missing: 1]
[zero_as_missing: 0]
[feature_pre_filter: 1]
[pre_partition: 0]
[two_round: 0]
[header: 0]
[label_column: ]
[weight_column: ]
[group_column: ]
[ignore_column: ]
[categorical_feature: ]
[forcedbins_filename: ]
[precise_float_parser: 0]
[parser_config_file: ]
[objective_seed: 5]
[num_class: 1]
[is_unbalance: 0]
[scale_pos_weight: 1]
[sigmoid: 1]
[boost_from_average: 1]
[reg_sqrt: 0]
[alpha: 0.9]
[fair_c: 1]
[poisson_max_delta_step: 0.7]
[tweedie_variance_power: 1.5]
[lambdarank_truncation_level: 30]
[lambdarank_norm: 1]
[label_gain: ]
[lambdarank_position_bias_regularization: 0]
[eval_at: ]
[multi_error_top_k: 1]
[auc_mu_weights: ]
[num_machines: 1]
[local_listen_port: 12400]
[time_out: 120]
[machine_list_filename: ]
[machines: ]
[gpu_platform_id: -1]
[gpu_device_id: -1]
[gpu_use_dp: 0]
[num_gpu: 1]

end of parameters

pandas_categorical:[]
