tree
version=v4
num_class=1
num_tree_per_iteration=1
label_index=0
max_feature_idx=35
objective=regression
feature_names=Month Hour Day_Type Daylight_Savings_Status Indoor_Temperature_(C) Average_Unmet_Cooling_Setpoint_Difference_(C) Indoor_Relative_Humidity_(%) Equipment_Electric_Power_(kWh) DHW_Heating_(kWh) Cooling_Load_(kWh) Heating_Load_(kWh) Solar_Generation_(W/kW) Occupant_Count_(people) Temperature_Set_Point_(C) HVAC_Mode_(Off/Cooling/Heating) kg_CO2/kWh Electricity_Pricing__$/kWh_ 6h_Prediction_Electricity_Pricing__$/kWh_ 12h_Prediction_Electricity_Pricing__$/kWh_ 24h_Prediction_Electricity_Pricing__$/kWh_ Outdoor_Drybulb_Temperature_(C) Outdoor_Relative_Humidity_(%) Diffuse_Solar_Radiation_(W/m2) Direct_Solar_Radiation_(W/m2) 6h_Outdoor_Drybulb_Temperature_(C) 12h_Outdoor_Drybulb_Temperature_(C) 24h_Outdoor_Drybulb_Temperature_(C) 6h_Outdoor_Relative_Humidity_(%) 12h_Outdoor_Relative_Humidity_(%) 24h_Outdoor_Relative_Humidity_(%) 6h_Diffuse_Solar_Radiation_(W/m2) 12h_Diffuse_Solar_Radiation_(W/m2) 24h_Diffuse_Solar_Radiation_(W/m2) 6h_Direct_Solar_Radiation_(W/m2) 12h_Direct_Solar_Radiation_(W/m2) 24h_Direct_Solar_Radiation_(W/m2)
feature_infos=none [1:24] [1:7] none [22.77789557214593:24.444466550450691] [-0.26199352089311739:0.092478093357026794] [53.479610279300665:68.515804715876072] [0.39715520629195489:8.3977398689543179] [0:2.8416597800977703] [0:5.7120455301242288] none [0:687.15852178569139] [0:2] [22.777777777777779:24.444444444444457] none [0.33751525247131398:0.54505021691256927] [0.028930000000000001:0.05867] [0.028930000000000001:0.05867] [0.028930000000000001:0.05867] [0.028930000000000001:0.05867] [21.379999999999999:40.32] [24.120000000000001:98.25] [0:408.69999999999999] [0:886.92999999999995] [21.385895012807637:40.448030901483051] [20.812239003382171:41.761423383460262] [20.947013524362529:40.33298102857114] [19.430299457014652:100] [18.750454935186248:100] [16.665542474905589:100] [0:448.59393372529718] [0:524.90876332100106] [0:486.88891634473225] [0:998.78608636720685] [0:1096.818864330259] [0:1148.8024499653848]
tree_sizes=1414 1368 1366 1479 1390 1499 1386 1392 1393 1408 1511 1513 1401 1419 1424 1430 1396 1415 1431 1388 1452 1438 1449 1471 1360 1334 1374 1289 1493 1274 1292 1358 1245 1253 1279 1259 1389 1258 1458 1244 1391 1282 1209 1375 1203 1295 1223 980 831 812 917 915 937 904 732 1008 816 815 824 1002 729 846 652 836 652 730 752 732 733 736 732 722 841 835 736 834 615 735 613 733

Tree=0
num_leaves=16
num_cat=0
split_feature=9 9 9 9 9 9 9 9 9 9 9 9 4 9 9
split_gain=632.719 72.2121 67.1593 13.8931 13.4058 8.63787 7.58537 2.34411 1.99898 1.31929 1.22293 1.20135 1.13816 1.05556 0.760649
threshold=2.1528193347923676 3.4449790019353319 1.1064203239247801 4.2937973992154195 2.806625911098934 0.63346698166898252 1.5884466120628919 3.8256730170785036 0.36211818421171144 2.4700412584335996 3.1242761438021653 1.8601888935396114 23.888892532819675 0.84683390742386533 1.3563746761820399
decision_type=2 2 2 2 2 2 2 2 2 2 2 2 2 2 2
left_child=2 4 5 7 9 8 14 -3 -1 -2 -6 -8 -5 -7 -4
right_child=1 3 6 12 10 13 11 -9 -10 -11 -12 -13 -14 -15 -16
leaf_value=1.7360368007461684 1.9472795528461988 2.0796066149906229 1.8390857338290776 2.2142458781436991 2.0136143237640916 1.7890384437361386 1.8870825080365397 2.1206803361863349 1.7664926242936292 1.9787353178153888 2.0432814160368209 1.9161581376580077 2.1676320483575719 1.81145829660599 1.8634314422385068
leaf_weight=32 30 33 33 11.000000000000002 24 42 30 24 66 24 33 27 9.9999999999999982 42 21
leaf_count=32 30 33 33 11 24 42 30 24 66 24 33 27 10 42 21
internal_value=1.90613 2.04878 1.81411 2.12252 1.99696 1.77672 1.87541 2.0969 1.75655 1.96126 2.03079 1.90086 2.19205 1.80025 1.84855
internal_weight=0 189 293 78 111 182 111 57 98 54 57 57 21 84 54
internal_count=482 189 293 78 111 182 111 57 98 54 57 57 21 84 54
is_linear=0
shrinkage=1


Tree=1
num_leaves=15
num_cat=0
split_feature=9 9 9 9 9 9 9 9 9 9 9 9 9 9
split_gain=512.649 57.0553 56.2475 10.7466 10.6821 7.85777 5.88971 3.32996 1.63622 1.14727 1.11573 0.944598 0.907328 0.568475
threshold=2.1987165523663541 1.1485571928235128 3.4925655108086509 2.8563486184502174 4.5248259034148033 0.63346698166898252 1.6748490199107573 4.0486755789707454 0.31664588150468065 2.5561071371424657 0.8756533698138228 3.200546204725327 1.403699551687952 1.9401539586825816
decision_type=2 2 2 2 2 2 2 2 2 2 2 2 2 2
left_child=1 5 3 9 7 8 12 -4 -1 -2 -7 -5 -3 -8
right_child=2 6 4 11 -6 10 13 -9 -10 -11 -12 -13 -14 -15
leaf_value=-0.15612255426553578 0.041301489237583047 -0.057010747293631238 0.16427194901875086 0.10296970764795939 0.28347184260686242 -0.1041096751888593 -0.0086000299685110807 0.21304222061520531 -0.12685535616344876 0.071200994650522861 -0.081791634360949203 0.1287518196635776 -0.032416330774625142 0.01316528773556153
leaf_weight=26 33 30 42 30 11.999999999999998 48 24 21 72 21 42 27 30 24
leaf_count=26 33 30 42 30 12 48 24 21 72 21 42 27 30 24
internal_value=0 -0.0817518 0.1301 0.0848969 0.197 -0.115028 -0.0238264 0.180529 -0.13462 0.0529291 -0.0936946 0.115182 -0.0447135 0.00228263
internal_weight=0 296 186 111 75 188 108 63 98 54 90 57 60 48
internal_count=482 296 186 111 75 188 108 63 98 54 90 57 60 48
is_linear=0
shrinkage=0.1


Tree=2
num_leaves=15
num_cat=0
split_feature=9 9 9 9 9 9 9 9 9 9 9 9 9 9
split_gain=415.324 48.3876 43.787 8.58882 8.28745 6.77862 4.85398 1.59674 1.43853 0.992807 0.973499 0.764741 0.748043 0.454192
threshold=2.2207830724522721 1.1726505807066119 3.5483070080656502 2.9250275607493124 4.3955029810507584 0.58547152998392604 1.7089749174660318 3.9169108812681306 0.81568865144566061 0.27936658082247529 2.5804192289041596 3.2528657974110859 1.4702434229234427 1.9970860439582263
decision_type=2 2 2 2 2 2 2 2 2 2 2 2 2 2
left_child=1 5 3 10 7 9 12 -4 -7 -1 -2 -5 -3 -8
right_child=2 6 4 11 -6 8 13 -9 -10 -11 -12 -13 -14 -15
leaf_value=-0.14202490993168043 0.039967643085754283 -0.048184495261221226 0.14608375664913295 0.096454189943544794 0.23815198739369714 -0.098556747272902853 -0.0039992021948651027 0.18135714360645838 -0.07543886105219523 -0.11758881032466889 0.067509808994474868 0.11991441200176876 -0.025740511936170087 0.015609493780703771
leaf_weight=23 33 33 33 33 18 51 27 21 57 60 21 24 27 21
leaf_count=23 33 33 33 33 18 51 27 21 57 60 21 24 27 21
internal_value=0 -0.0726206 0.118653 0.0792574 0.179389 -0.102871 -0.0191228 0.159801 -0.0863556 -0.12436 0.0506785 0.106332 -0.0380847 0.0045796
internal_weight=0 299 183 111 72 191 108 54 108 83 54 57 60 48
internal_count=482 299 183 111 72 191 108 54 108 83 54 57 60 48
is_linear=0
shrinkage=0.1


Tree=3
num_leaves=16
num_cat=0
split_feature=9 9 9 9 9 9 9 9 9 9 9 9 9 9 9
split_gain=336.505 40.2362 34.3209 8.96471 6.18753 4.27531 4.27353 2.00641 1.17328 0.937813 0.672856 0.639279 0.581738 0.557346 0.427105
threshold=2.1060750641497399 3.3626946921472007 1.0386211481222156 4.183556526039367 2.7185910714966766 0.52870940662615762 1.5727013959412683 4.5248259034148033 3.7541913666475 0.74805993193399456 3.0572497246884045 1.8081300066640591 2.405073649575574 0.24198682881080277 1.292355579703367
decision_type=2 2 2 2 2 2 2 2 2 2 2 2 2 2 2
left_child=2 4 5 8 12 13 14 -5 -3 -7 -6 -8 -2 -1 -4
right_child=1 3 6 7 10 9 11 -9 -10 -11 -12 -13 -14 -15 -16
leaf_value=-0.12934097826480867 0.025969811225378954 0.1200282182958391 -0.053727820626011606 0.17644944747289018 0.072129404544830328 -0.092120948172452158 -0.017043289321440239 0.23130946159362795 0.14857254127661387 -0.073455108497657032 0.094593646526336672 0.0041666897789885606 0.047367233286301297 -0.10947173809011777 -0.036391292512416844
leaf_weight=20 27 36 27 15.000000000000002 24 57 27 11.999999999999998 24 51 30 30 24 48 30
leaf_count=20 27 36 27 15 24 57 27 12 24 51 30 30 24 48 30
internal_value=0 0.102688 -0.0679866 0.152979 0.0610182 -0.0956737 -0.0252417 0.200832 0.131446 -0.0833065 0.0846095 -0.00588014 0.0360392 -0.115316 -0.0446033
internal_weight=0 192 290 87 105 176 114 27 60 108 54 57 51 68 57
internal_count=482 192 290 87 105 176 114 27 60 108 54 57 51 68 57
is_linear=0
shrinkage=0.1


Tree=4
num_leaves=15
num_cat=0
split_feature=9 9 9 9 9 9 9 9 9 9 9 9 9 9
split_gain=272.68 31.8626 28.8782 5.6634 5.61684 4.17439 3.65205 1.59601 0.750408 0.654502 0.596558 0.537836 0.492622 0.449804
threshold=2.2207830724522721 1.0773956337780184 3.5483070080656502 4.5248259034148033 2.9250275607493124 1.6454102532505133 0.54918546940768587 3.9613311892205658 0.78350915054120507 2.5142050876700188 1.403699551687952 0.34150482203116445 3.2335879415508373 1.9172732282961629
decision_type=2 2 2 2 2 2 2 2 2 2 2 2 2 2
left_child=1 6 4 7 9 10 11 -4 -8 -2 -3 -1 -6 -7
right_child=2 5 3 -5 12 13 8 -9 -10 -11 -12 -13 -14 -15
leaf_value=-0.11320525818857655 0.030027618452354715 -0.043754326991545855 0.11960628396934934 0.20817851424217226 0.077223758697509776 -0.0085575493692886095 -0.081795331283851913 0.15289802302916844 -0.064880749291064688 0.052046159461692533 -0.024417545949971236 -0.095741584963268705 0.095842563443713724 0.0098096154506007831
leaf_weight=29 27 39 36 11.999999999999998 30 24 54 24 51 27 27 45 27 30
leaf_count=29 27 39 36 12 30 24 54 24 51 27 27 45 27 30
internal_value=0 -0.0588427 0.0961419 0.145466 0.0641482 -0.0189732 -0.0855709 0.132923 -0.0735797 0.0410369 -0.0358438 -0.102585 0.0860432 0.00164643
internal_weight=0 299 183 72 111 120 179 60 105 54 66 74 57 54
internal_count=482 299 183 72 111 120 179 60 105 54 66 74 57 54
is_linear=0
shrinkage=0.1


Tree=5
num_leaves=16
num_cat=0
split_feature=9 9 9 9 9 9 9 9 9 9 9 9 9 9 9
split_gain=220.953 26.477 22.5264 5.65068 4.4027 3.01648 2.73573 1.28165 0.715882 0.689274 0.47405 0.464923 0.41463 0.309963 0.285058
threshold=2.1060750641497399 3.3841756087050654 1.021480156509968 4.183556526039367 2.7620669543765426 1.5203314153965726 0.48880987777227353 4.5248259034148033 3.6930735845005751 0.73990448731303238 1.777623326246381 2.4333874833541462 3.0771780796433963 0.18532681719885238 1.2501317233517986
decision_type=2 2 2 2 2 2 2 2 2 2 2 2 2 2 2
left_child=2 4 6 8 11 14 13 -5 -3 -8 -7 -2 -6 -1 -4
right_child=1 3 5 7 12 10 9 -9 -10 -11 -12 -13 -14 -15 -16
leaf_value=-0.11123507347973911 0.02197004467248917 0.096834537386894237 -0.045128415469770082 0.14351469834645586 0.060853452235460286 -0.015376855377797727 -0.076057919859886178 0.18736066222190859 0.11927932456687645 -0.060579315646021974 0.0024900345336363624 0.040643349538246797 0.078487867514292403 -0.092509023083580874 -0.030965200066566469
leaf_weight=10.999999999999998 30 30 27 15.000000000000002 24 27 66 11.999999999999998 27 51 33 24 30 45 30
leaf_count=11 30 30 27 15 24 27 66 12 27 51 33 24 30 45 30
internal_value=0 0.0832098 -0.0550906 0.125317 0.0504598 -0.0212002 -0.0780107 0.163002 0.107466 -0.0693108 -0.00555007 0.0302693 0.0706503 -0.0961874 -0.0376741
internal_weight=0 192 290 84 108 117 173 27 57 117 60 54 54 56 57
internal_count=482 192 290 84 108 117 173 27 57 117 60 54 54 56 57
is_linear=0
shrinkage=0.1


Tree=6
num_leaves=15
num_cat=0
split_feature=9 9 9 9 9 9 9 9 9 9 9 9 9 9
split_gain=179.126 21.8915 18.219 3.61775 3.53201 3.19519 2.08457 0.989224 0.72102 0.505373 0.469454 0.3322 0.314831 0.208886
threshold=2.2799209595296621 1.1931674130177001 3.5892617587021358 2.9505210460244213 4.5248259034148033 0.67254298550325731 1.7579558379952382 4.0486755789707454 0.41577158626512128 0.94878562896274843 2.6185834060580979 3.2970779756868147 1.4906886863801165 2.0210149803636219
decision_type=2 2 2 2 2 2 2 2 2 2 2 2 2 2
left_child=1 5 3 10 7 8 12 -4 -1 -7 -2 -5 -3 -8
right_child=2 6 4 11 -6 9 13 -9 -10 -11 -12 -13 -14 -15
leaf_value=-0.08941231500811693 0.027893404527144002 -0.029957782319097809 0.098872145679261947 0.065620554486910496 0.16862459282080333 -0.0590584371173591 -0.0012643022945633643 0.12618227856499808 -0.072373943764065946 -0.043508348139849579 0.047019515718732564 0.081446741308484769 -0.015397311057205555 0.012033627749908538
leaf_weight=41 33 33 36 36 11.999999999999998 57 27 21 63 33 21 21 27 21
leaf_count=41 33 33 36 36 12 57 27 21 63 33 21 21 27 21
internal_value=0 -0.047064 0.078963 0.0538794 0.119315 -0.0671524 -0.0109793 0.108934 -0.079091 -0.0533567 0.0353313 0.0714513 -0.0234056 0.00455354
internal_weight=0 302 180 111 69 194 108 57 104 90 54 57 60 48
internal_count=482 302 180 111 69 194 108 57 104 90 54 57 60 48
is_linear=0
shrinkage=0.1


Tree=7
num_leaves=15
num_cat=0
split_feature=9 9 9 9 9 9 9 9 9 9 9 9 9 9
split_gain=145.092 17.7321 14.7941 3.35737 2.59659 2.56859 1.6908 0.632609 0.624215 0.44632 0.381647 0.307426 0.226673 0.20976
threshold=2.2799209595296621 1.1931674130177001 3.6325435189030855 3.003394389632811 0.68563158223579923 4.5248259034148033 1.7089749174660318 0.43608286502597032 4.0486755789707454 2.6744966036432394 0.92643428608034972 3.2970779756868147 1.4333033890575753 1.9658210348805938
decision_type=2 2 2 2 2 2 2 2 2 2 2 2 2 2
left_child=1 4 3 9 7 8 12 -1 -4 -2 -6 -5 -3 -8
right_child=2 6 5 11 10 -7 13 -9 -10 -11 -12 -13 -14 -15
leaf_value=-0.079078927159309392 0.025891411345865992 -0.028363968652707561 0.091084789037704478 0.060065743959311281 -0.053171627895504829 0.15176213383674622 -0.0034558589917044937 -0.063667703197713491 0.11356405190059118 0.044235647150448393 -0.039723729507790677 0.074453973107867763 -0.015734212448199589 0.009392827990706322
leaf_weight=50 36 27 30 33 51 11.999999999999998 24 57 21 21 36 27 30 27
leaf_count=50 36 27 30 33 51 12 24 57 21 21 36 27 30 27
internal_value=0 -0.0423576 0.0710667 0.0500296 -0.0604372 0.110135 -0.00988137 -0.0708692 0.100341 0.0326498 -0.047607 0.0665404 -0.0217167 0.00334639
internal_weight=0 302 180 117 194 63 108 107 51 57 87 60 57 51
internal_count=482 302 180 117 194 63 108 107 51 57 87 60 57 51
is_linear=0
shrinkage=0.1


Tree=8
num_leaves=15
num_cat=0
split_feature=9 9 9 9 9 9 9 9 9 9 9 9 9 9
split_gain=117.563 14.9993 11.5141 2.64822 2.22794 1.95916 1.37244 0.546365 0.445687 0.322283 0.313291 0.286943 0.179939 0.16275
threshold=2.2932367707612396 1.2354949201116037 3.6571652505752055 3.003394389632811 0.69226060163580205 4.5248259034148033 1.7579558379952382 0.44488983980694691 4.1150522430409007 0.97966850450348486 2.6185834060580979 3.2970779756868147 1.5203314153965726 2.050411166956065
decision_type=2 2 2 2 2 2 2 2 2 2 2 2 2 2
left_child=1 4 3 10 7 8 12 -1 -4 -6 -2 -5 -3 -8
right_child=2 6 5 11 9 -7 13 -9 -10 -11 -12 -13 -14 -15
leaf_value=-0.070808633093564013 0.02350229208668073 -0.023126425119963559 0.083946806192398082 0.054059169509194122 -0.046842272303722524 0.13658591856559119 -0.00048058060153077049 -0.056703981391170569 0.10385073853863612 -0.03429860228841955 0.038830958058436713 0.067572133143742871 -0.011746549637367328 0.010997657016629265
leaf_weight=53 30 33 30 33 54 11.999999999999998 30 57 18 33 24 30 24 21
leaf_count=53 30 33 30 33 54 12 30 57 18 33 24 30 24 21
internal_value=0 -0.0376225 0.0648298 0.0465652 -0.0540422 0.100446 -0.00767181 -0.0634999 0.0914108 -0.0420843 0.030315 0.0604939 -0.0183349 0.00424575
internal_weight=0 305 177 117 197 60 108 110 48 87 54 63 57 51
internal_count=482 305 177 117 197 60 108 110 48 87 54 63 57 51
is_linear=0
shrinkage=0.1


Tree=9
num_leaves=15
num_cat=0
split_feature=9 9 9 9 9 9 9 9 9 9 9 9 9 9
split_gain=95.2394 12.675 8.95994 2.21873 1.81619 1.38479 1.20968 0.393234 0.374457 0.26211 0.258404 0.255827 0.195857 0.102669
threshold=2.3232274765351053 1.2354949201116037 3.6930735845005751 3.0225121081613762 0.60563119542022481 4.5248259034148033 1.8081300066640591 0.90410488939614408 0.21412313759747062 3.3626946921472007 4.1150522430409007 2.6744966036432394 1.5203314153965726 2.050411166956065
decision_type=2 2 2 2 2 2 2 2 2 2 2 2 2 2
left_child=1 4 3 11 8 10 12 -6 -1 -5 -4 -2 -3 -8
right_child=2 6 5 9 7 -7 13 -9 -10 -11 -12 -13 -14 -15
leaf_value=-0.073954480460711888 0.022729120254516604 -0.02081378269376177 0.077615564813216534 0.049915743235385779 -0.044950172553459809 0.122927329937617 0.00094959287283321236 -0.032583911617596946 -0.056192817252415872 0.062519505529692682 0.0934656646516588 0.036580857013662656 -0.0096497124433517472 0.010199332485596339
leaf_weight=13.999999999999998 30 33 24 33 60 11.999999999999998 24 45 78 33 18 24 30 24
leaf_count=14 30 33 24 33 60 12 24 45 78 33 18 24 30 24
internal_value=0 -0.0334106 0.0591406 0.0439181 -0.048638 0.0929682 -0.00638533 -0.0396503 -0.0588957 0.0562176 0.0844085 0.0288854 -0.0154976 0.00557446
internal_weight=0 308 174 120 197 54 111 105 92 66 42 54 63 48
internal_count=482 308 174 120 197 54 111 105 92 66 42 54 63 48
is_linear=0
shrinkage=0.1


Tree=10
num_leaves=16
num_cat=0
split_feature=9 9 9 9 9 9 9 4 9 9 9 9 9 9 9
split_gain=77.1701 8.95903 8.30233 1.93918 1.53811 1.07976 1.06354 0.559499 0.326541 0.249895 0.202446 0.187241 0.176576 0.171047 0.120401
threshold=2.1528193347923676 3.4159438310231494 1.0386211481222156 4.2413152451369278 2.7620669543765426 0.50877756084097325 1.6155525933436452 23.888892532819675 3.8256730170785036 0.78935305866380723 0.18532681719885238 3.1660230441214887 1.3230607897176176 2.3639040525600232 1.9172732282961629
decision_type=2 2 2 2 2 2 2 2 2 2 2 2 2 2 2
left_child=2 4 5 8 13 10 12 -5 -3 -7 -1 -6 -4 -2 -8
right_child=1 3 6 7 11 9 14 -9 -10 -11 -12 -13 -14 -15 -16
leaf_value=-0.068786130710081619 0.011426607945135663 0.059139369428157812 -0.024593553857670893 0.11285021396783679 0.036815878152847294 -0.043865865987280143 -0.005225650203862676 0.082206790555607201 0.074830185799371632 -0.03428730481200748 -0.05382828280037525 0.04829463870437057 -0.014205692410469057 0.023193787783384323 0.0045088307194722198
leaf_weight=10.999999999999998 21 36 36 13.000000000000002 30 69 27 10.999999999999998 21 45 51 27 30 30 24
leaf_count=11 21 36 36 13 30 69 27 11 21 45 51 27 30 30 24
internal_value=0 0.04982 -0.0321365 0.0749602 0.0309649 -0.0458612 -0.0114908 0.0988053 0.0649202 -0.0400849 -0.0564821 0.0422532 -0.0198718 0.0183485 -0.000644718
internal_weight=0 189 293 81 108 176 117 24 57 114 62 57 66 51 51
internal_count=482 189 293 81 108 176 117 24 57 114 62 57 66 51 51
is_linear=0
shrinkage=0.1


Tree=11
num_leaves=16
num_cat=0
split_feature=9 9 9 9 9 9 9 4 9 9 9 9 9 9 9
split_gain=62.5311 7.8268 6.15814 1.59969 1.4348 0.860808 0.758679 0.579471 0.317023 0.178971 0.1545 0.151665 0.145558 0.118567 0.106949
threshold=2.0676566653051665 3.4159438310231494 0.99755752710437051 4.2937973992154195 2.7620669543765426 1.5727013959412683 0.48880987777227353 23.888892532819675 3.7746282009798531 2.4333874833541462 0.71884077820563219 3.1660230441214887 0.18532681719885238 1.3022560511898928 1.8401928882826113
decision_type=2 2 2 2 2 2 2 2 2 2 2 2 2 2 2
left_child=2 4 6 8 9 13 12 -5 -3 -2 -8 -6 -1 -4 -7
right_child=1 3 5 7 11 14 10 -9 -10 -11 -12 -13 -14 -15 -16
leaf_value=-0.06190751682628285 0.010811834330811647 0.052575235294573232 -0.023596710883654084 0.10705680792981925 0.033134290575981142 -0.0070260613287488616 -0.040575414564874436 0.073796285986900342 0.067186308790136262 0.022161059578259788 -0.033044722365836304 0.043465175562434732 -0.049075072341495093 -0.01497607382911223 0.0019300459539711786
leaf_weight=10.999999999999998 33 33 39 11.000000000000002 30 30 63 9.9999999999999982 27 24 48 27 45 27 24
leaf_count=11 33 33 39 11 30 30 63 10 27 24 48 27 45 27 24
internal_value=0 0.0436966 -0.0296894 0.0674642 0.0268092 -0.0124091 -0.0421063 0.0912185 0.0591502 0.0155905 -0.0373189 0.0380279 -0.0515957 -0.0200701 -0.00304557
internal_weight=0 195 287 81 114 120 167 21 60 57 111 57 56 66 54
internal_count=482 195 287 81 114 120 167 21 60 57 111 57 56 66 54
is_linear=0
shrinkage=0.1


Tree=12
num_leaves=15
num_cat=0
split_feature=9 9 9 9 9 9 9 9 9 9 9 9 9 9
split_gain=50.6928 6.76687 4.83169 1.05681 0.900342 0.846459 0.829482 0.240905 0.175486 0.165752 0.12862 0.109849 0.0913248 0.0851635
threshold=2.3232274765351053 1.121294516687988 3.6129734848495194 4.5248259034148033 3.003394389632811 1.6454102532505133 0.56355355691064479 3.892760570727821 0.85910022076463621 0.22567682067114872 1.9658210348805938 2.6185834060580979 1.3563746761820399 3.2528657974110859
decision_type=2 2 2 2 2 2 2 2 2 2 2 2 2 2
left_child=1 6 4 7 11 12 9 -4 -8 -1 -7 -2 -3 -6
right_child=2 5 3 -5 13 10 8 -9 -10 -11 -12 -13 -14 -15
leaf_value=-0.053107877689249378 0.016092084762122896 -0.0185989086329937 0.051030687118570006 0.091306560238202425 0.034682371108620255 -0.0028402060921265126 -0.034022983953808296 0.064472379485766104 -0.025754298163311824 -0.041921884616216029 0.0062068295975526181 0.025390230926374598 -0.010796138122677804 0.042423809965451559
leaf_weight=17 27 30 24 11.999999999999998 27 30 66 30 42 60 33 24 30 30
leaf_count=17 27 30 24 12 27 30 66 30 42 60 33 24 30 30
internal_value=0 -0.0243752 0.043147 0.0644634 0.0301203 -0.00619701 -0.0364613 0.0584983 -0.0308074 -0.0443915 0.00189872 0.0204677 -0.0146975 0.0387568
internal_weight=0 308 174 66 108 123 185 54 108 77 63 51 60 57
internal_count=482 308 174 66 108 123 185 54 108 77 63 51 60 57
is_linear=0
shrinkage=0.1


Tree=13
num_leaves=15
num_cat=0
split_feature=9 9 9 9 9 9 9 9 9 9 9 9 9 9
split_gain=41.0685 5.26197 4.08432 0.856017 0.806202 0.673091 0.640708 0.196308 0.159023 0.128806 0.0937134 0.0871711 0.0870712 0.0799286
threshold=2.2932367707612396 1.121294516687988 3.6129734848495194 4.5248259034148033 2.9505210460244213 0.54063419022041093 1.6748490199107573 3.9613311892205658 0.89562021372048373 0.18532681719885238 2.5142050876700188 1.403699551687952 3.1814765488095289 1.9970860439582263
decision_type=2 2 2 2 2 2 2 2 2 2 2 2 2 2
left_child=1 5 4 7 10 9 11 -4 -7 -1 -2 -3 -6 -8
right_child=2 6 3 -5 12 8 13 -9 -10 -11 -12 -13 -14 -15
leaf_value=-0.050405977530912915 0.012236528098583221 -0.016424874284050681 0.04725563337405523 0.082175903022289276 0.029269676974841525 -0.030592315815962279 -0.0017984089141585479 0.059389504790306094 -0.022557355090975763 -0.0386346476773421 0.020946478794018428 -0.0089768853411078455 0.037256444417513336 0.0057013260959475134
leaf_weight=10.999999999999998 21 33 30 11.999999999999998 21 78 30 24 36 60 30 30 39 27
leaf_count=11 21 33 30 12 21 78 30 24 36 60 30 30 39 27
internal_value=0 -0.0222366 0.0383173 0.0580171 0.0266038 -0.0328152 -0.00592787 0.0526485 -0.028055 -0.0404584 0.01736 -0.0128782 0.0344611 0.0017541
internal_weight=0 305 177 66 111 185 120 54 114 71 51 63 60 57
internal_count=482 305 177 66 111 185 120 54 114 71 51 63 60 57
is_linear=0
shrinkage=0.1


Tree=14
num_leaves=15
num_cat=0
split_feature=9 9 9 9 9 9 9 9 9 9 9 9 9 9
split_gain=33.2829 4.19257 3.29431 0.869267 0.79986 0.456136 0.421873 0.192427 0.111524 0.091835 0.082788 0.0747649 0.0730009 0.0433284
threshold=2.0676566653051665 3.4925655108086509 0.99755752710437051 2.806625911098934 4.4458844871032408 1.4906886863801165 0.44488983980694691 3.892760570727821 2.3639040525600232 0.7123948619669026 3.1242761438021653 1.8401928882826113 0.18532681719885238 1.2501317233517986
decision_type=2 2 2 2 2 2 2 2 2 2 2 2 2 2
left_child=2 3 6 8 7 13 12 -3 -2 -8 -5 -7 -1 -4
right_child=1 4 5 10 -6 11 9 -9 -10 -11 -12 -13 -14 -15
leaf_value=-0.045365379615263511 0.007009884176982774 0.040140795707702639 -0.017617407712069426 0.024249032698571683 0.071080933610598251 -0.0057382471057482896 -0.029868734592483161 0.051524139775170223 0.015675946550838878 -0.024160509162089408 0.031831359201007423 0.0014673110135239162 -0.036214117918695721 -0.012215800279820409
leaf_weight=10.999999999999998 27 33 33 24 14.999999999999998 36 63 27 33 51 36 24 42 27
leaf_count=11 27 33 33 24 15 36 63 27 33 51 36 24 42 27
internal_value=0 0.0318794 -0.0216602 0.0202873 0.0504268 -0.00902135 -0.0307421 0.0452633 0.0117762 -0.0273151 0.0287984 -0.00285602 -0.0381134 -0.0151867
internal_weight=0 195 287 120 75 120 167 60 60 114 60 60 53 60
internal_count=482 195 287 120 75 120 167 60 60 114 60 60 53 60
is_linear=0
shrinkage=0.1


Tree=15
num_leaves=15
num_cat=0
split_feature=9 9 9 9 9 9 9 9 9 9 9 9 9 9
split_gain=26.9701 3.04669 3.04326 0.629871 0.605108 0.478497 0.342369 0.163986 0.0758601 0.0698754 0.0684288 0.0630428 0.0630046 0.0568133
threshold=2.1987165523663541 0.99755752710437051 3.5483070080656502 4.5248259034148033 2.8563486184502174 1.6133853197288113 0.48880987777227353 3.892760570727821 2.4333874833541462 0.71884077820563219 1.3152857181915725 0.18532681719885238 3.1660230441214887 1.9172732282961629
decision_type=2 2 2 2 2 2 2 2 2 2 2 2 2 2
left_child=1 6 4 7 8 10 11 -4 -2 -8 -3 -1 -6 -7
right_child=2 5 3 -5 12 13 9 -9 -10 -11 -12 -13 -14 -15
leaf_value=-0.040828841382806957 0.0078049418826897938 -0.015232258875455177 0.03652507344881694 0.066850218052665389 0.022618035040795806 -0.0033578922894472877 -0.026641871295278036 0.046980886658032739 0.015347824295361837 -0.021577414280424517 -0.0089790872608621914 -0.032383655905723577 0.029232655713955565 0.0029650593152769876
leaf_weight=10.999999999999998 24 42 30 11.999999999999998 24 30 63 30 30 48 30 45 36 27
leaf_count=11 24 42 30 12 24 30 63 30 30 48 30 45 36 27
internal_value=0 -0.0187512 0.0298406 0.0459359 0.0196751 -0.00720781 -0.0276679 0.041753 0.0119954 -0.0244518 -0.0126268 -0.0340425 0.0265868 -0.00036281
internal_weight=0 296 186 72 114 129 167 60 54 111 72 56 60 57
internal_count=482 296 186 72 114 129 167 60 54 111 72 56 60 57
is_linear=0
shrinkage=0.1


Tree=16
num_leaves=15
num_cat=0
split_feature=9 9 9 9 4 9 9 9 9 9 4 9 9 9
split_gain=21.8567 2.92382 2.11572 0.474475 0.435796 0.424056 0.30201 0.101424 0.092833 0.0729052 0.0449507 0.0421568 0.0405304 0.0336451
threshold=2.3232274765351053 1.1931674130177001 3.6705693943006659 3.0572497246884045 23.888892532819675 0.59712220075228983 1.7579558379952382 0.38607725992588676 0.92341827278140798 2.6744966036432394 23.899313062475514 3.2809249031048915 1.4333033890575753 2.0210149803636219
decision_type=2 2 2 2 2 2 2 2 2 2 2 2 2 2
left_child=1 5 3 9 -4 7 12 -1 -7 -2 -6 -5 -3 -8
right_child=2 6 4 11 10 8 13 -9 -10 -11 -12 -13 -14 -15
leaf_value=-0.032859011037009105 0.01070845471074184 -0.011051645240298023 0.057000406583150233 0.023595387612779937 0.034880449473857877 -0.021506403624147609 -0.00036601077618898776 -0.025868640255694297 -0.015402519359038427 0.017871112624804179 0.041672624882898836 0.029006076562735773 -0.0058273572700493267 0.0046262135798180544
leaf_weight=35 30 27 18 24 20 69 27 51 39 27 19 36 33 27
leaf_count=35 30 27 18 24 20 69 27 51 39 27 19 36 33 27
internal_value=0 -0.0160054 0.0283315 0.0206349 0.0441298 -0.0234743 -0.00329537 -0.0287136 -0.0193022 0.0141013 0.0381895 0.0268418 -0.00817829 0.0021301
internal_weight=0 308 174 117 57 194 114 86 108 57 39 60 60 54
internal_count=482 308 174 117 57 194 114 86 108 57 39 60 60 54
is_linear=0
shrinkage=0.1


Tree=17
num_leaves=15
num_cat=0
split_feature=9 9 9 9 13 9 9 9 9 9 9 9 15 9
split_gain=17.7089 2.46612 1.65875 0.385219 0.382509 0.369073 0.227413 0.120511 0.0504532 0.0490115 0.0397728 0.0349259 0.0181677 0.0161025
threshold=2.3529095594438805 1.2501317233517986 3.6930735845005751 0.70439883846458262 23.833333333333329 3.0572497246884045 1.8401928882826113 0.38607725992588676 0.94878562896274843 2.7185910714966766 3.4159438310231494 1.5727013959412683 0.45873410905944101 2.0676566653051665
decision_type=2 2 2 2 2 2 2 2 2 2 2 2 2 2
left_child=1 3 5 7 -4 9 11 -1 -5 -2 -7 -3 -6 -8
right_child=2 6 4 8 12 10 13 -9 -10 -11 -12 -13 -14 -15
leaf_value=-0.029573110384600504 0.01039745402832826 -0.0084559029024658793 0.052763492394896118 -0.018016080775608619 0.031631262027300322 0.022182407188746665 0.0010939431848479822 -0.022510416041582063 -0.013173788976974977 0.016460340283811093 0.027259675275396418 -0.0037414993920053051 0.036272921040654181 0.0047571040069063512
leaf_weight=35 30 33 17 48 12.999999999999998 36 24 78 39 24 27 30 24 24
leaf_count=35 30 33 17 48 13 36 24 78 39 24 27 30 24 24
internal_value=0 -0.0142131 0.0258496 -0.0208471 0.040347 0.0191585 -0.00226004 -0.024698 -0.0158454 0.0130921 0.0243584 -0.00621095 0.0346421 0.00292552
internal_weight=0 311 171 200 54 117 111 113 87 54 63 63 37 48
internal_count=482 311 171 200 54 117 111 113 87 54 63 63 37 48
is_linear=0
shrinkage=0.1


Tree=18
num_leaves=15
num_cat=0
split_feature=9 9 9 9 9 9 9 9 9 9 9 9 9 9
split_gain=14.3458 1.69063 1.55739 0.436749 0.347441 0.222233 0.199442 0.0888557 0.0446608 0.0431195 0.0415148 0.0400247 0.0333592 0.0263958
threshold=2.1528193347923676 3.5483070080656502 1.0126453206932484 4.5248259034148033 2.806625911098934 1.6133853197288113 0.50172564168001133 3.9613311892205658 0.18532681719885238 0.78350915054120507 2.4333874833541462 3.1660230441214887 1.3152857181915725 1.8601888935396114
decision_type=2 2 2 2 2 2 2 2 2 2 2 2 2 2
left_child=2 4 6 7 10 12 8 -3 -1 -8 -2 -6 -4 -7
right_child=1 3 5 -5 11 13 9 -9 -10 -11 -12 -13 -14 -15
leaf_value=-0.03050274523821744 0.0054023330410321556 0.026911655937631923 -0.010973633959507331 0.050952301298578584 0.016195730092348877 -0.0026909215795900242 -0.019097948657429739 0.034766930341720584 -0.023438392486423255 -0.015033992521819615 0.010947755199891551 0.021289055297772089 -0.0065381689680119358 0.00173089649286811
leaf_weight=10.999999999999998 27 36 39 11.999999999999998 27 27 69 24 48 42 27 36 30 27
leaf_count=11 27 36 39 12 27 27 69 24 48 42 27 36 30 27
internal_value=0 0.0214804 -0.013856 0.0335369 0.0140611 -0.00528486 -0.0200574 0.0300538 -0.0247555 -0.0175602 0.00817504 0.0191062 -0.00904517 -0.000480013
internal_weight=0 189 293 72 117 123 170 60 59 111 54 63 69 54
internal_count=482 189 293 72 117 123 170 60 59 111 54 63 69 54
is_linear=0
shrinkage=0.1


Tree=19
num_leaves=15
num_cat=0
split_feature=9 9 9 4 9 9 9 9 9 4 9 9 9 9
split_gain=11.629 1.6214 1.1036 0.263543 0.256085 0.23443 0.173187 0.054338 0.0538475 0.0473062 0.0374826 0.0253514 0.0252815 0.0165252
threshold=2.3529095594438805 1.1931674130177001 3.7541913666475 23.888892532819675 3.0771780796433963 0.57414295227315637 1.777623326246381 0.8756533698138228 0.27936658082247529 23.899313062475514 2.6744966036432394 1.4702434229234427 3.3841756087050654 2.050411166956065
decision_type=2 2 2 2 2 2 2 2 2 2 2 2 2 2
left_child=1 5 4 -4 10 8 11 -7 -1 -5 -2 -3 -6 -8
right_child=2 6 3 9 12 7 13 -9 -10 -11 -12 -13 -14 -15
leaf_value=-0.025358933599098871 0.0081504656208886053 -0.0078859395285447442 0.043436408042907715 0.024457111428765693 0.01800322378675143 -0.016074843772433022 0.00018623239852281082 -0.011652916778499882 -0.019626665690488983 0.031917291967307825 0.013286288132270178 -0.0038693851311549995 0.022014237172675855 0.0036849309483336077
leaf_weight=23 27 30 17 17 30 66 27 48 57 17 30 33 33 27
leaf_count=23 27 30 17 17 30 66 27 48 57 17 30 33 33 27
internal_value=0 -0.0115177 0.0209474 0.0332703 0.0157101 -0.017125 -0.00222006 -0.014213 -0.0212747 0.0281872 0.0108535 -0.00578203 0.0201042 0.00193558
internal_weight=0 311 171 51 120 194 117 114 80 34 57 63 63 54
internal_count=482 311 171 51 120 194 117 114 80 34 57 63 63 54
is_linear=0
shrinkage=0.1


Tree=20
num_leaves=15
num_cat=0
split_feature=9 9 9 8 9 9 9 21 9 9 9 9 9 9
split_gain=9.41948 1.31707 0.898352 0.255094 0.221458 0.170794 0.165321 0.0783502 0.0444084 0.0346868 0.0321767 0.0223453 0.0222898 0.0191386
threshold=2.3529095594438805 1.121294516687988 3.7746282009798531 0.46104050623931925 3.0225121081613762 1.7089749174660318 0.51709185016252845 32.565000000000005 0.82732255591117976 0.18532681719885238 3.2809249031048915 2.6185834060580979 1.4333033890575753 1.9658210348805938
decision_type=2 2 2 2 2 2 2 2 2 2 2 2 2 2
left_child=1 6 4 7 11 12 9 -4 -8 -1 -6 -2 -3 -7
right_child=2 5 3 -5 10 13 8 -9 -10 -11 -12 -13 -14 -15
leaf_value=-0.02491657693277706 0.0070629545642683913 -0.0076684817775256103 0.032094505322831021 0.043081992740432423 0.015166796191974922 -0.00080646135199155349 -0.015107139427628783 0.022524858215315777 -0.011180363533397516 -0.018755655735731125 0.019533451298872632 0.011256585987629714 -0.0039777435145030423 0.0028391823626912407
leaf_weight=10.999999999999998 24 36 13.999999999999998 11.999999999999998 27 24 72 22 48 54 45 27 30 36
leaf_count=11 24 36 14 12 27 24 72 22 48 54 45 27 30 36
internal_value=0 -0.0103659 0.0188526 0.0304553 0.0143248 -0.00248049 -0.0157365 0.0262464 -0.0135364 -0.0197983 0.017896 0.00928311 -0.00599087 0.00138092
internal_weight=0 311 171 48 123 126 185 36 120 65 72 51 66 60
internal_count=482 311 171 48 123 126 185 36 120 65 72 51 66 60
is_linear=0
shrinkage=0.1


Tree=21
num_leaves=15
num_cat=0
split_feature=9 9 9 9 9 9 9 9 9 9 31 9 9 9
split_gain=7.63674 0.975095 0.76666 0.317669 0.199163 0.108899 0.104137 0.0504499 0.0263591 0.0254306 0.0205312 0.0188735 0.0184901 0.00888225
threshold=2.0676566653051665 3.4925655108086509 0.97966850450348486 4.5248259034148033 2.7185910714966766 1.4702434229234427 0.40669779208479212 4.1150522430409007 0.66079589056271726 3.0771780796433963 107.78744480339888 1.8401928882826113 2.4333874833541462 1.292355579703367
decision_type=2 2 2 2 2 2 2 2 2 2 2 2 2 2
left_child=2 4 6 7 12 13 10 -3 -8 -6 -1 -7 -2 -4
right_child=1 3 5 -5 9 11 8 -9 -10 -11 -12 -13 -14 -15
leaf_value=-0.022483384396348682 0.0037000620709449956 0.019585115909576418 -0.0083492308568495974 0.039127268254136045 0.011005942689047921 -0.0028614277578293324 -0.014913987072687302 0.025849204096529223 -0.012021243927024659 0.014998359022996365 -0.017664686838785807 0.00070273893009774237 0.0074958325319346934 -0.0057983204899799265
leaf_weight=13.999999999999998 33 45 39 11.999999999999998 27 39 63 18 63 39 24 24 21 21
leaf_count=14 33 45 39 12 27 39 63 18 63 39 24 24 21 21
internal_value=0 0.0152705 -0.0103754 0.0242152 0.00968009 -0.00440744 -0.0148515 0.0213749 -0.0134676 0.0133651 -0.01944 -0.00150365 0.0051762 -0.00745641
internal_weight=0 195 287 75 120 123 164 63 126 66 38 63 54 60
internal_count=482 195 287 75 120 123 164 63 126 66 38 63 54 60
is_linear=0
shrinkage=0.1


Tree=22
num_leaves=15
num_cat=0
split_feature=9 9 9 8 9 9 9 26 9 9 9 9 9 9
split_gain=6.18883 0.769296 0.66929 0.271716 0.197494 0.104333 0.10138 0.075968 0.0298708 0.0266107 0.0231386 0.0195255 0.0130242 0.0112993
threshold=2.2799209595296621 1.0773956337780184 3.8256730170785036 0.46104050623931925 3.003394389632811 1.6454102532505133 0.44488983980694691 35.594356471560481 0.78935305866380723 3.2970779756868147 2.5561071371424657 0.18532681719885238 1.3230607897176176 1.9172732282961629
decision_type=2 2 2 2 2 2 2 2 2 2 2 2 2 2
left_child=1 6 4 7 10 12 11 -4 -8 -6 -2 -1 -3 -7
right_child=2 5 3 -5 9 13 8 -9 -10 -11 -12 -13 -14 -15
leaf_value=-0.020351806215264584 0.0045587819414558235 -0.0067708599635145882 0.017281517461829245 0.03977636560797692 0.012269557583512683 -0.0011765161825072331 -0.012596244556017412 0.026791415110762631 -0.0094256502731392793 0.016008182168006896 0.0085939711456497515 -0.01561901175550052 -0.0039613350153420912 0.0016751600775574899
leaf_weight=10.999999999999998 27 33 21 9.9999999999999982 33 24 78 13.999999999999998 48 45 30 42 33 33
leaf_count=11 27 33 21 10 33 24 78 14 48 45 30 42 33 33
internal_value=0 -0.0087481 0.0146774 0.025239 0.0111568 -0.0026595 -0.0129319 0.0210855 -0.0113884 0.0144265 0.00668257 -0.0166013 -0.0053661 0.000474454
internal_weight=0 302 180 45 135 123 179 35 126 78 57 53 66 57
internal_count=482 302 180 45 135 123 179 35 126 78 57 53 66 57
is_linear=0
shrinkage=0.1


Tree=23
num_leaves=15
num_cat=0
split_feature=9 9 9 5 9 28 9 9 9 9 5 9 9 9
split_gain=5.01623 0.623088 0.528067 0.239706 0.155736 0.103256 0.0786596 0.0697777 0.0182875 0.0179994 0.0162084 0.0161576 0.00983276 0.00954957
threshold=2.1060750641497399 3.6325435189030855 0.97966850450348486 0.0097807233097188511 2.8563486184502174 99.786444150302444 1.5727013959412683 0.40669779208479212 2.5142050876700188 0.70439883846458262 -7.7975532224883168e-05 3.2335879415508373 1.8401928882826113 1.292355579703367
decision_type=2 2 2 2 2 2 2 2 2 2 2 2 2 2
left_child=2 4 7 5 8 -3 13 10 -2 -9 -1 -6 -8 -4
right_child=1 3 6 -5 11 -7 12 9 -10 -11 -12 -13 -14 -15
leaf_value=-0.019252962172031401 0.0034049895808695714 0.015107372403144838 -0.0067351143043010674 0.034889901578426363 0.010198251248309108 0.024722050386480988 -0.0019293759592498344 -0.011893878857294718 0.0069686483591794969 -0.0094588789431487817 -0.014562855128731048 0.013261658346487416 0.00070109040739394174 -0.0043619728864481054
leaf_weight=9.9999999999999982 36 37 39 9.9999999999999982 33 15.999999999999998 30 75 24 51 28 36 27 30
leaf_count=10 36 37 39 10 33 16 30 75 24 51 28 36 27 30
internal_value=0 0.0125376 -0.00830074 0.0206893 0.00855651 0.0180099 -0.00343238 -0.0120411 0.00483045 -0.0109083 -0.0157971 0.0117966 -0.000683366 -0.00570331
internal_weight=0 192 290 63 129 53 126 164 60 126 38 69 57 69
internal_count=482 192 290 63 129 53 126 164 60 126 38 69 57 69
is_linear=0
shrinkage=0.1


Tree=24
num_leaves=14
num_cat=0
split_feature=9 9 9 4 9 9 9 9 9 9 9 9 9
split_gain=4.06909 0.566786 0.428268 0.24656 0.156386 0.0831242 0.0687078 0.0253756 0.0207413 0.0193339 0.0122813 0.0106319 0.00848373
threshold=2.3529095594438805 1.0773956337780184 4.2937973992154195 23.888892532819675 3.1814765488095289 1.6454102532505133 0.56355355691064479 3.6571652505752055 0.27936658082247529 2.7620669543765426 0.82732255591117976 2.0210149803636219 1.3230607897176176
decision_type=2 2 2 2 2 2 2 2 2 2 2 2 2
left_child=1 6 4 -4 9 12 8 -6 -1 -2 -8 -7 -3
right_child=2 5 3 -5 7 11 10 -9 -10 -11 -12 -13 -14
leaf_value=-0.015248780891947126 0.005164303201617617 -0.0054849845441904939 0.036097393760626956 0.014401647504419088 0.011762558089362251 -0.00049096825071804533 -0.0096948657929897316 0.015247612370130344 -0.011662848887068256 0.0085873846980658447 -0.0074652913159557761 0.0020580031101902325 -0.0032174623021009293
leaf_weight=23 33 33 11.000000000000002 9.9999999999999982 45 36 60 39 54 33 42 30 33
leaf_count=23 33 33 11 10 45 36 60 39 54 33 42 30 33
internal_value=0 -0.00681307 0.012391 0.0257661 0.0105185 -0.00184178 -0.0104791 0.0133806 -0.012734 0.00687584 -0.00877681 0.000667655 -0.00435122
internal_weight=0 311 171 21 150 132 179 84 77 66 102 66 66
internal_count=482 311 171 21 150 132 179 84 77 66 102 66 66
is_linear=0
shrinkage=0.1


Tree=25
num_leaves=13
num_cat=0
split_feature=21 30 30 5 8 21 5 13 21 5 23 22
split_gain=2.47052 0.505028 0.346579 0.268229 0.0989749 0.0952187 0.0926368 0.0622474 0.0457745 0.0448181 0.0203737 0.00869045
threshold=58.095000000000006 54.774543441894373 18.723503637712657 0.011716656098142703 0.72863563012115018 30.905000000000005 1.0387910572617899e-05 24.416666666666675 82.280000000000015 3.7956611507183884e-06 166.11000000000004 277.42500000000001
decision_type=2 2 2 2 2 2 2 2 2 2 2 2
left_child=1 3 4 5 7 -1 8 -2 -4 -3 -8 -11
right_child=2 9 6 -5 -6 -7 10 -9 -10 11 -12 -13
leaf_value=0.017069941333362034 0.00089804286507364276 -0.002731272943977577 -0.0070682093982274334 0.028000248260796071 0.0085900800593663017 0.0096564191200704599 -0.0055868194830652924 -0.0046825644298933633 -0.010542862605556702 0.002429629098256364 -0.00055932649743876289 0.005742847453802824
leaf_weight=21 39 18 60 9.9999999999999982 9.9999999999999982 99 19 41 103 38 13.999999999999998 9.9999999999999982
leaf_count=21 39 18 60 10 10 99 19 41 103 38 14 10
internal_value=0 0.00864821 -0.00592674 0.0122651 -0.000789563 0.0109538 -0.00828565 -0.00196202 -0.00926385 0.00152411 -0.00345394 0.00311988
internal_weight=0 196 286 130 90 120 196 80 163 66 33 48
internal_count=482 196 286 130 90 120 196 80 163 66 33 48
is_linear=0
shrinkage=0.1


Tree=26
num_leaves=14
num_cat=0
split_feature=9 9 9 4 9 9 9 9 9 31 9 9 9
split_gain=2.74215 0.375272 0.315907 0.183238 0.104785 0.0577938 0.048954 0.0178802 0.0144091 0.014008 0.0132808 0.00850279 0.00499081
threshold=2.3529095594438805 1.0386211481222156 4.2937973992154195 23.888892532819675 3.2809249031048915 1.7089749174660318 0.40669779208479212 2.7185910714966766 0.78350915054120507 107.78744480339888 3.7541913666475 1.3563746761820399 1.9401539586825816
decision_type=2 2 2 2 2 2 2 2 2 2 2 2 2
left_child=1 6 4 -4 7 11 9 -2 -8 -1 -6 -3 -7
right_child=2 5 3 -5 10 12 8 -9 -10 -11 -12 -13 -14
leaf_value=-0.014327325139726912 0.0041092439989248919 -0.0045002769248989908 0.030565636619840825 0.011862201641779395 0.010166858500313193 -0.00055627463069478312 -0.0085063235958417263 0.007221333271202942 -0.0063608852215111256 -0.01034706944289307 0.012921682472030321 -0.002369059776376364 0.0013558639891039677
leaf_weight=13.999999999999998 30 39 11.000000000000002 9.9999999999999982 42 21 90 48 48 24 30 36 39
leaf_count=14 30 39 11 10 42 21 90 48 48 24 30 36 39
internal_value=0 -0.00559294 0.010172 0.0216592 0.00856373 -0.00162667 -0.00863525 0.00602438 -0.00776008 -0.0118135 0.0113147 -0.00347729 0.000686615
internal_weight=0 311 171 21 150 135 176 78 138 38 72 75 60
internal_count=482 311 171 21 150 135 176 78 138 38 72 75 60
is_linear=0
shrinkage=0.1


Tree=27
num_leaves=13
num_cat=0
split_feature=9 9 9 9 9 9 9 9 5 9 9 9
split_gain=2.22114 0.304845 0.263262 0.108938 0.0512945 0.0369345 0.0192099 0.0180754 0.0117091 0.00995041 0.00695518 0.00494061
threshold=2.3529095594438805 1.0126453206932484 4.5248259034148033 3.3626946921472007 1.6748490199107573 0.40669779208479212 3.9169108812681306 2.9250275607493124 -7.7975532224883168e-05 0.66079589056271726 1.3563746761820399 1.9970860439582263
decision_type=2 2 2 2 2 2 2 2 2 2 2 2
left_child=1 5 3 7 10 8 -5 -2 -1 -7 -3 -6
right_child=2 4 -4 6 11 9 -8 -9 -10 -11 -12 -13
leaf_value=-0.013569441623985767 0.0041365917040301226 -0.0041186914758549803 0.023437240269655983 0.0096466542532046631 -0.00040240210597403353 -0.0080027303407116546 0.012980845142845754 0.0070704169127912752 -0.0095830922414149571 -0.0062644789940205173 -0.0022073500944922368 0.0013707368417685344
leaf_weight=9.9999999999999982 42 45 11.999999999999998 48 30 63 27 42 28 69 33 33
leaf_count=10 42 45 12 48 30 63 27 42 28 69 33 33
internal_value=0 -0.00503364 0.00915476 0.00807683 -0.0015959 -0.00788495 0.010847 0.0056035 -0.0106321 -0.0070941 -0.00331005 0.000526385
internal_weight=0 311 171 159 141 170 75 84 38 132 78 63
internal_count=482 311 171 159 141 170 75 84 38 132 78 63
is_linear=0
shrinkage=0.1


Tree=28
num_leaves=14
num_cat=0
split_feature=21 30 8 28 20 8 5 4 7 5 20 11 7
split_gain=1.31835 0.287648 0.25785 0.142146 0.0951272 0.0385377 0.0306125 0.0271545 0.024591 0.0182008 0.00830235 0.00785033 0.00772823
threshold=67.095000000000013 55.809637757602921 0.89453355240536403 61.590794086808103 25.335000000000004 0.64492759865560112 3.7194028816855962e-06 23.895722315477947 0.60639267008573816 -0.0021130283489653994 31.055000000000003 22.309058836359188 1.0187439002356535
decision_type=2 2 2 2 2 2 2 2 2 2 2 2 2
left_child=1 2 3 -1 8 7 12 -6 9 -2 -8 -10 -3
right_child=4 6 -4 -5 5 -7 10 -9 11 -11 -12 -13 -14
leaf_value=0.00093219154017895242 -0.011686405818909408 -0.0040760763388659263 0.023204664438962935 0.0082777337973607059 -0.0012602147564569849 0.0023550688211495681 -0.00064152786411189784 -0.004894919363690204 -0.0024241136960112125 -0.007215924115449775 0.0023332673059993014 -0.0060539052229035993 -0.00061770235770381994
leaf_weight=34 9.9999999999999982 14.000000000000002 9.9999999999999982 117 31 11.999999999999998 11.999999999999998 61 13.000000000000002 102 43 10.999999999999998 11.999999999999998
leaf_count=34 10 14 10 117 31 12 12 61 13 102 43 11 12
internal_value=0 0.00520823 0.00765364 0.00662377 -0.00525163 -0.00297496 0.000347588 -0.00367018 -0.00699261 -0.00761507 0.00168422 -0.00408777 -0.0024799
internal_weight=0 242 161 151 240 104 81 92 136 112 55 24 26
internal_count=482 242 161 151 240 104 81 92 136 112 55 24 26
is_linear=0
shrinkage=0.1


Tree=29
num_leaves=13
num_cat=0
split_feature=9 9 9 9 9 9 9 29 9 9 9 9
split_gain=1.49866 0.205146 0.201089 0.0752029 0.0368863 0.0251566 0.0164254 0.0100376 0.00944381 0.00784366 0.00457672 0.00403275
threshold=2.3529095594438805 4.5248259034148033 0.97966850450348486 3.2809249031048915 1.6155525933436452 0.31664588150468065 3.9169108812681306 94.400450223485777 2.6744966036432394 0.59712220075228983 1.9658210348805938 1.3152857181915725
decision_type=2 2 2 2 2 2 2 2 2 2 2 2
left_child=2 3 5 8 11 7 -5 -1 -2 -7 -6 -4
right_child=1 -3 4 6 10 9 -8 -9 -10 -11 -12 -13
leaf_value=-0.0072732159867882722 0.002839833055622876 0.020127711103608212 -0.0035545257768697207 0.0076955389714351416 -0.00061532827230897089 -0.0068641282121340436 0.01071633823491909 -0.011214577087334223 0.0051527172290519174 -0.0053433148476939932 0.0010150691991536102 -0.0020991188152975431
leaf_weight=12 27 11.999999999999998 45 54 33 60 27 14 51 78 36 33
leaf_count=12 27 12 45 54 33 60 27 14 51 78 36 33
internal_value=0 0.00751986 -0.00413472 0.00656833 -0.0014489 -0.00654213 0.00870247 -0.00939549 0.0043521 -0.00600454 0.000235314 -0.00293878
internal_weight=0 171 311 159 147 164 81 26 78 138 69 78
internal_count=482 171 311 159 147 164 81 26 78 138 69 78
is_linear=0
shrinkage=0.1


Tree=30
num_leaves=13
num_cat=0
split_feature=9 9 9 9 9 9 4 9 31 9 9 9
split_gain=1.21455 0.170998 0.151577 0.0689035 0.0273731 0.0198363 0.0160455 0.0103508 0.0095279 0.00418427 0.0040058 0.00199872
threshold=2.2932367707612396 4.5248259034148033 0.94878562896274843 3.2809249031048915 1.5727013959412683 0.40669779208479212 23.888894674627966 2.6744966036432394 107.78744480339888 1.8401928882826113 0.61241593890731905 1.3152857181915725
decision_type=2 2 2 2 2 2 2 2 2 2 2 2
left_child=2 3 5 7 11 8 -5 -2 -1 -6 -7 -4
right_child=1 -3 4 6 9 10 -8 -9 -10 -11 -12 -13
leaf_value=-0.010002578475645611 0.0023645218170713633 0.018114939952890079 -0.0032181066344492137 0.0054531904728113059 -0.0009900817847665166 -0.0059294653696972026 0.0086648869855950276 0.0046374455149121143 -0.0067199574434198446 0.0005562070896433268 -0.0047850394536825746 -0.002100431581735999
leaf_weight=13.999999999999998 33 11.999999999999998 48 21 30 57 60 51 24 42 66 24
leaf_count=14 33 12 48 21 30 57 60 51 24 42 66 24
internal_value=0 0.00658943 -0.00382403 0.00575121 -0.00146681 -0.00593234 0.00783222 0.00374451 -0.00792934 -8.80799e-05 -0.00531538 -0.00284555
internal_weight=0 177 305 165 144 161 81 84 38 72 123 72
internal_count=482 177 305 165 144 161 81 84 38 72 123 72
is_linear=0
shrinkage=0.1


Tree=31
num_leaves=13
num_cat=0
split_feature=21 5 30 1 28 20 20 5 8 5 4 8
split_gain=0.700181 0.186193 0.105518 0.103198 0.0552105 0.0339781 0.0307135 0.0182222 0.0170633 0.0141392 0.0124054 0.0105078
threshold=58.095000000000006 0.011716656098142703 55.809637757602921 15.500000000000002 91.100074491255086 28.015000000000004 25.305000000000003 -0.00018234160220834998 0.084872066146235159 4.2645608413494082e-06 24.432117595419438 0.15024465363557674
decision_type=2 2 2 2 2 2 2 2 2 2 2 2
left_child=1 2 4 6 -1 10 7 -2 -7 -4 -5 -8
right_child=3 -3 9 5 -6 8 11 -9 -10 -11 -12 -13
leaf_value=0.0043542132926110725 -0.0093051884323358536 0.017896628454327584 -0.0011100450501544401 -0.00012389670296483125 0.0091974276438122615 0.00011604836152400817 -0.0034271835411806974 -0.0050291271456341562 0.0057091412600129843 0.0018828747374324229 -0.002966278194383319 -0.00042959249777985479
leaf_weight=89 10.999999999999998 9.9999999999999982 27 34 32 10.000000000000002 71 106 11.999999999999998 38 28 13.999999999999998
leaf_count=89 11 10 27 34 32 10 71 106 12 38 28 14
internal_value=0 0.00460402 0.00388936 -0.0031552 0.00563506 -0.000209501 -0.00438014 -0.00543115 0.00316683 0.000639662 -0.00140755 -0.00293346
internal_weight=0 196 186 286 121 84 202 117 22 65 62 85
internal_count=482 196 186 286 121 84 202 117 22 65 62 85
is_linear=0
shrinkage=0.1


Tree=32
num_leaves=12
num_cat=0
split_feature=9 8 9 5 25 9 9 31 9 9 9
split_gain=0.817449 0.155137 0.110891 0.0502152 0.033339 0.0211314 0.0143882 0.0084508 0.0037188 0.00250937 0.00237675
threshold=2.3529095594438805 1.1928182761087094 0.92643428608034972 -0.005798831428055649 25.096910496336591 1.6155525933436452 0.31664588150468065 118.36111255189054 0.57414295227315637 2.0210149803636219 1.3152857181915725
decision_type=2 2 2 2 2 2 2 2 2 2 2
left_child=2 3 6 -2 -5 10 7 -1 -8 -7 -4
right_child=1 -3 5 4 -6 9 8 -9 -10 -11 -12
leaf_value=-0.0090093476387361673 0.011625272808596493 0.017041221684352917 -0.0026278102770447734 0.0060347887637531633 0.0030205157682906061 -0.00036702775034007997 -0.0051262540328833794 -0.0053929102295244653 -0.004046700436335344 0.00084947657286344727 -0.0015386557061874279
leaf_weight=12.000000000000002 9.9999999999999982 10.999999999999998 51 64 86 39 54 13.999999999999998 78 30 33
leaf_count=12 10 11 51 64 86 39 54 14 78 30 33
internal_value=0 0.00555378 -0.00305369 0.00476402 0.00430661 -0.0011348 -0.00491186 -0.00706204 -0.00448834 0.000161887 -0.00219993
internal_weight=0 171 311 160 150 153 158 26 132 69 84
internal_count=482 171 311 160 150 153 158 26 132 69 84
is_linear=0
shrinkage=0.1


Tree=33
num_leaves=12
num_cat=0
split_feature=9 8 9 5 15 9 9 5 9 9 5
split_gain=0.665083 0.141041 0.10264 0.0394623 0.0243104 0.0162543 0.0148277 0.00629275 0.00378536 0.00183527 0.00166148
threshold=2.4700412584335996 1.1928182761087094 1.121294516687988 -0.0048131690927827988 0.46087022936989203 0.50172564168001133 1.777623326246381 -0.00018234160220834998 0.82732255591117976 1.4333033890575753 1.1674951831963655e-05
decision_type=2 2 2 2 2 2 2 2 2 2 2
left_child=2 3 5 -2 -5 7 9 -1 -7 -4 -8
right_child=1 -3 6 4 -6 8 10 -9 -10 -11 -12
leaf_value=-0.0076729763637889518 0.010287057032639331 0.016790957096964123 -0.0020395679399371146 0.002021853413955286 0.0049262601995034164 -0.0039343915593165624 0.00026830002658671754 -0.005021245436122021 -0.0028057116025593134 -0.0010298182122318799 0.0014655591640621423
leaf_weight=10.999999999999998 10.999999999999998 9.9999999999999982 36 41 97 78 51 48 48 36 14.999999999999998
leaf_count=11 11 10 36 41 97 78 51 48 48 36 15
internal_value=0 0.00529441 -0.00260622 0.00452282 0.00406336 -0.00414583 -0.000542255 -0.00551564 -0.00350442 -0.00153469 0.000540404
internal_weight=0 159 323 149 138 185 138 59 126 72 66
internal_count=482 159 323 149 138 185 138 59 126 72 66
is_linear=0
shrinkage=0.1


Tree=34
num_leaves=12
num_cat=0
split_feature=21 5 21 27 20 25 8 27 5 30 5
split_gain=0.385524 0.135865 0.0726119 0.0655993 0.0516443 0.0357055 0.0192597 0.0140452 0.0105521 0.00753846 0.00665498
threshold=58.935000000000009 0.011716656098142703 31.685000000000006 59.985684889341648 25.545000000000005 25.096910496336591 0.15024465363557674 88.221111885153661 -0.0021130283489653994 1.0000000180025095e-35 6.7470095235222524e-06
decision_type=2 2 2 2 2 2 2 2 2 2 2
left_child=1 2 3 -1 8 -4 9 -8 -2 -6 -10
right_child=4 -3 5 -5 6 -7 7 -9 10 -11 -12
leaf_value=0.0038639671505532325 -0.0066333611411127178 0.014732097717933358 0.0040215992298908527 0.013965614717453717 -0.00076008823499308924 0.00088148039424097843 -0.00063839884463786376 0.0033680574223399168 -0.0037575512067288966 -0.0025156671774811019 -0.0020070210642491779
leaf_weight=18.000000000000004 10.999999999999998 9.9999999999999982 55 9.9999999999999982 47 106 21 14.999999999999998 111 51 27
leaf_count=18 11 10 55 10 47 106 21 15 111 51 27
internal_value=0 0.00337263 0.0027716 0.0074717 -0.00237157 0.00195419 -0.00094708 0.00103096 -0.00365265 -0.00167371 -0.00341506
internal_weight=0 199 189 28 283 161 134 36 149 98 138
internal_count=482 199 189 28 283 161 134 36 149 98 138
is_linear=0
shrinkage=0.1


Tree=35
num_leaves=12
num_cat=0
split_feature=9 8 9 5 25 9 9 5 9 5 15
split_gain=0.454683 0.112834 0.0710413 0.0262414 0.0190061 0.0148442 0.00611216 0.00472743 0.00397794 0.00155644 0.000683629
threshold=2.5142050876700188 1.1928182761087094 1.3152857181915725 -0.0048131690927827988 25.16322854278614 0.51709185016252845 1.777623326246381 -0.00018234160220834998 0.92341827278140798 2.2415607814352256e-05 0.47674831523034261
decision_type=2 2 2 2 2 2 2 2 2 2 2
left_child=2 3 5 -2 -5 7 10 -1 -7 -8 -4
right_child=1 -3 6 4 -6 8 9 -9 -10 -11 -12
leaf_value=-0.0063730612905188045 0.0084327372298999264 0.014716187573503703 -0.0006853904409109857 0.0046799865815167624 0.0022921340731166615 -0.003070044400584367 0.00021157997438091448 -0.0040986121606288685 -0.0019843881766536033 0.0013925672375730107 -0.0014461355921368869
leaf_weight=10.999999999999998 10.999999999999998 9.9999999999999982 27 60 75 90 55 54 54 13.999999999999998 21
leaf_count=11 11 10 27 60 75 90 55 54 54 14 21
internal_value=0 0.00443994 -0.00212464 0.00373609 0.0033534 -0.00322914 -0.000151637 -0.00448352 -0.00266292 0.000451201 -0.00101822
internal_weight=0 156 326 146 135 209 117 65 144 69 48
internal_count=482 156 326 146 135 209 117 65 144 69 48
is_linear=0
shrinkage=0.1


Tree=36
num_leaves=13
num_cat=0
split_feature=9 8 9 21 27 9 9 9 12 9 5 6
split_gain=0.368293 0.0913956 0.0575434 0.0242706 0.0718724 0.0206699 0.0121095 0.00495839 0.00467568 0.00367826 0.00134037 0.00105589
threshold=2.5142050876700188 1.1928182761087094 1.3152857181915725 30.905000000000005 59.985684889341648 4.2937973992154195 0.50172564168001133 2.0210149803636219 1.5000000000000002 0.82732255591117976 2.2415607814352256e-05 63.222623343996524
decision_type=2 2 2 2 2 2 2 2 2 2 2 2
left_child=2 3 6 4 -2 -5 8 11 -1 -8 -9 -4
right_child=1 -3 7 5 -6 -7 9 10 -10 -11 -12 -13
leaf_value=-0.0060904981382191182 0.0016444423635091098 0.013244568436639384 -0.00048850938929702911 0.003200377116235695 0.012744433673797177 -0.0013441784561357716 -0.0029046047443094161 0.00039525266836530393 -0.0037177567104143758 -0.0019134234399744957 0.0017080118693411353 -0.0015529348641972651
leaf_weight=9.9999999999999982 14.000000000000002 9.9999999999999982 61 111 9.9999999999999982 10.999999999999998 78 35 49 72 9.9999999999999982 10.999999999999998
leaf_count=10 14 10 61 111 10 11 78 35 49 72 10 11
internal_value=0 0.00399595 -0.00191217 0.00336248 0.00626944 0.00279062 -0.00290622 -0.000136473 -0.00411992 -0.00242884 0.000686977 -0.00065113
internal_weight=0 156 326 146 24 122 209 117 59 150 45 72
internal_count=482 156 326 146 24 122 209 117 59 150 45 72
is_linear=0
shrinkage=0.1


Tree=37
num_leaves=12
num_cat=0
split_feature=9 9 9 9 4 9 5 9 9 28 15
split_gain=0.298592 0.0924987 0.0393549 0.0258944 0.0228657 0.00780638 0.00697607 0.00535428 0.00211812 0.00140362 0.000846057
threshold=2.3529095594438805 4.5248259034148033 0.92643428608034972 3.8256730170785036 23.888894674627966 1.5727013959412683 -0.0038178484318737997 3.3626946921472007 0.57414295227315637 45.746721229642169 0.41013320916648427
decision_type=2 2 2 2 2 2 2 2 2 2 2
left_child=2 3 6 7 -5 10 -1 -2 -8 -7 -4
right_child=1 -3 5 4 -6 9 8 -9 -10 -11 -12
leaf_value=-0.0055088311061263088 0.0016036047433555637 0.011822577038158973 -0.00081049939206637015 0.0012191963568329812 0.0069469651379420062 0.00090498048146920554 -0.0031685062531323638 0.0029864436414624965 -0.0024116165041433353 -0.00020041533678067936 -0.0016127166150595416
leaf_weight=9.9999999999999982 84 11.999999999999998 17 9.9999999999999982 23 13.999999999999998 72 42 76 64 58
leaf_count=10 84 12 17 10 23 14 72 42 76 64 58
internal_value=0 0.00335659 -0.00184558 0.00271765 0.00521128 -0.000702437 -0.00295255 0.00206455 -0.00277983 -2.01096e-06 -0.00143088
internal_weight=0 171 311 159 33 153 158 126 148 78 75
internal_count=482 171 311 159 33 153 158 126 148 78 75
is_linear=0
shrinkage=0.1


Tree=38
num_leaves=14
num_cat=0
split_feature=9 9 11 9 9 9 22 31 25 9 9 5 4
split_gain=0.242702 0.0712735 0.109586 0.0377728 0.00888897 0.00829176 0.0057675 0.0046465 0.0040775 0.00355599 0.00310086 0.0010691 0.000575627
threshold=2.5142050876700188 4.2413152451369278 372.15877522979605 1.3152857181915725 0.40669779208479212 3.6705693943006659 192.05500000000004 107.78744480339888 23.358747956048465 1.777623326246381 0.82732255591117976 1.1674951831963655e-05 24.444447497612078
decision_type=2 2 2 2 2 2 2 2 2 2 2 2 2
left_child=3 5 -3 4 7 8 -7 -1 -2 12 -6 -11 -5
right_child=1 2 -4 9 10 6 -8 -9 -10 11 -12 -13 -14
leaf_value=-0.0051888954692653252 -3.9756111800670626e-05 0.014472474444371001 0.00091072094034064905 -0.0010672578475870457 -0.0024133710772730414 0.0028334728361147903 0.005710120610892773 -0.0028965235978830606 0.0020899486818267139 0.00012994265033619673 -0.0015508784772868644 0.0010626277302435484 -0.00036483751344349005
leaf_weight=13.999999999999998 9.9999999999999982 13.000000000000002 10.999999999999998 28 99 23 9.9999999999999982 24 89 53 72 15.999999999999998 20
leaf_count=14 10 13 11 28 99 23 10 24 89 53 72 16 20
internal_value=0 0.00324384 0.00825667 -0.00155227 -0.00235765 0.00233242 0.00370518 -0.00374108 0.00187483 -0.000113598 -0.00205022 0.000346217 -0.000774583
internal_weight=0 156 24 326 209 132 33 38 99 117 171 69 48
internal_count=482 156 24 326 209 132 33 38 99 117 171 69 48
is_linear=0
shrinkage=0.1


Tree=39
num_leaves=12
num_cat=0
split_feature=9 9 9 9 4 5 9 9 28 9 15
split_gain=0.197197 0.0687247 0.0212638 0.0181555 0.0143027 0.00516906 0.00410958 0.00352096 0.00163293 0.00134909 0.000685539
threshold=2.1987165523663541 4.5248259034148033 0.92643428608034972 3.6705693943006659 23.888894674627966 -0.0038178484318737997 3.0225121081613762 1.5727013959412683 57.298129517621994 0.57414295227315637 0.41013320916648427
decision_type=2 2 2 2 2 2 2 2 2 2 2
left_child=2 3 5 6 -5 -1 -2 10 -9 -7 -4
right_child=1 -3 7 4 -6 9 -8 8 -10 -11 -12
leaf_value=-0.0045959268044680358 0.00089206793637651687 0.0098711605494221054 -0.00060098139185677565 0.0006419793744994836 0.0047903639928656913 -0.0025570065889041873 0.0020212164887833217 0.00048232858255505559 -0.00055829014469820418 -0.0019529497751806816 -0.0013230994810422498
leaf_weight=9.9999999999999982 66 11.999999999999998 17 10.999999999999998 34 72 63 25 38 76 58
leaf_count=10 66 12 17 11 34 72 63 25 38 76 58
internal_value=0 0.00255162 -0.00160338 0.00204682 0.00377631 -0.00239549 0.00144351 -0.000696473 -0.000145346 -0.00224682 -0.00115942
internal_weight=0 186 296 174 45 158 129 138 63 148 75
internal_count=482 186 296 174 45 158 129 138 63 148 75
is_linear=0
shrinkage=0.1


Tree=40
num_leaves=13
num_cat=0
split_feature=9 5 9 21 28 9 9 31 9 9 28 9
split_gain=0.159827 0.0547632 0.024941 0.0243121 0.0462821 0.0443271 0.0048921 0.00766097 0.00486115 0.00107114 0.000913727 0.000659296
threshold=2.5142050876700188 0.011716656098142703 1.0126453206932484 30.905000000000005 78.476938009144206 4.2937973992154195 0.27936658082247529 118.36111255189054 1.777623326246381 0.66079589056271726 46.175126191013725 1.4333033890575753
decision_type=2 2 2 2 2 2 2 2 2 2 2 2
left_child=2 3 6 4 -2 -5 7 -1 11 -8 -10 -4
right_child=1 -3 8 5 -6 -7 9 -9 10 -11 -12 -13
leaf_value=-0.0055346293747425062 0.00099105333987002556 0.0094348985310220585 -0.0010750010405329294 0.0021928800557328909 0.010202485704794526 -0.0042049859184771776 -0.0021392502348858101 -0.0018530494891680204 0.0010733399879730618 -0.0015983579542818548 0.00011326599365259569 -0.00051606301874724321
leaf_weight=10.000000000000002 12.000000000000002 10.999999999999998 51 111 9.9999999999999982 11.999999999999998 78 12.999999999999998 11.999999999999998 69 57 36
leaf_count=10 12 11 51 111 10 12 78 13 12 69 57 36
internal_value=0 0.00263238 -0.00125967 0.00211633 0.00517807 0.0015687 -0.00209755 -0.00345374 -0.000346584 -0.00188536 0.000280235 -0.000843716
internal_weight=0 156 326 145 22 123 170 23 156 147 69 87
internal_count=482 156 326 145 22 123 170 23 156 147 69 87
is_linear=0
shrinkage=0.1


Tree=41
num_leaves=12
num_cat=0
split_feature=9 8 5 9 9 9 24 9 9 30 6
split_gain=0.130786 0.0561817 0.0309624 0.0329571 0.0255545 0.00565594 0.0040501 0.0021643 0.00197363 0.00141618 0.00103734
threshold=2.806625911098934 1.1928182761087094 0.0078624662147709513 4.2937973992154195 1.4333033890575753 0.40669779208479212 33.789893150532968 2.0210149803636219 0.82732255591117976 123.82429915550235 63.046611665256769
decision_type=2 2 2 2 2 2 2 2 2 2 2
left_child=4 2 3 -2 5 6 -1 10 -7 -9 -6
right_child=1 -3 -4 -5 7 8 -8 9 -10 -11 -12
leaf_value=-0.002084226746004648 0.002080669165312285 0.0098534129327163111 -0.0023676703185109157 0.0080989859625697127 -0.00011769946880425171 -0.0017473977656489372 -0.0043052209968057779 0.00029708539125170897 -0.0010883733689773917 0.0015400371450761503 -0.0011572022689506412
leaf_weight=26 101 9.9999999999999982 13.999999999999998 9.9999999999999982 48 99 11.999999999999998 55 84 10.999999999999998 11.999999999999998
leaf_count=26 101 10 14 10 48 99 12 55 84 11 12
internal_value=0 0.00264092 0.00206392 0.00262286 -0.00102745 -0.00167542 -0.00278559 0.00010908 -0.00144489 0.000504244 -0.0003256
internal_weight=0 135 125 111 347 221 38 126 183 66 60
internal_count=482 135 125 111 347 221 38 126 183 66 60
is_linear=0
shrinkage=0.1


Tree=42
num_leaves=11
num_cat=0
split_feature=9 8 5 9 9 5 9 9 5 7
split_gain=0.105937 0.0455071 0.0250795 0.0266952 0.0206992 0.00500592 0.00271182 0.00175308 0.00122418 0.000906169
threshold=2.806625911098934 1.1928182761087094 0.0078624662147709513 4.2937973992154195 1.4333033890575753 -0.0066587045661136999 0.78350915054120507 2.0210149803636219 2.2415607814352256e-05 1.0790778868336595
decision_type=2 2 2 2 2 2 2 2 2 2
left_child=4 2 3 -2 5 -1 -7 9 -9 -6
right_child=1 -3 -4 -5 7 6 -8 8 -10 -11
leaf_value=-0.0036940645892173055 0.0018726022432542103 0.0088680715393275027 -0.0021309032429209247 0.0072890873812139038 -0.00051741182422524107 -0.0017194863303149699 -0.00099654283039853921 0.00023035268564294365 0.0012838396443320174 0.00038007532712072136
leaf_weight=9.9999999999999982 101 9.9999999999999982 13.999999999999998 9.9999999999999982 45 119 92 52 13.999999999999998 14.999999999999998
leaf_count=10 101 10 14 10 45 119 92 52 14 15
internal_value=0 0.00237683 0.00185753 0.00236057 -0.000924702 -0.00150788 -0.00140427 9.81722e-05 0.00045382 -0.00029304
internal_weight=0 135 125 111 347 221 211 126 66 60
internal_count=482 135 125 111 347 221 211 126 66 60
is_linear=0
shrinkage=0.1


Tree=43
num_leaves=13
num_cat=0
split_feature=9 15 9 5 9 32 9 29 20 9 26 9
split_gain=0.089566 0.0695315 0.159236 0.0415992 0.0258163 0.00564221 0.00411392 0.00371636 0.0026387 0.00238341 0.00158128 0.00131489
threshold=3.3626946921472007 0.46087022936989203 4.3955029810507584 8.6625820490127143e-06 1.4333033890575753 92.670972271869957 0.40669779208479212 94.400450223485777 26.825000000000003 2.1987165523663541 26.343127399316476 0.92341827278140798
decision_type=2 2 2 2 2 2 2 2 2 2 2 2
left_child=4 3 5 -2 6 -3 7 -1 10 -10 -6 -8
right_child=1 2 -4 -5 8 -7 11 -9 9 -11 -12 -13
leaf_value=-0.0012614797284994793 0.0019997546573479966 0.0039764863873521491 0.015643201463601805 -0.0060965610234151512 9.5557711954990547e-05 0.0016583985891858383 -0.0013618108238348276 -0.0032420931290835144 -9.895120462845495e-05 0.00072195079643885655 -0.0016000402900813657 -0.00080359014168745059
leaf_weight=18 15.000000000000002 14.999999999999998 10.999999999999998 10.999999999999998 11.000000000000002 35 117 20 56 96 10.999999999999998 66
leaf_count=18 15 15 11 11 11 35 117 20 56 96 11 66
internal_value=0 0.0029046 0.00475027 -0.00142561 -0.000639748 0.00235382 -0.00135709 -0.00230391 0.00027136 0.000419513 -0.000752241 -0.00116049
internal_weight=0 87 61 26 395 50 221 38 174 152 22 183
internal_count=482 87 61 26 395 50 221 38 174 152 22 183
is_linear=0
shrinkage=0.1


Tree=44
num_leaves=11
num_cat=0
split_feature=9 15 9 5 9 32 5 25 9 9
split_gain=0.0725485 0.0563205 0.128981 0.0336954 0.0209176 0.00457019 0.00392546 0.00312164 0.00220984 0.00187718
threshold=3.3626946921472007 0.46087022936989203 4.3955029810507584 8.6625820490127143e-06 1.5727013959412683 92.670972271869957 -0.0066587045661136999 23.29557170731831 0.82732255591117976 2.7620669543765426
decision_type=2 2 2 2 2 2 2 2 2 2
left_child=4 3 5 -2 6 -3 -1 -6 -8 -9
right_child=1 2 -4 -5 7 -7 8 9 -10 -11
leaf_value=-0.0031208546091511381 0.0017997791431844231 0.0035788376784573004 0.01407888148995963 -0.0054869048001075331 -0.0013294438323514029 0.0014925587296602317 -0.0013668391926557888 0.00018205836071588454 -0.00073023931251985866 0.00094812825289251196
leaf_weight=9.9999999999999982 15.000000000000002 14.999999999999998 10.999999999999998 10.999999999999998 10.999999999999998 35 128 105 95 46
leaf_count=10 15 15 11 11 11 35 128 105 95 46
internal_value=0 0.00261414 0.00427524 -0.00128305 -0.000575774 0.00211844 -0.00118256 0.000296952 -0.00109564 0.000415431
internal_weight=0 87 61 26 395 50 233 162 223 151
internal_count=482 87 61 26 395 50 233 162 223 151
is_linear=0
shrinkage=0.1


Tree=45
num_leaves=12
num_cat=0
split_feature=9 26 26 11 20 9 9 31 25 20 9
split_gain=0.0587643 0.0477363 0.0671355 0.0677948 0.0251778 0.0170213 0.00309124 0.00522747 0.00219311 0.00204787 0.00105612
threshold=3.3626946921472007 30.484875004856679 34.044638036252586 372.15877522979605 33.485000000000007 1.4333033890575753 0.27936658082247529 118.36111255189054 23.29557170731831 26.825000000000003 0.92341827278140798
decision_type=2 2 2 2 2 2 2 2 2 2 2
left_child=5 -2 4 -4 -3 6 7 -1 -7 -10 -8
right_child=1 2 3 -5 -6 8 10 -9 9 -11 -12
leaf_value=-0.0039169170195236793 0.0071059630457859712 -0.00023078071165152567 0.0091070257326854136 0.00087326738420025717 -0.0071638010116294032 -0.0010828213523685311 -0.0011365111069718489 -0.00087576543625730743 -0.00060304642067335193 0.00045545060157493921 -0.00064658504570340458
leaf_weight=10.000000000000002 17 11.000000000000002 13.999999999999998 35 9.9999999999999982 11.999999999999998 132 12.999999999999998 21 141 66
leaf_count=10 17 11 14 35 10 12 132 13 21 141 66
internal_value=0 0.00235273 0.00119837 0.00322577 -0.00353222 -0.000518196 -0.00110067 -0.00219801 0.000221613 0.000318238 -0.000973202
internal_weight=0 87 70 49 21 395 221 23 174 162 198
internal_count=482 87 70 49 21 395 221 23 174 162 198
is_linear=0
shrinkage=0.1


Tree=46
num_leaves=11
num_cat=0
split_feature=9 8 5 9 9 25 21 9 8 9
split_gain=0.0529127 0.0849738 0.063099 0.0417477 0.0197992 0.00325058 0.00307926 0.00472361 0.00306995 0.000621224
threshold=3.8256730170785036 0.46104050623931925 8.6625820490127143e-06 4.2413152451369278 1.6454102532505133 23.358747956048465 90.500000000000014 0.22567682067114872 0.95909309360959272 1.0126453206932484
decision_type=2 2 2 2 2 2 2 2 2 2
left_child=4 2 -2 -4 6 -6 9 -8 -7 -1
right_child=1 -3 3 -5 5 8 7 -9 -10 -11
leaf_value=-0.0008724316628234062 0.0061425445501559553 0.011394682122627273 0.0021517948800465086 -0.0067757011391222479 -0.00094053013108350578 0.00065070318650027907 -0.0034206073858182536 -0.0011357915177844311 -0.0011534276424208657 -0.00049432756950665584
leaf_weight=112 13.999999999999998 9.9999999999999982 10.000000000000002 10.999999999999998 15.999999999999998 166 10.999999999999998 51 9.9999999999999982 71
leaf_count=112 14 10 10 11 16 166 11 51 10 71
internal_value=0 0.00326506 0.00094231 -0.00252451 -0.000336219 0.000424135 -0.000932088 -0.00154116 0.000548196 -0.000725736
internal_weight=0 45 35 21 437 192 245 62 176 183
internal_count=482 45 35 21 437 192 245 62 176 183
is_linear=0
shrinkage=0.1


Tree=47
num_leaves=9
num_cat=0
split_feature=9 9 9 26 9 4 12 9
split_gain=0.0442824 0.0252117 0.00471458 0.0150349 0.00329601 0.00258973 0.00199526 0.0010977
threshold=4.5248259034148033 2.0210149803636219 3.8256730170785036 34.949896482531919 0.51709185016252845 24.115314621537006 1.5000000000000002 1.0773956337780184
decision_type=2 2 2 2 2 2 2 2
left_child=1 4 5 -4 6 -3 -1 -6
right_child=-2 2 3 -5 7 -7 -8 -9
leaf_value=-0.0025425107722791534 0.0059986053471220661 0.00085452930791759098 -6.426124845778472e-06 0.0043124103635948687 -0.00077917880895384179 2.8088014313163091e-05 -0.00111451337346258 -0.00032761843174775295
leaf_weight=11.999999999999998 11.999999999999998 91 19 13.999999999999998 114 65 53 102
leaf_count=12 12 91 19 14 114 65 53 102
internal_value=0 -0.000153156 0.000739892 0.00182581 -0.000753818 0.000510179 -0.00137814 -0.000565942
internal_weight=0 470 189 33 281 156 65 216
internal_count=482 470 189 33 281 156 65 216
is_linear=0
shrinkage=0.1


Tree=48
num_leaves=7
num_cat=0
split_feature=21 9 7 9 9 21
split_gain=0.0386226 0.0702722 0.0348398 0.0793603 0.0253806 0.00333497
threshold=32.250000000000007 4.1150522430409007 1.5092330446776852 4.3955029810507584 3.6705693943006659 30.905000000000005
decision_type=2 2 2 2 2 2
left_child=1 5 3 4 -2 -1
right_child=2 -3 -4 -5 -6 -7
leaf_value=-0.00054187529254704706 -0.00036993290469667528 0.010265375378075987 0.0055777095258235931 -0.0091977232322096834 0.0030456807735153354 0.0016947401726307969
leaf_weight=15.000000000000002 402 9.9999999999999982 9.9999999999999982 9.9999999999999982 23 11.999999999999998
leaf_count=15 402 10 10 10 23 12
internal_value=0 0.00310439 -0.000258118 -0.000392275 -0.000185088 0.000452176
internal_weight=0 37 445 435 425 27
internal_count=482 37 445 435 425 27
is_linear=0
shrinkage=0.1


Tree=49
num_leaves=7
num_cat=0
split_feature=9 9 8 9 5 9
split_gain=0.0378606 0.0176698 0.00324877 0.00382855 0.00255209 0.0016164
threshold=4.5248259034148033 1.9401539586825816 0.89453355240536403 3.0225121081613762 -0.0066587045661136999 0.92643428608034972
decision_type=2 2 2 2 2 2
left_child=1 4 3 -3 -1 -6
right_child=-2 2 -4 -5 5 -7
leaf_value=-0.0022326375963166354 0.0055466186294021707 0.00021233581423571609 -0.00089145507086608891 0.0011255009435122551 -0.000821216283442262 -0.00031969107462626891
leaf_weight=9.9999999999999982 11.999999999999998 88 13.999999999999998 96 149 113
leaf_count=10 12 88 14 96 149 113
internal_value=0 -0.000141616 0.000577037 0.00068877 -0.000664753 -0.00060491
internal_weight=0 470 198 184 272 262
internal_count=482 470 198 184 272 262
is_linear=0
shrinkage=0.1


Tree=50
num_leaves=8
num_cat=0
split_feature=4 8 5 28 26 8 29
split_gain=0.0308757 0.113864 0.0206834 0.0125248 0.00659531 0.00509067 0.00478095
threshold=23.834965605634832 0.46104050623931925 0.0078624662147709513 85.042150671935275 37.749903452559955 1.0967573377528901 40.361451149988149
decision_type=2 2 2 2 2 2 2
left_child=1 2 3 -1 5 6 -2
right_child=4 -3 -4 -5 -6 -7 -8
leaf_value=0.00015619630218733458 0.00043151023573420177 0.011300573174164377 -0.0039670778541767504 0.0041821747412905102 0.001742823844154676 -0.0024215029601085312 -0.00049128872912960282
leaf_weight=34 68 10.999999999999998 9.9999999999999982 9.9999999999999982 14.999999999999998 11.999999999999998 322
leaf_count=34 68 11 10 10 15 12 322
internal_value=0 0.0020272 0.000138179 0.00107119 -0.00031599 -0.000392812 -0.00033039
internal_weight=0 65 54 44 417 402 390
internal_count=482 65 54 44 417 402 390
is_linear=0
shrinkage=0.1


Tree=51
num_leaves=8
num_cat=0
split_feature=8 9 5 9 9 27 35
split_gain=0.029397 0.0122271 0.0126844 0.0127492 0.00218895 0.00187924 0.000811413
threshold=1.1928182761087094 1.9401539586825816 0.0078624662147709513 4.2937973992154195 0.50172564168001133 39.28144826627787 516.43928095212368
decision_type=2 2 2 2 2 2 2
left_child=1 4 3 -3 5 -1 -6
right_child=-2 2 -4 -5 6 -7 -8
leaf_value=0.00015512627782300115 0.0051102482629093258 0.00051172382677393843 -0.0022237366141780513 0.0041840739839244636 -0.00031636056755194827 -0.0013491214400309386 -0.00083153402586970979
leaf_weight=9.9999999999999982 10.999999999999998 173 15.999999999999998 9.9999999999999982 176 49 37
leaf_count=10 11 173 16 10 176 49 37
internal_value=0 -0.000119348 0.000476328 0.000712399 -0.000555154 -0.00109416 -0.000405851
internal_weight=0 471 199 183 272 59 213
internal_count=482 471 199 183 272 59 213
is_linear=0
shrinkage=0.1


Tree=52
num_leaves=8
num_cat=0
split_feature=5 19 21 9 2 9 22
split_gain=0.0286871 0.0527342 0.0154875 0.0449743 0.0289992 0.0107837 0.00337728
threshold=0.0097807233097188511 0.029040000000000003 32.250000000000007 4.2937973992154195 5.5000000000000009 3.0225121081613762 135.05500000000004
decision_type=2 2 2 2 2 2 2
left_child=2 -2 4 5 6 -4 -1
right_child=1 -3 3 -5 -6 -7 -8
leaf_value=-0.0014124055139043111 -0.0011633350101130249 0.0088703304203227168 -0.00036859661907339038 -0.0063611420230396719 0.0061150302671277058 0.0010425412480799423 0.0010655986949462783
leaf_weight=11.000000000000002 11.000000000000002 9.9999999999999982 352 11.999999999999998 10.999999999999998 64 10.999999999999998
leaf_count=11 11 10 352 12 11 64 11
internal_value=0 0.0036146 -0.000164656 -0.000325601 0.00192274 -0.000151498 -0.000173403
internal_weight=0 21 461 428 33 416 22
internal_count=482 21 461 428 33 416 22
is_linear=0
shrinkage=0.1


Tree=53
num_leaves=8
num_cat=0
split_feature=9 9 8 9 4 5 9
split_gain=0.0267511 0.00820106 0.00253469 0.00434418 0.00266537 0.00189993 0.000771119
threshold=4.5248259034148033 1.7089749174660318 0.43880439999922971 3.7746282009798531 24.444448049465212 -0.0066587045661136999 1.0126453206932484
decision_type=2 2 2 2 2 2 2
left_child=1 5 3 -3 -4 -1 -7
right_child=-2 2 4 -5 -6 6 -8
leaf_value=-0.0018598685646429658 0.0046623551141237842 0.00027912167365837183 -0.00090360489938857741 0.0016367106166269099 0.00081958432610218339 -0.00057927218630713967 -0.00019942293654821701
leaf_weight=9.9999999999999982 11.999999999999998 149 29 28 12.999999999999998 161 80
leaf_count=10 12 149 29 28 13 161 80
internal_value=0 -0.000119039 0.00032816 0.000493882 -0.000370237 -0.000509224 -0.000453181
internal_weight=0 470 219 177 42 251 241
internal_count=482 470 219 177 42 251 241
is_linear=0
shrinkage=0.1


Tree=54
num_leaves=6
num_cat=0
split_feature=8 5 21 9 9
split_gain=0.0225831 0.0110962 0.0141851 0.0363626 0.0208835
threshold=1.1928182761087094 0.015608327550735202 33.125000000000007 4.0486755789707454 4.2413152451369278
decision_type=2 2 2 2 2
left_child=1 2 3 -1 -4
right_child=-2 -3 4 -5 -6
leaf_value=-6.1023534120370953e-05 0.0044790119403676897 -0.0034001431521028282 -9.0791261411145475e-05 0.0066604138775305313 -0.004506174589253285
leaf_weight=30 10.999999999999998 9.9999999999999982 409 10.999999999999998 10.999999999999998
leaf_count=30 11 10 409 11 11
internal_value=0 -0.000104605 -3.31187e-05 0.00174229 -0.000206432
internal_weight=0 471 461 41 420
internal_count=482 471 461 41 420
is_linear=0
shrinkage=0.1


Tree=55
num_leaves=9
num_cat=0
split_feature=4 8 9 20 28 9 21 21
split_gain=0.0212724 0.0835197 0.0137779 0.0134656 0.0171644 0.0049084 0.00275354 0.00148214
threshold=23.834965605634832 0.46104050623931925 4.2937973992154195 36.020000000000003 85.042150671935275 1.2354949201116037 30.095000000000002 90.500000000000014
decision_type=2 2 2 2 2 2 2 2
left_child=1 3 5 4 -1 7 -7 -2
right_child=2 -3 -4 -5 -6 6 -8 -9
leaf_value=-0.0002363187281210258 -0.00035622396743511435 0.0096248119953088462 -0.0039293639163952322 -0.0030573387926613742 0.0044929206324741252 -0.0013833473330702294 0.0002411104920010895 -0.000960648793324222
leaf_weight=33 135 10.999999999999998 9.9999999999999982 10.999999999999998 9.9999999999999982 10.999999999999998 203 58
leaf_count=33 135 11 10 11 10 11 203 58
internal_value=0 0.00168266 -0.000262285 6.48141e-05 0.000863504 -0.000172185 0.00015761 -0.000537865
internal_weight=0 65 417 54 43 407 214 193
internal_count=482 65 417 54 43 407 214 193
is_linear=0
shrinkage=0.1


Tree=56
num_leaves=7
num_cat=0
split_feature=5 21 9 4 9 21
split_gain=0.0215273 0.0123775 0.0344296 0.0284864 0.00666733 0.0033545
threshold=0.015608327550735202 33.125000000000007 4.2937973992154195 23.888896550656295 2.806625911098934 30.905000000000005
decision_type=2 2 2 2 2 2
left_child=1 3 4 -1 -3 -5
right_child=-2 2 -4 5 -6 -7
leaf_value=0.006194153057294898 0.0041824374716573709 -0.00030223332793394492 -0.0055464111772986751 -0.0011679308202404239 0.00073352846657622937 0.00094014763340560933
leaf_weight=9.9999999999999982 11.999999999999998 341 11.999999999999998 13.000000000000002 76 18
leaf_count=10 12 341 12 13 76 18
internal_value=0 -0.000106786 -0.000265432 0.0015532 -0.000113461 5.61147e-05
internal_weight=0 470 429 41 417 31
internal_count=482 470 429 41 417 31
is_linear=0
shrinkage=0.1


Tree=57
num_leaves=7
num_cat=0
split_feature=9 11 5 9 25 9
split_gain=0.021169 0.0790436 0.00422959 0.00298182 0.0025236 0.000443516
threshold=4.2413152451369278 372.15877522979605 -0.010081326593723999 1.7089749174660318 23.950738580720067 0.78350915054120507
decision_type=2 2 2 2 2 2
left_child=2 -2 -1 5 -5 -4
right_child=1 -3 3 4 -6 -7
leaf_value=-0.0019296751035234102 0.0081740425971265004 -0.0033437968909063123 -0.00047255286903236994 -0.00067914221696716189 0.0003288649119984499 -0.00020233475259714384
leaf_weight=12.999999999999998 13.000000000000002 10.999999999999998 120 29 173 123
leaf_count=13 13 11 120 29 173 123
internal_value=0 0.00289503 -0.000151705 -9.97641e-05 0.000184151 -0.000335776
internal_weight=0 24 458 445 202 243
internal_count=482 24 458 445 202 243
is_linear=0
shrinkage=0.1


Tree=58
num_leaves=7
num_cat=0
split_feature=7 19 15 9 9 27
split_gain=0.0176602 0.0149275 0.0534069 0.0356916 0.00319309 0.00186422
threshold=1.5092330446776852 0.043910000000000005 0.48167410967492191 4.4458844871032408 3.3626946921472007 67.441983672940339
decision_type=2 2 2 2 2 2
left_child=1 3 -3 4 -1 -4
right_child=-2 2 5 -5 -6 -7
leaf_value=-0.00021548643996835567 0.0039608471624722535 0.0080856756982393557 0.00076790808446028022 -0.0058913667008958087 0.00068511347583973317 -0.00083909980866814129
leaf_weight=374 10.999999999999998 9.9999999999999982 10.999999999999998 10.999999999999998 44 21
leaf_count=374 11 10 11 11 44 21
internal_value=0 -9.25039e-05 0.00170673 -0.000268653 -0.000120686 -0.000286691
internal_weight=0 471 42 429 418 32
internal_count=482 471 42 429 418 32
is_linear=0
shrinkage=0.1


Tree=59
num_leaves=9
num_cat=0
split_feature=9 9 21 9 25 6 9 4
split_gain=0.0202841 0.0028617 0.00282913 0.00441698 0.00325886 0.00133791 0.00229279 0.00119878
threshold=4.5248259034148033 1.1931674130177001 30.905000000000005 3.6705693943006659 25.262111092164059 60.228972507222089 0.34150482203116445 24.440142991779791
decision_type=2 2 2 2 2 2 2 2
left_child=1 5 4 -4 -3 7 -7 -1
right_child=-2 2 3 -5 -6 6 -8 -9
leaf_value=0.00050340172965661627 0.0040598716431607803 -0.0022001971533014012 4.0269105363068195e-05 0.0013138548837178538 0.00029408889589831237 -0.0021561625413596629 -0.00051450784215519788 -0.00034006007659525362
leaf_weight=20 11.999999999999998 11.000000000000002 224 31 9.9999999999999982 9.9999999999999982 57 107
leaf_count=20 12 11 224 31 10 10 57 107
internal_value=0 -0.000103656 0.000103219 0.000195097 -0.00101244 -0.000397974 -0.000759531 -0.000207231
internal_weight=0 470 276 255 21 194 67 127
internal_count=482 470 276 255 21 194 67 127
is_linear=0
shrinkage=0.1


Tree=60
num_leaves=6
num_cat=0
split_feature=9 5 9 15 5
split_gain=0.0164301 0.00348842 0.00240091 0.00596899 0.00115643
threshold=4.5248259034148033 -0.010081326593723999 3.0225121081613762 0.44046786203640004 1.1674951831963655e-05
decision_type=2 2 2 2 2
left_child=1 -1 4 -4 -3
right_child=-2 2 3 -5 -6
leaf_value=-0.0017085855423759383 0.0036538846169908846 -0.00025180821991930088 0.0026991088909562679 0.00012795825345536836 0.00023317313674759414
leaf_weight=12.999999999999998 11.999999999999998 295 9.9999999999999982 93 59
leaf_count=13 12 295 10 93 59
internal_value=0 -9.32907e-05 -4.73414e-05 0.000377585 -0.000170978
internal_weight=0 470 457 103 354
internal_count=482 470 457 103 354
is_linear=0
shrinkage=0.1


Tree=61
num_leaves=7
num_cat=0
split_feature=7 21 9 27 9 23
split_gain=0.0135323 0.0119306 0.0688032 0.0489553 0.0127985 0.00844195
threshold=1.5092330446776852 32.250000000000007 4.3955029810507584 59.985684889341648 3.9169108812681306 741.4000000000002
decision_type=2 2 2 2 2 2
left_child=1 3 4 5 -3 -1
right_child=-2 2 -4 -5 -6 -7
leaf_value=0.0006460510859532015 0.0034671795776706534 -0.00013412715448169602 -0.0084246313520270639 0.006883634859696031 0.0029404805008588094 -0.0031581460800953216
leaf_weight=14.000000000000002 10.999999999999998 411 9.9999999999999982 11.999999999999998 13.999999999999998 9.9999999999999982
leaf_count=14 11 411 10 12 14 10
internal_value=0 -8.09745e-05 -0.000225761 0.00166852 -3.2846e-05 -0.000939031
internal_weight=0 471 435 36 425 24
internal_count=482 471 435 36 425 24
is_linear=0
shrinkage=0.1


Tree=62
num_leaves=5
num_cat=0
split_feature=9 5 5 9
split_gain=0.0159958 0.00349952 0.00253888 0.00333158
threshold=4.5248259034148033 -0.010081326593723999 0.011716656098142703 4.2413152451369278
decision_type=2 2 2 2
left_child=1 -1 3 -3
right_child=-2 2 -4 -5
leaf_value=-0.0017099134597139292 0.0036052667691061895 -4.5801241041696684e-05 -0.0013718978102718082 0.0018004179280251267
leaf_weight=12.999999999999998 11.999999999999998 433 13.999999999999998 9.9999999999999982
leaf_count=13 12 433 14 10
internal_value=0 -9.20494e-05 -4.6027e-05 -4.12586e-06
internal_weight=0 470 457 443
internal_count=482 470 457 443
is_linear=0
shrinkage=0.1


Tree=63
num_leaves=7
num_cat=0
split_feature=5 19 8 28 4 9
split_gain=0.0133385 0.0342985 0.00800317 0.00554968 0.0320558 0.027531
threshold=0.0097807233097188511 0.029040000000000003 1.0967573377528901 97.204239128756385 23.888895691348697 4.183556526039367
decision_type=2 2 2 2 2 2
left_child=2 -2 3 5 -5 -1
right_child=1 -3 -4 4 -6 -7
leaf_value=-3.7381692915549564e-05 -0.00138855021584525 0.0067033590935170655 -0.0027772349474782295 0.0060086028056684886 -0.00033767075794271362 -0.0053510584007017319
leaf_weight=391 11.000000000000002 9.9999999999999982 10.999999999999998 9.9999999999999982 39 9.9999999999999982
leaf_count=391 11 10 11 10 39 10
internal_value=0 0.00246474 -0.000112277 -4.71332e-05 0.000957487 -0.000169892
internal_weight=0 21 461 450 49 401
internal_count=482 21 461 450 49 401
is_linear=0
shrinkage=0.1


Tree=64
num_leaves=5
num_cat=0
split_feature=9 5 5 9
split_gain=0.0130815 0.00272847 0.00283089 0.00338179
threshold=4.5248259034148033 -0.010081326593723999 0.011716656098142703 4.2413152451369278
decision_type=2 2 2 2
left_child=1 -1 3 -3
right_child=-2 2 -4 -5
leaf_value=-0.0015117982527814234 0.0032603427767753605 -4.0348631177140176e-05 -0.0014426491000839245 0.0018197308538947254
leaf_weight=12.999999999999998 11.999999999999998 433 13.999999999999998 9.9999999999999982
leaf_count=13 12 433 14 10
internal_value=0 -8.32428e-05 -4.26055e-05 1.63962e-06
internal_weight=0 470 457 443
internal_count=482 470 457 443
is_linear=0
shrinkage=0.1


Tree=65
num_leaves=6
num_cat=0
split_feature=8 5 21 4 9
split_gain=0.0122563 0.0128309 0.00561099 0.0227423 0.0174396
threshold=1.1928182761087094 0.015608327550735202 33.125000000000007 23.888896550656295 4.183556526039367
decision_type=2 2 2 2 2
left_child=1 2 3 -1 -4
right_child=-2 -3 4 -5 -6
leaf_value=0.0052631513797678055 0.003299666355914352 -0.0036208583606639881 1.3177390954689485e-06 -0.00022123434201573892 -0.0038665527904716635
leaf_weight=9.9999999999999982 10.999999999999998 9.9999999999999982 408 31 11.999999999999998
leaf_count=10 11 10 408 31 12
internal_value=0 -7.70623e-05 -1.9034e-07 0.00111642 -0.000109193
internal_weight=0 471 461 41 420
internal_count=482 471 461 41 420
is_linear=0
shrinkage=0.1


Tree=66
num_leaves=6
num_cat=0
split_feature=5 19 8 5 9
split_gain=0.012088 0.0282047 0.00808805 0.00541431 0.012509
threshold=0.0097807233097188511 0.029040000000000003 1.0967573377528901 0.0062883483702122506 4.2937973992154195
decision_type=2 2 2 2 2
left_child=2 -2 3 4 -1
right_child=1 -3 -4 -5 -6
leaf_value=-6.5668831274425971e-05 -0.0011479002973911433 0.0061900392477400607 -0.0027859372933479874 -0.002137012846651487 0.0035122238099575044
leaf_weight=428 11.000000000000002 9.9999999999999982 10.999999999999998 11.999999999999998 9.9999999999999982
leaf_count=428 11 10 11 12 10
internal_value=0 0.00234636 -0.000106884 -4.13959e-05 1.60182e-05
internal_weight=0 21 461 450 438
internal_count=482 21 461 450 438
is_linear=0
shrinkage=0.1


Tree=67
num_leaves=6
num_cat=0
split_feature=8 5 20 9 9
split_gain=0.0108934 0.012532 0.00451184 0.0238359 0.0108449
threshold=1.0967573377528901 0.015608327550735202 34.860000000000007 4.2413152451369278 3.7746282009798531
decision_type=2 2 2 2 2
left_child=1 2 4 -4 -1
right_child=-2 -3 3 -5 -6
leaf_value=-6.5687727843748294e-05 0.0027486407863242285 -0.003584258898627013 2.1643813955892304e-05 0.0049901683052832428 -0.0032535980413244529
leaf_weight=357 13.999999999999998 9.9999999999999982 79 10.999999999999998 10.999999999999998
leaf_count=357 14 10 79 11 11
internal_value=0 -8.22243e-05 -5.76067e-06 0.000628908 -0.000160979
internal_weight=0 468 458 90 368
internal_count=482 468 458 90 368
is_linear=0
shrinkage=0.1


Tree=68
num_leaves=6
num_cat=0
split_feature=5 8 21 35 9
split_gain=0.011124 0.00919052 0.00383357 0.0182177 0.0163566
threshold=0.015608327550735202 1.0967573377528901 33.125000000000007 451.41787760833296 4.183556526039367
decision_type=2 2 2 2 2
left_child=1 2 3 -1 -4
right_child=-2 -3 4 -5 -6
leaf_value=0.0041943814750993623 0.0030065310061521207 -0.0028086522050822776 1.1903238539532512e-05 -0.00043847486557406859 -0.0037343471699083845
leaf_weight=11.999999999999998 11.999999999999998 11.999999999999998 405 29 11.999999999999998
leaf_count=12 12 12 405 29 12
internal_value=0 -7.67625e-05 -5.1846e-06 0.000917483 -9.59025e-05
internal_weight=0 470 458 41 417
internal_count=482 470 458 41 417
is_linear=0
shrinkage=0.1


Tree=69
num_leaves=6
num_cat=0
split_feature=8 5 20 9 9
split_gain=0.0102911 0.0121382 0.00342804 0.0204524 0.00757766
threshold=1.0967573377528901 0.015608327550735202 34.860000000000007 4.2413152451369278 3.7746282009798531
decision_type=2 2 2 2 2
left_child=1 2 4 -4 -1
right_child=-2 -3 3 -5 -6
leaf_value=-6.0309280557570985e-05 0.0026715680898632857 -0.0035264860664028677 -1.3966708225964368e-05 0.0045884229835461482 -0.0027250875337896021
leaf_weight=357 13.999999999999998 9.9999999999999982 79 10.999999999999998 10.999999999999998
leaf_count=357 14 10 79 11 11
internal_value=0 -7.99187e-05 -4.66614e-06 0.000548548 -0.000139963
internal_weight=0 468 458 90 368
internal_count=482 468 458 90 368
is_linear=0
shrinkage=0.1


Tree=70
num_leaves=6
num_cat=0
split_feature=5 8 28 9 9
split_gain=0.0107476 0.00910729 0.00355231 0.0319588 0.0250814
threshold=0.015608327550735202 1.0967573377528901 91.100074491255086 4.1150522430409007 4.183556526039367
decision_type=2 2 2 2 2
left_child=1 2 4 -4 -1
right_child=-2 -3 3 -5 -6
leaf_value=6.9783932654571161e-06 0.0029552257028020298 -0.002794943901244551 -0.00020548445849741375 0.0058865976519882684 -0.0050673199072480204
leaf_weight=376 11.999999999999998 11.999999999999998 62 9.9999999999999982 9.9999999999999982
leaf_count=376 12 12 62 10 10
internal_value=0 -7.54526e-05 -4.19953e-06 0.000640638 -0.00012448
internal_weight=0 470 458 72 386
internal_count=482 470 458 72 386
is_linear=0
shrinkage=0.1


Tree=71
num_leaves=6
num_cat=0
split_feature=8 5 4 28 9
split_gain=0.00976031 0.0117536 0.00334964 0.0120455 0.0073821
threshold=1.0967573377528901 0.015608327550735202 23.888897551470944 92.292857659044458 4.0486755789707454
decision_type=2 2 2 2 2
left_child=1 2 3 -1 -4
right_child=-2 -3 4 -5 -6
leaf_value=-1.3990197385907606e-05 0.0026017603422847711 -0.0034693599282763902 -7.7281345649615816e-05 0.0026964437584683764 -0.0028342996572609993
leaf_weight=91 13.999999999999998 9.9999999999999982 337 20 9.9999999999999982
leaf_count=91 14 10 337 20 10
internal_value=0 -7.78304e-05 -3.77957e-06 0.000474376 -0.000156734
internal_weight=0 468 458 111 347
internal_count=482 468 458 111 347
is_linear=0
shrinkage=0.1


Tree=72
num_leaves=7
num_cat=0
split_feature=5 29 23 21 21 6
split_gain=0.0103886 0.00428645 0.00716553 0.00637713 0.00372492 0.00271593
threshold=0.015608327550735202 28.534005860676004 561.50500000000011 30.905000000000005 34.720000000000006 59.608176800685193
decision_type=2 2 2 2 2 2
left_child=1 2 -1 -3 -5 -4
right_child=-2 3 5 4 -6 -7
leaf_value=-0.0034109885198995472 0.0029054535649872077 0.0020337289106100798 -0.0012936717439019541 -0.0013627579846624508 3.4161836744140749e-06 0.00092850053386593417
leaf_weight=9.9999999999999982 11.999999999999998 14.999999999999998 11.000000000000002 21 402 10.999999999999998
leaf_count=10 12 15 11 21 402 11
internal_value=0 -7.41818e-05 -0.00119146 7.44594e-06 -6.44081e-05 -0.000182586
internal_weight=0 470 32 438 423 22
internal_count=482 470 32 438 423 22
is_linear=0
shrinkage=0.1


Tree=73
num_leaves=7
num_cat=0
split_feature=7 4 9 28 35 21
split_gain=0.00962744 0.00778091 0.0380253 0.0273366 0.00432466 0.00422357
threshold=1.5092330446776852 23.44871485350335 4.3955029810507584 86.150978812043419 275.24158565789043 30.905000000000005
decision_type=2 2 2 2 2 2
left_child=1 3 5 4 -1 -3
right_child=-2 2 -4 -5 -6 -7
leaf_value=0.00079969057740527207 0.0029244620882144029 -0.0016494606694323012 -0.0062969384528696534 0.0055154161189090124 -0.0014060395949854866 7.600305972306188e-06
leaf_weight=20 10.999999999999998 15.999999999999998 9.9999999999999982 10.999999999999998 15.999999999999998 398
leaf_count=20 11 16 10 11 16 398
internal_value=0 -6.82995e-05 -0.000203622 0.00115248 -0.000180634 -5.64407e-05
internal_weight=0 471 424 47 36 414
internal_count=482 471 424 47 36 414
is_linear=0
shrinkage=0.1


Tree=74
num_leaves=6
num_cat=0
split_feature=5 8 20 9 9
split_gain=0.00909482 0.00831236 0.00303289 0.0155765 0.00481151
threshold=0.015608327550735202 1.0967573377528901 34.860000000000007 4.2413152451369278 3.7746282009798531
decision_type=2 2 2 2 2
left_child=1 2 4 -4 -1
right_child=-2 -3 3 -5 -6
leaf_value=-6.5125268137937266e-05 0.0027185162374128899 -0.0026675052630404632 2.8113013721377696e-05 0.004044596353461119 -0.0021885359575125308
leaf_weight=357 11.999999999999998 11.999999999999998 79 10.999999999999998 10.999999999999998
leaf_count=357 12 12 79 11 11
internal_value=0 -6.94089e-05 -1.33652e-06 0.000519017 -0.000128597
internal_weight=0 470 458 90 368
internal_count=482 470 458 90 368
is_linear=0
shrinkage=0.1


Tree=75
num_leaves=7
num_cat=0
split_feature=7 4 28 4 4 25
split_gain=0.00793196 0.00590358 0.0210748 0.0124881 0.00536459 0.00438203
threshold=1.5092330446776852 23.44871485350335 86.150978812043419 23.750193669441952 23.88887830030594 26.028222428882462
decision_type=2 2 2 2 2 2
left_child=1 2 5 -3 -5 -1
right_child=-2 3 -4 4 -6 -7
leaf_value=-0.0018324091713028878 0.0026544890489524488 -0.0035052668485811658 0.0048321501669389283 0.0019921140337222218 -0.00015364359724888237 0.00056268485344480727
leaf_weight=10.999999999999998 10.999999999999998 10.999999999999998 10.999999999999998 11.999999999999998 401 25
leaf_count=11 11 11 11 12 401 25
internal_value=0 -6.19944e-05 0.00100137 -0.000179867 -9.12971e-05 -0.000169149
internal_weight=0 471 47 424 413 36
internal_count=482 471 47 424 413 36
is_linear=0
shrinkage=0.1


Tree=76
num_leaves=5
num_cat=0
split_feature=8 9 21 9
split_gain=0.00873924 0.00591809 0.00375681 0.00852913
threshold=1.0967573377528901 4.3955029810507584 30.905000000000005 3.6705693943006659
decision_type=2 2 2 2
left_child=1 2 -1 -4
right_child=-2 -3 3 -5
leaf_value=-0.0013900193667627479 0.0024619103517449863 -0.0021774344934293861 -6.263772893694263e-05 0.001839775259140879
leaf_weight=19 13.999999999999998 12.999999999999998 411 25
leaf_count=19 14 13 411 25
internal_value=0 -7.36469e-05 -1.35387e-05 4.64456e-05
internal_weight=0 468 455 436
internal_count=482 468 455 436
is_linear=0
shrinkage=0.1


Tree=77
num_leaves=6
num_cat=0
split_feature=5 8 21 4 21
split_gain=0.00742431 0.00827512 0.00274225 0.012914 0.00619965
threshold=0.015608327550735202 1.0967573377528901 33.125000000000007 23.888896550656295 34.720000000000006
decision_type=2 2 2 2 2
left_child=1 2 3 -1 -4
right_child=-2 -3 4 -5 -6
leaf_value=0.0039103468088433147 0.0024561954177139949 -0.0026549825231389455 -0.0023115402281594774 -0.00022242030099732803 -5.1469362942054745e-06
leaf_weight=9.9999999999999982 11.999999999999998 11.999999999999998 11.999999999999998 31 405
leaf_count=10 12 12 12 31 405
internal_value=0 -6.27114e-05 5.2084e-06 0.000785572 -7.1518e-05
internal_weight=0 470 458 41 417
internal_count=482 470 458 41 417
is_linear=0
shrinkage=0.1


Tree=78
num_leaves=5
num_cat=0
split_feature=8 9 21 9
split_gain=0.00836208 0.00550443 0.00358807 0.00688865
threshold=1.0967573377528901 4.3955029810507584 30.905000000000005 3.7541913666475
decision_type=2 2 2 2
left_child=1 2 -1 -4
right_child=-2 -3 3 -5
leaf_value=-0.0013592838533345219 0.0024082006287894082 -0.0021009703954825037 -4.9251211841938109e-05 0.001728910888524969
leaf_weight=19 13.999999999999998 12.999999999999998 413 23
leaf_count=19 14 13 413 23
internal_value=0 -7.20402e-05 -1.40708e-05 4.45509e-05
internal_weight=0 468 455 436
internal_count=482 468 455 436
is_linear=0
shrinkage=0.1


Tree=79
num_leaves=6
num_cat=0
split_feature=8 5 20 9 9
split_gain=0.00677329 0.0123225 0.00269556 0.0117208 0.0045161
threshold=1.0967573377528901 0.015608327550735202 34.860000000000007 4.2413152451369278 3.7746282009798531
decision_type=2 2 2 2 2
left_child=1 2 4 -4 -1
right_child=-2 -3 3 -5 -6
leaf_value=-4.7496688018712099e-05 0.0021673806726799478 -0.0035374760464765135 7.5713768257881829e-05 0.003559813936325637 -0.0021046899089759044
leaf_weight=357 13.999999999999998 9.9999999999999982 79 10.999999999999998 10.999999999999998
leaf_count=357 14 10 79 11 11
internal_value=0 -6.48362e-05 1.09857e-05 0.000501548 -0.000108989
internal_weight=0 468 458 90 368
internal_count=482 468 458 90 368
is_linear=0
shrinkage=0.1


end of trees

feature_importances:
Cooling_Load_(kWh)=526
Average_Unmet_Cooling_Setpoint_Difference_(C)=61
DHW_Heating_(kWh)=36
Outdoor_Relative_Humidity_(%)=30
Indoor_Temperature_(C)=29
12h_Outdoor_Relative_Humidity_(%)=14
Outdoor_Drybulb_Temperature_(C)=13
12h_Outdoor_Drybulb_Temperature_(C)=10
kg_CO2/kWh=9
Equipment_Electric_Power_(kWh)=8
12h_Diffuse_Solar_Radiation_(W/m2)=7
24h_Outdoor_Drybulb_Temperature_(C)=6
6h_Outdoor_Relative_Humidity_(%)=6
6h_Diffuse_Solar_Radiation_(W/m2)=6
Indoor_Relative_Humidity_(%)=4
Solar_Generation_(W/kW)=4
24h_Prediction_Electricity_Pricing__$/kWh_=4
24h_Outdoor_Relative_Humidity_(%)=4
Diffuse_Solar_Radiation_(W/m2)=3
Direct_Solar_Radiation_(W/m2)=3
24h_Direct_Solar_Radiation_(W/m2)=3
Occupant_Count_(people)=2
Temperature_Set_Point_(C)=2
24h_Diffuse_Solar_Radiation_(W/m2)=2
Hour=1
Day_Type=1
6h_Outdoor_Drybulb_Temperature_(C)=1

parameters:
[boosting: gbdt]
[objective: regression]
[metric: l2]
[tree_learner: serial]
[device_type: cpu]
[data: ]
[valid: ]
[num_iterations: 80]
[learning_rate: 0.1]
[num_leaves: 16]
[num_threads: 1]
[deterministic: 0]
[force_col_wise: 0]
[force_row_wise: 0]
[histogram_pool_size: -1]
[max_depth: 4]
[min_data_in_leaf: 10]
[min_sum_hessian_in_leaf: 0.001]
[bagging_fraction: 0.9]
[pos_bagging_fraction: 1]
[neg_bagging_fraction: 1]
[bagging_freq: 0]
[bagging_seed: 3]
[feature_fraction: 0.9]
[feature_fraction_bynode: 1]
[feature_fraction_seed: 2]
[extra_trees: 0]
[extra_seed: 6]
[early_stopping_round: 0]
[first_metric_only: 0]
[max_delta_step: 0]
[lambda_l1: 0]
[lambda_l2: 0]
[linear_lambda: 0]
[min_gain_to_split: 0]
[drop_rate: 0.1]
[max_drop: 50]
[skip_drop: 0.5]
[xgboost_dart_mode: 0]
[uniform_drop: 0]
[drop_seed: 4]
[top_rate: 0.2]
[other_rate: 0.1]
[min_data_per_group: 100]
[max_cat_threshold: 32]
[cat_l2: 10]
[cat_smooth: 10]
[max_cat_to_onehot: 4]
[top_k: 20]
[monotone_constraints: ]
[monotone_constraints_method: basic]
[monotone_penalty: 0]
[feature_contri: ]
[forcedsplits_filename: ]
[refit_decay_rate: 0.9]
[cegb_tradeoff: 1]
[cegb_penalty_split: 0]
[cegb_penalty_feature_lazy: ]
[cegb_penalty_feature_coupled: ]
[path_smooth: 0]
[interaction_constraints: ]
[verbosity: -1]
[saved_feature_importance_type: 0]
[linear_tree: 0]
[max_bin: 255]
[max_bin_by_feature: ]
[min_data_in_bin: 3]
[bin_construct_sample_cnt: 200000]
[data_random_seed: 1]
[is_enable_sparse: 1]
[enable_bundle: 1]
[use_missing: 1]
[zero_as_missing: 0]
[feature_pre_filter: 1]
[pre_partition: 0]
[two_round: 0]
[header: 0]
[label_column: ]
[weight_column: ]
[group_column: ]
[ignore_column: ]
[categorical_feature: ]
[forcedbins_filename: ]
[precise_float_parser: 0]
[parser_config_file: ]
[objective_seed: 5]
[num_class: 1]
[is_unbalance: 0]
[scale_pos_weight: 1]
[sigmoid: 1]
[boost_from_average: 1]
[reg_sqrt: 0]
[alpha: 0.9]
[fair_c: 1]
[poisson_max_delta_step: 0.7]
[tweedie_variance_power: 1.5]
[lambdarank_truncation_level: 30]
[lambdarank_norm: 1]
[label_gain: ]
[lambdarank_position_bias_regularization: 0]
[eval_at: ]
[multi_error_top_k: 1]
[auc_mu_weights: ]
[num_machines: 1]
[local_listen_port: 12400]
[time_out: 120]
[machine_list_filename: ]
[machines: ]
[gpu_platform_id: -1]
[gpu_device_id: -1]
[gpu_use_dp: 0]
[num_gpu: 1]

end of parameters

pandas_categorical:[]
