tree
version=v4
num_class=1
num_tree_per_iteration=1
label_index=0
max_feature_idx=26
objective=regression
feature_names=Cooling_Load_(kWh) Hour Outdoor_Drybulb_Temperature_(C) Outdoor_Relative_Humidity_(%) Equipment_Electric_Power_(kWh) 24h_Outdoor_Drybulb_Temperature_(C) 12h_Outdoor_Drybulb_Temperature_(C) 6h_Diffuse_Solar_Radiation_(W/m2) 24h_Outdoor_Relative_Humidity_(%) Solar_Generation_(W/kW) 6h_Direct_Solar_Radiation_(W/m2) 12h_Outdoor_Relative_Humidity_(%) kg_CO2/kWh Diffuse_Solar_Radiation_(W/m2) Direct_Solar_Radiation_(W/m2) 12h_Prediction_Electricity_Pricing__$/kWh_ 24h_Direct_Solar_Radiation_(W/m2) 24h_Diffuse_Solar_Radiation_(W/m2) 6h_Outdoor_Drybulb_Temperature_(C) Electricity_Pricing__$/kWh_ 12h_Diffuse_Solar_Radiation_(W/m2) 24h_Prediction_Electricity_Pricing__$/kWh_ 12h_Direct_Solar_Radiation_(W/m2) Indoor_Relative_Humidity_(%) Indoor_Temperature_(C) Temperature_Set_Point_(C) 6h_Prediction_Electricity_Pricing__$/kWh_
feature_infos=[0:5.420441764584103] [1:24] [21.379999999999999:40.32] [24.120000000000001:98.25] [0.16868312581394879:8.6652498573495276] [20.947013524362529:40.33298102857114] [20.812239003382171:41.761423383460262] [0:448.59393372529718] [16.665542474905589:100] [0:687.15852178569139] [0:998.78608636720685] [18.750454935186248:100] [0.33751525247131398:0.54505021691256927] [0:408.69999999999999] [0:886.92999999999995] [0.028930000000000001:0.05867] [0:1148.8024499653848] [0:486.88891634473225] [21.385895012807637:40.448030901483051] [0.028930000000000001:0.05867] [0:524.90876332100106] [0.028930000000000001:0.05867] [0:1096.818864330259] [48.831595550716806:78.10605983234953] [21.675274662191104:24.999932147476983] [21.666666666666671:25.000000000000011] [0.028930000000000001:0.05867]
tree_sizes=1324 1383 1396 1485 1406 1390 1405 1380 1409 1471 1403 1419 1409 1411 1432 1426 1420 1448 1420 1450 1452 1423 1446 1458 1253 1467 1254 1260 1275 1259 1314 1526 1417 1431 1419 1459 1429 1449 1322 1313 1180 1241 1360 1450 1329 1270 1271 1282 1107 905 887 1019 904 893 720 904 731 998 1152 730 703 629 1015 833 1118 703 721 613 927 611 1033 629 1014 723 613 847 909 833 913 1015

Tree=0
num_leaves=15
num_cat=0
split_feature=0 0 0 0 0 0 0 0 0 0 0 0 0 0
split_gain=514.864 91.1472 61.0871 14.2444 10.5785 8.45551 8.18762 2.60245 1.27972 1.20659 1.12937 1.0539 0.702039 0.582787
threshold=1.8319069264998451 0.78845959364355389 3.0330052841585045 3.9759902100637654 2.4306097612223332 1.3172815525004413 0.30013065530291572 3.4592009981865011 1.080905708220653 1.5913511070676887 2.116886924747869 2.7294492345295018 0.52629943045692773 0.09969356448403531
decision_type=2 2 2 2 2 2 2 2 2 2 2 2 2 2
left_child=1 6 4 7 10 8 13 -4 -3 -7 -2 -6 -8 -1
right_child=2 5 3 -5 11 9 12 -9 -10 -11 -12 -13 -14 -15
leaf_value=1.3913138862070835 1.5869012516452363 1.4840779414102041 1.7140453069294701 1.8521397328533666 1.6483375466026799 1.535030354037531 1.4326729013458603 1.7573231683331665 1.5107416705447372 1.5609210811215577 1.6158248127105217 1.676452004925205 1.4554770461433622 1.4078371151445246
leaf_weight=74 27 36 33 11.999999999999998 24 45 27 24 36 30 27 30 27 30
leaf_count=74 27 36 33 12 24 45 27 24 36 30 27 30 27 30
internal_value=1.54395 1.46521 1.67962 1.75311 1.63266 1.52189 1.41248 1.73227 1.49741 1.54539 1.60136 1.66396 1.44407 1.39608
internal_weight=0 305 177 69 108 147 158 57 72 75 54 54 54 104
internal_count=482 305 177 69 108 147 158 57 72 75 54 54 54 104
is_linear=0
shrinkage=1


Tree=1
num_leaves=15
num_cat=0
split_feature=0 0 0 0 0 0 0 0 0 0 0 0 0 0
split_gain=417.122 69.5862 53.4043 12.0443 9.20362 6.46642 6.02204 1.95715 1.04125 1.01757 0.927904 0.886565 0.475013 0.470334
threshold=1.7922871284499007 0.74389966430365828 2.9770353799480942 3.9100236664054235 2.3794977626380027 1.2678989190646426 0.30013065530291572 3.3373344375602829 2.0921947243655947 1.0029946004312478 1.5091184481745243 2.6789381555950933 0.080544520998757266 0.56502453079426262
decision_type=2 2 2 2 2 2 2 2 2 2 2 2 2 2
left_child=1 6 4 7 8 9 12 -4 -2 -3 -7 -6 -1 -8
right_child=2 5 3 -5 11 10 13 -9 -10 -11 -12 -13 -14 -15
leaf_value=-0.13768691932651358 0.034552900989850359 -0.061448684583107628 0.14547086424297759 0.26571336428324382 0.090660577019055694 -0.014949621576251407 -0.099163701732953399 0.18258223851521813 0.061621851612020419 -0.035951343973477684 0.0074582479007187343 0.11644668936729433 -0.1231663591933973 -0.079650977963492992
leaf_weight=71 30 24 27 14.999999999999998 24 33 30 30 27 45 42 30 33 21
leaf_count=71 30 24 27 15 24 33 30 30 27 45 42 30 33 21
internal_value=0 -0.0727776 0.11891 0.185984 0.0754021 -0.0227269 -0.119276 0.165003 0.047375 -0.04482 -0.00240121 0.104986 -0.133079 -0.0911291
internal_weight=0 299 183 72 111 144 155 57 57 69 75 54 104 51
internal_count=482 299 183 72 111 144 155 57 57 69 75 54 104 51
is_linear=0
shrinkage=0.1


Tree=2
num_leaves=15
num_cat=0
split_feature=0 0 0 0 0 0 0 0 0 0 0 0 0 0
split_gain=338.1 61.5376 38.7266 9.15911 6.8775 5.86692 5.65675 1.65193 1.10659 0.76125 0.668987 0.593512 0.48167 0.480944
threshold=1.8696864797988957 0.81958606684678925 3.0664464337164921 3.9759902100637654 2.4820596921139431 0.34635448944475122 1.3804482174510844 3.624340758660316 1.1285954838743144 2.1931763079231255 2.7872582373472246 1.6576493000445331 0.61150861946362889 0.13220352486668988
decision_type=2 2 2 2 2 2 2 2 2 2 2 2 2 2
left_child=1 5 4 7 9 13 8 -4 -3 -2 -6 -8 -7 -1
right_child=2 6 3 -5 10 12 11 -9 -10 -11 -12 -13 -14 -15
leaf_value=-0.12311752334237099 0.03869478096564611 -0.046008461484542268 0.14486846668379647 0.25080280502637231 0.088654058509402806 -0.086324387969392735 -0.0016082023359125571 0.18693899909655254 -0.022615828861792885 0.062589080880085621 0.11091492551344413 0.018104963066677252 -0.06695101658503215 -0.10768231771610402
leaf_weight=80 30 39 42 11.999999999999998 27 33 42 11.999999999999998 42 24 27 24 21 27
leaf_count=80 30 39 42 12 27 33 42 12 42 24 27 24 21 27
internal_value=0 -0.0629504 0.111429 0.171778 0.0745495 -0.105661 -0.0161716 0.154217 -0.0338789 0.0493145 0.0997845 0.00556022 -0.0787903 -0.119223
internal_weight=0 308 174 66 108 161 147 54 81 54 54 66 54 107
internal_count=482 308 174 66 108 161 147 54 81 54 54 66 54 107
is_linear=0
shrinkage=0.1


Tree=3
num_leaves=16
num_cat=0
split_feature=0 0 0 0 0 0 0 4 0 0 0 0 0 0 0
split_gain=273.892 44.2798 36.4293 8.8808 5.50083 4.72375 3.25126 1.24586 1.12472 0.90904 0.671555 0.565769 0.539806 0.270159 0.269724
threshold=1.7651643081931463 0.7021826620486874 2.9234179801015632 3.7666209605068901 2.3243369941168401 1.2046829006710758 0.25127027983306055 0.56170324641364811 3.2806947012913996 1.4567857102405124 2.0302383450903894 0.92621305318922686 2.6098181292772327 0.058046374836889458 0.47913390934298966
decision_type=2 2 2 2 2 2 2 2 2 2 2 2 2 2 2
left_child=1 6 4 8 10 11 13 -5 -4 -7 -2 -3 -6 -1 -8
right_child=2 5 3 7 12 9 14 -9 -10 -11 -12 -13 -14 -15 -16
leaf_value=-0.11245753303650888 0.025839388569196067 -0.054294471566875779 0.11336278319358827 0.22830714941024774 0.067413372463650187 -0.016509572221409707 -0.084240822990735376 0.17953765175559305 0.14149584814354227 0.0039464033974541566 0.047578188225075056 -0.034472891398602067 0.088941713174184173 -0.10183465557220656 -0.06924848382671675
leaf_weight=62 30 24 30 10.000000000000002 18 42 24 10.999999999999998 27 45 27 36 33 39 24
leaf_count=62 30 24 30 10 18 42 24 11 27 45 27 36 33 39 24
internal_value=0 -0.0597553 0.0950944 0.14717 0.0574844 -0.0208157 -0.0981722 0.202761 0.126689 -0.0059289 0.0361367 -0.0424015 0.0813435 -0.108356 -0.0767447
internal_weight=0 296 186 78 108 147 149 21 57 87 57 60 51 101 48
internal_count=482 296 186 78 108 147 149 21 57 87 57 60 51 101 48
is_linear=0
shrinkage=0.1


Tree=4
num_leaves=15
num_cat=0
split_feature=0 0 0 0 0 0 0 0 0 0 0 0 0 0
split_gain=222.032 40.381 25.6498 5.71061 5.19729 4.20869 3.46453 0.799622 0.634552 0.611369 0.508965 0.410789 0.393999 0.325337
threshold=1.8696864797988957 0.83658221065989158 3.1427752687574819 3.9759902100637654 2.523737712009801 0.36883927867215865 1.3804482174510844 3.5540213896973354 1.1051086880157803 2.2065913911794719 2.8314502717390146 1.6230224499787569 0.15040004005526744 0.63395158894396908
decision_type=2 2 2 2 2 2 2 2 2 2 2 2 2 2
left_child=1 5 4 7 9 12 8 -4 -3 -2 -6 -8 -1 -7
right_child=2 6 3 -5 10 13 11 -9 -10 -11 -12 -13 -14 -15
leaf_value=-0.09957997008978603 0.032261285230968939 -0.037172524314938171 0.11909516182812779 0.2049238701661428 0.074832589427630103 -0.068270352934346065 -0.0027114427401051622 0.14694100300470989 -0.0189160207245085 0.053237469742695491 0.093757711958002171 0.013132720539967219 -0.085673312346140548 -0.052348379152161742
leaf_weight=83 33 33 33 11.999999999999998 30 33 36 14.999999999999998 45 24 27 30 27 21
leaf_count=83 33 33 33 12 30 33 36 15 45 24 27 30 27 21
internal_value=0 -0.0510133 0.0902994 0.143222 0.0624452 -0.0849424 -0.0123718 0.127797 -0.0266399 0.0410934 0.0837971 0.00449045 -0.0961665 -0.0620785
internal_weight=0 308 174 60 114 164 144 48 78 57 57 66 110 54
internal_count=482 308 174 60 114 164 144 48 78 57 57 66 110 54
is_linear=0
shrinkage=0.1


Tree=5
num_leaves=15
num_cat=0
split_feature=0 0 0 0 0 0 0 0 0 0 0 0 0 0
split_gain=179.959 27.2426 25.6513 6.23865 3.77223 2.99373 1.9191 1.59119 0.54199 0.461162 0.398268 0.334785 0.193208 0.157995
threshold=1.7246648131858267 0.6882110177408628 2.8913716783733139 3.9759902100637654 2.279924372757185 1.1707580087770368 0.25127027983306055 3.3977818742866344 1.4347214150513656 2.5391013881840978 1.9829547071474376 0.92621305318922686 0.04912420375336226 0.4564385320267757
decision_type=2 2 2 2 2 2 2 2 2 2 2 2 2 2
left_child=1 6 4 7 10 11 12 -4 -7 -6 -2 -3 -1 -8
right_child=2 5 3 -5 9 8 13 -9 -10 -11 -12 -13 -14 -15
leaf_value=-0.091500116101766046 0.01799831291039785 -0.044748191811420306 0.092990825420770903 0.1844314843416214 0.051226788759231569 -0.014810776578055488 -0.070238030950228375 0.12362405896186829 0.00098439727222458242 0.070183241728580356 0.034739366946397003 -0.029399266839027407 -0.082626044324466172 -0.058142926957872182
leaf_weight=59 30 27 39 11.999999999999998 21 45 18 30 42 33 27 30 42 27
leaf_count=59 30 27 39 12 21 45 18 30 42 33 27 30 42 27
internal_value=0 -0.0497182 0.0750951 0.117883 0.0438714 -0.0188564 -0.0801572 0.10631 -0.00718552 0.0628113 0.0259283 -0.0366698 -0.0878099 -0.062981
internal_weight=0 290 192 81 111 144 146 69 87 54 57 57 101 45
internal_count=482 290 192 81 111 144 146 69 87 54 57 57 101 45
is_linear=0
shrinkage=0.1


Tree=6
num_leaves=15
num_cat=0
split_feature=0 0 0 0 0 0 0 0 0 0 0 0 0 0
split_gain=145.864 27.2843 16.3461 3.71226 3.08589 2.99394 2.24685 0.587553 0.409629 0.389039 0.315562 0.27716 0.268926 0.202074
threshold=1.9154756038225418 0.86030212231157621 3.1427752687574819 3.9759902100637654 2.5391013881840978 0.39810794506862507 1.4094292617366662 3.624340758660316 2.24145271124643 1.1707580087770368 0.15040004005526744 1.6339658640515979 2.8141765161553649 0.63395158894396908
decision_type=2 2 2 2 2 2 2 2 2 2 2 2 2 2
left_child=1 5 4 7 8 10 9 -4 -2 -3 -1 -8 -6 -7
right_child=2 6 3 -5 12 13 11 -9 -10 -11 -12 -13 -14 -15
leaf_value=-0.080728564564004013 0.02799817603645903 -0.02801257094575299 0.097415962318579352 0.16598834594090781 0.060696997245152796 -0.054398089945316322 -0.001230302336625755 0.12296663622061413 0.04516817318896453 -0.013845896135483468 -0.068761666019757584 0.011784124374389649 0.074898926218350731 -0.042087294161319733
leaf_weight=83 33 36 36 11.999999999999998 24 30 36 11.999999999999998 24 42 30 30 30 24
leaf_count=83 33 36 36 12 24 30 36 12 24 42 30 30 30 24
internal_value=0 -0.0407913 0.0741878 0.116241 0.0514565 -0.0682956 -0.00889408 0.103804 0.0352276 -0.0203844 -0.0775515 0.00468535 0.068587 -0.0489266
internal_weight=0 311 171 60 111 167 144 48 57 78 113 66 54 54
internal_count=482 311 171 60 111 167 144 48 57 78 113 66 54 54
is_linear=0
shrinkage=0.1


Tree=7
num_leaves=15
num_cat=0
split_feature=0 0 0 0 0 0 0 0 0 0 0 0 0 0
split_gain=118.168 18.4791 16.396 3.81007 2.71907 1.79829 1.56682 0.557906 0.341574 0.281332 0.27722 0.274376 0.154616 0.137045
threshold=1.7485078409698915 0.72585657726327846 2.9497351783773618 3.8508390439054376 2.3243369941168401 1.2408118842545399 0.25127027983306055 3.3373344375602829 2.0302383450903894 2.6435491888032003 1.0029946004312478 1.4786134994027755 0.51362424226878767 0.04912420375336226
decision_type=2 2 2 2 2 2 2 2 2 2 2 2 2 2
left_child=1 6 4 7 8 10 13 -4 -2 -6 -3 -7 -8 -1
right_child=2 5 3 -5 9 11 12 -9 -10 -11 -12 -13 -14 -15
leaf_value=-0.07427724680658114 0.016283219465703675 -0.033918136027124193 0.07591083168983459 0.13807088534037273 0.045968905712167427 -0.0094739450667148985 -0.054858172822881628 0.095724973634437285 0.031449492551662309 0.060494698484738665 -0.020513662406139905 0.0023880003915669828 -0.043826904023687052 -0.066803450953392754
leaf_weight=59 33 27 30 18 24 39 27 27 27 30 36 39 24 42
leaf_count=59 33 27 30 18 24 39 27 27 27 30 36 39 24 42
internal_value=0 -0.0397671 0.0616495 0.0979623 0.0377594 -0.0136924 -0.0639547 0.0852965 0.023108 0.0540388 -0.0262584 -0.00354297 -0.049667 -0.0711693
internal_weight=0 293 189 75 114 141 152 57 60 54 63 78 51 101
internal_count=482 293 189 75 114 141 152 57 60 54 63 78 51 101
is_linear=0
shrinkage=0.1


Tree=8
num_leaves=15
num_cat=0
split_feature=0 0 0 0 0 0 0 0 0 0 0 0 0 0
split_gain=95.8108 17.9045 10.8121 2.41926 2.16131 1.97219 1.48455 0.317599 0.271721 0.23526 0.213978 0.212969 0.210749 0.131939
threshold=1.9154756038225418 0.86030212231157621 3.2005231055819716 3.9759902100637654 2.5391013881840978 0.39810794506862507 1.3537475508510624 3.624340758660316 2.1446268376725492 1.5913511070676887 0.12280433347137282 2.8562721331336278 1.063948316801073 0.59338742578246861
decision_type=2 2 2 2 2 2 2 2 2 2 2 2 2 2
left_child=1 5 4 7 8 10 12 -4 -2 -8 -1 -6 -3 -7
right_child=2 6 3 -5 11 13 9 -9 -10 -11 -12 -13 -14 -15
leaf_value=-0.065828085951990897 0.02048086958626906 -0.025025546799103422 0.07998259230093524 0.13558241923650105 0.050316355526447303 -0.045146525899569197 -0.002783505106829883 0.098980177938938152 0.034465020895004271 0.0086489141711758241 -0.056488502025604251 0.062558370607870603 -0.01354870554059744 -0.035198944211006167
leaf_weight=77 24 24 33 11.999999999999998 30 24 36 11.999999999999998 33 36 36 27 48 30
leaf_count=77 24 24 33 12 30 24 36 12 33 36 36 27 48 30
internal_value=0 -0.0330599 0.0601265 0.0956873 0.0423461 -0.0553403 -0.00722081 0.0850486 0.028577 0.0029327 -0.0628526 0.0561152 -0.0173743 -0.0396201
internal_weight=0 311 171 57 114 167 144 45 57 72 113 57 72 54
internal_count=482 311 171 57 114 167 144 45 57 72 113 57 72 54
is_linear=0
shrinkage=0.1


Tree=9
num_leaves=15
num_cat=0
split_feature=3 24 18 1 4 24 24 3 24 25 14 3 5 11
split_gain=62.7095 12.9555 4.51187 4.16106 2.37927 1.87818 1.71259 1.12749 0.874234 0.776676 0.581552 0.226044 0.133473 0.09543
threshold=63.090000000000011 24.996946906465237 26.070243992209864 20.500000000000004 0.33715099571784929 23.875573952130164 24.994822241345592 74.655000000000015 24.99786283402922 24.416666666666675 117.39000000000001 49.125000000000007 31.533645799356659 43.953576918998756
decision_type=2 2 2 2 2 2 2 2 2 2 2 2 2 2
left_child=1 3 5 6 9 13 -1 -7 12 -4 -6 -10 -3 -2
right_child=2 8 4 -5 10 7 -8 -9 11 -11 -12 -13 -14 -15
leaf_value=0.069629314292052935 0.014083402130442358 0.011500450658301513 -0.030554436548398092 0.0090504696962478409 -0.045623629664381347 -0.011571418555187328 0.045279989270276801 -0.035621157170019367 0.0059709755179937936 -0.056666974399400799 -0.020203772539065946 -0.0088352265615208921 0.023856211431762753 0.00085634376853704452
leaf_weight=88 12.000000000000002 18 12.999999999999998 17 11.999999999999998 35 43 44 15.999999999999998 92 36 29 17 9.9999999999999982
leaf_count=88 12 18 13 17 12 35 43 44 16 92 36 29 17 10
internal_value=0 0.0380709 -0.0341738 0.0555965 -0.0450025 -0.01777 0.0616368 -0.0249662 0.00564847 -0.053434 -0.0265587 -0.0035708 0.0175018 0.0080711
internal_weight=0 228 254 148 153 101 131 79 80 105 48 45 35 22
internal_count=482 228 254 148 153 101 131 79 80 105 48 45 35 22
is_linear=0
shrinkage=0.1


Tree=10
num_leaves=15
num_cat=0
split_feature=0 0 0 0 0 0 0 0 0 0 0 0 0 0
split_gain=64.3925 9.74503 9.66334 2.23226 1.81584 0.927363 0.904606 0.382864 0.205621 0.18559 0.14239 0.105336 0.0886685 0.0859483
threshold=1.7246648131858267 3.0664464337164921 0.74389966430365828 3.9759902100637654 2.3794977626380027 0.25127027983306055 1.2306805539921104 3.5037545973180388 1.9829547071474376 2.7670150646989291 1.5245054717129147 0.95410263968137632 0.022402984454704653 0.56502453079426262
decision_type=2 2 2 2 2 2 2 2 2 2 2 2 2 2
left_child=2 4 5 7 8 12 11 -3 -2 -6 -8 -4 -1 -7
right_child=1 3 6 -5 9 13 10 -9 -10 -11 -12 -13 -14 -15
leaf_value=-0.055141764120622119 0.011054542387525242 0.060661959286892053 -0.025384822487831117 0.11506124337514241 0.035644113620122278 -0.039380325422142495 -0.0062916788637784188 0.077934348299389791 0.02226424598031574 0.046767366727193199 0.0026892384463550385 -0.016473014052543377 -0.049192201702491098 -0.031196640644754681
leaf_weight=55 30 33 21 11.999999999999998 30 33 51 21 36 30 27 36 46 21
leaf_count=55 30 33 21 12 30 33 51 21 36 30 27 36 46 21
internal_value=0 0.0449203 -0.0297403 0.0760485 0.028615 -0.0467762 -0.0101806 0.067379 0.0171689 0.0412057 -0.0031829 -0.0197563 -0.0524321 -0.0361978
internal_weight=0 192 290 66 126 155 135 54 66 60 78 57 101 54
internal_count=482 192 290 66 126 155 135 54 66 60 78 57 101 54
is_linear=0
shrinkage=0.1


Tree=11
num_leaves=15
num_cat=0
split_feature=0 0 0 0 0 0 0 0 0 0 0 0 0 0
split_gain=52.1579 7.92858 7.8286 1.91986 1.44858 0.799549 0.687232 0.20416 0.197386 0.173648 0.125698 0.0881359 0.0713258 0.061483
threshold=1.7246648131858267 3.2192064245158867 0.72585657726327846 2.4306097612223332 3.9759902100637654 1.2046829006710758 0.21272632276791284 2.7670150646989291 2.0921947243655947 3.624340758660316 1.5169331955808063 0.95410263968137632 0.46856296577187095 0.022402984454704653
decision_type=2 2 2 2 2 2 2 2 2 2 2 2 2 2
left_child=2 3 6 8 9 11 13 -5 -2 -3 -7 -4 -8 -1
right_child=1 4 5 7 -6 10 12 -9 -10 -11 -12 -13 -14 -15
leaf_value=-0.049627586765722799 0.011230663983867718 0.060092414021492006 -0.023207520321011546 0.032727162595148442 0.10355511779586475 -0.0061588652687622055 -0.037426613643765448 0.043872769744623279 0.022019866804281873 0.07432579298814139 0.0019986969092860817 -0.015243151422702906 -0.03011263281106949 -0.044580100372780207
leaf_weight=55 39 30 24 27 11.999999999999998 51 24 42 30 11.999999999999998 30 33 30 43
leaf_count=55 39 30 24 27 12 51 24 42 30 12 30 33 30 43
internal_value=0 0.0404283 -0.0267663 0.0277165 0.0729138 -0.00952279 -0.0424216 0.0395114 0.0159216 0.0641591 -0.00313755 -0.0185966 -0.0333633 -0.0474129
internal_weight=0 192 290 138 54 138 152 69 69 42 81 57 54 98
internal_count=482 192 290 138 54 138 152 69 69 42 81 57 54 98
is_linear=0
shrinkage=0.1


Tree=12
num_leaves=15
num_cat=0
split_feature=0 0 0 0 0 0 0 0 0 0 0 0 0 0
split_gain=42.2479 6.43919 6.34817 1.38882 1.28118 0.756482 0.450692 0.22481 0.157605 0.119153 0.111208 0.0826559 0.0504794 0.0428242
threshold=1.7246648131858267 3.1250523441443678 0.6882110177408628 3.9759902100637654 2.3243369941168401 1.1982090891412438 0.20260106713777024 3.5210372255014959 2.7294492345295018 1.9829547071474376 1.5245054717129147 0.92621305318922686 0.42902786134135651 0.022402984454704653
decision_type=2 2 2 2 2 2 2 2 2 2 2 2 2 2
left_child=2 4 6 7 9 11 13 -3 -6 -2 -7 -4 -8 -1
right_child=1 3 5 -5 8 10 12 -9 -10 -11 -12 -13 -14 -15
leaf_value=-0.044664829156615515 0.0088260217880209279 0.050485209985212845 -0.021871201086927347 0.093199608723322558 0.027971037179231648 -0.0055704697631626283 -0.034960642882755827 0.064378333422872761 0.037785003168715373 0.017533740875395862 0.0022204448980995008 -0.014410603701165229 -0.028568127403656642 -0.040364562869071967
leaf_weight=55 30 33 27 11.999999999999998 30 57 21 18 36 33 27 33 30 40
leaf_count=55 30 33 27 12 30 57 21 18 36 33 27 33 30 40
internal_value=0 0.0363854 -0.0240897 0.0625907 0.0235875 -0.00919192 -0.0387833 0.0553887 0.0333241 0.0133872 -0.00306625 -0.0177679 -0.0312003 -0.0428542
internal_weight=0 192 290 63 129 144 146 51 66 63 84 60 51 95
internal_count=482 192 290 63 129 144 146 51 66 63 84 60 51 95
is_linear=0
shrinkage=0.1


Tree=13
num_leaves=15
num_cat=0
split_feature=0 0 0 0 0 0 0 0 0 0 0 0 0 0
split_gain=34.2297 5.39814 4.97871 1.27907 0.890087 0.616539 0.325741 0.272261 0.106407 0.0831985 0.0750533 0.0738942 0.0451972 0.0242403
threshold=1.6740218919248109 2.9770353799480942 0.63395158894396908 3.9759902100637654 2.279924372757185 1.1982090891412438 0.18689992492018911 3.4294099596635359 2.6789381555950933 1.3400211673505911 0.92621305318922686 1.9622158167714672 0.42902786134135651 0.022402984454704653
decision_type=2 2 2 2 2 2 2 2 2 2 2 2 2 2
left_child=2 4 6 7 11 10 13 -3 -6 -7 -4 -2 -8 -1
right_child=1 3 5 -5 8 9 12 -9 -10 -11 -12 -13 -14 -15
leaf_value=-0.040198346159674908 0.0073737997685869548 0.042022472620010382 -0.019880491942167285 0.083879647776484489 0.023983239901788307 -0.0072490387658278145 -0.031948912585223165 0.055562803259602306 0.032212073405583706 -0.00061230278304577179 -0.012969543355883975 0.014392546986540159 -0.026162772708468968 -0.03680175779496922
leaf_weight=55 30 33 30 11.999999999999998 33 30 27 27 30 51 33 30 27 34
leaf_count=55 30 33 30 12 33 30 27 27 30 51 33 30 27 34
internal_value=0 0.0323297 -0.0219662 0.0540763 0.0196 -0.00884103 -0.0351831 0.0481156 0.0279017 -0.00307035 -0.0162605 0.0108832 -0.0290558 -0.0389008
internal_weight=0 195 287 72 123 144 143 60 63 81 63 60 54 89
internal_count=482 195 287 72 123 144 143 60 63 81 63 60 54 89
is_linear=0
shrinkage=0.1


Tree=14
num_leaves=15
num_cat=0
split_feature=0 0 0 0 0 0 0 0 0 0 0 0 0 0
split_gain=27.7356 4.59374 3.94382 0.858245 0.756246 0.490692 0.400655 0.104122 0.0933044 0.0900721 0.0879476 0.0683117 0.040809 0.0402692
threshold=1.7922871284499007 0.74389966430365828 3.2192064245158867 2.4820596921139431 3.9759902100637654 1.2997915855978346 0.25127027983306055 3.624340758660316 2.1446268376725492 2.8562721331336278 1.0230357846048086 1.5476131499350287 0.07167798673835897 0.56502453079426262
decision_type=2 2 2 2 2 2 2 2 2 2 2 2 2 2
left_child=1 6 3 8 7 10 12 -4 -2 -5 -3 -7 -1 -8
right_child=2 5 4 9 -6 11 13 -9 -10 -11 -12 -13 -14 -15
leaf_value=-0.035927154880303604 0.0094828654804991353 -0.015879609435796738 0.043877525130907702 0.025761009421613482 0.075491684178511306 -0.0026726400201802052 -0.025938929346474734 0.054899100214242935 0.017259439246522058 0.033180175820986431 -0.0087904802479204687 0.0035751785737617569 -0.031730235119660694 -0.020337266652357012
leaf_weight=65 36 30 30 36 11.999999999999998 42 33 11.999999999999998 27 30 42 30 36 21
leaf_count=65 36 30 30 36 12 42 33 12 27 30 42 30 36 21
internal_value=0 -0.0187666 0.0306623 0.0211643 0.0533521 -0.00590683 -0.0307137 0.0470265 0.0128157 0.0291334 -0.0117443 -6.93823e-05 -0.0344312 -0.0237605
internal_weight=0 299 183 129 54 144 155 42 63 66 72 72 101 54
internal_count=482 299 183 129 54 144 155 42 63 66 72 72 101 54
is_linear=0
shrinkage=0.1


Tree=15
num_leaves=15
num_cat=0
split_feature=0 0 0 0 0 0 0 0 0 0 0 0 0 0
split_gain=22.4755 3.55556 3.26723 0.871203 0.612559 0.407362 0.215639 0.11052 0.0843384 0.0729584 0.0554507 0.0491116 0.0306316 0.0160134
threshold=1.6740218919248109 3.2192064245158867 0.63395158894396908 2.4820596921139431 3.9759902100637654 1.1982090891412438 0.18689992492018911 2.0921947243655947 3.624340758660316 2.8562721331336278 1.4094292617366662 0.92621305318922686 0.42902786134135651 0.022402984454704653
decision_type=2 2 2 2 2 2 2 2 2 2 2 2 2 2
left_child=2 3 6 7 8 11 13 -2 -3 -5 -7 -4 -8 -1
right_child=1 4 5 9 -6 10 12 -9 -10 -11 -12 -13 -14 -15
leaf_value=-0.032585795901038432 0.0070642125881498763 0.0394897731145223 -0.016126175646980604 0.023184908305605254 0.067942513277133312 -0.0051914921794564304 -0.025902737014823492 0.014797593517736955 0.049409190316994984 0.029862158596515656 4.4981540191829915e-05 -0.010535754421443652 -0.021139324318479608 -0.029825119586551891
leaf_weight=55 42 30 30 36 11.999999999999998 39 27 33 11.999999999999998 30 42 33 27 34
leaf_count=55 42 30 30 36 12 39 27 33 12 30 42 33 27 34
internal_value=0 0.0261972 -0.0177995 0.0178407 0.0480169 -0.00716697 -0.0285064 0.0104669 0.0423239 0.02622 -0.00247628 -0.0131979 -0.023521 -0.0315312
internal_weight=0 195 287 141 54 144 143 75 42 66 81 63 54 89
internal_count=482 195 287 141 54 144 143 75 42 66 81 63 54 89
is_linear=0
shrinkage=0.1


Tree=16
num_leaves=14
num_cat=0
split_feature=2 24 2 25 25 25 2 24 4 2 23 18 3
split_gain=14.4701 2.95043 1.4699 0.832297 0.660314 0.445938 0.377197 0.303861 0.145045 0.123514 0.105295 0.104216 0.0515996
threshold=29.150000000000002 24.996619594193323 25.545000000000005 23.583333333333339 23.694444444444446 23.916666666666671 32.900000000000013 24.997527280832021 0.30467588383938177 27.050000000000001 59.33871368344753 26.030704253519488 48.250000000000007
decision_type=2 2 2 2 2 2 2 2 2 2 2 2 2
left_child=2 4 3 11 -2 -4 -6 12 -5 -7 -9 -1 -3
right_child=1 7 5 8 6 9 -8 10 -10 -11 -12 -13 -14
leaf_value=0.0032158638308332718 0.048871789872646336 0.015813482888042924 0.0073827921723326048 -0.026385508901482332 0.014082793323323132 -0.013534541271308074 0.029220730181462984 0.0024753483128733935 -0.016917329703114534 -0.0065957808887168517 -0.0089424366224557152 -0.010889346636831762 0.0072865546003661368
leaf_weight=11.000000000000002 14.999999999999998 20.000000000000004 18 109 20 46 93 42 19 58 9.9999999999999982 9.9999999999999982 10.999999999999998
leaf_count=11 15 20 18 109 20 46 93 42 19 58 10 10 11
internal_value=0 0.0196361 -0.0152886 -0.0219528 0.0291583 -0.00714962 0.0265414 0.00495135 -0.0249801 -0.00966485 0.00027962 -0.0035009 0.0127878
internal_weight=0 211 271 149 128 122 113 83 128 104 52 21 31
internal_count=482 211 271 149 128 122 113 83 128 104 52 21 31
is_linear=0
shrinkage=0.1


Tree=17
num_leaves=15
num_cat=0
split_feature=0 0 0 0 0 0 0 0 4 0 0 0 0 0
split_gain=15.1233 2.68423 2.11408 0.557407 0.470864 0.218262 0.195542 0.0854559 0.0705424 0.0429388 0.0423889 0.0287379 0.0180451 0.0172806
threshold=1.6576493000445331 3.2192064245158867 0.74389966430365828 2.3015379334310344 3.9759902100637654 0.30013065530291572 1.2568431893066137 2.7670150646989291 0.54566906287243133 1.0230357846048086 1.9829547071474376 0.09969356448403531 1.5476131499350287 0.59338742578246861
decision_type=2 2 2 2 2 2 2 2 2 2 2 2 2 2
left_child=2 3 5 10 8 11 9 -5 -3 -4 -2 -1 -8 -7
right_child=1 4 6 7 -6 13 12 -9 -10 -11 -12 -13 -14 -15
leaf_value=-0.026347391166397047 0.0050070166160973411 0.03233838581613132 -0.011930699398120245 0.016232022684481411 0.05769730377942324 -0.018662013474738958 -0.0022938377167520231 0.022871629077763786 0.04103212973901204 -0.0068081616113583251 0.010096644610166551 -0.02267822210987409 0.0016797601501457394 -0.014810152020719317
leaf_weight=74 36 28 30 36 11.999999999999998 33 48 42 13.999999999999998 36 30 30 14.999999999999998 18
leaf_count=74 36 28 30 36 12 33 48 42 14 36 30 30 15 18
internal_value=0 0.0212142 -0.0147902 0.0140841 0.0402276 -0.0226612 -0.00533273 0.0198072 0.0352363 -0.00913659 0.00732048 -0.025289 -0.00134774 -0.0173025
internal_weight=0 198 284 144 54 155 129 78 42 66 66 104 63 51
internal_count=482 198 284 144 54 155 129 78 42 66 66 104 63 51
is_linear=0
shrinkage=0.1


Tree=18
num_leaves=15
num_cat=0
split_feature=0 0 0 24 0 0 0 17 0 0 0 0 0 0
split_gain=12.2628 2.08425 1.86401 0.422448 0.314777 0.226919 0.186029 0.114944 0.0476543 0.0352982 0.0328312 0.0270415 0.0240318 0.0226735
threshold=1.8047941683425586 0.83658221065989158 3.2192064245158867 24.985810475870579 2.4820596921139431 0.30013065530291572 1.2997915855978346 187.50747483572351 2.9497351783773618 1.5546643588616613 2.2065913911794719 1.0230357846048086 0.07167798673835897 0.59338742578246861
decision_type=2 2 2 2 2 2 2 2 2 2 2 2 2 2
left_child=1 5 4 -4 10 12 11 -5 -6 -8 -2 -3 -1 -7
right_child=2 6 3 7 8 13 9 -9 -10 -11 -12 -13 -14 -15
leaf_value=-0.023937556766546689 0.0070397549774497753 -0.010193729471592677 0.048209445649071744 0.033567814901471142 0.016928462369574442 -0.016795812050501506 -0.0016640651872795488 0.021223274686119772 0.022697549632617407 0.002764268277678639 0.011944058076256798 -0.0057988036379572894 -0.020797617504229912 -0.012888334387982335
leaf_weight=65 39 21 19 24 45 33 45 10.999999999999998 21 30 21 42 39 27
leaf_count=65 39 21 19 24 45 33 45 11 21 30 21 42 39 27
internal_value=0 -0.0123141 0.0206604 0.0362049 0.0139985 -0.0199347 -0.00325778 0.0296881 0.0187641 0.000107268 0.00875626 -0.00726378 -0.0227601 -0.0150374
internal_weight=0 302 180 54 126 164 138 35 66 75 60 63 104 60
internal_count=482 302 180 54 126 164 138 35 66 75 60 63 104 60
is_linear=0
shrinkage=0.1


Tree=19
num_leaves=15
num_cat=0
split_feature=0 0 0 24 0 0 0 5 0 0 0 0 0 0
split_gain=9.93286 1.68824 1.52736 0.495944 0.361015 0.183805 0.151647 0.110033 0.0703812 0.0399288 0.0338569 0.0195518 0.0183656 0.0174468
threshold=1.8047941683425586 0.83658221065989158 3.4294099596635359 24.988637493080347 2.7294492345295018 0.30013065530291572 1.2568431893066137 35.594356471560481 2.2065913911794719 3.0330052841585045 1.5476131499350287 0.09969356448403531 0.59338742578246861 1.0230357846048086
decision_type=2 2 2 2 2 2 2 2 2 2 2 2 2 2
left_child=1 5 4 -4 8 11 13 -5 -2 -6 -8 -1 -7 -3
right_child=2 6 3 7 9 12 10 -9 -10 -11 -12 -13 -14 -15
leaf_value=-0.021357084508683233 0.0063357794696154704 -0.009174356449927602 0.051178586802312312 0.035795886516571035 0.017049286514520645 -0.015116230849966859 -0.0018463631898138527 0.022253815333048502 0.012235261677276522 0.022208665609359742 0.0023145455337891525 -0.018330637812614441 -0.011599500780856168 -0.0055474651304797994
leaf_weight=74 39 21 13.999999999999998 10.000000000000002 30 33 48 14.999999999999998 42 30 33 30 27 36
leaf_count=74 39 21 14 10 30 33 48 15 42 30 33 30 27 36
internal_value=0 -0.0110827 0.0185943 0.0361094 0.0137498 -0.0179413 -0.002932 0.0276706 0.00939477 0.019629 -0.000151178 -0.0204841 -0.0135337 -0.00688369
internal_weight=0 302 180 39 141 164 138 25 81 60 81 104 60 57
internal_count=482 302 180 39 141 164 138 25 81 60 81 104 60 57
is_linear=0
shrinkage=0.1


Tree=20
num_leaves=15
num_cat=0
split_feature=0 0 0 24 0 0 0 2 0 0 0 0 0 0
split_gain=8.05203 1.49454 1.14708 0.401715 0.242388 0.149215 0.145686 0.126646 0.045923 0.0315856 0.0277624 0.0176009 0.017543 0.0147287
threshold=1.9154756038225418 0.83658221065989158 3.4294099596635359 24.988637493080347 2.7670150646989291 0.25127027983306055 1.2997915855978346 36.985000000000007 2.3015379334310344 1.5546643588616613 3.0330052841585045 0.51362424226878767 1.0230357846048086 0.022402984454704653
decision_type=2 2 2 2 2 2 2 2 2 2 2 2 2 2
left_child=1 5 4 -4 8 13 12 -5 -2 -8 -6 -7 -3 -1
right_child=2 6 3 7 10 11 9 -9 -10 -11 -12 -13 -14 -15
leaf_value=-0.019633797244592147 0.0068655487090253688 -0.0082569207818735217 0.046060728601046971 0.030714962879816683 0.015567790358154863 -0.014257945285903085 -0.0013407617365656837 0.016186503581702712 0.011818477987415262 0.0025474140760100759 0.019987798879543942 -0.010880374308261607 -0.004717049698506128 -0.017208960457988406
leaf_weight=55 39 21 13.999999999999998 15.000000000000002 27 27 45 9.9999999999999982 36 39 30 36 42 46
leaf_count=55 39 21 14 15 27 27 45 10 36 39 30 36 42 46
internal_value=0 -0.00958401 0.0174306 0.0324985 0.0129787 -0.0161471 -0.00226188 0.0249036 0.00924295 0.000464463 0.0178941 -0.0123279 -0.00589701 -0.0185294
internal_weight=0 311 171 39 132 164 147 25 75 84 57 63 63 101
internal_count=482 311 171 39 132 164 147 25 75 84 57 63 63 101
is_linear=0
shrinkage=0.1


Tree=21
num_leaves=15
num_cat=0
split_feature=0 0 0 0 0 0 0 0 0 0 0 0 0 24
split_gain=6.52927 1.10969 0.976035 0.27903 0.217802 0.0963498 0.0943578 0.036643 0.027778 0.0238734 0.0169856 0.0151383 0.0117682 0.00733333
threshold=1.7246648131858267 3.2192064245158867 0.74389966430365828 3.9759902100637654 2.4820596921139431 1.2568431893066137 0.18689992492018911 3.5037545973180388 1.9829547071474376 2.9497351783773618 1.0230357846048086 0.42902786134135651 1.5245054717129147 24.993167941888906
decision_type=2 2 2 2 2 2 2 2 2 2 2 2 2 2
left_child=2 4 6 7 8 10 13 -3 -2 -6 -4 -8 -7 -1
right_child=1 3 5 -5 9 12 11 -9 -10 -11 -12 -13 -14 -15
leaf_value=-0.017576473439112308 0.0034206806557873885 0.019661186351662592 -0.0077428326134880397 0.039905411377549174 0.012398526238070594 -0.0016882146438417425 -0.013839482267697654 0.025568647115003496 0.0074047890680265576 0.016481845258247287 -0.0045210135997169549 -0.010759157343552664 0.0009877039990560325 -0.015556779146194459
leaf_weight=64 30 21 30 11.999999999999998 45 42 27 21 42 21 36 39 27 25
leaf_count=64 30 21 30 12 45 42 27 21 42 21 36 39 27 25
internal_value=0 0.014304 -0.00947023 0.0264572 0.00954836 -0.00325391 -0.0148844 0.0226149 0.00574474 0.0136978 -0.00598548 -0.0120193 -0.000641116 -0.0170091
internal_weight=0 192 290 54 138 135 155 42 72 66 66 66 69 89
internal_count=482 192 290 54 138 135 155 42 72 66 66 66 69 89
is_linear=0
shrinkage=0.1


Tree=22
num_leaves=15
num_cat=0
split_feature=0 0 0 16 0 5 0 0 0 0 0 0 0 0
split_gain=5.29091 0.944237 0.740598 0.243172 0.182794 0.135499 0.0924454 0.0529268 0.0269086 0.0155121 0.0114293 0.010946 0.00717724 0.00470556
threshold=1.6576493000445331 3.2005231055819716 0.63395158894396908 345.4524559325809 2.3015379334310344 35.440253468942664 1.1982090891412438 0.17313234279390682 2.7670150646989291 1.9829547071474376 1.0029946004312478 1.4347214150513656 0.42902786134135651 1.0000000180025095e-35
decision_type=2 2 2 2 2 2 2 2 2 2 2 2 2 2
left_child=2 4 7 -3 9 -5 10 13 -6 -2 -4 -8 -9 -1
right_child=1 3 6 5 8 -7 11 12 -10 -11 -12 -13 -14 -15
leaf_value=-0.015997915992549822 0.0029193843378581934 0.033864727709442377 -0.007621008633739418 0.026514799706637861 0.0095632354728877548 0.014729789651930334 -0.0024009742563413012 -0.012520341624816259 0.013354576359956695 0.0059982793428935109 -0.0048992705151990612 -2.4684106918155322e-05 -0.010272975955848342 -0.014492225093500954
leaf_weight=51 36 15.999999999999998 36 15.999999999999998 36 25 42 30 39 30 27 36 27 35
leaf_count=51 36 16 36 16 36 25 42 30 39 30 27 36 27 35
internal_value=0 0.0125478 -0.00874813 0.0234091 0.0081571 0.0193288 -0.00360543 -0.0138189 0.0115347 0.00431888 -0.00645455 -0.00130422 -0.0114558 -0.0153851
internal_weight=0 198 284 57 141 41 141 143 75 66 63 78 57 86
internal_count=482 198 284 57 141 41 141 143 75 66 63 78 57 86
is_linear=0
shrinkage=0.1


Tree=23
num_leaves=15
num_cat=0
split_feature=0 0 0 16 0 17 0 0 0 0 0 0 0 24
split_gain=4.28606 0.769516 0.620556 0.297307 0.205112 0.175293 0.0745057 0.0473428 0.0314655 0.0201046 0.0109677 0.00898193 0.00701997 0.00406313
threshold=1.6740218919248109 3.4294099596635359 0.6882110177408628 353.68354041137383 2.4820596921139431 187.50747483572351 1.2306805539921104 0.17313234279390682 2.9497351783773618 2.1446268376725492 1.0134773429581225 1.5169331955808063 0.42902786134135651 24.993167941888906
decision_type=2 2 2 2 2 2 2 2 2 2 2 2 2 2
left_child=2 4 7 -3 9 -5 10 13 -6 -2 -4 -8 -9 -1
right_child=1 3 6 5 8 -7 11 12 -10 -11 -12 -13 -14 -15
leaf_value=-0.01424961896846071 0.0033028864604906028 0.038872450229246173 -0.00666840560734272 0.024517149438983511 0.010025420809785525 0.0081601363047957426 -0.001705558169487631 -0.011268307343125344 0.013991875304943986 0.0067138384889673308 -0.004079489192614953 0.00057432702214336377 -0.0091049815466006604 -0.012674264338883488
leaf_weight=64 48 9.9999999999999982 36 19.000000000000004 45 9.9999999999999982 48 30 36 27 30 27 30 22
leaf_count=64 48 10 36 19 45 10 48 30 36 27 30 27 30 22
internal_value=0 0.0114401 -0.00777288 0.0240039 0.00829913 0.0188768 -0.00304119 -0.0123425 0.0117883 0.00453083 -0.00549163 -0.0008848 -0.0101866 -0.0138466
internal_weight=0 195 287 39 156 29 141 146 81 75 66 75 60 86
internal_count=482 195 287 39 156 29 141 146 81 75 66 75 60 86
is_linear=0
shrinkage=0.1


Tree=24
num_leaves=13
num_cat=0
split_feature=0 0 0 0 0 0 0 0 0 3 0 0
split_gain=3.47963 0.644351 0.526869 0.179989 0.0802884 0.0496542 0.0377562 0.0195098 0.0107948 0.00976622 0.00932293 0.00760768
threshold=1.9154756038225418 0.92621305318922686 3.8508390439054376 2.9497351783773618 0.36883927867215865 1.3340591402796342 2.4820596921139431 3.4294099596635359 1.5546643588616613 64.000000000000014 0.09969356448403531 0.61150861946362889
decision_type=2 2 2 2 2 2 2 2 2 2 2 2
left_child=1 4 3 6 10 9 -2 -5 -7 -3 -1 -6
right_child=2 5 -4 7 11 8 -8 -9 -10 -11 -12 -13
leaf_value=-0.012638093601610209 0.0050487837416357271 -0.0049291973778357112 0.027641564214395155 0.012592687830328943 -0.0086715477705001844 -0.00071662167652110115 0.0090228787064552309 0.016428018112977349 0.0016362000707513058 -0.0023249510413734242 -0.010676064383652477 -0.0064712634535901486
leaf_weight=74 51 24 18 36 30 39 45 21 39 36 36 33
leaf_count=74 51 24 18 36 30 39 45 21 39 36 36 33
internal_value=0 -0.00630029 0.0114584 0.00955453 -0.0103656 -0.00120388 0.00691164 0.0140057 0.000459789 -0.00336665 -0.011996 -0.00751902
internal_weight=0 311 171 153 173 138 96 57 78 60 110 63
internal_count=482 311 171 153 173 138 96 57 78 60 110 63
is_linear=0
shrinkage=0.1


Tree=25
num_leaves=15
num_cat=0
split_feature=0 0 0 23 13 0 0 0 0 0 0 0 3 24
split_gain=2.8185 0.5225 0.427568 0.291499 0.210922 0.0974715 0.0562135 0.0474618 0.0149256 0.0122552 0.00878088 0.00735112 0.00668112 0.00580518
threshold=1.9154756038225418 0.86030212231157621 3.5037545973180388 58.014071669522274 143.68500000000003 2.7294492345295018 0.25127027983306055 1.3340591402796342 2.279924372757185 3.0330052841585045 1.5476131499350287 0.56502453079426262 64.000000000000014 24.964136585295368
decision_type=2 2 2 2 2 2 2 2 2 2 2 2 2 2
left_child=1 6 5 4 -4 8 13 12 -2 -7 -9 -8 -3 -1
right_child=2 7 3 -5 -6 9 11 10 -10 -11 -12 -13 -14 -15
leaf_value=-0.011475817546032477 0.0038830327225797298 -0.0045182885527610779 0.025259556323289863 0.034791778400540353 0.0059419422195507929 0.0091504534706473347 -0.0082621748474511238 -0.00073221740167355169 0.0067626195494085552 0.011887111980468035 0.0013961196985162263 -0.0061514348694772436 -0.002444165271547873 -0.0098462624009698629
leaf_weight=69 36 25 10.000000000000002 9.9999999999999982 12.999999999999998 30 33 36 36 36 42 33 41 32
leaf_count=69 36 25 10 10 13 30 33 36 36 36 42 33 41 32
internal_value=0 -0.00567026 0.0103126 0.0205381 0.0143409 0.00786734 -0.00947641 -0.00125619 0.00532283 0.0106432 0.00041381 -0.0072068 -0.00322982 -0.0109595
internal_weight=0 311 171 33 23 138 167 144 72 66 78 66 66 101
internal_count=482 311 171 33 23 138 167 144 72 66 78 66 66 101
is_linear=0
shrinkage=0.1


Tree=26
num_leaves=13
num_cat=0
split_feature=0 0 0 0 0 0 0 0 0 0 0 0
split_gain=2.2849 0.390234 0.364682 0.152008 0.039905 0.0334602 0.022675 0.0217883 0.00672349 0.00540766 0.00512077 0.0028787
threshold=1.7651643081931463 3.8508390439054376 0.74389966430365828 2.7670150646989291 1.2568431893066137 0.18689992492018911 2.2065913911794719 3.2192064245158867 1.0230357846048086 0.51362424226878767 1.5476131499350287 1.0000000180025095e-35
decision_type=2 2 2 2 2 2 2 2 2 2 2 2
left_child=2 3 5 6 8 11 -2 -5 -4 -7 -6 -1
right_child=1 -3 4 7 10 9 -8 -9 -10 -11 -12 -13
leaf_value=-0.01056177122335808 0.0027987201832648783 0.022679038159549237 -0.0046766586943219109 0.0088700516947678148 -0.00081925465698683793 -0.0078525902082522709 0.0059732742483417194 0.012222662785400948 -0.0026496410748222845 -0.0060115538123581141 0.00090220026861600317 -0.0094119868976505188
leaf_weight=51 45 18 30 42 48 39 45 36 36 27 27 38
leaf_count=51 45 18 30 42 48 39 45 36 36 27 27 38
internal_value=0 0.00868559 -0.00545784 0.0071863 -0.00177767 -0.00880561 0.004386 0.0104174 -0.00357101 -0.00709944 -0.000199531 -0.0100709
internal_weight=0 186 296 168 141 155 90 78 66 66 75 89
internal_count=482 186 296 168 141 155 90 78 66 66 75 89
is_linear=0
shrinkage=0.1


Tree=27
num_leaves=13
num_cat=0
split_feature=0 0 0 0 0 0 0 0 3 0 0 0
split_gain=1.85273 0.343848 0.292114 0.09458 0.0428412 0.0260998 0.0147193 0.0147116 0.00727332 0.00582884 0.00395015 0.00324944
threshold=1.9154756038225418 0.92621305318922686 3.8508390439054376 2.8314502717390146 0.39810794506862507 1.4094292617366662 3.3977818742866344 2.279924372757185 64.000000000000014 1.0000000180025095e-35 1.6230224499787569 0.61150861946362889
decision_type=2 2 2 2 2 2 2 2 2 2 2 2
left_child=1 4 3 7 9 8 -5 -2 -3 -1 -7 -6
right_child=2 5 -4 6 11 10 -8 -9 -10 -11 -12 -13
leaf_value=-0.009505594054273531 0.0031619482117093869 -0.0034509567976264022 0.020411134273227719 0.0086201092518038216 -0.0062210188557704294 -0.0002115707447625358 0.011686703423038125 0.0058361715811770416 -0.001389248208050214 -0.0080623183759950829 0.0013356950712587797 -0.0047417704100635926
leaf_weight=51 36 28 18 45 27 33 24 48 44 62 33 33
leaf_count=51 36 28 18 45 27 33 24 48 44 62 33 33
internal_value=0 -0.00459728 0.00836113 0.00694348 -0.00756702 -0.00087433 0.00968675 0.00469008 -0.00219102 -0.00871371 0.000562062 -0.00540743
internal_weight=0 311 171 153 173 138 69 84 72 113 66 60
internal_count=482 311 171 153 173 138 69 84 72 113 66 60
is_linear=0
shrinkage=0.1


Tree=28
num_leaves=13
num_cat=0
split_feature=0 0 0 0 0 0 0 0 0 0 3 23
split_gain=1.50083 0.254589 0.252447 0.10815 0.0305065 0.0226544 0.0220844 0.0126725 0.00644811 0.00371664 0.00296442 0.00193873
threshold=1.8047941683425586 0.74389966430365828 3.9759902100637654 2.9497351783773618 1.1982090891412438 0.17313234279390682 2.3015379334310344 3.5037545973180388 1.5245054717129147 0.51362424226878767 69.590000000000018 58.277871060273455
decision_type=2 2 2 2 2 2 2 2 2 2 2 2
left_child=1 5 3 6 10 11 -2 -5 -6 -7 -3 -1
right_child=2 4 -4 7 8 9 -8 -9 -10 -11 -12 -13
leaf_value=-0.0077436275866835623 0.002681250654374405 -0.0041783629154617139 0.021240270704341434 0.0084996282788259644 -0.00095449093190070841 -0.0063742873303237416 0.005592503004887125 0.011508244737273172 0.00071422354428646848 -0.004870477063512361 -0.0026389864222186713 -0.0086932253005892728
leaf_weight=43 48 22 11.999999999999998 42 57 42 57 21 39 27 29 43
leaf_count=43 48 22 12 42 57 42 57 21 39 27 29 43
internal_value=0 -0.00430799 0.00722785 0.00622697 -0.00132657 -0.00713553 0.00426164 0.0095025 -0.000276576 -0.00578584 -0.00330303 -0.00821843
internal_weight=0 302 180 168 147 155 105 63 96 69 51 86
internal_count=482 302 180 168 147 155 105 63 96 69 51 86
is_linear=0
shrinkage=0.1


Tree=29
num_leaves=12
num_cat=0
split_feature=2 25 2 13 24 3 24 3 24 24 14
split_gain=0.906301 0.338889 0.199274 0.103978 0.0740139 0.0653532 0.0531055 0.0434243 0.0190824 0.0175885 0.0156229
threshold=32.900000000000013 23.694444444444446 25.545000000000005 111.58000000000001 24.994089234090566 30.095000000000002 23.423260437122256 67.410000000000011 23.887150873618751 24.317293340485577 221.65500000000003
decision_type=2 2 2 2 2 2 2 2 2 2 2
left_child=2 -2 6 4 -3 -5 -1 8 -4 -9 -8
right_child=1 3 7 5 -6 -7 10 9 -10 -11 -12
leaf_value=-0.00015176085238208009 0.024822039995342493 0.017839379310607903 0.0048567586019635199 -0.0032273665705526418 0.0072107078164423775 0.0049934102912266099 -0.0064013816080376752 0.00051923907093522667 0.00028512750558244688 -0.0029856167736995436 -0.002290005385875702
leaf_weight=17 9.9999999999999982 10.000000000000002 9.9999999999999982 10.999999999999998 19 80 122 18 105 70 9.9999999999999982
leaf_count=17 10 10 10 11 19 80 122 18 105 70 10
internal_value=0 0.0071353 -0.0026352 0.00566141 0.0108758 0.00399969 -0.00541241 -0.000596753 0.000682661 -0.00226871 -0.00608991
internal_weight=0 130 352 120 29 91 149 203 115 88 132
internal_count=482 130 352 120 29 91 149 203 115 88 132
is_linear=0
shrinkage=0.1


Tree=30
num_leaves=13
num_cat=0
split_feature=0 0 0 0 0 25 0 10 9 3 0 0
split_gain=1.03012 0.206873 0.177146 0.0518101 0.0275174 0.0152755 0.0134512 0.0113537 0.00545873 0.00533305 0.0032156 0.00312013
threshold=1.9829547071474376 1.0134773429581225 3.9100236664054235 2.9770353799480942 0.34635448944475122 24.638888888888896 1.5169331955808063 247.49888850944464 551.38861713573863 72.970000000000013 1.0000000180025095e-35 0.61150861946362889
decision_type=2 2 2 2 2 2 2 2 2 2 2 2
left_child=1 4 3 7 10 -5 9 -2 -8 -3 -1 -6
right_child=2 6 -4 5 11 -7 8 -9 -10 -11 -12 -13
leaf_value=-0.0071072142352076144 0.0047412205421521018 -0.0017699859890589406 0.016849303000296158 0.0044524199667979377 -0.0047622781472675731 0.0086006191275689921 0.0012332215833339433 0.0023586043529212476 -0.0011513482313603163 4.3399155053876994e-05 -0.0060096150596759155 -0.0034629014010230698
leaf_weight=51 60 55 14.999999999999998 10.999999999999998 33 46 48 30 11.999999999999998 23 56 42
leaf_count=51 60 55 15 11 33 46 48 30 12 23 56 42
internal_value=0 -0.0032893 0.00649738 0.00544106 -0.00550332 0.00780009 -0.000369367 0.00394702 0.000756308 -0.00123527 -0.00653277 -0.00403463
internal_weight=0 320 162 147 182 57 138 90 60 78 107 75
internal_count=482 320 162 147 182 57 138 90 60 78 107 75
is_linear=0
shrinkage=0.1


Tree=31
num_leaves=15
num_cat=0
split_feature=0 0 4 9 0 0 0 0 9 3 3 9 5 2
split_gain=0.836161 0.172121 0.211581 0.319117 0.114099 0.0390519 0.0132986 0.0118267 0.0116098 0.0107219 0.00397394 0.00213206 0.00206608 0.0016096
threshold=1.6576493000445331 3.4294099596635359 0.56170324641364811 482.35266010692504 0.72585657726327846 2.4820596921139431 1.1982090891412438 0.17313234279390682 601.91685410628656 69.125000000000014 69.590000000000018 1.0000000180025095e-35 26.365874662534178 26.795000000000005
decision_type=2 2 2 2 2 2 2 2 2 2 2 2 2 2
left_child=4 5 3 -3 7 9 10 12 -7 -2 -6 -8 -1 -9
right_child=1 2 -4 -5 6 8 11 13 -10 -11 -12 -13 -14 -15
leaf_value=-0.0059405345665781125 0.0014559182781489818 0.00523338528194775 0.0016246761257449787 0.028295496602853139 -0.0035291058881937163 0.0058198349807282975 -0.0010280930210444096 -0.0041178353791209788 0.0031647573716169146 0.0048245229969986463 -0.0017942519283913557 1.7890560848172757e-05 -0.0074695642665028568 -0.0054429514672268524
leaf_weight=76 67 12.000000000000002 14.999999999999998 11.999999999999998 23 58 38 55 23 10.999999999999998 31 40 9.9999999999999982 10.999999999999998
leaf_count=76 67 12 15 12 23 58 38 55 23 11 31 40 10 11
internal_value=0 0.00498825 0.0109415 0.0167644 -0.00347772 0.00352803 -0.00132684 -0.00534559 0.00506592 0.00193098 -0.00253317 -0.000491691 -0.00611833 -0.00433869
internal_weight=0 198 39 24 284 159 132 152 81 78 54 78 86 66
internal_count=482 198 39 24 284 159 132 152 81 78 54 78 86 66
is_linear=0
shrinkage=0.1


Tree=32
num_leaves=14
num_cat=0
split_feature=0 0 0 4 0 0 10 24 0 3 7 24 3
split_gain=0.680622 0.132245 0.127231 0.419212 0.0271584 0.019309 0.00947365 0.00791848 0.00714567 0.00433382 0.00337555 0.00335599 0.00215828
threshold=1.9622158167714672 1.0230357846048086 3.7666209605068901 0.56170324641364811 2.9497351783773618 0.42902786134135651 247.49888850944464 24.985810475870579 1.5169331955808063 63.090000000000011 160.25381359249948 24.997911271023266 73.845000000000013
decision_type=2 2 2 2 2 2 2 2 2 2 2 2 2
left_child=1 5 4 -4 6 11 -2 -6 9 -3 -10 -1 -7
right_child=2 8 3 -5 7 12 -8 -9 10 -11 -12 -13 -14
leaf_value=-0.0056070919958995536 0.0038280439642021215 -0.001725680102471314 0.027298575788736335 -0.00099124033004045482 0.0033809677930548791 -0.0039026641327401866 0.0016689418897693677 0.0064983593469316314 0.00019594307349836255 -0.00020414339497876476 0.0022192442882806064 -0.0044685171248439034 -0.0027162511981062027
leaf_weight=77 59 36 10.000000000000002 10.999999999999998 9.9999999999999982 23 31 44 47 39 9.9999999999999982 39 46
leaf_count=77 59 36 10 11 10 23 31 44 47 39 10 39 46
internal_value=0 -0.00271108 0.00520855 0.0124801 0.00414812 -0.00443636 0.00308435 0.00592106 -0.000293063 -0.000934481 0.000550908 -0.0052243 -0.00311172
internal_weight=0 317 165 21 144 185 90 54 132 75 57 116 69
internal_count=482 317 165 21 144 185 90 54 132 75 57 116 69
is_linear=0
shrinkage=0.1


Tree=33
num_leaves=14
num_cat=0
split_feature=0 0 0 4 0 0 16 24 0 3 0 7 16
split_gain=0.551939 0.110168 0.101192 0.339562 0.0207166 0.0157742 0.00832962 0.006921 0.00669815 0.0053691 0.00286212 0.00280528 0.00222233
threshold=1.9829547071474376 1.0230357846048086 3.7666209605068901 0.56170324641364811 2.9770353799480942 0.20260106713777024 562.36967338899035 24.985810475870579 1.2997915855978346 72.970000000000013 0.61150861946362889 160.25381359249948 127.09930619919777
decision_type=2 2 2 2 2 2 2 2 2 2 2 2 2
left_child=1 5 4 -4 6 12 -2 -6 9 -3 -7 -10 -1
right_child=2 8 3 -5 7 10 -8 -9 11 -11 -12 -13 -14
leaf_value=-0.0047255991684163326 0.0034591177499599078 -0.0020833030509363327 0.024568718532100312 -0.00089211645112796277 0.0030428709462285044 -0.0036079535509149236 0.0012836320160810526 0.0059769885228356211 -4.0591223365186744e-05 0.00031515659253013192 -0.0024801009161294334 0.0013215967699101098 -0.0063015994802117356
leaf_weight=85 66 28 10.000000000000002 10.999999999999998 9.9999999999999982 45 24 41 74 13.999999999999998 45 19 9.9999999999999982
leaf_count=85 66 28 10 11 10 45 24 41 74 14 45 19 10
internal_value=0 -0.00240771 0.00475598 0.0112321 0.00379145 -0.00399273 0.00287899 0.00540167 -0.000235657 -0.00128382 -0.00304403 0.000237705 -0.00489149
internal_weight=0 320 162 21 141 185 90 51 135 42 90 93 95
internal_count=482 320 162 21 141 185 90 51 135 42 90 93 95
is_linear=0
shrinkage=0.1


Tree=34
num_leaves=14
num_cat=0
split_feature=0 0 4 0 0 0 9 13 0 23 24 5 4
split_gain=0.448549 0.0953686 0.275045 0.0650632 0.0287619 0.00959267 0.00907006 0.0073334 0.00504793 0.00283008 0.00192825 0.00154613 0.00122437
threshold=1.7246648131858267 3.7666209605068901 0.56170324641364811 0.63395158894396908 2.4820596921139431 1.2568431893066137 605.81101020234337 135.05500000000004 0.17313234279390682 65.112962810419276 24.997793170672431 26.365874662534178 0.33715099571784929
decision_type=2 2 2 2 2 2 2 2 2 2 2 2 2
left_child=3 4 -3 8 7 9 -6 -2 11 -5 -7 -1 -10
right_child=1 2 -4 5 6 10 -8 -9 12 -11 -12 -13 -14
leaf_value=-0.0043307323449928515 0.0024019652535667104 0.022111847787164143 -0.00080290465531024076 -0.001995620942376691 0.0045857405417006119 -0.00059608180607028782 0.002283419625812464 0.00038039992616498191 -0.0028898494715309322 -0.00019387954380363227 0.00047488682293674332 -0.0056534445285797118 -0.00383454237902618
leaf_weight=76 38 10.000000000000002 10.999999999999998 68 77 40 22 34 34 9.9999999999999982 29 9.9999999999999982 23
leaf_count=76 38 10 11 68 77 40 22 34 34 10 29 10 23
internal_value=0 0.00374913 0.0101089 -0.00248218 0.0029681 -0.00100485 0.00407411 0.00144734 -0.00400084 -0.00176463 -0.000145965 -0.00448454 -0.00327104
internal_weight=0 192 21 290 171 147 99 72 143 78 69 86 57
internal_count=482 192 21 290 171 147 99 72 143 78 69 86 57
is_linear=0
shrinkage=0.1


Tree=35
num_leaves=14
num_cat=0
split_feature=0 0 21 0 2 8 0 0 0 9 2 4 3
split_gain=0.364887 0.0746875 0.0737718 0.299769 0.07386 0.0260186 0.0104411 0.00631799 0.0046534 0.00437948 0.00331094 0.00277178 0.0016842
threshold=1.9950773645254278 1.0230357846048086 0.029040000000000003 3.624340758660316 36.885000000000005 29.20595849798552 0.39810794506862507 3.2192064245158867 1.6230224499787569 567.88834999537767 31.555000000000003 0.33715099571784929 73.845000000000013
decision_type=2 2 2 2 2 2 2 2 2 2 2 2 2
left_child=1 6 3 7 5 -4 11 -2 10 -10 -3 -1 -8
right_child=2 8 4 -5 -6 -7 12 -9 9 -11 -12 -13 -14
leaf_value=-0.0036727216767866427 0.0031515127176696316 -0.000355189856116606 0.0067228134157630848 0.022403505649417638 -0.0056234796150502839 0.002214259983361444 -0.0030085451723805266 0.0058138200970874595 0.0011923214636876114 -0.0011806012294255199 -0.0022028154555962169 -0.0052802809979766614 -0.001971254062990905
leaf_weight=101 47 82 15.999999999999998 9.9999999999999982 10.999999999999998 64 23 10.999999999999998 35 9.9999999999999982 10.999999999999998 11.999999999999998 49
leaf_count=101 47 82 16 10 11 64 23 11 35 10 11 12 49
internal_value=0 -0.00193043 0.00392156 0.00641336 0.00205955 0.00311597 -0.00324376 0.00365643 -0.000169792 0.000665005 -0.000573726 -0.00384344 -0.00230261
internal_weight=0 323 159 68 91 80 185 58 138 45 93 113 72
internal_count=482 323 159 68 91 80 185 58 138 45 93 113 72
is_linear=0
shrinkage=0.1


Tree=36
num_leaves=14
num_cat=0
split_feature=0 25 23 0 13 0 0 0 0 9 3 24 5
split_gain=0.29605 0.0788117 0.10652 0.0674799 0.0542648 0.111733 0.0674943 0.00844271 0.0053956 0.00395603 0.00266057 0.0017409 0.00120303
threshold=2.1446268376725492 23.694444444444446 61.736658443846942 1.0134773429581225 116.105 3.8508390439054376 3.2192064245158867 0.18689992492018911 1.5476131499350287 601.91685410628656 72.970000000000013 24.443063513207054 26.365874662534178
decision_type=2 2 2 2 2 2 2 2 2 2 2 2 2
left_child=3 2 -2 7 6 -6 -3 12 10 -10 -5 -9 -1
right_child=1 4 -4 8 5 -7 -8 11 9 -11 -12 -13 -14
leaf_value=-0.0035084203097827827 0.016218872622200495 0.0029568671283346638 0.0023022397336634726 -0.00096215388234374959 0.0027384617438262985 -0.0080631216818636119 0.011727078888529483 -0.0031305722451131592 0.00091520678371515322 -0.00124406682793051 0.0002598745548166335 -0.0020574817463843704 -0.0046726010739803316
leaf_weight=79 11.000000000000002 27 10.999999999999998 62 74 10.999999999999998 12.999999999999998 19 56 9.9999999999999982 25 74 9.9999999999999982
leaf_count=79 11 27 11 62 74 11 13 19 56 10 25 74 10
internal_value=0 0.0037413 0.00926056 -0.00164171 0.00276991 0.00134061 0.00580719 -0.002943 -9.37632e-05 0.000588044 -0.000610996 -0.00227672 -0.00363923
internal_weight=0 147 22 335 125 85 40 182 153 66 87 93 89
internal_count=482 147 22 335 125 85 40 182 153 66 87 93 89
is_linear=0
shrinkage=0.1


Tree=37
num_leaves=14
num_cat=0
split_feature=0 25 23 0 13 0 0 0 0 3 12 3 18
split_gain=0.240303 0.0659856 0.0984854 0.0560978 0.0424104 0.0924003 0.0608451 0.00609675 0.0055175 0.00381277 0.00278455 0.00147907 0.001122
threshold=2.1931763079231255 23.694444444444446 61.736658443846942 0.95410263968137632 113.28000000000002 3.8508390439054376 3.2192064245158867 0.18689992492018911 1.2997915855978346 74.655000000000015 0.49812349945577367 73.845000000000013 26.892218956289511
decision_type=2 2 2 2 2 2 2 2 2 2 2 2 2
left_child=3 2 -2 7 6 -6 -3 12 9 -5 -10 -9 -1
right_child=1 4 -4 8 5 -7 -8 11 10 -11 -12 -13 -14
leaf_value=-0.0042732701823115357 0.01578396530821919 0.0025950261836092418 0.0020720157941634008 -0.0015074284083360957 0.0025659624818955137 -0.0072568091479214758 0.011203521261146914 -0.0028781343349500708 0.00056495010579792082 0.00043006720292656353 -0.00060244396380666233 -0.0018801521625659114 -0.0031489796111289457
leaf_weight=9.9999999999999982 10.000000000000002 26 10.999999999999998 37 74 10.999999999999998 11.999999999999998 19 84 13.999999999999998 27 68 79
leaf_count=10 10 26 11 37 74 11 12 19 84 14 27 68 79
internal_value=0 0.00342084 0.00860152 -0.0014574 0.00253634 0.00129478 0.0053135 -0.00269339 -0.000114593 -0.000975567 0.000280989 -0.0020981 -0.0032753
internal_weight=0 144 21 338 123 85 38 176 162 51 111 87 89
internal_count=482 144 21 338 123 85 38 176 162 51 111 87 89
is_linear=0
shrinkage=0.1


Tree=38
num_leaves=13
num_cat=0
split_feature=0 0 0 0 24 12 0 24 2 24 9 2
split_gain=0.195922 0.0735743 0.0294624 0.0149546 0.00917423 0.00521834 0.00421456 0.00263808 0.00193711 0.00167657 0.00164288 0.00117602
threshold=1.7246648131858267 3.8508390439054376 0.61150861946362889 2.7872582373472246 23.887150873618751 0.49447633007603786 1.2568431893066137 24.997734779300409 29.605000000000004 24.989544232127106 32.419828931202254 24.545000000000005
decision_type=2 2 2 2 2 2 2 2 2 2 2 2
left_child=2 3 7 5 -5 -2 8 10 -4 -8 -1 -9
right_child=1 -3 6 4 -6 -7 9 11 -10 -11 -12 -13
leaf_value=-0.0028756538618393748 0.00147456213918017 0.0085640650035606492 -0.00096208440426770339 0.00037915175368349689 0.0033960077375735317 -0.00017525456054360035 -0.00076737345104144585 -0.0026104048459923697 -0.0023895770819349726 0.00026758730353321881 -0.004241265542805195 -0.0016938830530437241
leaf_weight=74 73 18 70 11.999999999999998 63 26 24 28 10.999999999999998 45 9.9999999999999982 28
leaf_count=74 73 18 70 12 63 26 24 28 11 45 10 28
internal_value=0 0.0024778 -0.00164048 0.00184819 0.00291331 0.00104128 -0.000666712 -0.00268379 -0.00115594 -9.2399e-05 -0.00303823 -0.00215214
internal_weight=0 192 290 174 75 99 150 140 81 69 84 56
internal_count=482 192 290 174 75 99 150 140 81 69 84 56
is_linear=0
shrinkage=0.1


Tree=39
num_leaves=13
num_cat=0
split_feature=0 0 0 0 24 0 19 0 3 13 3 11
split_gain=0.158922 0.0532017 0.0327165 0.00772125 0.00773501 0.00445911 0.00399703 0.00267249 0.00241587 0.00235617 0.000805869 0.000755182
threshold=1.9950773645254278 3.8508390439054376 0.74389966430365828 2.8141765161553649 23.887150873618751 1.2568431893066137 0.029040000000000003 0.07167798673835897 74.655000000000015 158.60000000000005 73.845000000000013 38.3692900599765
decision_type=2 2 2 2 2 2 2 2 2 2 2 2
left_child=2 3 7 6 -5 8 -2 11 -4 -7 -9 -1
right_child=1 -3 5 4 -6 9 -8 10 -10 -11 -12 -13
leaf_value=-0.0024948047181325302 0.0021573459091646678 0.007707658689469099 -0.0014511541785815589 0.00034123656218222701 0.0031224260356005596 0.00039550838246941566 0.00058672170568972314 -0.0027317898774830004 -0.0002206168641957144 -0.00069389942153874379 -0.0018515207423684518 -0.0031785397107402485
leaf_weight=35 26 18 39 11.999999999999998 60 75 43 11.999999999999998 27 27 78 30
leaf_count=35 26 18 39 12 60 75 43 12 27 27 78 30
internal_value=0 0.00258804 -0.00127399 0.00193447 0.00265889 -0.000307285 0.00117855 -0.00232177 -0.000947753 0.000107136 -0.00196889 -0.00281037
internal_weight=0 159 323 141 72 168 69 155 66 102 90 65
internal_count=482 159 323 141 72 168 69 155 66 102 90 65
is_linear=0
shrinkage=0.1


Tree=40
num_leaves=11
num_cat=0
split_feature=3 16 3 2 8 24 24 24 25 12
split_gain=0.0987038 0.149138 0.068877 0.0199324 0.0164618 0.00634603 0.011583 0.00727039 0.00489391 0.00495624
threshold=40.125000000000007 322.17967939365758 29.815000000000001 25.405000000000005 29.20595849798552 24.990865053180986 23.487304375634292 24.994089234090566 23.250000000000004 0.50074804744887613
decision_type=2 2 2 2 2 2 2 2 2 2
left_child=1 -1 -3 8 -4 6 -5 -7 -2 -10
right_child=3 2 4 5 -6 7 -8 -9 9 -11
leaf_value=0.011005514699758755 0.00044614141806960107 -0.0057105072666532725 0.0044040794585548017 0.0014843861254121293 0.0011714809944387526 0.0027895877044647934 -0.00152857758295131 3.0181317863000723e-06 -0.0020594062130716707 -6.9383022491820157e-05
leaf_weight=18 9.9999999999999982 12.999999999999998 23 15.999999999999998 50 9.9999999999999982 63 147 118 13.999999999999998
leaf_count=18 10 13 23 16 50 10 63 147 118 14
internal_value=0 0.00272818 0.000995713 -0.00075061 0.00218997 -0.000187333 -0.000918357 0.000180507 -0.00168676 -0.00184834
internal_weight=0 104 86 378 73 236 79 157 142 132
internal_count=482 104 86 378 73 236 79 157 142 132
is_linear=0
shrinkage=0.1


Tree=41
num_leaves=12
num_cat=0
split_feature=0 0 0 0 4 9 2 0 0 3 7
split_gain=0.111037 0.0507283 0.014852 0.0100491 0.00777882 0.00457062 0.00230705 0.00211782 0.00169004 0.00130933 0.00118816
threshold=1.6339658640515979 3.9100236664054235 0.63395158894396908 2.9770353799480942 0.56170324641364811 611.90566907398704 26.73 1.1707580087770368 0.18689992492018911 68.220000000000013 171.98095412341223
decision_type=2 2 2 2 2 2 2 2 2 2 2
left_child=2 3 6 5 -5 -2 8 9 -1 -4 -9
right_child=1 -3 7 4 -6 -7 -8 10 -10 -11 -12
leaf_value=-0.0021469299290757414 0.0011825225865359612 0.0073887948691844941 -0.0016509136604145169 0.00178264030065864 0.0044965548706906184 -0.00022645558909668278 -0.0034626902267336848 -0.00039829990734776199 -0.0013974916699858707 -0.00065995443779684145 0.00056826109412213557
leaf_weight=87 99 14.999999999999998 20 43 13.999999999999998 30 9.9999999999999982 62 46 40 15.999999999999998
leaf_count=87 99 15 20 43 14 30 10 62 46 40 16
internal_value=0 0.00179459 -0.00128368 0.00134345 0.00244922 0.000854853 -0.00199786 -0.000543615 -0.00188773 -0.000990274 -0.000200031
internal_weight=0 201 281 186 57 129 143 138 133 60 78
internal_count=482 201 281 186 57 129 143 138 133 60 78
is_linear=0
shrinkage=0.1


Tree=42
num_leaves=13
num_cat=0
split_feature=0 12 5 0 0 0 3 24 0 4 0 24
split_gain=0.0909151 0.0615117 0.037246 0.0697682 0.0499688 0.0218149 0.00424977 0.00531048 0.00290445 0.00279237 0.00221213 0.000903726
threshold=2.2065913911794719 0.42575503984129565 35.319452673229591 3.5540213896973354 3.7666209605068901 1.0418540860563146 72.970000000000013 24.996946906465237 0.51362424226878767 0.33715099571784929 1.6230224499787569 24.446488402788429
decision_type=2 2 2 2 2 2 2 2 2 2 2 2
left_child=5 -2 4 -4 -3 8 7 -7 9 -1 -8 -10
right_child=1 2 3 -5 -6 6 10 -9 11 -11 -12 -13
leaf_value=-0.0016910026592741564 0.0079738124390132722 0.001697520627363948 0.0011228021901016209 -0.008130552088841796 0.0087763591669499878 -0.0012170439194233041 0.00046879413008961521 0.00019711042272020575 -0.0018067886680607143 -0.0030672775691046438 0.0022390608442947268 -0.00083654079480766086
leaf_weight=111 15.999999999999998 59 44 9.9999999999999982 11.999999999999998 40 24 79 11.999999999999998 17 9.9999999999999982 48
leaf_count=111 16 59 44 10 12 40 24 79 12 17 10 48
internal_value=0 0.00213581 0.00138854 -0.000590782 0.00289394 -0.000883134 3.47473e-06 -0.000278236 -0.00160468 -0.00187379 0.000989461 -0.00103059
internal_weight=0 141 125 54 71 341 153 119 188 128 34 60
internal_count=482 141 125 54 71 341 153 119 188 128 34 60
is_linear=0
shrinkage=0.1


Tree=43
num_leaves=14
num_cat=0
split_feature=0 21 0 3 0 8 3 24 4 0 0 25 8
split_gain=0.075577 0.0598461 0.17514 0.0604877 0.0204601 0.0189174 0.00337215 0.00466184 0.00269778 0.00269761 0.00250301 0.00089445 0.00076991
threshold=2.4820596921139431 0.029040000000000003 3.624340758660316 30.905000000000005 1.0418540860563146 29.20595849798552 72.970000000000013 24.99689154616777 0.37923530188759719 1.6576493000445331 0.12280433347137282 24.333333333333336 84.384285847466472
decision_type=2 2 2 2 2 2 2 2 2 2 2 2 2
left_child=4 2 8 -3 10 -5 7 -6 -2 -8 12 -12 -1
right_child=1 3 -4 5 6 -7 9 -9 -10 -11 11 -13 -14
leaf_value=-0.0022572886082343757 0.0029447286819609311 -0.0068421005178242933 0.016700105287600308 0.0051021694826583067 -0.00094766310862816729 0.0006892565756524895 0.00038557246108002099 0.0002669142697740927 0.0011560729016006613 0.0023182249924866487 -0.0018320115181268194 -0.0010238137306020545 -0.001615659309188939
leaf_weight=32 12.999999999999998 9.9999999999999982 9.9999999999999982 11.999999999999998 49 51 26 89 24 9.9999999999999982 15.999999999999998 95 45
leaf_count=32 13 10 10 12 49 51 26 89 24 10 16 95 45
internal_value=0 0.00217488 0.00495805 0.000382974 -0.000720954 0.00152981 6.05001e-05 -0.000164349 0.00178452 0.00092242 -0.00144421 -0.00114031 -0.00188231
internal_weight=0 120 47 73 362 63 174 138 37 36 188 111 77
internal_count=482 120 47 73 362 63 174 138 37 36 188 111 77
is_linear=0
shrinkage=0.1


Tree=44
num_leaves=13
num_cat=0
split_feature=0 12 5 0 0 0 3 24 0 0 4 12
split_gain=0.0612972 0.0536429 0.0288519 0.0584594 0.0328298 0.0161516 0.00327359 0.00844799 0.00226799 0.00209962 0.00239072 0.000742842
threshold=2.4306097612223332 0.42657879891086897 35.319452673229591 3.5540213896973354 3.7666209605068901 1.0418540860563146 63.090000000000011 24.996619594193323 1.6576493000445331 0.51362424226878767 0.33715099571784929 0.48577370348267718
decision_type=2 2 2 2 2 2 2 2 2 2 2 2
left_child=5 -2 4 -4 -3 9 7 -7 -8 10 -1 -11
right_child=1 2 3 -5 -6 6 8 -9 -10 11 -12 -13
leaf_value=-0.0013594659189022406 0.0080013441924865428 0.0015121458017514373 0.0011507045373899672 -0.0074195345304906377 0.0073480769681433843 -0.0021018924302465859 0.00022208320307462209 0.00014601658955010552 0.0015091467276713384 -0.0011635420705230597 -0.0026329197975642543 -0.00045981790589091063
leaf_weight=111 12.999999999999998 49 39 9.9999999999999982 11.999999999999998 21 49 82 19 30 17 30
leaf_count=111 13 49 39 10 12 21 49 82 19 30 17 30
internal_value=0 0.0019266 0.00120867 -0.000598324 0.0026602 -0.000660088 4.32134e-05 -0.000312295 0.000581704 -0.00129979 -0.0015286 -0.00081168
internal_weight=0 123 110 49 61 359 171 103 68 188 128 60
internal_count=482 123 110 49 61 359 171 103 68 188 128 60
is_linear=0
shrinkage=0.1


Tree=45
num_leaves=12
num_cat=0
split_feature=3 24 2 0 0 24 0 0 24 2 2
split_gain=0.0566166 0.196874 0.0728546 0.0197629 0.00874432 0.00722886 0.0149861 0.0139516 0.00285792 0.00378038 0.00142321
threshold=35.090000000000011 24.989544232127106 37.050000000000004 1.2568431893066137 3.2806947012913996 24.712240318306261 3.2192064245158867 3.3373344375602829 24.99163712565063 26.73 24.545000000000005
decision_type=2 2 2 2 2 2 2 2 2 2 2
left_child=1 -1 4 8 -3 7 -7 -5 9 -2 -10
right_child=3 2 -4 5 -6 6 -8 -9 10 -11 -12
leaf_value=0.014319434288578729 -0.0012521348480883413 0.0012413977104837872 -0.0067303371072436379 6.4634578239778858e-05 0.0045689126815308227 0.00039993244614471859 0.0041091681458055975 -0.0039797536883270368 -0.0013308748474408841 -0.0032952125091105702 -0.00052078151173529563
leaf_weight=11.999999999999998 96 28 11.999999999999998 58 10.999999999999998 118 11.999999999999998 9.9999999999999982 29 9.9999999999999982 86
leaf_count=12 96 28 12 58 11 118 12 10 29 10 86
internal_value=0 0.00279502 8.33947e-05 -0.000420254 0.00217993 0.00030532 0.000742323 -0.000530128 -0.00107032 -0.00144488 -0.000725066
internal_weight=0 63 51 419 39 198 130 68 221 106 115
internal_count=482 63 51 419 39 198 130 68 221 106 115
is_linear=0
shrinkage=0.1


Tree=46
num_leaves=12
num_cat=0
split_feature=0 25 13 0 0 12 0 17 24 9 18
split_gain=0.042538 0.0824116 0.054807 0.105483 0.0156368 0.00299914 0.0028606 0.00207363 0.00207072 0.00313038 0.00121997
threshold=2.9770353799480942 23.694444444444446 117.67500000000003 3.8508390439054376 1.1707580087770368 0.49788868847229817 1.8047941683425586 311.24372016448052 24.993167941888906 35.825706835636552 36.509294747433046
decision_type=2 2 2 2 2 2 2 2 2 2 2
left_child=4 -2 -3 -4 8 6 -6 -7 9 -1 -10
right_child=1 2 3 -5 5 7 -8 -9 10 -11 -12
leaf_value=-0.0011524660515335754 0.010665871207602323 0.0057203524499474211 0.0018094699559536393 -0.0094563136850907056 -2.6813956210389734e-05 -0.00071824060684196999 0.00084111911724815951 0.00087703727185726174 -0.00081154491595193429 -0.00301543053239584 0.00035208474611863493
leaf_weight=92 9.9999999999999982 17 34 10.999999999999998 70 44 83 9.9999999999999982 91 9.9999999999999982 9.9999999999999982
leaf_count=92 10 17 34 11 70 44 83 10 91 10 10
internal_value=0 0.00224177 0.000883041 -0.000944388 -0.000393676 0.000217892 0.000444026 -0.000422819 -0.0010173 -0.00133511 -0.000696334
internal_weight=0 72 62 45 410 207 153 54 203 102 101
internal_count=482 72 62 45 410 207 153 54 203 102 101
is_linear=0
shrinkage=0.1


Tree=47
num_leaves=12
num_cat=0
split_feature=3 24 19 0 0 14 0 24 0 24 10
split_gain=0.0404438 0.157098 0.0613565 0.0123942 0.00787039 0.00607312 0.0136503 0.0102739 0.0013787 0.000970539 0.000482678
threshold=35.090000000000011 24.989544232127106 0.029040000000000003 0.95410263968137632 3.4294099596635359 268.87500000000006 2.9497351783773618 24.991942038290102 1.0000000180025095e-35 24.443063513207054 223.54012710200908
decision_type=2 2 2 2 2 2 2 2 2 2 2
left_child=1 -1 -3 8 -4 6 -5 -7 10 -10 -2
right_child=3 2 4 5 -6 7 -8 -9 9 -11 -12
leaf_value=0.012656927562784404 -0.001909034469475349 -0.0059900848427787423 0.0010502091759850307 0.00027193346947071054 0.0042235126126218929 -0.0018885577391997419 0.0041126539837568997 0.00020705215958878397 -0.0014355842730895216 -0.00069027747897332757 -0.0012338585854094063
leaf_weight=11.999999999999998 14.999999999999998 12.999999999999998 27 124 10.999999999999998 34 9.9999999999999982 75 21 104 36
leaf_count=12 15 13 27 124 11 34 10 75 21 104 36
internal_value=0 0.00236232 -5.99376e-05 -0.000355194 0.0019688 0.000107672 0.000558554 -0.000446624 -0.000994265 -0.000815489 -0.00143244
internal_weight=0 63 51 419 38 243 134 109 176 125 51
internal_count=482 63 51 419 38 243 134 109 176 125 51
is_linear=0
shrinkage=0.1


Tree=48
num_leaves=10
num_cat=0
split_feature=5 16 11 0 0 0 6 23 12
split_gain=0.0311433 0.0858923 0.0178839 0.0414926 0.0387584 0.0114661 0.00837286 0.00335685 0.00232424
threshold=36.659971092587362 504.47128426180001 91.100074491255086 3.2806947012913996 3.8508390439054376 1.4347214150513656 25.722552633588677 56.900515019212953 0.47968013511040714
decision_type=2 2 2 2 2 2 2 2 2
left_child=2 -2 4 7 5 -1 8 -4 -3
right_child=1 6 3 -5 -6 -7 -8 -9 -10
leaf_value=-0.00079300804749602165 0.010691326416563243 0.0021921270807400677 0.000927208895986301 0.006870858955451033 -0.0063662626695903867 0.00035966486558484413 -0.0023255203664302826 -0.00062125882083949237 0.00013643075204031034
leaf_weight=220 9.9999999999999982 11.000000000000002 28 10.999999999999998 10.999999999999998 142 9.9999999999999982 28 10.999999999999998
leaf_count=220 10 11 28 11 11 142 10 28 11
internal_value=0 0.00260172 -0.000248346 0.00125591 -0.000518548 -0.000340855 7.37166e-05 0.000152975 0.00116428
internal_weight=0 42 440 67 373 362 32 56 22
internal_count=482 42 440 67 373 362 32 56 22
is_linear=0
shrinkage=0.1


Tree=49
num_leaves=8
num_cat=0
split_feature=0 0 7 12 0 2 4
split_gain=0.0321303 0.0140258 0.00522593 0.00390908 0.00229992 0.00214747 0.00152617
threshold=3.8508390439054376 1.4786134994027755 228.23326886574228 0.49573938946359969 0.47913390934298966 30.810000000000006 0.33715099571784929
decision_type=2 2 2 2 2 2 2
left_child=1 4 3 -3 6 -6 -1
right_child=-2 2 -4 -5 5 -7 -8
leaf_value=-0.0008325407720545261 0.0041453037178143864 0.00056270684245147658 0.0025656415625814012 -0.00050529365861703729 -0.00023994201991457483 -0.0017008425011722881 -0.0018784244675771333
leaf_weight=109 18 155 10.999999999999998 44 118 10.999999999999998 15.999999999999998
leaf_count=109 18 155 11 44 118 11 16
internal_value=0 -0.000160809 0.000443851 0.000326566 -0.000660725 -0.000364515 -0.000966414
internal_weight=0 464 210 199 254 129 125
internal_count=482 464 210 199 254 129 125
is_linear=0
shrinkage=0.1


Tree=50
num_leaves=8
num_cat=0
split_feature=0 0 5 12 0 13 18
split_gain=0.0260255 0.0114088 0.00436428 0.00308204 0.00245281 0.00220627 0.000821458
threshold=3.8508390439054376 1.6339658640515979 25.716157070309162 0.49573938946359969 0.18689992492018911 217.79000000000005 26.892218956289511
decision_type=2 2 2 2 2 2 2
left_child=1 4 -3 -4 6 -6 -1
right_child=-2 2 3 -5 5 -7 -8
leaf_value=-0.0018327398644760252 0.0037307735720080223 0.0025009284325642513 0.0005724672888712068 -0.00045690376994300739 -0.00020661036465422845 -0.0011817249839185496 -0.00087074215449849622
leaf_weight=9.9999999999999982 18 9.9999999999999982 136 37 165 27 79
leaf_count=10 18 10 136 37 165 27 79
internal_value=0 -0.000144728 0.000469723 0.000352313 -0.000544887 -0.000343736 -0.000978832
internal_weight=0 464 183 173 281 192 89
internal_count=482 464 183 173 281 192 89
is_linear=0
shrinkage=0.1


Tree=51
num_leaves=9
num_cat=0
split_feature=5 12 11 0 0 11 0 18
split_gain=0.0229401 0.0676146 0.0130973 0.042039 0.0308627 0.0107953 0.00655781 0.0030561
threshold=36.844334816296445 0.46769600427334185 91.100074491255086 3.8508390439054376 3.3373344375602829 81.861865260382103 1.9154756038225418 28.928653343237382
decision_type=2 2 2 2 2 2 2 2
left_child=2 -2 3 6 7 -3 -1 -4
right_child=1 5 4 -5 -6 -7 -8 -9
leaf_value=-0.00048599160639149481 0.0094162758998572824 0.0014854657960434751 0.00058720731254046168 -0.0065172440795735883 0.0062123543489724401 -0.0026389503703367983 0.00049290566604903003 -0.0011534776010263998
leaf_weight=276 9.9999999999999982 15.000000000000002 45 10.999999999999998 9.9999999999999982 10.999999999999998 91 12.999999999999998
leaf_count=276 10 15 45 11 10 11 91 13
internal_value=0 0.00242823 -0.000196001 -0.000425844 0.00108166 -0.00025948 -0.000243268 0.000197054
internal_weight=0 36 446 378 68 26 367 58
internal_count=482 36 446 378 68 26 367 58
is_linear=0
shrinkage=0.1


Tree=52
num_leaves=8
num_cat=0
split_feature=0 0 5 12 24 9 4
split_gain=0.0236205 0.00731909 0.00321027 0.00300789 0.00142185 0.00240511 0.000898851
threshold=3.8508390439054376 1.4094292617366662 25.114055826947475 0.49964676363299493 24.989544232127106 35.825706835636552 0.69372885522194527
decision_type=2 2 2 2 2 2 2
left_child=1 4 -3 -4 5 -1 -6
right_child=-2 2 3 -5 6 -7 -8
leaf_value=-0.00062919115837827965 0.0035542158384083049 0.0018062895163893701 0.00036775242756881374 -0.0006174331277801876 -0.00037182930708305712 -0.0022528813523240388 0.00053623224957846107
leaf_weight=104 18 12.999999999999998 168 38 119 9.9999999999999982 11.999999999999998
leaf_count=104 18 13 168 38 119 10 12
internal_value=0 -0.000137879 0.0002822 0.000186019 -0.000513378 -0.00077162 -0.000288648
internal_weight=0 464 219 206 245 114 131
internal_count=482 464 219 206 245 114 131
is_linear=0
shrinkage=0.1


Tree=53
num_leaves=8
num_cat=0
split_feature=0 0 7 0 7 2 0
split_gain=0.0191326 0.00599611 0.00312725 0.00340169 0.00310739 0.001231 0.00172004
threshold=3.8508390439054376 1.2568431893066137 160.25381359249948 2.2065913911794719 101.69571231001153 29.150000000000002 0.42902786134135651
decision_type=2 2 2 2 2 2 2
left_child=1 5 4 -4 -3 6 -1
right_child=-2 2 3 -5 -6 -7 -8
leaf_value=-0.00069813313434835815 0.0031987940853772066 0.00020849801606760135 0.00043400086869951329 0.0026748813613085079 -0.0010730626649178919 -0.0014450863424616937 -0.00011913439874384178
leaf_weight=116 18 191 21.000000000000004 9.9999999999999982 21 12.999999999999998 92
leaf_count=116 18 191 21 10 21 13 92
internal_value=0 -0.000124091 0.000218731 0.00115687 8.1551e-05 -0.00050104 -0.000442038
internal_weight=0 464 243 31 212 221 208
internal_count=482 464 243 31 212 221 208
is_linear=0
shrinkage=0.1


Tree=54
num_leaves=6
num_cat=0
split_feature=3 0 0 5 24
split_gain=0.0206601 0.102812 0.00554653 0.003012 0.00155624
threshold=29.815000000000001 3.8508390439054376 1.7246648131858267 26.041727217673827 24.989544232127106
decision_type=2 2 2 2 2
left_child=-1 2 4 -4 -2
right_child=1 -3 3 -5 -6
leaf_value=-0.0035332585917785767 -0.00061951035194047468 0.010151533987373115 0.0019613016947087917 0.00024884721141255972 -0.00015370310972912194
leaf_weight=15.999999999999998 130 9.9999999999999982 10.999999999999998 155 160
leaf_count=16 130 10 11 155 160
internal_value=0 0.000121314 -9.86474e-05 0.000362323 -0.000362513
internal_weight=0 466 456 166 290
internal_count=482 466 456 166 290
is_linear=0
shrinkage=0.1


Tree=55
num_leaves=8
num_cat=0
split_feature=5 16 5 5 0 9 0
split_gain=0.016702 0.0583721 0.00976392 0.0222768 0.0121956 0.00583539 0.00397964
threshold=36.844334816296445 536.25013288452362 35.319452673229591 36.003070071323243 3.7666209605068901 605.81101020234337 0.6882110177408628
decision_type=2 2 2 2 2 2 2
left_child=2 -2 4 -4 6 -3 -1
right_child=1 5 3 -5 -6 -7 -8
leaf_value=-0.00054823197693873102 0.0085648299194872376 0.00085759033293773704 -0.0042338251909111732 0.0007413182254014019 0.0028720358810720168 -0.0021747630830346184 0.00010980280398890242
leaf_weight=145 9.9999999999999982 15.000000000000002 18 18 13.999999999999998 10.999999999999998 251
leaf_count=145 10 15 18 18 14 11 251
internal_value=0 0.00207194 -0.000167242 -0.00174625 -2.85967e-05 -0.000425328 -0.000131144
internal_weight=0 36 446 36 410 26 396
internal_count=482 36 446 36 410 26 396
is_linear=0
shrinkage=0.1


Tree=56
num_leaves=6
num_cat=0
split_feature=3 0 0 5 9
split_gain=0.0174156 0.0760033 0.00426597 0.00332895 0.00201557
threshold=29.815000000000001 3.8508390439054376 2.4306097612223332 30.001761581687592 611.90566907398704
decision_type=2 2 2 2 2
left_child=-1 2 4 -4 -2
right_child=1 -3 3 -5 -6
leaf_value=-0.0032439814443932847 -0.00018990135600572189 0.0087353215366601945 0.0020671239248864974 0.00028914303192598096 -0.001413945243777042
leaf_weight=15.999999999999998 344 9.9999999999999982 11.999999999999998 86 13.999999999999998
leaf_count=16 344 10 12 86 14
internal_value=0 0.000111381 -7.77402e-05 0.000506855 -0.000237769
internal_weight=0 466 456 98 358
internal_count=482 466 456 98 358
is_linear=0
shrinkage=0.1


Tree=57
num_leaves=9
num_cat=0
split_feature=14 16 0 3 9 0 2 23
split_gain=0.0145268 0.0805909 0.031762 0.0195432 0.00652715 0.00325357 0.00169546 0.00112278
threshold=516.10500000000013 345.4524559325809 3.4294099596635359 29.815000000000001 260.2753914084721 1.5169331955808063 29.150000000000002 52.599780580026611
decision_type=2 2 2 2 2 2 2 2
left_child=2 -2 5 -3 -5 6 -1 -7
right_child=1 3 -4 4 -6 7 -8 -9
leaf_value=-0.00029110397624562554 0.0077999962631535406 -0.0038165360116787874 -0.0058857247745618228 0.0027515325515361675 0.00017102574690296832 0.00096168565949136852 -0.0012995396349449748 0.00013901735110727104
leaf_weight=226 14.999999999999998 11.999999999999998 9.9999999999999982 10.999999999999998 90 21 18 79
leaf_count=226 15 12 10 11 90 21 18 79
internal_value=0 0.000912974 -0.000330115 -1.23236e-06 0.000452071 -0.000168615 -0.000365497 0.000311778
internal_weight=0 128 354 113 101 344 244 100
internal_count=482 128 354 113 101 344 244 100
is_linear=0
shrinkage=0.1


Tree=58
num_leaves=10
num_cat=0
split_feature=5 16 5 5 3 13 6 0 3
split_gain=0.0139627 0.0465509 0.0110325 0.0155755 0.0142194 0.02147 0.00843852 0.0043075 0.00322239
threshold=36.659971092587362 504.47128426180001 35.398189182996255 36.003070071323243 35.470000000000006 117.67500000000003 25.722552633588677 3.5037545973180388 33.780000000000008
decision_type=2 2 2 2 2 2 2 2 2
left_child=2 -2 4 -4 5 -1 8 -6 -3
right_child=1 6 3 -5 7 -7 -8 -9 -10
leaf_value=0.0058615125599317235 0.0076975066866725693 0.0021860713985833251 -0.0042729437874610681 0.00056061567884171384 -0.00012683780535697128 -0.00030171835186103215 -0.0025276429019868377 -0.0022294209524989128 -0.00023444208147173579
leaf_weight=10.000000000000002 9.9999999999999982 11.000000000000002 15.000000000000002 11.999999999999998 380 12.999999999999998 9.9999999999999982 9.9999999999999982 10.999999999999998
leaf_count=10 10 11 15 12 380 13 10 10 11
internal_value=0 0.00174206 -0.000166288 -0.0021247 -3.82561e-05 0.00237795 -0.000119016 -0.00018075 0.000975815
internal_weight=0 42 440 27 413 23 32 390 22
internal_count=482 42 440 27 413 23 32 390 22
is_linear=0
shrinkage=0.1


Tree=59
num_leaves=6
num_cat=0
split_feature=3 0 2 14 0
split_gain=0.0136965 0.0603994 0.00313404 0.00218717 0.0019765
threshold=29.815000000000001 3.8508390439054376 36.625000000000007 632.82000000000005 0.6882110177408628
decision_type=2 2 2 2 2
left_child=-1 2 4 -4 -2
right_child=1 -3 3 -5 -6
leaf_value=-0.0028768334479536864 -0.00042731998374084432 0.0077866423489467707 0.0021937153558246785 0.000150307552063499 2.4086815521709045e-05
leaf_weight=15.999999999999998 146 9.9999999999999982 10.000000000000002 10.999999999999998 289
leaf_count=16 146 10 10 11 289
internal_value=0 9.87754e-05 -6.98182e-05 0.00112336 -0.00012742
internal_weight=0 466 456 21 435
internal_count=482 466 456 21 435
is_linear=0
shrinkage=0.1


Tree=60
num_leaves=6
num_cat=0
split_feature=3 0 0 14 9
split_gain=0.0110942 0.0489235 0.00261502 0.00305182 0.00163927
threshold=29.815000000000001 3.8508390439054376 1.9950773645254278 284.11500000000007 470.89492240009264
decision_type=2 2 2 2 2
left_child=-1 2 4 -4 -2
right_child=1 -3 3 -5 -6
leaf_value=-0.0025891500315992745 -0.00016018269274426484 0.0070079781254753478 0.0011277489521650268 2.9632294177700358e-05 -0.0011176265101408046
leaf_weight=15.999999999999998 304 9.9999999999999982 34 99 19
leaf_count=16 304 10 34 99 19
internal_value=0 8.88979e-05 -6.28364e-05 0.000310354 -0.000216503
internal_weight=0 466 456 133 323
internal_count=482 466 456 133 323
is_linear=0
shrinkage=0.1


Tree=61
num_leaves=5
num_cat=0
split_feature=2 2 2 23
split_gain=0.0115711 0.0451491 0.0503143 0.00667115
threshold=38.225000000000001 36.985000000000007 36.635000000000012 50.155221776097122
decision_type=2 2 2 2
left_child=1 2 3 -1
right_child=-2 -3 -4 -5
leaf_value=0.0023006324497559529 0.0033661555149592463 -0.0067190630314871679 0.0054118256625609804 -0.00019303897476260118
leaf_weight=10.999999999999998 9.9999999999999982 9.9999999999999982 17 434
leaf_count=11 10 10 17 434
internal_value=0 -7.13168e-05 7.25738e-05 -0.000131398
internal_weight=0 472 462 445
internal_count=482 472 462 445
is_linear=0
shrinkage=0.1


Tree=62
num_leaves=9
num_cat=0
split_feature=5 4 13 11 0 0 0 9
split_gain=0.011884 0.0395987 0.0132513 0.00777356 0.0578046 0.0157155 0.0019034 0.00179674
threshold=36.844334816296445 0.52703752069245857 212.58500000000001 91.100074491255086 3.8508390439054376 3.3373344375602829 2.2065913911794719 315.9525481862193
decision_type=2 2 2 2 2 2 2 2
left_child=3 -2 -3 4 6 7 -1 -5
right_child=1 2 -4 5 -6 -7 -8 -9
leaf_value=-0.00021167753500776602 0.0054557657771511009 0.0013553326483815905 -0.0037927409005351371 0.00052595478224578662 -0.0074610027177682663 0.0045044481195509432 0.00037784520853762589 -0.00077471388670216721
leaf_weight=300 15.999999999999998 10.000000000000002 9.9999999999999982 44 10.999999999999998 9.9999999999999982 67 13.999999999999998
leaf_count=300 16 10 10 44 11 10 67 14
internal_value=0 0.00174773 -0.0012187 -0.000141072 -0.000318145 0.000843243 -0.000104053 0.000212
internal_weight=0 36 20 446 378 68 367 58
internal_count=482 36 20 446 378 68 367 58
is_linear=0
shrinkage=0.1


Tree=63
num_leaves=7
num_cat=0
split_feature=5 8 13 14 0 9
split_gain=0.00962602 0.0405857 0.00801719 0.006949 0.0220663 0.00196694
threshold=36.844334816296445 38.922812737908238 212.58500000000001 791.71500000000015 3.8508390439054376 601.91685410628656
decision_type=2 2 2 2 2 2
left_child=3 2 -2 4 5 -1
right_child=1 -3 -4 -5 -6 -7
leaf_value=-4.984361724018527e-05 0.00099437714243928569 0.0069870006851851935 -0.0025599374111400473 0.0017442810226623948 -0.004631029448302632 -0.0011805574962636457
leaf_weight=400 15.000000000000002 9.9999999999999982 10.999999999999998 19 10.999999999999998 15.999999999999998
leaf_count=400 15 10 11 19 11 16
internal_value=0 0.00157295 -0.000509371 -0.000126965 -0.000210229 -9.33326e-05
internal_weight=0 36 26 446 427 416
internal_count=482 36 26 446 427 416
is_linear=0
shrinkage=0.1


Tree=64
num_leaves=10
num_cat=0
split_feature=14 0 0 24 11 14 0 7 2
split_gain=0.00864383 0.0741506 0.0256431 0.00417959 0.00325267 0.00161983 0.00131511 0.00168611 0.0015703
threshold=516.10500000000013 3.9100236664054235 3.4294099596635359 24.988637493080347 99.243266750823423 752.31500000000017 1.4786134994027755 160.25381359249948 29.150000000000002
decision_type=2 2 2 2 2 2 2 2 2
left_child=2 3 6 5 -5 -2 8 -8 -1
right_child=1 -3 -4 4 -6 -7 7 -9 -10
leaf_value=-0.00016819736728893576 -0.0019660056962703277 0.0085538751361044964 -0.0052465133601799609 0.00048648010145747899 -0.0013448148690672086 -0.00031719020864164288 5.5445179628134763e-05 0.00142058277502656 -0.001165414011955042
leaf_weight=222 13.000000000000002 10.999999999999998 9.9999999999999982 82 10.999999999999998 10.999999999999998 95 9.9999999999999982 17
leaf_count=222 13 11 10 82 11 11 95 10 17
internal_value=0 0.000704249 -0.000254644 -3.37501e-05 0.000269875 -0.0012103 -0.000109531 0.000185458 -0.000239129
internal_weight=0 128 354 117 93 24 344 105 239
internal_count=482 128 354 117 93 24 344 105 239
is_linear=0
shrinkage=0.1


Tree=65
num_leaves=6
num_cat=0
split_feature=3 0 24 14 24
split_gain=0.0111031 0.0431104 0.00162072 0.00333243 0.002442
threshold=29.815000000000001 3.8508390439054376 24.985810475870579 329.15500000000003 24.992043937781926
decision_type=2 2 2 2 2
left_child=-1 2 3 -2 -4
right_child=1 -3 4 -5 -6
leaf_value=-0.002590185488224961 -0.0001020992786315701 0.0065839546336792414 0.0011910710483789444 -0.0012911352827878935 1.6683290131578152e-05
leaf_weight=15.999999999999998 149 9.9999999999999982 19 28 260
leaf_count=16 149 10 19 28 260
internal_value=0 8.89334e-05 -5.35013e-05 -0.000290195 9.66595e-05
internal_weight=0 466 456 177 279
internal_count=482 466 456 177 279
is_linear=0
shrinkage=0.1


Tree=66
num_leaves=6
num_cat=0
split_feature=3 0 0 5 18
split_gain=0.00899348 0.0349194 0.00144286 0.00199021 0.000713124
threshold=29.815000000000001 3.8508390439054376 0.18689992492018911 23.031119857493753 28.594280233592539
decision_type=2 2 2 2 2
left_child=-1 2 4 -4 -2
right_child=1 -3 3 -5 -6
leaf_value=-0.0023311670869588853 -0.0009187363423517951 0.0059255590150132783 0.0012546418422761446 -5.1794967758482442e-06 -0.00025206260258581848
leaf_weight=15.999999999999998 21 9.9999999999999982 12.999999999999998 354 68
leaf_count=16 21 10 13 354 68
internal_value=0 8.00401e-05 -4.81511e-05 3.94463e-05 -0.000409368
internal_weight=0 466 456 367 89
internal_count=482 466 456 367 89
is_linear=0
shrinkage=0.1


Tree=67
num_leaves=5
num_cat=0
split_feature=2 2 2 13
split_gain=0.00938569 0.034204 0.0336401 0.00453544
threshold=38.225000000000001 36.985000000000007 36.635000000000012 290.08500000000004
decision_type=2 2 2 2
left_child=1 2 3 -1
right_child=-2 -3 -4 -5
leaf_value=-1.9936778010900069e-05 0.0030316610599402339 -0.005850365232909098 0.0044268025496207617 -0.0012931611733074534
leaf_weight=415 9.9999999999999982 9.9999999999999982 17 30
leaf_count=415 10 10 17 30
internal_value=0 -6.42301e-05 6.10109e-05 -0.000105772
internal_weight=0 472 462 445
internal_count=482 472 462 445
is_linear=0
shrinkage=0.1


Tree=68
num_leaves=8
num_cat=0
split_feature=9 0 3 17 4 0 17
split_gain=0.00815536 0.0365675 0.0125624 0.00216499 0.00155889 0.00130678 0.000622739
threshold=605.81101020234337 3.9100236664054235 32.410000000000004 256.47411726860895 0.7918923666019666 0.6882110177408628 195.47945015469364
decision_type=2 2 2 2 2 2 2
left_child=1 4 -2 6 5 -1 -4
right_child=2 -3 3 -5 -6 -7 -8
leaf_value=-0.00030519173484515734 -0.0044251353363506498 0.0058202483638359068 -0.00034205766437067219 -0.001584585171658546 0.00086661913481197875 7.0023854903465419e-05 0.00072201621051962411
leaf_weight=142 9.9999999999999982 10.999999999999998 11.000000000000002 9.9999999999999982 19 268 10.999999999999998
leaf_count=142 10 11 11 10 19 268 11
internal_value=0 0.000127086 -0.00133137 -0.000364572 -1.88929e-05 -5.99289e-05 0.000189979
internal_weight=0 440 42 32 429 410 22
internal_count=482 440 42 32 429 410 22
is_linear=0
shrinkage=0.1


Tree=69
num_leaves=5
num_cat=0
split_feature=2 3 2 13
split_gain=0.00847473 0.028991 0.0279118 0.0039135
threshold=38.225000000000001 30.470000000000002 36.635000000000012 290.08500000000004
decision_type=2 2 2 2
left_child=1 -1 3 -3
right_child=-2 2 -4 -5
leaf_value=-0.0049133447285081878 0.0028807822638191281 -1.13529828158621e-05 0.0039255730148094392 -0.0011943523166701199
leaf_weight=11.999999999999998 9.9999999999999982 412 18 30
leaf_count=12 10 412 18 30
internal_value=0 -6.10335e-05 6.55485e-05 -9.16471e-05
internal_weight=0 472 460 442
internal_count=482 472 460 442
is_linear=0
shrinkage=0.1


Tree=70
num_leaves=9
num_cat=0
split_feature=9 0 3 24 14 17 2 17
split_gain=0.00732312 0.0302287 0.0105366 0.00161665 0.00456707 0.00159997 0.00154126 0.000582642
threshold=605.81101020234337 3.9100236664054235 32.410000000000004 24.990865053180986 265.41000000000003 256.47411726860895 36.470000000000006 195.47945015469364
decision_type=2 2 2 2 2 2 2 2
left_child=1 3 -2 4 -1 7 -5 -4
right_child=2 -3 5 6 -6 -7 -8 -9
leaf_value=-2.3332229344501882e-06 -0.0040949621511390437 0.0052966859763149514 -0.00041408731538633038 9.9836182910732876e-05 -0.0013033121013766944 -0.0014249913906678559 0.0013106938007033686 0.00061515964639097958
leaf_weight=148 9.9999999999999982 10.999999999999998 11.000000000000002 237 33 9.9999999999999982 10.999999999999998 10.999999999999998
leaf_count=148 10 11 11 237 33 10 11 11
internal_value=0 0.000120427 -0.00126161 -1.22979e-05 -0.000239528 -0.000376191 0.000153544 0.000100536
internal_weight=0 440 42 429 181 32 248 22
internal_count=482 440 42 429 181 32 248 22
is_linear=0
shrinkage=0.1


Tree=71
num_leaves=5
num_cat=0
split_feature=2 2 2 0
split_gain=0.00783817 0.0258586 0.0223142 0.00385177
threshold=38.225000000000001 36.985000000000007 36.635000000000012 3.5540213896973354
decision_type=2 2 2 2
left_child=1 2 3 -1
right_child=-2 -3 -4 -5
leaf_value=-3.2612359885432184e-05 0.0027704778499901294 -0.0050896738842129714 0.0036059004833291775 -0.0017180300716842926
leaf_weight=431 9.9999999999999982 9.9999999999999982 17 13.999999999999998
leaf_count=431 10 10 17 14
internal_value=0 -5.86966e-05 5.0199e-05 -8.56367e-05
internal_weight=0 472 462 445
internal_count=482 472 462 445
is_linear=0
shrinkage=0.1


Tree=72
num_leaves=9
num_cat=0
split_feature=5 11 17 13 0 0 0 14
split_gain=0.00782332 0.0281458 0.00703408 0.00669741 0.0467539 0.0176725 0.00206146 0.0018088
threshold=36.844334816296445 74.752463460968826 195.47945015469364 117.67500000000003 3.8508390439054376 3.2005231055819716 1.9622158167714672 210.59000000000003
decision_type=2 2 2 2 2 2 2 2
left_child=3 -2 -3 5 7 6 -1 -5
right_child=1 2 -4 4 -6 -7 -8 -9
leaf_value=-0.00010527521258413393 0.004544197586074006 0.00079249053262174106 -0.0029582643799949439 0.00055685760973054655 -0.0069422481560402309 0.0042856741975992917 0.00061750229983095165 -0.00034863802107933085
leaf_weight=246 15.999999999999998 10.000000000000002 9.9999999999999982 28 10.999999999999998 9.9999999999999982 47 104
leaf_count=246 16 10 10 28 11 10 47 104
internal_value=0 0.00141804 -0.00108289 -0.000114461 -0.000678539 0.000151755 1.06652e-05 -0.000156563
internal_weight=0 36 20 446 143 303 293 132
internal_count=482 36 20 446 143 303 293 132
is_linear=0
shrinkage=0.1


Tree=73
num_leaves=6
num_cat=0
split_feature=3 0 16 2 12
split_gain=0.00688033 0.0226528 0.00123673 0.00185421 0.00137029
threshold=29.815000000000001 3.8508390439054376 778.88148583332065 31.555000000000003 0.48696672212188302
decision_type=2 2 2 2 2
left_child=-1 2 3 -2 -4
right_child=1 -3 4 -5 -6
leaf_value=-0.0020389856625115501 4.0248393415362148e-05 0.0047781574820692195 0.0010798046613490441 -0.00044479674834175994 -0.00018458224833011629
leaf_weight=15.999999999999998 316 9.9999999999999982 20 105 14.999999999999998
leaf_count=16 316 10 20 105 15
internal_value=0 7.00081e-05 -3.32408e-05 -8.07249e-05 0.000537925
internal_weight=0 466 456 421 35
internal_count=482 466 456 421 35
is_linear=0
shrinkage=0.1


Tree=74
num_leaves=5
num_cat=0
split_feature=2 3 2 25
split_gain=0.00664494 0.0198336 0.0200487 0.00380093
threshold=38.225000000000001 30.470000000000002 36.635000000000012 23.972222222222225
decision_type=2 2 2 2
left_child=1 -1 3 -3
right_child=-2 2 -4 -5
leaf_value=-0.0040674917613311356 0.0025508970068767668 -0.00080182738630168071 0.0033220982508889089 3.698756573902994e-05
leaf_weight=11.999999999999998 9.9999999999999982 63 18 379
leaf_count=12 10 63 18 379
internal_value=0 -5.40444e-05 5.06542e-05 -8.2572e-05
internal_weight=0 472 460 442
internal_count=482 472 460 442
is_linear=0
shrinkage=0.1


Tree=75
num_leaves=7
num_cat=0
split_feature=25 5 2 0 8 0
split_gain=0.00620703 0.0180677 0.00584109 0.0248236 0.00237894 0.00169594
threshold=23.333333333333346 27.452351670695077 38.225000000000001 3.8508390439054376 85.983597507282084 3.5037545973180388
decision_type=2 2 2 2 2 2
left_child=1 4 3 5 -1 -2
right_child=2 -3 -4 -5 -6 -7
leaf_value=-0.0014134855708107343 -5.6523933175940635e-05 0.004867246070643887 0.0022958073485642673 -0.00463419290802752 0.00071762031452222302 0.0011492745368741452
leaf_weight=10.000000000000005 417 9.9999999999999982 9.9999999999999982 11.999999999999998 10.999999999999998 11.999999999999998
leaf_count=10 417 10 10 12 11 12
internal_value=0 0.00136876 -9.4083e-05 -0.000148276 -0.000297192 -2.27953e-05
internal_weight=0 31 451 441 21 429
internal_count=482 31 451 441 21 429
is_linear=0
shrinkage=0.1


Tree=76
num_leaves=8
num_cat=0
split_feature=9 0 9 24 14 24 8
split_gain=0.00611469 0.0268114 0.00759709 0.00137992 0.00453471 0.00143602 0.000703335
threshold=605.81101020234337 3.9100236664054235 638.10924504559512 24.990865053180986 265.41000000000003 24.992787920171743 35.34680492855022
decision_type=2 2 2 2 2 2 2
left_child=1 3 -2 4 -1 -5 -4
right_child=2 -3 6 5 -6 -7 -8
leaf_value=1.1463419336045314e-05 -0.0027058199568677486 0.0049849454832093963 0.00060041733932766038 0.0010866522191402812 -0.00128489841114391 7.7209261714060131e-05 -0.00048605496278749066
leaf_weight=148 18 10.999999999999998 11.000000000000002 14.999999999999998 33 233 12.999999999999998
leaf_count=148 18 11 11 15 33 233 13
internal_value=0 0.000110043 -0.00115283 -1.49546e-05 -0.00022489 0.000138264 1.19115e-05
internal_weight=0 440 42 429 181 248 24
internal_count=482 440 42 429 181 248 24
is_linear=0
shrinkage=0.1


Tree=77
num_leaves=7
num_cat=0
split_feature=3 2 0 25 0 23
split_gain=0.00592139 0.0173493 0.0296771 0.00350457 0.00719712 0.00244271
threshold=29.815000000000001 36.635000000000012 3.3977818742866344 23.972222222222225 2.8913716783733139 50.155221776097122
decision_type=2 2 2 2 2 2
left_child=-1 3 -3 4 -2 -5
right_child=1 2 -4 5 -6 -7
leaf_value=-0.0018915656892204424 -0.000213636936241528 -0.00071057468091815016 0.006816460685804486 0.0015149351473982362 -0.0028547869601215307 2.8209032483318585e-06
leaf_weight=15.999999999999998 50 11.000000000000002 9.9999999999999982 10.999999999999998 12.999999999999998 371
leaf_count=16 50 11 10 11 13 371
internal_value=0 6.49465e-05 0.00287373 -6.76028e-05 -0.000758636 4.63635e-05
internal_weight=0 466 21 445 63 382
internal_count=482 466 21 445 63 382
is_linear=0
shrinkage=0.1


Tree=78
num_leaves=8
num_cat=0
split_feature=14 16 2 11 24 4 14
split_gain=0.00570731 0.0394566 0.0237519 0.0099536 0.00438763 0.00211492 0.00161273
threshold=516.10500000000013 345.4524559325809 35.150000000000006 99.786444150302444 24.988637493080347 0.7918923666019666 284.11500000000007
decision_type=2 2 2 2 2 2 2
left_child=2 -2 5 4 -3 6 -1
right_child=1 3 -4 -5 -6 -7 -8
leaf_value=1.026113328761211e-05 0.005391161829854052 -0.0010099007736822719 -0.0039717551457215455 -0.0029253742837516421 0.00058472493250519622 0.0014039031998254359 -0.00066736616063280965
leaf_weight=288 14.999999999999998 22 15.999999999999998 10.999999999999998 80 9.9999999999999982 40
leaf_count=288 15 22 16 11 80 10 40
internal_value=0 0.000572254 -0.000206917 -6.74242e-05 0.000240786 -2.86994e-05 -7.23763e-05
internal_weight=0 128 354 113 102 338 328
internal_count=482 128 354 113 102 338 328
is_linear=0
shrinkage=0.1


Tree=79
num_leaves=9
num_cat=0
split_feature=5 16 17 13 2 3 25 11
split_gain=0.00515806 0.0259957 0.00520167 0.00510926 0.0195873 0.0145961 0.00623523 0.00159403
threshold=36.844334816296445 536.25013288452362 183.29035199372035 117.67500000000003 36.790000000000006 34.720000000000006 24.638888888888896 85.042150671935275
decision_type=2 2 2 2 2 2 2 2
left_child=3 -2 -3 5 6 -1 -5 -7
right_child=1 2 -4 4 -6 7 -8 -9
leaf_value=0.0038964919792488215 0.0054843974703544518 0.00060311204269964931 -0.0023042441206052901 -0.0018026825722534505 -0.0048538192306295976 -8.1387277602944198e-05 4.012197077007931e-05 0.00059796009209094341
leaf_weight=9.9999999999999982 9.9999999999999982 16.000000000000004 9.9999999999999982 22 9.9999999999999982 253 111 40
leaf_count=10 10 16 10 22 10 253 111 40
internal_value=0 0.00115143 -0.000515102 -9.29402e-05 -0.00058562 0.000139579 -0.000264703 1.13564e-05
internal_weight=0 36 26 446 143 303 133 293
internal_count=482 36 26 446 143 303 133 293
is_linear=0
shrinkage=0.1


end of trees

feature_importances:
Cooling_Load_(kWh)=500
Indoor_Temperature_(C)=48
Outdoor_Relative_Humidity_(%)=47
Outdoor_Drybulb_Temperature_(C)=41
24h_Outdoor_Drybulb_Temperature_(C)=26
Solar_Generation_(W/kW)=21
Equipment_Electric_Power_(kWh)=19
Diffuse_Solar_Radiation_(W/m2)=15
Direct_Solar_Radiation_(W/m2)=15
Temperature_Set_Point_(C)=15
kg_CO2/kWh=13
24h_Direct_Solar_Radiation_(W/m2)=12
12h_Outdoor_Relative_Humidity_(%)=10
Indoor_Relative_Humidity_(%)=10
24h_Diffuse_Solar_Radiation_(W/m2)=9
6h_Diffuse_Solar_Radiation_(W/m2)=7
24h_Outdoor_Relative_Humidity_(%)=7
6h_Outdoor_Drybulb_Temperature_(C)=7
6h_Direct_Solar_Radiation_(W/m2)=3
12h_Outdoor_Drybulb_Temperature_(C)=2
Electricity_Pricing__$/kWh_=2
24h_Prediction_Electricity_Pricing__$/kWh_=2
Hour=1

parameters:
[boosting: gbdt]
[objective: regression]
[metric: l2]
[tree_learner: serial]
[device_type: cpu]
[data: ]
[valid: ]
[num_iterations: 80]
[learning_rate: 0.1]
[num_leaves: 16]
[num_threads: 1]
[deterministic: 0]
[force_col_wise: 0]
[force_row_wise: 0]
[histogram_pool_size: -1]
[max_depth: 4]
[min_data_in_leaf: 10]
[min_sum_hessian_in_leaf: 0.001]
[bagging_fraction: 0.9]
[pos_bagging_fraction: 1]
[neg_bagging_fraction: 1]
[bagging_freq: 0]
[bagging_seed: 3]
[feature_fraction: 0.9]
[feature_fraction_bynode: 1]
[feature_fraction_seed: 2]
[extra_trees: 0]
[extra_seed: 6]
[early_stopping_round: 0]
[first_metric_only: 0]
[max_delta_step: 0]
[lambda_l1: 0]
[lambda_l2: 0]
[linear_lambda: 0]
[min_gain_to_split: 0]
[drop_rate: 0.1]
[max_drop: 50]
[skip_drop: 0.5]
[xgboost_dart_mode: 0]
[uniform_drop: 0]
[drop_seed: 4]
[top_rate: 0.2]
[other_rate: 0.1]
[min_data_per_group: 100]
[max_cat_threshold: 32]
[cat_l2: 10]
[cat_smooth: 10]
[max_cat_to_onehot: 4]
[top_k: 20]
[monotone_constraints: ]
[monotone_constraints_method: basic]
[monotone_penalty: 0]
[feature_contri: ]
[forcedsplits_filename: ]
[refit_decay_rate: 0.9]
[cegb_tradeoff: 1]
[cegb_penalty_split: 0]
[cegb_penalty_feature_lazy: ]
[cegb_penalty_feature_coupled: ]
[path_smooth: 0]
[interaction_constraints: ]
[verbosity: -1]
[saved_feature_importance_type: 0]
[linear_tree: 0]
[max_bin: 255]
[max_bin_by_feature: ]
[min_data_in_bin: 3]
[bin_construct_sample_cnt: 200000]
[data_random_seed: 1]
[is_enable_sparse: 1]
[enable_bundle: 1]
[use_missing: 1]
[zero_as_missing: 0]
[feature_pre_filter: 1]
[pre_partition: 0]
[two_round: 0]
[header: 0]
[label_column: ]
[weight_column: ]
[group_column: ]
[ignore_column: ]
[categorical_feature: ]
[forcedbins_filename: ]
[precise_float_parser: 0]
[parser_config_file: ]
[objective_seed: 5]
[num_class: 1]
[is_unbalance: 0]
[scale_pos_weight: 1]
[sigmoid: 1]
[boost_from_average: 1]
[reg_sqrt: 0]
[alpha: 0.9]
[fair_c: 1]
[poisson_max_delta_step: 0.7]
[tweedie_variance_power: 1.5]
[lambdarank_truncation_level: 30]
[lambdarank_norm: 1]
[label_gain: ]
[lambdarank_position_bias_regularization: 0]
[eval_at: ]
[multi_error_top_k: 1]
[auc_mu_weights: ]
[num_machines: 1]
[local_listen_port: 12400]
[time_out: 120]
[machine_list_filename: ]
[machines: ]
[gpu_platform_id: -1]
[gpu_device_id: -1]
[gpu_use_dp: 0]
[num_gpu: 1]

end of parameters

pandas_categorical:[]
