tree
version=v4
num_class=1
num_tree_per_iteration=1
label_index=0
max_feature_idx=35
objective=regression
feature_names=Month Hour Day_Type Daylight_Savings_Status Indoor_Temperature_(C) Average_Unmet_Cooling_Setpoint_Difference_(C) Indoor_Relative_Humidity_(%) Equipment_Electric_Power_(kWh) DHW_Heating_(kWh) Cooling_Load_(kWh) Heating_Load_(kWh) Solar_Generation_(W/kW) Occupant_Count_(people) Temperature_Set_Point_(C) HVAC_Mode_(Off/Cooling/Heating) kg_CO2/kWh Electricity_Pricing__$/kWh_ 6h_Prediction_Electricity_Pricing__$/kWh_ 12h_Prediction_Electricity_Pricing__$/kWh_ 24h_Prediction_Electricity_Pricing__$/kWh_ Outdoor_Drybulb_Temperature_(C) Outdoor_Relative_Humidity_(%) Diffuse_Solar_Radiation_(W/m2) Direct_Solar_Radiation_(W/m2) 6h_Outdoor_Drybulb_Temperature_(C) 12h_Outdoor_Drybulb_Temperature_(C) 24h_Outdoor_Drybulb_Temperature_(C) 6h_Outdoor_Relative_Humidity_(%) 12h_Outdoor_Relative_Humidity_(%) 24h_Outdoor_Relative_Humidity_(%) 6h_Diffuse_Solar_Radiation_(W/m2) 12h_Diffuse_Solar_Radiation_(W/m2) 24h_Diffuse_Solar_Radiation_(W/m2) 6h_Direct_Solar_Radiation_(W/m2) 12h_Direct_Solar_Radiation_(W/m2) 24h_Direct_Solar_Radiation_(W/m2)
feature_infos=none [1:24] [1:7] none [19.999913713398435:27.222233402985371] [-0.2386741579688198:0.35350276263234898] [46.463528256975707:67.854748901629137] [0.33485604895556981:7.4589685167779072] [0:4.565351196299142] [0:10.608548931041424] none [0:687.15852178569139] [0:3] [20:27.222222222222225] none [0.33751525247131398:0.54505021691256927] [0.028930000000000001:0.05867] [0.028930000000000001:0.05867] [0.028930000000000001:0.05867] [0.028930000000000001:0.05867] [21.379999999999999:40.32] [24.120000000000001:98.25] [0:408.69999999999999] [0:886.92999999999995] [21.385895012807637:40.448030901483051] [20.812239003382171:41.761423383460262] [20.947013524362529:40.33298102857114] [19.430299457014652:100] [18.750454935186248:100] [16.665542474905589:100] [0:448.59393372529718] [0:524.90876332100106] [0:486.88891634473225] [0:998.78608636720685] [0:1096.818864330259] [0:1148.8024499653848]
tree_sizes=1163 1184 1189 1187 1192 1092 1093 1095 976 1080 1069 1172 949 1057 956 969 975 947 947 960 965 960 954 1041 968 991 964 975 967 869 887 912 901 1013 989 907 918 806 992 812 828 838 739 1025 825 918 920 825 1014 927 736 824 836 830 1025 823 921 734 1008 847 826 1018 826 922 824 922 741 1143 826 926 840 1004 851 912 1029 917 807 937 805 998

Tree=0
num_leaves=11
num_cat=0
split_feature=8 8 8 8 8 8 8 8 8 5
split_gain=77.576 15.1501 10.7924 2.13473 1.74075 0.634135 0.0624527 0.0510458 0.0427818 0.0139331
threshold=0.78755836944073121 1.6555250670893795 0.27554209638334309 0.10517419635887931 1.260596786741498 0.53733142776104714 1.0000000180025095e-35 0.19220668923651094 0.41899979227798639 7.0811083396904459e-06
decision_type=2 2 2 2 2 2 2 2 2 2
left_child=2 4 3 6 -2 8 -1 -5 -4 -7
right_child=1 -3 5 7 -6 9 -8 -9 -10 -11
leaf_value=0.19653818443170226 0.29347213690232271 0.45033664525662537 0.23381624181818006 0.21107812722897568 0.34264237468194003 0.25810140545825289 0.2038910787900392 0.21832706949062186 0.24112905435016788 0.26325887545695936
leaf_weight=309 18.000000000000004 10.999999999999998 11.999999999999998 11.999999999999998 11.999999999999998 11.000000000000002 11.999999999999998 51 24 9.9999999999999982
leaf_count=309 18 11 12 12 12 11 12 51 24 10
internal_value=0.218376 0.349949 0.206143 0.200116 0.31314 0.246747 0.196813 0.216946 0.238691 0.260557
internal_weight=0 41 441 384 30 57 321 63 36 21
internal_count=482 41 441 384 30 57 321 63 36 21
is_linear=0
shrinkage=1


Tree=1
num_leaves=11
num_cat=0
split_feature=8 8 8 8 8 8 8 8 8 8
split_gain=62.8602 10.9117 10.1916 1.72913 0.895322 0.871362 0.110389 0.0505867 0.0495364 0.0413471
threshold=0.88421480348449788 0.27554209638334309 1.6555250670893795 0.10517419635887931 1.260596786741498 0.58031951231225387 0.67717715625842978 1.0000000180025095e-35 0.41899979227798639 0.19220668923651094
decision_type=2 2 2 2 2 2 2 2 2 2
left_child=1 3 4 7 -2 8 -7 -1 -3 -5
right_child=2 5 -4 9 -6 6 -8 -9 -10 -11
leaf_value=-0.019653818011283877 0.073210913439591713 0.013896433419237533 0.20876479040492668 -0.0065678698786844807 0.11183995405832928 0.036677986880143475 0.050241966545581822 -0.013036213194330536 0.021618297254597699 -4.3821608500472984e-05
leaf_weight=309 12.000000000000002 11.999999999999998 10.999999999999998 11.999999999999998 11.999999999999998 12.000000000000002 11.999999999999998 11.999999999999998 27 51
leaf_count=309 12 12 11 12 12 12 12 12 27 51
internal_value=0 -0.0101052 0.129058 -0.0164336 0.0925254 0.0284681 0.04346 -0.0194064 0.0192423 -0.0012865
internal_weight=0 447 35 384 24 63 24 321 39 63
internal_count=482 447 35 384 24 63 24 321 39 63
is_linear=0
shrinkage=0.1


Tree=2
num_leaves=11
num_cat=0
split_feature=8 8 8 8 8 8 8 8 5 22
split_gain=50.9829 9.91818 7.05688 1.40261 1.18039 0.417568 0.0500149 0.0269988 0.00822918 0.00196359
threshold=0.78755836944073121 1.6555250670893795 0.27554209638334309 0.089684682522173861 1.0361811655499187 0.53733142776104714 0.16425480759180613 0.41899979227798639 7.0811083396904459e-06 337.24000000000007
decision_type=2 2 2 2 2 2 2 2 2 2
left_child=2 4 3 9 -2 7 -5 -4 -7 -1
right_child=1 -3 5 6 -6 8 -8 -9 -10 -11
leaf_value=-0.017592821808324922 0.05704524556795755 0.1878883096304807 0.012506790179759265 -0.0073637541383504874 0.096717056830724082 0.032235786860639389 -0.000226453098703469 0.018316135307153068 0.036199403107166288 -0.016288790603478751
leaf_weight=306 15.000000000000002 10.999999999999998 11.999999999999998 11.999999999999998 14.999999999999998 11.000000000000002 54 24 9.9999999999999982 11.999999999999998
leaf_count=306 15 11 12 12 15 11 54 24 10 12
internal_value=0 0.106664 -0.00991657 -0.0147903 0.0768812 0.0229168 -0.00152414 0.0163797 0.0341232 -0.0175436
internal_weight=0 41 441 384 30 57 66 36 21 318
internal_count=482 41 441 384 30 57 66 36 21 318
is_linear=0
shrinkage=0.1


Tree=3
num_leaves=11
num_cat=0
split_feature=8 8 8 8 8 9 8 8 8 8
split_gain=41.384 7.91528 5.87804 1.22975 0.644078 0.103581 0.097566 0.0509654 0.0371537 0.0313061
threshold=0.94427938424517455 0.33429884015725447 1.6555250670893795 0.10517419635887931 0.59896575175094524 3.5083579586036691 0.69445326886698755 0.45064762679545783 1.0000000180025095e-35 0.19220668923651094
decision_type=2 2 2 2 2 2 2 2 2 2
left_child=1 3 5 8 7 -2 -6 -3 -1 -5
right_child=2 4 -4 9 6 -7 -8 -9 -10 -11
leaf_value=-0.01593295319855792 0.072166118838570312 0.014715353123567724 0.16909948587417603 -0.0053531398996710779 0.03157040352622667 0.086228292584419261 0.044322264442841215 0.022547798852125805 -0.010261637220780056 0.00029361081747251945
leaf_weight=309 11.000000000000002 27 10.999999999999998 11.999999999999998 12.000000000000002 9.9999999999999982 11.999999999999998 11.999999999999998 11.999999999999998 54
leaf_count=309 11 27 11 12 12 10 12 12 12 54
internal_value=0 -0.00781379 0.109881 -0.0131649 0.0250571 0.0788624 0.0379463 0.0171253 -0.0157209 -0.000733071
internal_weight=0 450 32 387 63 21 24 39 321 66
internal_count=482 450 32 387 63 21 24 39 321 66
is_linear=0
shrinkage=0.1


Tree=4
num_leaves=11
num_cat=0
split_feature=8 8 8 8 8 9 8 8 8 22
split_gain=33.5211 6.41994 4.76121 0.918236 0.577416 0.0839003 0.0790284 0.0524092 0.0326599 0.00125607
threshold=0.94427938424517455 0.27554209638334309 1.6555250670893795 0.089684682522173861 0.59896575175094524 3.5083579586036691 0.69445326886698755 0.45064762679545783 0.16425480759180613 337.24000000000007
decision_type=2 2 2 2 2 2 2 2 2 2
left_child=1 3 5 9 7 -2 -6 -3 -5 -1
right_child=2 4 -4 8 6 -7 -8 -9 -10 -11
leaf_value=-0.014251364068755138 0.064949506792155151 0.012473549259205659 0.15218953544443303 -0.0059693522751331331 0.028413363297780349 0.077605464458465584 0.039890036235253022 0.020293019091089569 -0.00020179805853533456 -0.013208398719628653
leaf_weight=306 11.000000000000002 30 10.999999999999998 11.999999999999998 12.000000000000002 9.9999999999999982 11.999999999999998 11.999999999999998 54 11.999999999999998
leaf_count=306 11 30 11 12 12 10 12 12 54 12
internal_value=0 -0.00703241 0.0988933 -0.0119842 0.0217782 0.0709762 0.0341517 0.0147077 -0.00125044 -0.014212
internal_weight=0 450 32 384 66 21 24 42 66 318
internal_count=482 450 32 384 66 21 24 42 66 318
is_linear=0
shrinkage=0.1


Tree=5
num_leaves=10
num_cat=0
split_feature=8 8 15 8 8 8 8 8 8
split_gain=27.2289 6.38796 3.03426 0.873262 0.590932 0.113568 0.0507726 0.0376419 0.0169379
threshold=1.0361811655499187 0.38313102156396006 0.4602110903328499 0.12917011607646281 0.63418560798218426 0.78755836944073121 0.45539944470572685 1.0000000180025095e-35 0.2253165190965524
decision_type=2 2 2 2 2 2 2 2 2
left_child=1 3 -2 7 6 -6 -3 -1 -5
right_child=2 4 -4 8 5 -7 -8 -9 -10
leaf_value=-0.012917558139967686 0.13942998051643368 0.012817343269233351 0.070283383528391516 -0.00081523341963205638 0.02721709286173184 0.040268997351328537 0.020634962742527328 -0.0077879573653141659 0.0033382641306767859
leaf_weight=309 11.000000000000002 27 14.999999999999998 54 12.000000000000002 14.999999999999998 11.999999999999998 14.999999999999998 11.999999999999998
leaf_count=309 11 27 15 54 12 15 12 15 12
internal_value=0 -0.0056754 0.0995377 -0.0105444 0.0230959 0.0344682 0.0152228 -0.0126801 -6.0052e-05
internal_weight=0 456 26 390 66 27 39 324 66
internal_count=482 456 26 390 66 27 39 324 66
is_linear=0
shrinkage=0.1


Tree=6
num_leaves=10
num_cat=0
split_feature=8 8 8 8 8 8 8 8 8
split_gain=22.0664 4.66341 3.16112 0.65085 0.424557 0.0666515 0.0504339 0.03049 0.010024
threshold=1.0125503348976104 0.33429884015725447 1.6555250670893795 0.12917011607646281 0.63418560798218426 0.78755836944073121 0.45539944470572685 1.0000000180025095e-35 0.20681921533299258
decision_type=2 2 2 2 2 2 2 2 2
left_child=1 3 -2 7 6 -6 -3 -1 -5
right_child=2 4 -4 8 5 -7 -8 -9 -10
leaf_value=-0.011625802531404404 0.058755623135301797 0.010900769121944905 0.12679921659556301 -0.0029040606847653789 0.024495383476217582 0.035035111010074615 0.018571466455856958 -0.0070091614872217186 0.00030823539492820263
leaf_weight=309 18.000000000000004 30 10.999999999999998 11.999999999999998 12.000000000000002 11.999999999999998 11.999999999999998 14.999999999999998 51
leaf_count=309 18 30 11 12 12 12 12 15 51
internal_value=0 -0.00541367 0.0845653 -0.00960372 0.0191553 0.0297652 0.0130924 -0.0114121 -0.000303631
internal_weight=0 453 29 387 66 24 42 324 63
internal_count=482 453 29 387 66 24 42 324 63
is_linear=0
shrinkage=0.1


Tree=7
num_leaves=10
num_cat=0
split_feature=8 8 15 8 8 8 8 8 8
split_gain=17.9555 4.17577 2.42852 0.57004 0.375842 0.0696095 0.0326473 0.0246969 0.0113628
threshold=1.0361811655499187 0.38313102156396006 0.4602110903328499 0.12917011607646281 0.63418560798218426 0.78755836944073121 0.45539944470572685 1.0000000180025095e-35 0.2253165190965524
decision_type=2 2 2 2 2 2 2 2 2
left_child=1 3 -2 7 6 -6 -3 -1 -5
right_child=2 4 -4 8 5 -7 -8 -9 -10
leaf_value=-0.010463222854056405 0.11651852862401438 0.01044553245107333 0.054657739202181505 -0.00069314926869184189 0.022045845290025068 0.032264175216356911 0.016714319835106531 -0.0063082452863454826 0.0027088007618052265
leaf_weight=309 11.000000000000002 27 14.999999999999998 54 12.000000000000002 14.999999999999998 11.999999999999998 14.999999999999998 11.999999999999998
leaf_count=309 11 27 15 54 12 15 12 15 12
internal_value=0 -0.00460871 0.0808296 -0.00854534 0.0186532 0.0277227 0.0123744 -0.0102709 -7.46129e-05
internal_weight=0 456 26 390 66 27 39 324 66
internal_count=482 456 26 390 66 27 39 324 66
is_linear=0
shrinkage=0.1


Tree=8
num_leaves=9
num_cat=0
split_feature=7 33 15 28 21 5 26 28
split_gain=1.24946 1.60393 0.557326 0.543174 0.34515 0.217843 0.0843142 0.0493346
threshold=0.40362550015737703 767.56367301229955 0.42306103208372708 54.453052780081556 94.185000000000016 4.6892886375715655e-05 36.659971092587362 75.93723710175378
decision_type=2 2 2 2 2 2 2 2
left_child=4 2 -2 -4 6 -6 7 -1
right_child=1 -3 3 -5 5 -7 -8 -9
leaf_value=-0.007830594672733792 0.019454744009693204 0.039104585353141798 0.013415826001966542 -0.0005110847150806237 0.017246219115331762 -0.0018082194216549397 0.0018935079739259729 -0.00364066458937219
leaf_weight=162 19 12.999999999999998 33 185 10.000000000000002 14.999999999999998 10.999999999999998 34
leaf_count=162 19 13 33 185 10 15 11 34
internal_value=0 0.00490469 0.00302874 0.00159712 -0.00528522 0.00581356 -0.00662565 -0.00710377
internal_weight=0 250 237 218 232 25 207 196
internal_count=482 250 237 218 232 25 207 196
is_linear=0
shrinkage=0.1


Tree=9
num_leaves=10
num_cat=0
split_feature=8 8 8 8 8 8 8 8 8
split_gain=14.0268 3.25503 2.0475 0.448594 0.297091 0.0555431 0.0196537 0.0190072 0.00622474
threshold=1.0361811655499187 0.38313102156396006 1.6555250670893795 0.14389493363098479 0.63418560798218426 0.78755836944073121 0.45539944470572685 0.065903857095747864 0.21435314945731487
decision_type=2 2 2 2 2 2 2 2 2
left_child=1 3 -2 7 6 -6 -3 -1 -5
right_child=2 4 -4 8 5 -7 -8 -9 -10
leaf_value=-0.0091865175536700663 0.047410479982693987 0.0093854373803845172 0.10421154011379591 -0.0010894187241016577 0.019456990684072171 0.028584673206011452 0.014249311511715254 -0.0051315584219992164 0.00095746447059821393
leaf_weight=315 15.000000000000002 27 10.999999999999998 24 12.000000000000002 14.999999999999998 11.999999999999998 11.999999999999998 39
leaf_count=315 15 27 11 24 12 15 12 12 39
internal_value=0 -0.00407343 0.0714417 -0.00754907 0.0164644 0.0245279 0.010882 -0.00903771 0.000177699
internal_weight=0 456 26 390 66 27 39 327 63
internal_count=482 456 26 390 66 27 39 327 63
is_linear=0
shrinkage=0.1


Tree=10
num_leaves=10
num_cat=0
split_feature=8 8 30 8 8 8 11 8 8
split_gain=11.3807 3.23797 1.19855 0.382549 0.363564 0.0672975 0.0168481 0.0113112 0.00805674
threshold=1.3051358460425762 0.38313102156396006 72.41838721501513 0.78755836944073121 0.12917011607646281 0.58031951231225387 65.684646773337462 1.0000000180025095e-35 0.20999101209433263
decision_type=2 2 2 2 2 2 2 2 2
left_child=1 4 -2 5 7 -3 -5 -1 -6
right_child=2 3 -4 6 8 -7 -8 -9 -10
leaf_value=-0.0083023684840757873 0.04937265664339064 0.0089268571273847068 0.098332810997962955 0.02494573213837363 -0.0016466581894616996 0.016528216832213932 0.030617106556892395 -0.0054904503623644518 0.00072545627604186957
leaf_weight=309 10.000000000000002 33 9.9999999999999982 11.000000000000002 21 18 9.9999999999999982 14.999999999999998 45
leaf_count=309 10 33 10 11 21 18 10 15 45
internal_value=0 -0.00319709 0.0738527 0.0162871 -0.00679416 0.0116097 0.0276464 -0.00817219 -2.93074e-05
internal_weight=0 462 20 72 390 51 21 324 66
internal_count=482 462 20 72 390 51 21 324 66
is_linear=0
shrinkage=0.1


Tree=11
num_leaves=11
num_cat=0
split_feature=8 8 8 8 8 8 6 8 8 8
split_gain=9.23737 1.96844 1.73454 0.246201 0.148112 0.0207823 0.0186686 0.0125335 0.00789355 0.00207668
threshold=0.94427938424517455 1.6555250670893795 0.27554209638334309 0.14389493363098479 0.58031951231225387 0.69445326886698755 58.121551791233635 1.0000000180025095e-35 0.42871956180547943 0.20999101209433263
decision_type=2 2 2 2 2 2 2 2 2 2
left_child=2 6 3 7 8 -6 -2 -1 -4 -5
right_child=1 -3 4 9 5 -7 -8 -9 -10 -11
leaf_value=-0.0074721316617090729 0.037090440243482577 0.086182563751935962 0.0055426388978958132 -0.0010892215715203849 0.014495737502972282 0.020079057042797409 0.031120515953410754 -0.0047576072108414446 0.0084669082580755162 0.00020931422205206054
leaf_weight=309 10.000000000000002 10.999999999999998 14.999999999999998 18 15.000000000000002 11.999999999999998 10.999999999999998 18 24 39
leaf_count=309 10 11 15 18 15 12 11 18 24 39
internal_value=0 0.0519137 -0.00369164 -0.00626554 0.0112838 0.0169772 0.0339633 -0.00732271 0.00734219 -0.00020075
internal_weight=0 32 450 384 66 27 21 327 39 57
internal_count=482 32 450 384 66 27 21 327 39 57
is_linear=0
shrinkage=0.1


Tree=12
num_leaves=9
num_cat=0
split_feature=8 8 8 8 8 35 8 8
split_gain=7.568 2.33943 0.30444 0.2379 0.0440538 0.0262558 0.0104818 0.00376211
threshold=1.4832295701411875 0.38313102156396006 0.78755836944073121 0.14389493363098479 0.53733142776104714 357.86667238143627 0.065903857095747864 0.22186207049737836
decision_type=2 2 2 2 2 2 2 2
left_child=1 3 4 6 -3 -4 -1 -5
right_child=-2 2 5 7 -6 -7 -8 -9
leaf_value=-0.0067009423578542381 0.065534353672581563 0.006949024808903536 0.020270726723330357 -0.00048566953605936415 0.012920845370917096 0.026979674547910695 -0.003689691579590241 0.0011056163648997122
leaf_weight=315 17 30 14.000000000000002 39 21 9.9999999999999982 11.999999999999998 24
leaf_count=315 17 30 14 39 21 10 12 24
internal_value=0 -0.00239588 0.0137786 -0.00550636 0.00940801 0.0230661 -0.00659044 0.000120535
internal_weight=0 465 75 390 51 24 327 63
internal_count=482 465 75 390 51 24 327 63
is_linear=0
shrinkage=0.1


Tree=13
num_leaves=10
num_cat=0
split_feature=8 8 9 8 8 8 11 8 8
split_gain=6.13105 1.70359 1.05634 0.192699 0.192615 0.0356836 0.00862451 0.00855223 0.00304731
threshold=1.3051358460425762 0.38313102156396006 3.889190702016017 0.14389493363098479 0.78755836944073121 0.53733142776104714 65.684646773337462 1.0000000180025095e-35 0.22186207049737836
decision_type=2 2 2 2 2 2 2 2 2
left_child=1 3 -2 7 5 -3 -6 -1 -5
right_child=2 4 -4 8 6 -7 -8 -9 -10
leaf_value=-0.0060548244279275826 0.031224356088787309 0.0062541222075621281 0.077188299000263222 -0.00043710257696847509 0.017914296415719115 0.011628760769963265 0.021972002536058428 -0.0038125022935370603 0.00099505470667888099
leaf_weight=309 10.000000000000002 30 9.9999999999999982 39 11.000000000000002 21 9.9999999999999982 18 24
leaf_count=309 10 30 10 39 11 21 10 18 24
internal_value=0 -0.00234659 0.0542063 -0.00495572 0.0117862 0.00846721 0.0198465 -0.00593139 0.000108481
internal_weight=0 462 20 390 72 51 21 327 63
internal_count=482 462 20 390 72 51 21 327 63
is_linear=0
shrinkage=0.1


Tree=14
num_leaves=9
num_cat=0
split_feature=8 8 8 8 8 8 7 8
split_gain=5.05675 1.69149 0.244449 0.156232 0.0372639 0.0217985 0.00603543 0.0037869
threshold=1.5917660512644738 0.38313102156396006 0.85848267650714072 0.12917011607646281 0.58031951231225387 1.0361811655499187 0.40362550015737703 0.20999101209433263
decision_type=2 2 2 2 2 2 2 2
left_child=1 3 4 6 -3 -4 -1 -5
right_child=-2 2 5 7 -6 -7 -8 -9
leaf_value=-0.0049893785298273374 0.059220376637365138 0.0058437691267692682 0.017054973791042961 -0.0011343957810909377 0.011232347502594903 0.023082474743326507 -0.005861412389404911 0.00049189512824846643
leaf_weight=185 13.999999999999998 33 12.000000000000002 21 21 11.999999999999998 139 45
leaf_count=185 14 33 12 21 21 12 139 45
internal_value=0 -0.00177155 0.0116714 -0.00446015 0.00793933 0.0200687 -0.00536349 -2.55611e-05
internal_weight=0 468 78 390 54 24 324 66
internal_count=482 468 78 390 54 24 324 66
is_linear=0
shrinkage=0.1


Tree=15
num_leaves=9
num_cat=0
split_feature=8 8 8 8 8 8 8 7
split_gain=4.09597 1.3701 0.198004 0.126933 0.0308616 0.0176568 0.00839206 0.006704
threshold=1.5917660512644738 0.38313102156396006 0.85848267650714072 0.065903857095747864 0.63418560798218426 1.0361811655499187 0.19220668923651094 0.40362550015737703
decision_type=2 2 2 2 2 2 2 2
left_child=1 3 4 7 -3 -4 -5 -1
right_child=-2 2 5 6 -6 -7 -8 -9
leaf_value=-0.0045051747649584124 0.053298340371942948 0.0056627898309857426 0.015349476349850491 -0.0021992495542185173 0.011000167305270831 0.020774227008223536 0.00027755224899074325 -0.00544117845253635
leaf_weight=184 13.999999999999998 39 12.000000000000002 18 14.999999999999998 11.999999999999998 57 131
leaf_count=184 14 39 12 18 15 12 57 131
internal_value=0 -0.00159439 0.0105043 -0.00401413 0.00714539 0.0180619 -0.00031688 -0.00489443
internal_weight=0 468 78 390 54 24 75 315
internal_count=482 468 78 390 54 24 75 315
is_linear=0
shrinkage=0.1


Tree=16
num_leaves=9
num_cat=0
split_feature=8 8 8 8 8 35 8 8
split_gain=3.34939 1.24046 0.205348 0.103056 0.0325415 0.0146302 0.00554001 0.00228216
threshold=1.6555250670893795 0.38313102156396006 0.88421480348449788 0.14389493363098479 0.63418560798218426 390.75089143932047 1.0000000180025095e-35 0.2253165190965524
decision_type=2 2 2 2 2 2 2 2
left_child=1 3 4 6 -3 -4 -1 -5
right_child=-2 2 5 7 -6 -7 -8 -9
leaf_value=-0.0044255758530210142 0.054547296193513006 0.0050965107380388647 0.015659767655389647 -0.00020120779107873758 0.010236802531613244 0.020667789131402971 -0.0026208391671793327 0.0013315304027249418
leaf_weight=309 10.999999999999998 39 14.000000000000002 51 18 9.9999999999999982 18 11.999999999999998
leaf_count=309 11 39 14 51 18 10 18 12
internal_value=0 -0.00127393 0.00998693 -0.00361272 0.00671976 0.0177464 -0.00432623 9.07423e-05
internal_weight=0 471 81 390 57 24 327 63
internal_count=482 471 81 390 57 24 327 63
is_linear=0
shrinkage=0.1


Tree=17
num_leaves=9
num_cat=0
split_feature=8 8 8 8 8 8 7 8
split_gain=2.71384 0.802153 0.112534 0.0681692 0.0191166 0.00899967 0.00547608 0.00413103
threshold=1.4832295701411875 0.27554209638334309 0.64927413426192937 0.065903857095747864 1.0125503348976104 0.45539944470572685 0.40362550015737703 0.19220668923651094
decision_type=2 2 2 2 2 2 2 2
left_child=1 3 5 6 -4 -3 -1 -5
right_child=-2 2 4 7 -6 -7 -8 -9
leaf_value=-0.0036140613986746124 0.03924376289634144 0.0035948233693047908 0.010284496790596419 -0.0017978950843421952 0.015287853653232257 0.0065489649027585988 -0.004460013524152851 -3.5786712881720932e-05
leaf_weight=184 17 33 21 18 11.999999999999998 14.999999999999998 131 51
leaf_count=184 17 33 21 18 12 15 131 51
internal_value=0 -0.00143472 0.00760855 -0.00334228 0.0121039 0.00451799 -0.00396587 -0.000495467
internal_weight=0 465 81 384 33 48 315 69
internal_count=482 465 81 384 33 48 315 69
is_linear=0
shrinkage=0.1


Tree=18
num_leaves=9
num_cat=0
split_feature=8 8 8 8 15 8 8 8
split_gain=2.29659 0.795574 0.124759 0.0674141 0.0187235 0.0174714 0.0037621 0.00143057
threshold=1.6555250670893795 0.38313102156396006 0.85848267650714072 0.14389493363098479 0.44571661249738759 0.53733142776104714 1.0000000180025095e-35 0.22186207049737836
decision_type=2 2 2 2 2 2 2 2
left_child=1 3 5 6 -4 -3 -1 -5
right_child=-2 2 4 7 -6 -7 -8 -9
leaf_value=-0.0035868431546975492 0.045168188620697373 0.0035793792735785246 0.010080015286803242 -0.00030636402309074844 0.015533202448311976 0.0071992641237253949 -0.0020996279316022994 0.0006749017843200515
leaf_weight=309 10.999999999999998 30 10.000000000000002 39 17 24 18 24
leaf_count=309 11 30 10 39 17 24 18 24
internal_value=0 -0.00105488 0.00796331 -0.00292789 0.0135135 0.00518822 -0.00350498 6.74515e-05
internal_weight=0 471 81 390 27 54 327 63
internal_count=482 471 81 390 27 54 327 63
is_linear=0
shrinkage=0.1


Tree=19
num_leaves=9
num_cat=0
split_feature=8 8 8 8 8 8 8 33
split_gain=1.86024 0.644415 0.101497 0.054785 0.0147364 0.0110334 0.00377079 0.0022502
threshold=1.6555250670893795 0.38313102156396006 0.78755836944073121 0.065903857095747864 1.0361811655499187 0.53733142776104714 0.19220668923651094 798.52568453041965
decision_type=2 2 2 2 2 2 2 2
left_child=1 3 5 7 -4 -3 -5 -1
right_child=-2 2 4 6 -6 -7 -8 -9
leaf_value=-0.0031419996523811503 0.040651369094848636 0.0032214414087745054 0.0095660300552844989 -0.0014679182204417884 0.013998704043527445 0.0062100585150931566 0.00019233130302031019 -0.0042134760923328851
leaf_weight=294 10.999999999999998 30 15.000000000000002 18 14.999999999999998 21 57 21
leaf_count=294 11 30 15 18 15 21 57 21
internal_value=0 -0.000949395 0.00716698 -0.0026351 0.0117824 0.00445205 -0.000206129 -0.00321343
internal_weight=0 471 81 390 30 51 75 315
internal_count=482 471 81 390 30 51 75 315
is_linear=0
shrinkage=0.1


Tree=20
num_leaves=9
num_cat=0
split_feature=8 8 8 8 8 22 7 8
split_gain=1.5068 0.52375 0.0908421 0.0355593 0.0164468 0.0118612 0.00451465 0.00213131
threshold=1.6555250670893795 0.27554209638334309 0.88421480348449788 0.065903857095747864 0.58031951231225387 104.16500000000001 0.40362550015737703 0.19220668923651094
decision_type=2 2 2 2 2 2 2 2
left_child=1 3 4 6 -3 -4 -1 -5
right_child=-2 2 5 7 -6 -7 -8 -9
leaf_value=-0.0025726525690001642 0.036586234244433323 0.0028894232677068948 0.0095078658112989975 -0.0013211264080988864 0.0062165770136440798 0.014017137326300146 -0.0033407615597238977 -5.543767918104149e-05
leaf_weight=184 10.999999999999998 39 14.000000000000002 18 24 9.9999999999999982 131 51
leaf_count=184 11 39 14 18 24 10 131 51
internal_value=0 -0.000854456 0.00615134 -0.00244171 0.00415691 0.0113867 -0.00289209 -0.000385617
internal_weight=0 471 87 384 63 24 315 69
internal_count=482 471 87 384 63 24 315 69
is_linear=0
shrinkage=0.1


Tree=21
num_leaves=9
num_cat=0
split_feature=8 8 8 8 8 8 35 7
split_gain=1.2205 0.424254 0.0562385 0.0488738 0.00844503 0.00764484 0.00627832 0.00265899
threshold=1.6555250670893795 0.43494931996379133 0.14389493363098479 0.94427938424517455 0.64927413426192937 0.22649272098403991 357.86667238143627 0.40362550015737703
decision_type=2 2 2 2 2 2 2 2
left_child=1 2 7 4 -3 -4 -5 -1
right_child=-2 3 5 6 -6 -7 -8 -9
leaf_value=-0.00230627001741448 0.032927609099583192 0.0036881074294258191 -0.00022780814907255939 0.0090004767042542368 0.0064844389549560018 0.0019172006446751767 0.012462539821863176 -0.002881580083401428
leaf_weight=185 10.999999999999998 27 54 11.000000000000002 18 24 9.9999999999999982 142
leaf_count=185 11 27 54 11 18 24 10 142
internal_value=0 -0.00076901 -0.00198058 0.0066656 0.00480664 0.000432195 0.0106491 -0.0025561
internal_weight=0 471 405 66 45 78 21 327
internal_count=482 471 405 66 45 78 21 327
is_linear=0
shrinkage=0.1


Tree=22
num_leaves=9
num_cat=0
split_feature=8 8 8 8 15 8 7 8
split_gain=0.988608 0.343836 0.0608235 0.0240205 0.014337 0.00708981 0.00307353 0.00120776
threshold=1.6555250670893795 0.27554209638334309 0.78755836944073121 0.065903857095747864 0.44571661249738759 0.53733142776104714 0.40362550015737703 0.19220668923651094
decision_type=2 2 2 2 2 2 2 2
left_child=1 3 5 6 -4 -3 -1 -5
right_child=-2 2 4 7 -6 -7 -8 -9
leaf_value=-0.0020847602686642308 0.029634849659421227 0.002214239656071489 0.0061289989568579645 -0.0009925109978616497 0.010540574690436616 0.0045262722054585109 -0.0027185274373370274 -3.9730794806553825e-05
leaf_weight=184 10.999999999999998 36 13.000000000000002 18 17 21 131 51
leaf_count=184 11 36 13 18 17 21 131 51
internal_value=0 -0.000692109 0.00498427 -0.00197816 0.00862889 0.00306604 -0.00234833 -0.000288282
internal_weight=0 471 87 384 30 57 315 69
internal_count=482 471 87 384 30 57 315 69
is_linear=0
shrinkage=0.1


Tree=23
num_leaves=9
num_cat=0
split_feature=33 5 7 15 24 31 29 33
split_gain=0.211497 0.785948 0.0504292 0.0905564 0.032488 0.0209947 0.0189215 0.00230509
threshold=767.56367301229955 -0.00085433319893364992 0.44567230417064668 0.42306103208372708 37.155620784713555 360.19005092511958 27.2777553207426 850.81766805834525
decision_type=2 2 2 2 2 2 2 2
left_child=2 -2 4 -4 5 -1 -5 -3
right_child=1 7 3 6 -6 -7 -8 -9
leaf_value=-0.0010392950407565121 0.031131458720192313 -0.003407746708641449 0.0087128665656424492 -0.0041567838564515111 -0.0068046017634597698 -0.0053284233365654167 0.00031921441237928405 -0.001403641770593822
leaf_weight=233 9.9999999999999982 12.000000000000002 12.999999999999998 9.9999999999999982 10.999999999999998 11.999999999999998 170 10.999999999999998
leaf_count=233 10 12 13 10 11 12 170 11
internal_value=0 0.00772671 -0.000567888 0.000652673 -0.00148808 -0.00124937 7.05478e-05 -0.00244926
internal_weight=0 33 449 193 256 245 180 23
internal_count=482 33 449 193 256 245 180 23
is_linear=0
shrinkage=0.1


Tree=24
num_leaves=9
num_cat=0
split_feature=8 8 8 8 15 33 8 7
split_gain=0.773573 0.238757 0.036347 0.0156873 0.00767511 0.00555416 0.00359214 0.000862592
threshold=1.5917660512644738 0.22649272098403991 0.67717715625842978 0.12917011607646281 0.4699098182798484 798.52568453041965 0.44125691352747071 0.39998345821811748
decision_type=2 2 2 2 2 2 2 2
left_child=1 3 6 5 -4 -1 -3 -5
right_child=-2 2 4 7 -6 -7 -8 -9
leaf_value=-0.0019296094907805422 0.023162531214100973 0.0016203479703377794 0.0053393554510732522 0.00038034625031286852 0.0084250893310776776 -0.0035753716841678725 0.0032515575988563126 -0.00048539512259239713
leaf_weight=302 13.999999999999998 27 19 15.999999999999998 13.999999999999998 22 27 41
leaf_count=302 14 27 19 16 14 22 27 41
internal_value=0 -0.000692896 0.0040338 -0.00177222 0.00664845 -0.00204136 0.00243595 -0.00024238
internal_weight=0 468 87 381 33 324 54 57
internal_count=482 468 87 381 33 324 54 57
is_linear=0
shrinkage=0.1


Tree=25
num_leaves=9
num_cat=0
split_feature=8 8 8 8 30 7 21 33
split_gain=0.637199 0.215585 0.0348749 0.0145236 0.00747698 0.00452532 0.00330826 0.00300845
threshold=1.6555250670893795 0.27554209638334309 0.67717715625842978 1.0000000180025095e-35 208.10782134855233 0.40362550015737703 38.315000000000005 637.77173743271317
decision_type=2 2 2 2 2 2 2 2
left_child=1 3 6 5 -4 -1 -3 -5
right_child=-2 2 4 7 -6 -7 -8 -9
leaf_value=-0.0015572970078050435 0.023791850980540569 0.0037089158780872823 0.0054283602324386058 -7.7267387322745685e-05 0.0086459278129041202 -0.0023350941963259163 0.0018101917796556313 -0.0019404077506624162
leaf_weight=182 10.999999999999998 11.999999999999998 26 65 9.9999999999999982 127 39 9.9999999999999982
leaf_count=182 11 12 26 65 10 127 39 10
internal_value=0 -0.000555648 0.00393909 -0.00157399 0.00632213 -0.00187697 0.00225695 -0.000325686
internal_weight=0 471 87 384 36 309 51 75
internal_count=482 471 87 384 36 309 51 75
is_linear=0
shrinkage=0.1


Tree=26
num_leaves=9
num_cat=0
split_feature=8 8 8 8 15 8 33 6
split_gain=0.516131 0.174852 0.0258325 0.0148612 0.00745565 0.0049101 0.00456921 0.000748891
threshold=1.6555250670893795 0.38313102156396006 0.88421480348449788 0.14389493363098479 0.4602110903328499 0.63418560798218426 798.52568453041965 57.1168284944482
decision_type=2 2 2 2 2 2 2 2
left_child=1 3 5 6 -4 -3 -1 -5
right_child=-2 2 4 7 -6 -7 -8 -9
leaf_value=-0.001548723188445037 0.021412664347074249 0.0019383795401200843 0.0045637996951964762 0.00030785293963976742 0.008101169772159595 0.0039350854388127722 -0.0030409448250958869 -0.00039686889198492281
leaf_weight=305 10.999999999999998 39 11.000000000000002 38 12.999999999999998 18 22 25
leaf_count=305 11 39 11 38 13 18 22 25
internal_value=0 -0.000500083 0.00372772 -0.00137817 0.00647988 0.00256892 -0.00164912 2.82014e-05
internal_weight=0 471 81 390 24 57 327 63
internal_count=482 471 81 390 24 57 327 63
is_linear=0
shrinkage=0.1


Tree=27
num_leaves=9
num_cat=0
split_feature=8 8 8 8 15 7 33 28
split_gain=0.41828 0.126452 0.0185459 0.00863136 0.00416075 0.00373309 0.00210835 0.00194098
threshold=1.5917660512644738 0.22649272098403991 0.64927413426192937 1.0000000180025095e-35 0.4699098182798484 0.40362550015737703 637.77173743271317 65.276688312388856
decision_type=2 2 2 2 2 2 2 2
left_child=1 3 7 5 -4 -1 -5 -3
right_child=-2 2 4 6 -6 -7 -8 -9
leaf_value=-0.0012343964513882504 0.017032127106462472 0.00086838252577258075 0.0037595660181804786 -9.1636816608614376e-05 0.0059401959149787825 -0.001940837562612192 -0.0016563744519953617 0.0021593106741254978
leaf_weight=182 13.999999999999998 18 21 62 14.999999999999998 127 9.9999999999999982 33
leaf_count=182 14 18 21 62 15 127 10 33
internal_value=0 -0.000509508 0.00293037 -0.00129499 0.00466816 -0.00152475 -0.000308961 0.00170369
internal_weight=0 468 87 381 36 309 72 51
internal_count=482 468 87 381 36 309 72 51
is_linear=0
shrinkage=0.1


Tree=28
num_leaves=9
num_cat=0
split_feature=8 8 8 8 24 33 6 8
split_gain=0.347434 0.114363 0.0167096 0.010399 0.00481436 0.00378265 0.00203207 0.00188115
threshold=1.6555250670893795 0.44125691352747071 0.19220668923651094 0.94427938424517455 32.158362195687495 798.52568453041965 55.545114618557086 0.22649272098403991
decision_type=2 2 2 2 2 2 2 2
left_child=1 2 5 6 -5 -1 -3 -4
right_child=-2 3 7 4 -6 -7 -8 -9
leaf_value=-0.0012366796814790894 0.017568184401501308 0.0033098871989006347 -4.9745292320343054e-05 0.0039284360855989763 0.0069601121696177869 -0.0025935190613381566 0.0019171557994559407 0.00099362883052823178
leaf_weight=311 10.999999999999998 22 48 11.000000000000002 9.9999999999999982 22 20 27
leaf_count=311 11 22 48 11 10 22 20 27
internal_value=0 -0.000410297 -0.00102261 0.00355515 0.00537209 -0.00132632 0.00264668 0.000325869
internal_weight=0 471 408 63 21 333 42 75
internal_count=482 471 408 63 21 333 42 75
is_linear=0
shrinkage=0.1


Tree=29
num_leaves=8
num_cat=0
split_feature=8 8 8 8 24 12 8
split_gain=0.281422 0.0926341 0.0135348 0.00865605 0.00309497 0.00307024 0.00152373
threshold=1.6555250670893795 0.44125691352747071 0.19220668923651094 1.0125503348976104 33.618127256325046 2.5000000000000004 0.22649272098403991
decision_type=2 2 2 2 2 2 2
left_child=1 2 4 5 -1 -3 -4
right_child=-2 3 6 -5 -6 -7 -8
leaf_value=-0.0010194373240505867 0.015811367265202783 0.0019032033088977537 -4.4770767317459104e-05 0.0050529953066466588 -0.0017270677069928951 0.003687419802216547 0.00089426596295433475
leaf_weight=251 10.999999999999998 31 48 18 82 13.999999999999998 27
leaf_count=251 11 31 48 18 82 14 27
internal_value=0 -0.000369268 -0.000920348 0.00319964 -0.00119369 0.00245829 0.000293282
internal_weight=0 471 408 63 333 45 75
internal_count=482 471 408 63 333 45 75
is_linear=0
shrinkage=0.1


Tree=30
num_leaves=8
num_cat=0
split_feature=8 8 8 30 7 7 8
split_gain=0.227952 0.0750336 0.0109632 0.00777757 0.0047717 0.00250814 0.00123422
threshold=1.6555250670893795 0.44125691352747071 0.19220668923651094 223.8945243771436 0.58227284782595479 0.40094494712025897 0.22649272098403991
decision_type=2 2 2 2 2 2 2
left_child=1 2 5 4 -3 -1 -4
right_child=-2 3 6 -5 -6 -7 -8
leaf_value=-0.00079572343254368189 0.014230229841037232 0.0029217056977825289 -4.0293692230382779e-05 0.0052954502319070423 0.000709454719729435 -0.0013446736342281232 0.00080483935868229579
leaf_weight=164 10.999999999999998 39 48 10.999999999999998 12.999999999999998 169 27
leaf_count=164 11 39 48 11 13 169 27
internal_value=0 -0.000332341 -0.000828314 0.00287967 0.00236864 -0.00107432 0.000263954
internal_weight=0 471 408 63 52 333 75
internal_count=482 471 408 63 52 333 75
is_linear=0
shrinkage=0.1


Tree=31
num_leaves=8
num_cat=0
split_feature=8 8 8 30 5 7 33
split_gain=0.184641 0.0610334 0.011128 0.00671135 0.00424363 0.00267185 0.00247402
threshold=1.6555250670893795 0.45539944470572685 1.0000000180025095e-35 208.10782134855233 -7.2272906628256797e-06 0.40313876620275119 649.82209366797031
decision_type=2 2 2 2 2 2 2
left_child=1 2 5 4 -3 -1 -4
right_child=-2 3 6 -5 -6 -7 -8
leaf_value=-0.00076021237346859342 0.012807208536700768 0.0037703529574043514 0.0003262222983843477 0.0052027067448943854 0.0016618676806198591 -0.0013546572080954458 -0.0012562313635664231
leaf_weight=177 10.999999999999998 13.999999999999998 97 9.9999999999999982 30 132 10.999999999999998
leaf_count=177 11 14 97 10 30 132 11
internal_value=0 -0.000299107 -0.000708747 0.00286422 0.00233275 -0.00101415 0.000165046
internal_weight=0 471 417 54 44 309 108
internal_count=482 471 417 54 44 309 108
is_linear=0
shrinkage=0.1


Tree=32
num_leaves=8
num_cat=0
split_feature=33 8 8 8 8 24 8
split_gain=0.165017 0.55548 0.12464 0.0400253 0.00647574 0.00577973 0.00498796
threshold=767.56367301229955 0.10517419635887931 1.5917660512644738 0.42871956180547943 1.0000000180025095e-35 34.250471365727549 0.69445326886698755
decision_type=2 2 2 2 2 2 2
left_child=2 5 3 4 -1 -2 -5
right_child=1 -3 -4 6 -6 -7 -8
leaf_value=-0.00085263435521166294 -7.4092306418937026e-05 0.026501263808459043 -0.010556020595443746 0.0013255716429404474 0.00014108927393167772 -0.0032475348644463034 0.0031032145075086093
leaf_weight=287 11.000000000000002 9.9999999999999982 11.999999999999998 38 85 11.999999999999998 27
leaf_count=287 11 10 12 38 85 12 27
internal_value=0 0.00682507 -0.00050162 -0.000225526 -0.000625574 -0.0017298 0.00206398
internal_weight=0 33 449 437 372 23 65
internal_count=482 33 449 437 372 23 65
is_linear=0
shrinkage=0.1


Tree=33
num_leaves=9
num_cat=0
split_feature=8 8 33 7 8 31 8 34
split_gain=0.167226 0.0324993 0.00602999 0.00890269 0.00499043 0.00415707 0.00414154 0.00331273
threshold=1.5917660512644738 0.38313102156396006 798.52568453041965 0.35483315561613321 0.78755836944073121 81.249148048148214 1.0000000180025095e-35 154.02878919890952
decision_type=2 2 2 2 2 2 2 2
left_child=1 2 6 -4 7 -6 -1 -3
right_child=-2 4 3 -5 5 -7 -8 -9
leaf_value=-0.00076466428400355697 0.010769298566239221 0.0015802432404598222 -0.00038424090128571072 -0.0041614274727180605 0.0016888609032749251 0.0042583760246634487 6.4941577549784839e-05 -8.6720373885902148e-05
leaf_weight=289 13.999999999999998 32 13.000000000000002 11.999999999999998 17.000000000000004 9.9999999999999982 76 19
leaf_count=289 14 32 13 12 17 10 76 19
internal_value=0 -0.000322159 -0.000694833 -0.00219729 0.00154121 0.00264053 -0.000591924 0.000959218
internal_weight=0 468 390 25 78 27 365 51
internal_count=482 468 390 25 78 27 365 51
is_linear=0
shrinkage=0.1


Tree=34
num_leaves=9
num_cat=0
split_feature=32 8 8 8 8 27 33 20
split_gain=0.153947 0.826731 0.219381 0.0217205 0.00501291 0.00238245 0.00147343 0.000383113
threshold=262.35314743674593 0.33429884015725447 1.5917660512644738 0.38313102156396006 0.78755836944073121 39.28144826627787 461.3093559587013 36.625000000000007
decision_type=2 2 2 2 2 2 2 2
left_child=2 6 3 5 -5 -1 7 -2
right_child=1 -3 -4 4 -6 -7 -8 -9
leaf_value=-0.001171927252000878 -0.00057991129072400293 0.03098919359967113 -0.014592753929636357 0.00066716449041648404 0.0024043478904506909 -0.00049107596564599947 -0.0017521655745804312 0.00014466179010923954
leaf_weight=63 27 9.9999999999999982 10.999999999999998 46 26 279 9.9999999999999982 9.9999999999999982
leaf_count=63 27 10 11 46 26 279 10 10
internal_value=0 0.00487999 -0.000654492 -0.000284152 0.00129448 -0.000616496 -0.000675163 -0.000384081
internal_weight=0 57 425 414 72 342 47 37
internal_count=482 57 425 414 72 342 47 37
is_linear=0
shrinkage=0.1


Tree=35
num_leaves=8
num_cat=0
split_feature=8 8 33 7 30 21 8
split_gain=0.149276 0.017118 0.00465071 0.00695218 0.00441896 0.00363392 0.00290409
threshold=1.5917660512644738 0.4162837418261276 798.52568453041965 0.35483315561613321 251.83068949583816 36.785000000000004 1.0000000180025095e-35
decision_type=2 2 2 2 2 2 2
left_child=1 2 6 -4 5 -3 -1
right_child=-2 4 3 -5 -6 -7 -8
leaf_value=-0.00062579231765314577 0.010174888718341079 0.0019871866201154062 -0.00028623458750259411 -0.003624095185659826 0.0030370254395529631 0.00031625392073963553 5.8382041608402241e-05
leaf_weight=289 13.999999999999998 18 13.000000000000002 11.999999999999998 9.9999999999999982 47 79
leaf_count=289 14 18 13 12 10 47 79
internal_value=0 -0.000304377 -0.00056858 -0.00188841 0.00108005 0.000778974 -0.000478918
internal_weight=0 468 393 25 75 65 368
internal_count=482 468 393 25 75 65 368
is_linear=0
shrinkage=0.1


Tree=36
num_leaves=8
num_cat=0
split_feature=33 24 8 8 32 24 8
split_gain=0.141598 0.434884 0.134142 0.0145626 0.0036794 0.00365124 0.00268777
threshold=767.56367301229955 36.939218258512589 1.5917660512644738 0.42871956180547943 200.76597261062014 34.250471365727549 1.0000000180025095e-35
decision_type=2 2 2 2 2 2 2
left_child=2 5 3 6 -5 -2 -1
right_child=1 -3 -4 4 -6 -7 -8
leaf_value=-0.00056582704778251208 6.8752195643769057e-05 0.023732050256803635 -0.01089526066207327 0.0015235726590352981 -0.00056170428171753884 -0.0024535499590759477 7.437498281754362e-05
leaf_weight=287 11.000000000000002 9.9999999999999982 11.999999999999998 55 9.9999999999999982 11.999999999999998 85
leaf_count=287 11 10 12 55 10 12 85
internal_value=0 0.00632225 -0.000464664 -0.00017824 0.00120276 -0.00124723 -0.000419544
internal_weight=0 33 449 437 65 23 372
internal_count=482 33 449 437 65 23 372
is_linear=0
shrinkage=0.1


Tree=37
num_leaves=7
num_cat=0
split_feature=8 33 24 8 32 8
split_gain=0.137132 0.012278 0.0137779 0.0121816 0.00471212 0.0030638
threshold=1.5917660512644738 814.83680407259681 36.054114461802506 0.45539944470572685 96.690171779125592 1.0000000180025095e-35
decision_type=2 2 2 2 2 2
left_child=1 3 -3 5 -5 -1
right_child=-2 2 -4 4 -6 -7
leaf_value=-0.00051400413445064688 0.0097522505359458073 -0.00010160189121961592 -0.0047055895511920638 0.002334612765116617 0.00033158210673086023 0.00012033106324045909
leaf_weight=292 13.999999999999998 13.000000000000002 12.999999999999998 24 23 103
leaf_count=292 14 13 13 24 23 103
internal_value=0 -0.000291734 -0.0024036 -0.000167507 0.00135441 -0.000348595
internal_weight=0 468 26 442 47 395
internal_count=482 468 26 442 47 395
is_linear=0
shrinkage=0.1


Tree=38
num_leaves=9
num_cat=0
split_feature=32 8 8 8 33 8 33 20
split_gain=0.123166 0.634061 0.213993 0.0102312 0.00361023 0.00338609 0.0013368 0.000248196
threshold=262.35314743674593 0.33429884015725447 1.5917660512644738 0.22186207049737836 798.52568453041965 0.78755836944073121 461.3093559587013 36.625000000000007
decision_type=2 2 2 2 2 2 2 2
left_child=2 6 3 4 -1 -5 7 -2
right_child=1 -3 -4 5 -6 -7 -8 -9
leaf_value=-0.00039313322270986785 -0.00038037576093672586 0.027230257985647766 -0.014351460236040029 0.00033112968188316489 -0.0017201427073979922 0.0016814176494685505 -0.0015258646963047795 0.00020282238256186247
leaf_weight=301 27 9.9999999999999982 10.999999999999998 65 22 26 9.9999999999999982 9.9999999999999982
leaf_count=301 27 10 11 65 22 26 10 10
internal_value=0 0.00436495 -0.000585417 -0.000219652 -0.000483518 0.000716926 -0.000500012 -0.000222755
internal_weight=0 57 425 414 323 91 47 37
internal_count=482 57 425 414 323 91 47 37
is_linear=0
shrinkage=0.1


Tree=39
num_leaves=7
num_cat=0
split_feature=8 8 32 27 7 8
split_gain=0.125276 0.00716474 0.00455832 0.00446518 0.00718101 0.00230225
threshold=1.5917660512644738 0.78755836944073121 99.652426754339658 42.207110493769115 0.40362550015737703 0.21435314945731487
decision_type=2 2 2 2 2 2
left_child=1 3 -3 4 -1 -5
right_child=-2 2 -4 5 -6 -7
leaf_value=-0.00025923115381523476 0.0093211344842399884 0.0022990074994809484 -0.00039166010683402421 -0.00033697643376038992 -0.0019583425352937499 0.00029725801767398647
leaf_weight=61 13.999999999999998 17.000000000000004 9.9999999999999982 265 42 73
leaf_count=61 14 17 10 265 42 73
internal_value=0 -0.000278837 0.00130246 -0.000375652 -0.000952073 -0.000199997
internal_weight=0 468 27 441 103 338
internal_count=482 468 27 441 103 338
is_linear=0
shrinkage=0.1


Tree=40
num_leaves=7
num_cat=0
split_feature=33 9 24 21 20 26
split_gain=0.124082 0.401987 0.0472701 0.0308949 0.0145994 0.0102986
threshold=767.56367301229955 2.7480528545472649 37.458001062923437 96.345000000000013 35.520000000000003 26.087016789104783
decision_type=2 2 2 2 2 2
left_child=2 5 3 4 -1 -2
right_child=1 -3 -4 -5 -6 -7
leaf_value=-0.00041620054570138862 8.9086133327024653e-05 0.021526909882033415 -0.007233310770243407 -0.0057747647422365846 0.0011362213610208191 -0.0042561052250675857
leaf_weight=356 12.000000000000002 10.999999999999998 9.9999999999999982 9.9999999999999982 73 9.9999999999999982
leaf_count=356 12 11 10 10 73 10
internal_value=0 0.0059183 -0.000434975 -0.000280116 -0.000152036 -0.001886
internal_weight=0 33 449 439 429 22
internal_count=482 33 449 439 429 22
is_linear=0
shrinkage=0.1


Tree=41
num_leaves=7
num_cat=0
split_feature=33 15 8 8 7 8
split_gain=0.100506 0.377198 0.134958 0.00578498 0.00304052 0.00221888
threshold=767.56367301229955 0.43149517590496372 1.5917660512644738 1.0125503348976104 0.35075788559200116 1.0000000180025095e-35
decision_type=2 2 2 2 2 2
left_child=2 4 3 5 -2 -1
right_child=1 -3 -4 -5 -6 -7
leaf_value=-0.00032594652781504343 -0.0007147087724521181 0.021540537150576713 -0.010853745702964565 0.0019737007096409798 -0.0030340565039659855 0.00016321100735104088
leaf_weight=287 13.000000000000002 9.9999999999999982 11.999999999999998 12.999999999999998 9.9999999999999982 137
leaf_count=287 13 10 12 13 10 137
internal_value=0 0.00532647 -0.000391478 -0.000104185 -0.00172312 -0.000167893
internal_weight=0 33 449 437 23 424
internal_count=482 33 449 437 23 424
is_linear=0
shrinkage=0.1


Tree=42
num_leaves=6
num_cat=0
split_feature=8 33 7 8 8
split_gain=0.111775 0.0205749 0.0141221 0.00472842 0.00188958
threshold=1.5917660512644738 814.83680407259681 0.40362550015737703 1.0125503348976104 1.0000000180025095e-35
decision_type=2 2 2 2 2
left_child=1 3 -3 4 -1
right_child=-2 2 -4 -5 -6
leaf_value=-0.00030326228007988777 0.0088045585767499036 -0.0011547291302122175 -0.0059451785637065768 0.0017763307174810999 0.00014688990508625964
leaf_weight=292 13.999999999999998 16.000000000000004 9.9999999999999982 12.999999999999998 137
leaf_count=292 14 16 10 13 137
internal_value=0 -0.000263384 -0.00299721 -0.000102571 -0.000159507
internal_weight=0 468 26 442 429
internal_count=482 468 26 442 429
is_linear=0
shrinkage=0.1


Tree=43
num_leaves=9
num_cat=0
split_feature=32 8 8 33 28 8 6 22
split_gain=0.0940353 0.480519 0.204999 0.0118498 0.00735322 0.00616913 0.0013996 0.000135869
threshold=262.35314743674593 0.33429884015725447 1.5917660512644738 814.83680407259681 41.766557843242147 0.45539944470572685 57.232136255657338 209.35500000000002
decision_type=2 2 2 2 2 2 2 2
left_child=2 6 3 5 -5 -1 7 -2
right_child=1 -3 -4 4 -6 -7 -8 -9
leaf_value=-0.00015897952975184784 0.00025316902161152515 0.023719185264781117 -0.013985177070241085 -0.00055980587543065952 -0.0040605725254863499 0.0011240304553038663 -0.0011807467912149151 -0.00018438356870319693
leaf_weight=348 11.000000000000002 9.9999999999999982 10.999999999999998 12.000000000000002 11.999999999999998 42 15.999999999999998 20
leaf_count=348 11 10 11 12 12 42 16 20
internal_value=0 0.00381398 -0.000511523 -0.000153527 -0.00231019 -2.08092e-05 -0.000421165 -2.9123e-05
internal_weight=0 57 425 414 24 390 47 31
internal_count=482 57 425 414 24 390 47 31
is_linear=0
shrinkage=0.1


Tree=44
num_leaves=7
num_cat=0
split_feature=8 33 15 32 8 8
split_gain=0.104536 0.013573 0.00990852 0.00426632 0.0117712 0.00525504
threshold=1.5917660512644738 814.83680407259681 0.42351320190099345 286.05402392179542 0.22353955845008797 0.33429884015725447
decision_type=2 2 2 2 2 2
left_child=1 3 -3 5 -5 -1
right_child=-2 2 -4 4 -6 -7
leaf_value=-0.00018891433331128167 0.0085146706285221235 -0.00093183159424370377 -0.0049444797635078436 -0.00014702400430905983 -0.0040776270092464989 0.00077044068320242666
leaf_weight=331 13.999999999999998 16.000000000000004 9.9999999999999982 32 9.9999999999999982 69
leaf_count=331 14 16 10 32 10 69
internal_value=0 -0.000254712 -0.00247516 -0.000124098 -0.00108288 -2.34256e-05
internal_weight=0 468 26 442 42 400
internal_count=482 468 26 442 42 400
is_linear=0
shrinkage=0.1


Tree=45
num_leaves=8
num_cat=0
split_feature=8 24 7 8 5 22 30
split_gain=0.084674 0.00297705 0.00638196 0.00522226 0.00493828 0.00155402 0.000946764
threshold=1.5917660512644738 36.054114461802506 0.40276524215730924 1.0125503348976104 1.0000000180025095e-35 170.35500000000005 140.72894749937882
decision_type=2 2 2 2 2 2 2
left_child=1 3 6 5 -4 -1 -3
right_child=-2 2 4 -5 -6 -7 -8
leaf_value=-8.9984509614906966e-05 0.0076632029110831881 -0.00052184383067387053 -0.0034698936127824705 0.0018387176454640352 -0.00087869032592463646 -0.00056085986562410964 0.00066879261524745214
leaf_weight=305 13.999999999999998 11.000000000000002 12.000000000000002 12.999999999999998 19 91 17
leaf_count=305 14 11 12 13 19 91 17
internal_value=0 -0.000229241 -0.000893299 -0.000133448 -0.00188174 -0.000198191 0.000201043
internal_weight=0 468 59 409 31 396 28
internal_count=482 468 59 409 31 396 28
is_linear=0
shrinkage=0.1


Tree=46
num_leaves=8
num_cat=0
split_feature=33 7 8 32 8 8 26
split_gain=0.0996788 0.33564 0.152094 0.00322829 0.0096356 0.00399246 0.00306017
threshold=767.56367301229955 0.44646301831439167 1.5917660512644738 286.05402392179542 0.22353955845008797 0.53733142776104714 25.316664211218256
decision_type=2 2 2 2 2 2 2
left_child=2 6 3 5 -5 -1 -2
right_child=1 -3 -4 4 -6 -7 -8
leaf_value=-0.00010147433452899666 -0.00033374624102949519 0.020599286004435273 -0.011496503317418199 -7.1681270583212608e-05 -0.0036279046302661305 0.00096429143741261214 -0.002660578126087785
leaf_weight=356 13.000000000000002 9.9999999999999982 11.999999999999998 32 9.9999999999999982 39 9.9999999999999982
leaf_count=356 13 10 12 32 10 39 10
internal_value=0 0.0053045 -0.000389863 -8.48749e-05 -0.000918401 3.75317e-06 -0.00134541
internal_weight=0 33 449 437 42 395 23
internal_count=482 33 449 437 42 395 23
is_linear=0
shrinkage=0.1


Tree=47
num_leaves=7
num_cat=0
split_feature=8 33 26 32 8 8
split_gain=0.0830207 0.015206 0.0100163 0.00258516 0.00780484 0.00344093
threshold=1.5917660512644738 798.52568453041965 26.514587692610057 286.05402392179542 0.22353955845008797 0.33429884015725447
decision_type=2 2 2 2 2 2
left_child=1 3 -3 5 -5 -1
right_child=-2 2 -4 4 -6 -7
leaf_value=-0.00013658747927321402 0.0075880213640630249 -0.00099194437239526027 -0.0048221266828477388 -6.4513137354538236e-05 -0.0032651141937822107 0.0006403238350105602
leaf_weight=328 13.999999999999998 18.000000000000004 10.999999999999998 32 9.9999999999999982 69
leaf_count=328 14 18 11 32 10 69
internal_value=0 -0.000226992 -0.00244477 -8.04873e-05 -0.000826561 -1.55755e-06
internal_weight=0 468 29 439 42 397
internal_count=482 468 29 439 42 397
is_linear=0
shrinkage=0.1


Tree=48
num_leaves=9
num_cat=0
split_feature=32 8 8 6 8 7 25 8
split_gain=0.0834518 0.387184 0.209584 0.00263318 0.00492659 0.00401605 0.00154341 0.000913407
threshold=262.35314743674593 0.33429884015725447 1.5917660512644738 56.88472127055784 0.64927413426192937 0.40276524215730924 26.35099173180723 0.065903857095747864
decision_type=2 2 2 2 2 2 2 2
left_child=2 6 3 4 -1 -5 7 -2
right_child=1 -3 -4 5 -6 -7 -8 -9
leaf_value=1.8652908215746021e-05 -0.00021316595975804376 0.021460723951458933 -0.014105378700928255 -1.6815039173286381e-05 0.0021102327557552297 -0.00089555402108303778 -0.0013109863803401822 0.00090563044184818861
leaf_weight=183 27 9.9999999999999982 10.999999999999998 134 11.999999999999998 85 9.9999999999999982 9.9999999999999982
leaf_count=183 27 10 11 134 12 85 10 10
internal_value=0 0.00359295 -0.000481878 -0.000119901 0.000147366 -0.000357878 -0.000208703 8.92114e-05
internal_weight=0 57 425 414 195 219 47 37
internal_count=482 57 425 414 195 219 47 37
is_linear=0
shrinkage=0.1


Tree=49
num_leaves=8
num_cat=0
split_feature=33 5 8 32 8 27 8
split_gain=0.086963 0.312568 0.121422 0.00467527 0.0149351 0.00267874 0.00264577
threshold=767.56367301229955 -0.00085433319893364992 1.5917660512644738 286.05402392179542 0.22353955845008797 44.095973080403731 0.19220668923651094
decision_type=2 2 2 2 2 2 2
left_child=2 -2 3 6 -5 -3 -1
right_child=1 5 -4 4 -6 -7 -8
leaf_value=-0.00015186544931054666 0.019714383054524661 -0.0026931515894830218 -0.010287885336826246 -4.0569220982433765e-05 -0.0044680222496390346 -0.00051615611166478347 0.00041638993170636243
leaf_weight=279 9.9999999999999982 10.000000000000002 11.999999999999998 32 9.9999999999999982 12.999999999999998 116
leaf_count=279 10 10 12 32 10 13 116
internal_value=0 0.00495461 -0.000364148 -9.16423e-05 -0.00109472 -0.00146268 1.50146e-05
internal_weight=0 33 449 437 42 23 395
internal_count=482 33 449 437 42 23 395
is_linear=0
shrinkage=0.1


Tree=50
num_leaves=6
num_cat=0
split_feature=8 33 7 8 7
split_gain=0.0940842 0.017717 0.0166347 0.00165086 0.00197346
threshold=1.5917660512644738 814.83680407259681 0.40362550015737703 1.0125503348976104 0.40094494712025897
decision_type=2 2 2 2 2
left_child=1 3 -3 4 -1
right_child=-2 2 -4 -5 -6
leaf_value=0.00012143190004913461 0.0080778115295938088 -0.00077882240366307072 -0.0059779955260455611 0.0010177833243058278 -0.00031193019545308024
leaf_weight=184 13.999999999999998 16.000000000000004 9.9999999999999982 12.999999999999998 245
leaf_count=184 14 16 10 13 245
internal_value=0 -0.000241644 -0.0027785 -9.24168e-05 -0.000126059
internal_weight=0 468 26 442 429
internal_count=482 468 26 442 429
is_linear=0
shrinkage=0.1


Tree=51
num_leaves=7
num_cat=0
split_feature=8 33 11 32 8 8
split_gain=0.0762082 0.0143508 0.013641 0.00358696 0.0120318 0.00224515
threshold=1.5917660512644738 814.83680407259681 129.05127696284308 286.05402392179542 0.22353955845008797 0.19220668923651094
decision_type=2 2 2 2 2 2
left_child=1 3 -3 5 -5 -1
right_child=-2 2 -4 4 -6 -7
leaf_value=-0.00014227826935202245 0.0072700296262545247 -0.00068983177588961538 -0.0053979693446308376 -1.615332807887171e-05 -0.0039900271035730834 0.00037983435267960889
leaf_weight=284 13.999999999999998 16.000000000000004 9.9999999999999982 32 9.9999999999999982 116
leaf_count=284 14 16 10 32 10 116
internal_value=0 -0.00021748 -0.00250065 -8.31752e-05 -0.000962314 9.13439e-06
internal_weight=0 468 26 442 42 400
internal_count=482 468 26 442 42 400
is_linear=0
shrinkage=0.1


Tree=52
num_leaves=7
num_cat=0
split_feature=33 8 8 31 8 7
split_gain=0.0810667 0.284392 0.134443 0.00476051 0.00119112 0.00151845
threshold=767.56367301229955 0.10517419635887931 1.5917660512644738 91.857618949264676 1.0125503348976104 0.40094494712025897
decision_type=2 2 2 2 2 2
left_child=2 3 4 -2 5 -1
right_child=1 -3 -4 -5 -6 -7
leaf_value=0.00012658191245767134 -0.0029778572020586571 0.018862488961749479 -0.010793881009643277 -7.5711669006313273e-05 0.00087802154728426379 -0.00025628900469677854
leaf_weight=180 10.000000000000002 9.9999999999999982 11.999999999999998 12.999999999999998 12.999999999999998 244
leaf_count=180 10 10 12 13 13 244
internal_value=0 0.0047837 -0.000351586 -0.00133751 -6.48409e-05 -9.37495e-05
internal_weight=0 33 449 23 437 424
internal_count=482 33 449 23 437 424
is_linear=0
shrinkage=0.1


Tree=53
num_leaves=7
num_cat=0
split_feature=8 33 7 32 8 8
split_gain=0.0747212 0.0173428 0.0158865 0.00282389 0.00969362 0.00182482
threshold=1.5917660512644738 814.83680407259681 0.40362550015737703 286.05402392179542 0.22353955845008797 1.0000000180025095e-35
decision_type=2 2 2 2 2 2
left_child=1 3 -3 5 -5 -1
right_child=-2 2 -4 4 -6 -7
leaf_value=-0.00013739763616511593 0.0071987533143588484 -0.00077108159603085354 -0.0058519776596222079 1.5191254533419852e-06 -0.0035653954185545442 0.00031513175115887595
leaf_weight=266 13.999999999999998 16.000000000000004 9.9999999999999982 32 9.9999999999999982 134
leaf_count=266 14 16 10 32 10 134
internal_value=0 -0.000215347 -0.00272527 -6.77047e-05 -0.000847746 1.41997e-05
internal_weight=0 468 26 442 42 400
internal_count=482 468 26 442 42 400
is_linear=0
shrinkage=0.1


Tree=54
num_leaves=9
num_cat=0
split_feature=32 27 8 19 33 1 8 8
split_gain=0.0723781 0.340665 0.188933 0.00937317 0.00931121 0.0101087 0.00839363 0.00161548
threshold=262.35314743674593 35.60467445764376 1.5917660512644738 0.029040000000000003 814.83680407259681 6.5000000000000009 0.089684682522173861 0.45539944470572685
decision_type=2 2 2 2 2 2 2 2
left_child=2 -2 4 -3 7 -6 -5 -1
right_child=1 3 -4 6 5 -7 -8 -9
leaf_value=-5.8147974061870344e-05 0.020106126536848026 0.0024965299858013168 -0.013383674265986141 -3.7418604888780801e-05 -0.00012898314206932597 -0.004247924550013109 -0.0034289351152256135 0.00059840364788431636
leaf_weight=348 9.9999999999999982 9.9999999999999982 10.999999999999998 27 13.000000000000002 10.999999999999998 9.9999999999999982 42
leaf_count=348 10 10 11 27 13 11 10 42
internal_value=0 0.00334609 -0.000448769 -0.00021988 -0.000105088 -0.00201683 -0.000954045 1.25576e-05
internal_weight=0 57 425 47 414 24 37 390
internal_count=482 57 425 47 414 24 37 390
is_linear=0
shrinkage=0.1


Tree=55
num_leaves=7
num_cat=0
split_feature=8 33 23 32 8 8
split_gain=0.0752752 0.0123096 0.013335 0.00398935 0.00677179 0.0013619
threshold=1.5917660512644738 814.83680407259681 268.87500000000006 273.57621001486149 0.22353955845008797 0.21435314945731487
decision_type=2 2 2 2 2 2
left_child=1 3 -3 5 -5 -1
right_child=-2 2 -4 4 -6 -7
leaf_value=-9.6647225381880664e-05 0.0072253893528665819 -0.00039134693797677751 -0.0049753175667402423 -0.0003283846549623247 -0.0032790769264101982 0.00033290816952233273
leaf_weight=299 13.999999999999998 15.000000000000002 10.999999999999998 35 9.9999999999999982 98
leaf_count=299 14 15 11 35 10 98
internal_value=0 -0.000216144 -0.00233072 -9.17574e-05 -0.000984094 9.38912e-06
internal_weight=0 468 26 442 45 397
internal_count=482 468 26 442 45 397
is_linear=0
shrinkage=0.1


Tree=56
num_leaves=8
num_cat=0
split_feature=33 24 8 31 32 8 8
split_gain=0.0781368 0.258886 0.12047 0.00440054 0.00330722 0.00548515 0.00112185
threshold=767.56367301229955 36.939218258512589 1.5917660512644738 91.857618949264676 273.57621001486149 0.22353955845008797 0.53733142776104714
decision_type=2 2 2 2 2 2 2
left_child=2 3 4 -2 6 -6 -1
right_child=1 -3 -4 -5 5 -7 -8
leaf_value=-3.6760270081080568e-05 -0.0027209247602149838 0.018129097297787666 -0.010229955737789473 6.933929756856882e-05 -0.00029554619071339928 -0.0029511692188680175 0.00052842375261183741
leaf_weight=353 10.000000000000002 9.9999999999999982 11.999999999999998 12.999999999999998 35 9.9999999999999982 39
leaf_count=353 10 10 12 13 35 10 39
internal_value=0 0.00469646 -0.000345174 -0.00114382 -7.37383e-05 -0.000885685 1.94698e-05
internal_weight=0 33 449 23 437 45 392
internal_count=482 33 449 23 437 45 392
is_linear=0
shrinkage=0.1


Tree=57
num_leaves=6
num_cat=0
split_feature=8 33 1 25 25
split_gain=0.07311 0.0152117 0.0171147 0.00111421 0.00153952
threshold=1.5917660512644738 814.83680407259681 6.5000000000000009 22.791882493740108 23.75769899038022
decision_type=2 2 2 2 2
left_child=1 3 -3 -1 -5
right_child=-2 2 -4 4 -6
leaf_value=0.00083733427432329901 0.0071207165185894292 1.9702003695643863e-06 -0.0051293299891627753 -0.00080592659178364563 -5.1369574051932436e-05
leaf_weight=12.999999999999998 13.999999999999998 13.000000000000002 12.999999999999998 29 400
leaf_count=13 14 13 13 29 400
internal_value=0 -0.000213013 -0.00256368 -7.47384e-05 -0.000102377
internal_weight=0 468 26 442 429
internal_count=482 468 26 442 429
is_linear=0
shrinkage=0.1


Tree=58
num_leaves=9
num_cat=0
split_feature=5 8 8 32 15 8 25 8
split_gain=0.0693633 0.35043 0.112769 0.00516476 0.012961 0.00292046 0.00283107 0.000597595
threshold=-0.0057923491311910489 0.447149499459011 1.5917660512644738 190.13368798245668 0.45262272409439669 0.88421480348449788 28.543772627926476 0.12917011607646281
decision_type=2 2 2 2 2 2 2 2
left_child=1 6 3 5 -5 -2 7 -1
right_child=2 -3 -4 4 -6 -7 -8 -9
leaf_value=0.00010365166370040524 -9.1130585871204473e-05 0.020263632165733726 -0.010456452213905076 -0.0035711510176770394 -0.00029531131662694074 0.0012937875726493075 -0.0012094751625280717 0.0010132882179459558
leaf_weight=26 315 9.9999999999999982 10.999999999999998 14.999999999999998 62 15.999999999999998 17 9.9999999999999982
leaf_count=26 315 10 11 15 62 16 17 10
internal_value=0 0.0030937 -0.000465162 -0.000195789 -0.000933462 -2.41859e-05 -0.00014591 0.000356328
internal_weight=0 63 419 408 77 331 53 36
internal_count=482 63 419 408 77 331 53 36
is_linear=0
shrinkage=0.1


Tree=59
num_leaves=7
num_cat=0
split_feature=33 15 23 21 29 31
split_gain=0.0657998 0.23246 0.0423263 0.0252279 0.01465 0.00503259
threshold=767.56367301229955 0.43149517590496372 843.23500000000013 96.345000000000013 27.16719068433823 91.857618949264676
decision_type=2 2 2 2 2 2
left_child=2 5 3 4 -1 -2
right_child=1 -3 -4 -5 -6 -7
leaf_value=-0.0030234478886995934 -0.0029109641024842852 0.017038385663181544 -0.0067497638100758196 -0.0051354232842277274 6.0543116132954117e-05 7.2962627746164807e-05
leaf_weight=15.999999999999998 10.000000000000002 9.9999999999999982 9.9999999999999982 9.9999999999999982 413 12.999999999999998
leaf_count=16 10 10 10 10 413 13
internal_value=0 0.00430978 -0.000316754 -0.000170217 -5.44775e-05 -0.0012244
internal_weight=0 33 449 439 429 23
internal_count=482 33 449 439 429 23
is_linear=0
shrinkage=0.1


Tree=60
num_leaves=7
num_cat=0
split_feature=8 33 15 32 8 27
split_gain=0.0638632 0.0168962 0.0202015 0.00234984 0.00532202 0.0011169
threshold=1.5917660512644738 814.83680407259681 0.42351320190099345 286.05402392179542 0.22353955845008797 34.735919021215757
decision_type=2 2 2 2 2 2
left_child=1 3 -3 5 -5 -1
right_child=-2 2 -4 4 -6 -7
leaf_value=0.00053710583398290169 0.0066551951957600462 -0.00047282166415243401 -0.0062023513898020613 -0.00013564881505772066 -0.0027785920165479187 -3.2782909844946365e-05
leaf_weight=38 13.999999999999998 16.000000000000004 9.9999999999999982 32 9.9999999999999982 362
leaf_count=38 14 16 10 32 10 362
internal_value=0 -0.000199087 -0.00267649 -5.33576e-05 -0.000764921 2.13565e-05
internal_weight=0 468 26 442 42 400
internal_count=482 468 26 442 42 400
is_linear=0
shrinkage=0.1


Tree=61
num_leaves=9
num_cat=0
split_feature=32 9 8 33 33 1 28 35
split_gain=0.0645993 0.311873 0.176227 0.0148697 0.00862995 0.010961 0.0082156 0.00113343
threshold=262.35314743674593 5.0864724741407974 1.5917660512644738 514.01144845525835 814.83680407259681 6.5000000000000009 76.220916509174998 516.43928095212368
decision_type=2 2 2 2 2 2 2 2
left_child=2 3 4 6 7 -6 -2 -1
right_child=1 -3 -4 -5 5 -7 -8 -9
leaf_value=-6.6746734000253726e-05 0.0025009611610305282 0.018287509374468672 -0.012916366755962373 -0.0038673259364441037 3.3302060686624963e-05 -0.0042557710739360615 -0.0006441447291644695 0.00035161067097339211
leaf_weight=308 12.999999999999998 10.999999999999998 10.999999999999998 9.9999999999999982 13.000000000000002 10.999999999999998 23 82
leaf_count=308 13 11 11 10 13 11 23 82
internal_value=0 0.00316117 -0.000423968 -0.000456002 -9.20446e-05 -0.00193252 0.000491588 2.12156e-05
internal_weight=0 57 425 46 414 24 36 390
internal_count=482 57 425 46 414 24 36 390
is_linear=0
shrinkage=0.1


Tree=62
num_leaves=7
num_cat=0
split_feature=8 33 15 32 8 35
split_gain=0.0652181 0.0110064 0.0146884 0.00368372 0.00556937 0.00091412
threshold=1.5917660512644738 814.83680407259681 0.42351320190099345 264.20759531476921 0.22353955845008797 516.43928095212368
decision_type=2 2 2 2 2 2
left_child=1 3 -3 5 -5 -1
right_child=-2 2 -4 4 -6 -7
leaf_value=-5.9004466463574641e-05 0.0067254191264510162 -0.00032164287185878484 -0.0052071986906230454 -0.00036420026437554041 -0.0030027064867317677 0.00031644960706727016
leaf_weight=310 13.999999999999998 16.000000000000004 9.9999999999999982 40 9.9999999999999982 82
leaf_count=310 14 16 10 40 10 82
internal_value=0 -0.000201188 -0.0022007 -8.35692e-05 -0.000891902 1.95344e-05
internal_weight=0 468 26 442 50 392
internal_count=482 468 26 442 50 392
is_linear=0
shrinkage=0.1


Tree=63
num_leaves=8
num_cat=0
split_feature=33 26 8 31 32 8 6
split_gain=0.0664826 0.210004 0.10269 0.00330432 0.00304947 0.00451119 0.00099546
threshold=767.56367301229955 27.34642131996377 1.5917660512644738 91.857618949264676 264.20759531476921 0.22353955845008797 64.482754557965606
decision_type=2 2 2 2 2 2 2
left_child=2 3 4 -2 6 -6 -1
right_child=1 -3 -4 -5 5 -7 -8
leaf_value=-1.9328766637106335e-05 -0.0022946308221435167 0.016430288683623076 -0.0094446247443556799 0.00012324019693411313 -0.00032778023813079932 -0.0027024358324706558 0.00058042457230233905
leaf_weight=357 10.000000000000002 9.9999999999999982 11.999999999999998 12.999999999999998 40 9.9999999999999982 30
leaf_count=357 10 10 12 13 40 10 30
internal_value=0 0.00433208 -0.000318394 -0.000928008 -6.77876e-05 -0.000802711 2.71637e-05
internal_weight=0 33 449 23 437 50 387
internal_count=482 33 449 23 437 50 387
is_linear=0
shrinkage=0.1


Tree=64
num_leaves=7
num_cat=0
split_feature=8 33 20 32 8 4
split_gain=0.0633366 0.0134791 0.0195791 0.00241385 0.00365407 0.000855982
threshold=1.5917660512644738 814.83680407259681 26.880000000000006 264.20759531476921 0.22353955845008797 22.222253584361091
decision_type=2 2 2 2 2 2
left_child=1 3 -3 5 -5 -1
right_child=-2 2 -4 4 -6 -7
leaf_value=-0.00038500042713341363 0.0066276975508247106 -0.00024156674262485465 -0.0058821357227861887 -0.0002950022136610642 -0.0024321922659873967 6.9900536424833323e-05
leaf_weight=47 13.999999999999998 16.000000000000004 9.9999999999999982 40 9.9999999999999982 345
leaf_count=47 14 16 10 40 10 345
internal_value=0 -0.000198264 -0.00241102 -6.81026e-05 -0.00072244 1.53588e-05
internal_weight=0 468 26 442 50 392
internal_count=482 468 26 442 50 392
is_linear=0
shrinkage=0.1


Tree=65
num_leaves=8
num_cat=0
split_feature=33 9 8 26 32 8 6
split_gain=0.0580773 0.201208 0.096903 0.00818314 0.00200589 0.00295979 0.000853318
threshold=767.56367301229955 2.7480528545472649 1.5917660512644738 26.087016789104783 264.20759531476921 0.22353955845008797 64.482754557965606
decision_type=2 2 2 2 2 2 2
left_child=2 3 4 -2 6 -6 -1
right_child=1 -3 -4 -5 5 -7 -8
leaf_value=-2.0180977512431056e-05 0.00028814983088523141 0.015091829340566288 -0.0091629317340751488 -0.0035851455014199022 -0.00026550199356279336 -0.0021889730542898177 0.0005351044363487745
leaf_weight=357 12.000000000000002 10.999999999999998 11.999999999999998 9.9999999999999982 40 9.9999999999999982 30
leaf_count=357 12 11 12 10 40 10 30
internal_value=0 0.00404898 -0.000297587 -0.00147244 -5.41448e-05 -0.000650196 2.28644e-05
internal_weight=0 33 449 22 437 50 387
internal_count=482 33 449 22 437 50 387
is_linear=0
shrinkage=0.1


Tree=66
num_leaves=6
num_cat=0
split_feature=8 33 21 9 15
split_gain=0.0615721 0.0146871 0.0127736 0.00192966 0.000922978
threshold=1.5917660512644738 814.83680407259681 79.815000000000012 7.0483884579426892 0.42306103208372708
decision_type=2 2 2 2 2
left_child=1 3 -3 4 -1
right_child=-2 2 -4 -5 -6
leaf_value=-0.00029085446031240284 0.0065347244164773409 -0.0053089471347630007 -0.00075294686976121747 -0.0013103726802000894 5.5940584528192027e-05
leaf_weight=100 13.999999999999998 10.000000000000002 15.999999999999998 11.999999999999998 330
leaf_count=100 14 10 16 12 330
internal_value=0 -0.000195483 -0.00250525 -5.96143e-05 -2.47094e-05
internal_weight=0 468 26 442 430
internal_count=482 468 26 442 430
is_linear=0
shrinkage=0.1


Tree=67
num_leaves=10
num_cat=0
split_feature=32 8 8 33 9 25 23 6 8
split_gain=0.058395 0.286078 0.157377 0.00727883 0.00727498 0.00571816 0.00173069 0.00155222 0.000764209
threshold=262.35314743674593 0.33429884015725447 1.5917660512644738 767.56367301229955 2.6014054978328764 25.521585052603893 536.86000000000013 55.698993075821072 0.64927413426192937
decision_type=2 2 2 2 2 2 2 2 2
left_child=2 5 3 8 -5 6 -2 -7 -1
right_child=1 -3 -4 4 -6 7 -8 -9 -10
leaf_value=-1.5301915000492673e-05 8.4016162145417173e-05 0.018364215418696404 -0.012208483131094412 -0.00046815563385423851 -0.003800410004332662 -0.00058788550086319436 0.0017610295856138694 -0.002309315141412133 0.00051030570398628101
leaf_weight=355 16.000000000000004 9.9999999999999982 10.999999999999998 19.000000000000004 9.9999999999999982 10.000000000000002 9.9999999999999982 10.999999999999998 30
leaf_count=355 16 10 11 19 10 10 10 11 30
internal_value=0 0.00300553 -0.000403095 -8.94253e-05 -0.00161721 -0.000262272 0.000729021 -0.00148959 2.56545e-05
internal_weight=0 57 425 414 29 47 26 21 385
internal_count=482 57 425 414 29 47 26 21 385
is_linear=0
shrinkage=0.1


Tree=68
num_leaves=7
num_cat=0
split_feature=8 33 7 32 8 27
split_gain=0.0599295 0.00992099 0.011304 0.00319355 0.00747298 0.000821293
threshold=1.5917660512644738 814.83680407259681 0.40362550015737703 286.05402392179542 0.22353955845008797 34.735919021215757
decision_type=2 2 2 2 2 2
left_child=1 3 -3 5 -5 -1
right_child=-2 2 -4 4 -6 -7
leaf_value=0.00044817458049357429 0.0064469709992408756 -0.00044279315625317389 -0.0047287028050050145 -0.00016504650830029277 -0.003296864610165358 -4.0514862181371631e-05
leaf_weight=38 13.999999999999998 16.000000000000004 9.9999999999999982 32 9.9999999999999982 362
leaf_count=38 14 16 10 32 10 362
internal_value=0 -0.000192858 -0.00209122 -8.11898e-05 -0.000910717 5.91063e-06
internal_weight=0 468 26 442 42 400
internal_count=482 468 26 442 42 400
is_linear=0
shrinkage=0.1


Tree=69
num_leaves=8
num_cat=0
split_feature=33 27 8 27 32 8 6
split_gain=0.0586828 0.193591 0.0898027 0.00873579 0.00264772 0.00605311 0.000745457
threshold=767.56367301229955 35.260342277181387 1.5917660512644738 45.854049528896873 286.05402392179542 0.22353955845008797 64.482754557965606
decision_type=2 2 2 2 2 2 2
left_child=2 -2 4 -3 6 -6 -1
right_child=1 3 -4 -5 5 -7 -8
leaf_value=-2.3901149589581933e-05 0.013570155547215388 -0.0041949926689267142 -0.0088335050890843078 -1.5090284869074823e-05 -0.00014854184337309562 -0.0029671781882643702 0.00049466345769663656
leaf_weight=365 12.999999999999998 10.000000000000002 11.999999999999998 9.9999999999999982 32 9.9999999999999982 30
leaf_count=365 13 10 12 10 32 10 30
internal_value=0 0.00407004 -0.000299134 -0.00210504 -6.47806e-05 -0.000819646 1.54835e-05
internal_weight=0 33 449 20 437 42 395
internal_count=482 33 449 20 437 42 395
is_linear=0
shrinkage=0.1


Tree=70
num_leaves=7
num_cat=0
split_feature=8 33 11 32 8 25
split_gain=0.0584257 0.0127538 0.01318 0.00210748 0.00490302 0.000695825
threshold=1.5917660512644738 814.83680407259681 129.05127696284308 286.05402392179542 0.22353955845008797 22.463088137621092
decision_type=2 2 2 2 2 2
left_child=1 3 -3 5 -5 -1
right_child=-2 2 -4 4 -6 -7
leaf_value=0.00083061256213113666 0.0063655729006443706 -0.00056285159953404216 -0.005190752591006458 -0.00013368766176427015 -0.0026704603992402554 -1.4175333255526569e-05
leaf_weight=9.9999999999999982 13.999999999999998 16.000000000000004 9.9999999999999982 32 9.9999999999999982 390
leaf_count=10 14 16 10 32 10 390
internal_value=0 -0.000190423 -0.00234281 -6.38119e-05 -0.000737681 6.94436e-06
internal_weight=0 468 26 442 42 400
internal_count=482 468 26 442 42 400
is_linear=0
shrinkage=0.1


Tree=71
num_leaves=9
num_cat=0
split_feature=32 32 8 25 15 33 1 27
split_gain=0.0523723 0.245221 0.141839 0.0113736 0.0073016 0.00628054 0.00705692 0.000650724
threshold=262.35314743674593 286.05402392179542 1.5917660512644738 26.35099173180723 0.48970399950992277 814.83680407259681 6.5000000000000009 34.735919021215757
decision_type=2 2 2 2 2 2 2 2
left_child=2 -2 5 4 -3 7 -7 -1
right_child=1 3 -4 -5 -6 6 -8 -9
leaf_value=0.00040580011851776179 0.015547894525419301 0.0017126878293412221 -0.011589208685538987 -0.003515006438829005 -0.0011772079280276291 -7.670672001460422e-05 -0.0035181857391514562 -2.9779543320335673e-05
leaf_weight=38 11.999999999999998 18 10.999999999999998 9.9999999999999982 17 13.000000000000002 10.999999999999998 352
leaf_count=38 12 18 11 10 17 13 11 352
internal_value=0 0.00284632 -0.000381742 -0.00054076 0.000309024 -8.39595e-05 -0.00165405 1.26616e-05
internal_weight=0 57 425 45 35 414 24 390
internal_count=482 57 425 45 35 414 24 390
is_linear=0
shrinkage=0.1


Tree=72
num_leaves=7
num_cat=0
split_feature=33 7 23 21 25 28
split_gain=0.0549736 0.184292 0.0348357 0.0186563 0.0123941 0.00249167
threshold=767.56367301229955 0.44646301831439167 843.23500000000013 96.345000000000013 22.463088137621092 40.804676113422907
decision_type=2 2 2 2 2 2
left_child=2 5 3 4 -1 -2
right_child=1 -3 -4 -5 -6 -7
leaf_value=-0.0033704323358092966 -7.538173455171858e-05 0.015272693848237396 -0.0061256090359529487 -0.0044264033250510692 3.0138202840713679e-05 -0.002174986433237791
leaf_weight=10.999999999999998 13.000000000000002 9.9999999999999982 9.9999999999999982 9.9999999999999982 418 9.9999999999999982
leaf_count=11 13 10 10 10 418 10
internal_value=0 0.00393931 -0.000289526 -0.000156585 -5.70559e-05 -0.000988253
internal_weight=0 33 449 439 429 23
internal_count=482 33 449 439 429 23
is_linear=0
shrinkage=0.1


Tree=73
num_leaves=8
num_cat=0
split_feature=8 32 24 35 15 7 8
split_gain=0.0569484 0.00606052 0.0071417 0.00389917 0.00172071 0.00385351 0.00342774
threshold=1.5917660512644738 238.34155106937223 34.954208488643253 678.68474269874685 0.46571395161154322 0.39881086355294054 1.0125503348976104
decision_type=2 2 2 2 2 2 2
left_child=1 4 3 -3 5 -1 -6
right_child=-2 2 -4 -5 6 -7 -8
leaf_value=0.00011300063215321302 0.0062845760690314438 -0.00015777112178814908 -0.0034290408175861975 -0.0023711308371275664 7.4746675438174269e-05 -0.00072347131419055015 0.0019795293379866056
leaf_weight=133 13.999999999999998 39 10.999999999999998 9.9999999999999982 171 94 9.9999999999999982
leaf_count=133 14 39 11 10 171 94 10
internal_value=0 -0.000188 -0.0011264 -0.000609477 -5.00006e-05 -0.00023338 0.000179983
internal_weight=0 468 60 49 408 227 181
internal_count=482 468 60 49 408 227 181
is_linear=0
shrinkage=0.1


Tree=74
num_leaves=9
num_cat=0
split_feature=5 13 8 33 1 8 32 6
split_gain=0.0461442 0.259317 0.0772928 0.00706703 0.00776534 0.00441895 0.0036895 0.00125082
threshold=-0.0057923491311910489 23.861111111111111 1.5917660512644738 814.83680407259681 6.5000000000000009 0.41899979227798639 262.35314743674593 57.58198275057557
decision_type=2 2 2 2 2 2 2 2
left_child=1 -1 3 6 -5 7 -2 -3
right_child=2 5 -4 4 -6 -7 -8 -9
leaf_value=0.017293410043639598 5.5102696807265163e-05 0.00047374467795827623 -0.0086511286483569576 -0.00024760097820455062 -0.0039541732147336008 -0.0021569519085460342 -0.00092770171075582861 -0.00080291414196835835
leaf_weight=9.9999999999999982 342 33 10.999999999999998 13.000000000000002 9.9999999999999982 9.9999999999999982 43 9.9999999999999982
leaf_count=10 342 33 11 13 10 10 43 10
internal_value=0 0.00252332 -0.000379401 -0.000156389 -0.00185915 -0.000263492 -5.46651e-05 0.000176847
internal_weight=0 63 419 408 23 53 385 43
internal_count=482 63 419 408 23 53 385 43
is_linear=0
shrinkage=0.1


Tree=75
num_leaves=8
num_cat=0
split_feature=32 27 11 31 27 28 7
split_gain=0.044433 0.220256 0.0247854 0.015047 0.0105689 0.00780954 0.0025715
threshold=262.35314743674593 35.60467445764376 657.7810542567413 360.19005092511958 33.537314251505968 71.52203332307927 0.45025641181217452
decision_type=2 2 2 2 2 2 2
left_child=2 -2 3 4 -1 -3 -7
right_child=1 5 -4 -5 -6 6 -8
leaf_value=0.0014874706163568222 0.016098157971864566 0.0022338967258110644 -0.0050365920824168089 -0.0037165160121124551 -0.00028622950285353002 -0.0003734891974510482 -0.0021974328058687125
leaf_weight=37 9.9999999999999982 9.9999999999999982 10.999999999999998 11.999999999999998 365 26 10.999999999999998
leaf_count=37 10 10 11 12 365 26 11
internal_value=0 0.00262172 -0.000351619 -0.000227139 -0.000122978 -0.000245607 -0.000915743
internal_weight=0 57 425 414 402 47 37
internal_count=482 57 425 414 402 47 37
is_linear=0
shrinkage=0.1


Tree=76
num_leaves=7
num_cat=0
split_feature=8 33 7 32 25 11
split_gain=0.050428 0.0109702 0.0119759 0.00418427 0.00523552 0.00148384
threshold=1.5917660512644738 814.83680407259681 0.40362550015737703 262.35314743674593 25.521585052603893 632.36260193472901
decision_type=2 2 2 2 2 2
left_child=1 3 -3 5 -5 -1
right_child=-2 2 -4 4 -6 -7
leaf_value=9.9561423202655826e-06 0.0059138630117688863 -0.00047642021963838481 -0.0048878610529936852 -8.5009878665883239e-06 -0.0020288147482737575 0.00093960204168171103
leaf_weight=372 13.999999999999998 16.000000000000004 9.9999999999999982 29 23 18
leaf_count=372 14 16 10 29 23 18
internal_value=0 -0.00017691 -0.00217313 -5.94859e-05 -0.000902101 5.28629e-05
internal_weight=0 468 26 442 52 390
internal_count=482 468 26 442 52 390
is_linear=0
shrinkage=0.1


Tree=77
num_leaves=8
num_cat=0
split_feature=33 15 8 7 32 32 21
split_gain=0.0447014 0.166103 0.076449 0.00401464 0.00347265 0.0034465 0.0011693
threshold=767.56367301229955 0.43149517590496372 1.5917660512644738 0.35075788559200116 262.35314743674593 290.77750074075095 95.845000000000013
decision_type=2 2 2 2 2 2 2
left_child=2 3 4 -2 6 -6 -1
right_child=1 -3 -4 -5 5 -7 -8
leaf_value=2.7491939978189667e-05 3.2911140722437538e-05 0.014311832552775742 -0.0081353953729073215 -0.0026322000101208689 -0.0022219859645701947 -0.00034185956994919344 0.0010303687052025149
leaf_weight=373 13.000000000000002 9.9999999999999982 11.999999999999998 9.9999999999999982 12.999999999999998 39 11.999999999999998
leaf_count=373 13 10 12 10 13 39 12
internal_value=0 0.00355225 -0.000261078 -0.00112583 -4.48499e-05 -0.000811891 5.87504e-05
internal_weight=0 33 449 23 437 52 385
internal_count=482 33 449 23 437 52 385
is_linear=0
shrinkage=0.1


Tree=78
num_leaves=7
num_cat=0
split_feature=8 33 15 32 25 11
split_gain=0.0487618 0.0125161 0.0164604 0.00274246 0.00415574 0.00120918
threshold=1.5917660512644738 814.83680407259681 0.42351320190099345 262.35314743674593 25.521585052603893 632.36260193472901
decision_type=2 2 2 2 2 2
left_child=1 3 -3 5 -5 -1
right_child=-2 2 -4 4 -6 -7
leaf_value=3.685395147116925e-06 0.0058153411107403899 -0.00031702411506557833 -0.0054888920905068516 6.5434249148077871e-05 -0.001734526063133355 0.00084289264147325107
leaf_weight=372 13.999999999999998 16.000000000000004 9.9999999999999982 29 23 18
leaf_count=372 14 16 10 29 23 18
internal_value=0 -0.000173963 -0.0023062 -4.85373e-05 -0.000730702 4.2418e-05
internal_weight=0 468 26 442 52 390
internal_count=482 468 26 442 52 390
is_linear=0
shrinkage=0.1


Tree=79
num_leaves=9
num_cat=0
split_feature=9 24 8 27 1 27 32 15
split_gain=0.0440408 0.470124 0.137077 0.0205003 0.00664904 0.00468223 0.00674997 0.000987671
threshold=3.9981626258515317 31.436479616344553 1.3051358460425762 96.956000773751867 20.500000000000004 42.207110493769115 238.34155106937223 0.52650138434623972
decision_type=2 2 2 2 2 2 2 2
left_child=2 3 5 4 -2 6 -1 -7
right_child=1 -3 -4 -5 -6 7 -8 -9
leaf_value=-0.00037694532810790061 -0.00012213248122730348 0.02242696354922373 -0.01152704388580539 -0.0045784369408283969 0.0024942911097737539 -3.3419440332282755e-05 -0.0024640918586795266 0.00058663921176801146
leaf_weight=84 83 9.9999999999999982 10.999999999999998 9.9999999999999982 10.999999999999998 225 19 29
leaf_count=84 83 10 11 10 11 225 19 29
internal_value=0 0.00171742 -0.000532026 -0.000273886 0.000184045 -0.000193244 -0.000761953 3.73747e-05
internal_weight=0 114 368 104 94 357 103 254
internal_count=482 114 368 104 94 357 103 254
is_linear=0
shrinkage=0.1


end of trees

feature_importances:
DHW_Heating_(kWh)=314
6h_Direct_Solar_Radiation_(W/m2)=53
24h_Diffuse_Solar_Radiation_(W/m2)=37
Equipment_Electric_Power_(kWh)=32
kg_CO2/kWh=21
6h_Outdoor_Relative_Humidity_(%)=13
6h_Outdoor_Drybulb_Temperature_(C)=12
Indoor_Relative_Humidity_(%)=10
12h_Outdoor_Drybulb_Temperature_(C)=10
Average_Unmet_Cooling_Setpoint_Difference_(C)=9
Cooling_Load_(kWh)=9
Outdoor_Relative_Humidity_(%)=8
Solar_Generation_(W/kW)=7
12h_Outdoor_Relative_Humidity_(%)=7
12h_Diffuse_Solar_Radiation_(W/m2)=7
Hour=6
24h_Outdoor_Drybulb_Temperature_(C)=6
6h_Diffuse_Solar_Radiation_(W/m2)=6
24h_Direct_Solar_Radiation_(W/m2)=6
Diffuse_Solar_Radiation_(W/m2)=5
Outdoor_Drybulb_Temperature_(C)=4
Direct_Solar_Radiation_(W/m2)=4
24h_Outdoor_Relative_Humidity_(%)=2
Indoor_Temperature_(C)=1
Occupant_Count_(people)=1
Temperature_Set_Point_(C)=1
24h_Prediction_Electricity_Pricing__$/kWh_=1
12h_Direct_Solar_Radiation_(W/m2)=1

parameters:
[boosting: gbdt]
[objective: regression]
[metric: l2]
[tree_learner: serial]
[device_type: cpu]
[data: ]
[valid: ]
[num_iterations: 80]
[learning_rate: 0.1]
[num_leaves: 16]
[num_threads: 1]
[deterministic: 0]
[force_col_wise: 0]
[force_row_wise: 0]
[histogram_pool_size: -1]
[max_depth: 4]
[min_data_in_leaf: 10]
[min_sum_hessian_in_leaf: 0.001]
[bagging_fraction: 0.9]
[pos_bagging_fraction: 1]
[neg_bagging_fraction: 1]
[bagging_freq: 0]
[bagging_seed: 3]
[feature_fraction: 0.9]
[feature_fraction_bynode: 1]
[feature_fraction_seed: 2]
[extra_trees: 0]
[extra_seed: 6]
[early_stopping_round: 0]
[first_metric_only: 0]
[max_delta_step: 0]
[lambda_l1: 0]
[lambda_l2: 0]
[linear_lambda: 0]
[min_gain_to_split: 0]
[drop_rate: 0.1]
[max_drop: 50]
[skip_drop: 0.5]
[xgboost_dart_mode: 0]
[uniform_drop: 0]
[drop_seed: 4]
[top_rate: 0.2]
[other_rate: 0.1]
[min_data_per_group: 100]
[max_cat_threshold: 32]
[cat_l2: 10]
[cat_smooth: 10]
[max_cat_to_onehot: 4]
[top_k: 20]
[monotone_constraints: ]
[monotone_constraints_method: basic]
[monotone_penalty: 0]
[feature_contri: ]
[forcedsplits_filename: ]
[refit_decay_rate: 0.9]
[cegb_tradeoff: 1]
[cegb_penalty_split: 0]
[cegb_penalty_feature_lazy: ]
[cegb_penalty_feature_coupled: ]
[path_smooth: 0]
[interaction_constraints: ]
[verbosity: -1]
[saved_feature_importance_type: 0]
[linear_tree: 0]
[max_bin: 255]
[max_bin_by_feature: ]
[min_data_in_bin: 3]
[bin_construct_sample_cnt: 200000]
[data_random_seed: 1]
[is_enable_sparse: 1]
[enable_bundle: 1]
[use_missing: 1]
[zero_as_missing: 0]
[feature_pre_filter: 1]
[pre_partition: 0]
[two_round: 0]
[header: 0]
[label_column: ]
[weight_column: ]
[group_column: ]
[ignore_column: ]
[categorical_feature: ]
[forcedbins_filename: ]
[precise_float_parser: 0]
[parser_config_file: ]
[objective_seed: 5]
[num_class: 1]
[is_unbalance: 0]
[scale_pos_weight: 1]
[sigmoid: 1]
[boost_from_average: 1]
[reg_sqrt: 0]
[alpha: 0.9]
[fair_c: 1]
[poisson_max_delta_step: 0.7]
[tweedie_variance_power: 1.5]
[lambdarank_truncation_level: 30]
[lambdarank_norm: 1]
[label_gain: ]
[lambdarank_position_bias_regularization: 0]
[eval_at: ]
[multi_error_top_k: 1]
[auc_mu_weights: ]
[num_machines: 1]
[local_listen_port: 12400]
[time_out: 120]
[machine_list_filename: ]
[machines: ]
[gpu_platform_id: -1]
[gpu_device_id: -1]
[gpu_use_dp: 0]
[num_gpu: 1]

end of parameters

pandas_categorical:[]
