tree
version=v4
num_class=1
num_tree_per_iteration=1
label_index=0
max_feature_idx=35
objective=regression
feature_names=Month Hour Day_Type Daylight_Savings_Status Indoor_Temperature_(C) Average_Unmet_Cooling_Setpoint_Difference_(C) Indoor_Relative_Humidity_(%) Equipment_Electric_Power_(kWh) DHW_Heating_(kWh) Cooling_Load_(kWh) Heating_Load_(kWh) Solar_Generation_(W/kW) Occupant_Count_(people) Temperature_Set_Point_(C) HVAC_Mode_(Off/Cooling/Heating) kg_CO2/kWh Electricity_Pricing__$/kWh_ 6h_Prediction_Electricity_Pricing__$/kWh_ 12h_Prediction_Electricity_Pricing__$/kWh_ 24h_Prediction_Electricity_Pricing__$/kWh_ Outdoor_Drybulb_Temperature_(C) Outdoor_Relative_Humidity_(%) Diffuse_Solar_Radiation_(W/m2) Direct_Solar_Radiation_(W/m2) 6h_Outdoor_Drybulb_Temperature_(C) 12h_Outdoor_Drybulb_Temperature_(C) 24h_Outdoor_Drybulb_Temperature_(C) 6h_Outdoor_Relative_Humidity_(%) 12h_Outdoor_Relative_Humidity_(%) 24h_Outdoor_Relative_Humidity_(%) 6h_Diffuse_Solar_Radiation_(W/m2) 12h_Diffuse_Solar_Radiation_(W/m2) 24h_Diffuse_Solar_Radiation_(W/m2) 6h_Direct_Solar_Radiation_(W/m2) 12h_Direct_Solar_Radiation_(W/m2) 24h_Direct_Solar_Radiation_(W/m2)
feature_infos=none [1:24] [1:7] none [22.77789557214593:24.444466550450691] [-0.26199352089311739:0.092478093357026794] [53.479610279300665:68.515804715876072] [0.39715520629195489:8.3977398689543179] [0:2.8416597800977703] [0:5.7120455301242288] none [0:687.15852178569139] [0:2] [22.777777777777779:24.444444444444457] none [0.33751525247131398:0.54505021691256927] [0.028930000000000001:0.05867] [0.028930000000000001:0.05867] [0.028930000000000001:0.05867] [0.028930000000000001:0.05867] [21.379999999999999:40.32] [24.120000000000001:98.25] [0:408.69999999999999] [0:886.92999999999995] [21.385895012807637:40.448030901483051] [20.812239003382171:41.761423383460262] [20.947013524362529:40.33298102857114] [19.430299457014652:100] [18.750454935186248:100] [16.665542474905589:100] [0:448.59393372529718] [0:524.90876332100106] [0:486.88891634473225] [0:998.78608636720685] [0:1096.818864330259] [0:1148.8024499653848]
tree_sizes=886 924 926 913 910 929 930 917 918 916 921 936 921 1117 938 926 927 963 947 809 966 979 955 969 691 691 712 979 720 999 707 981 1021 923 1005 1122 711 987 825 931 1005 722 914 739 1026 809 995 1201 708 983 809 927 794 1001 708 790 914 1113 796 793 1123 625 960 963 794 705 723 724 984 925 626 725 970 892 1017 912 915 914 625 984

Tree=0
num_leaves=9
num_cat=0
split_feature=7 7 7 7 7 7 7 7
split_gain=145.283 28.369 4.57936 1.69541 1.63234 0.679725 0.20687 0.0814795
threshold=1.5092330446776852 0.73500059856554978 1.0618883980326943 0.90394622272154579 0.53541427574763834 1.2037965661101129 0.45173639969945073 0.68391656564526759
decision_type=2 2 2 2 2 2 2 2
left_child=1 4 3 -3 6 -4 -1 -6
right_child=-2 2 5 -5 7 -7 -8 -9
leaf_value=0.81158463040094331 1.2138561641054755 0.84948182457288512 0.88324848063110817 0.86804586803056483 0.83147066606401909 0.9050614899229954 0.82035993291258325 0.84049726559042437
leaf_weight=128 10.999999999999998 89 50 110 20 20 34 20
leaf_count=128 11 89 50 110 20 20 34 20
internal_value=0.854605 0.846214 0.867482 0.859743 0.817893 0.889481 0.813426 0.835984
internal_weight=0 471 269 199 202 70 162 40
internal_count=482 471 269 199 202 70 162 40
is_linear=0
shrinkage=1


Tree=1
num_leaves=9
num_cat=0
split_feature=7 7 7 7 7 7 7 1
split_gain=117.68 23.0024 3.51621 1.73239 1.36991 0.375876 0.205645 0.0567449
threshold=1.5092330446776852 0.74874595406431965 1.0790778868336595 0.60639267008573816 0.90394622272154579 1.327409909442999 0.45173639969945073 15.500000000000002
decision_type=2 2 2 2 2 2 2 2
left_child=1 3 4 6 -3 -4 -1 -5
right_child=-2 2 5 7 -6 -7 -8 -9
leaf_value=-0.038717992347665132 0.32332638718865137 -0.0039382540545193486 0.029143818525167616 -0.019460073485970498 0.012846128161876434 0.046961853784673352 -0.030340463942603063 -0.012041666821159166
leaf_weight=128 10.999999999999998 80 39 15.999999999999998 124 17 38 29
leaf_count=128 11 80 39 16 124 17 38 29
internal_value=0 -0.00755115 0.012357 -0.0320825 0.00626402 0.0345529 -0.0368002 -0.0146793
internal_weight=0 471 260 211 204 56 166 45
internal_count=482 471 260 211 204 56 166 45
is_linear=0
shrinkage=0.1


Tree=2
num_leaves=9
num_cat=0
split_feature=7 7 7 7 7 7 7 7
split_gain=95.3205 18.6487 2.71566 1.6628 1.01026 0.274106 0.166572 0.0551782
threshold=1.5092330446776852 0.76742972902567685 1.1090151674265525 0.60639267008573816 0.90394622272154579 1.327409909442999 0.45173639969945073 0.68391656564526759
decision_type=2 2 2 2 2 2 2 2
left_child=1 3 4 6 -3 -4 -1 -5
right_child=-2 2 5 7 -6 -7 -8 -9
leaf_value=-0.034846193832345308 0.29099376113577324 -0.0030331382258437984 0.026858544391062524 -0.017514065280556681 0.011729672158092966 0.042265666758312899 -0.027306417650298072 -0.010456186408797901
leaf_weight=128 10.999999999999998 73 36 15.999999999999998 127 17 38 36
leaf_count=128 11 73 36 16 127 17 38 36
internal_value=0 -0.00679603 0.0116746 -0.0282321 0.00634125 0.0318005 -0.0331202 -0.0126278
internal_weight=0 471 253 218 200 53 166 52
internal_count=482 471 253 218 200 53 166 52
is_linear=0
shrinkage=0.1


Tree=3
num_leaves=9
num_cat=0
split_feature=7 7 7 7 7 7 7 7
split_gain=77.2096 15.1081 2.29644 1.25987 0.679649 0.391191 0.106829 0.0631338
threshold=1.5092330446776852 0.75726346528787747 1.0278872261507777 0.53541427574763834 0.8624839040220339 1.2037965661101129 0.45173639969945073 0.68391656564526759
decision_type=2 2 2 2 2 2 2 2
left_child=1 3 4 6 -3 -4 -1 -5
right_child=-2 2 5 7 -6 -7 -8 -9
leaf_value=-0.031361575168557469 0.26189436600702309 -0.0037931357892647165 0.020655214542692358 -0.01670969307422638 0.0088977480176509471 0.036986804232001305 -0.025055532157421113 -0.0095894139372941223
leaf_weight=128 10.999999999999998 67 55 20 114 20 34 33
leaf_count=128 11 67 55 20 114 20 34 33
internal_value=0 -0.00611643 0.0102968 -0.0256596 0.00420002 0.0250103 -0.0300381 -0.0122763
internal_weight=0 471 256 215 181 75 162 53
internal_count=482 471 256 215 181 75 162 53
is_linear=0
shrinkage=0.1


Tree=4
num_leaves=9
num_cat=0
split_feature=7 7 7 7 7 7 7 7
split_gain=62.5398 12.2746 1.62502 1.5558 0.431873 0.155746 0.107866 0.0525603
threshold=1.5092330446776852 0.78857038694150672 0.60639267008573816 1.1348999365294949 0.9540144347311561 1.327409909442999 0.45173639969945073 0.71796147105446828
decision_type=2 2 2 2 2 2 2 2
left_child=1 2 6 4 -3 -5 -1 -4
right_child=-2 3 7 5 -6 -7 -8 -9
leaf_value=-0.028225417179055513 0.23570493649352683 0.00018878941226637726 -0.012338103636585433 0.022558613256974655 0.010337164803691533 0.034340421241872449 -0.022158072261433855 -0.0068787693646219054
leaf_weight=128 10.999999999999998 66 29 33 115 17 38 45
leaf_count=128 11 66 29 33 115 17 38 45
internal_value=0 -0.00550479 -0.0213425 0.01095 0.00663665 0.0265644 -0.0268365 -0.00901824
internal_weight=0 471 240 231 181 50 166 74
internal_count=482 471 240 231 181 50 166 74
is_linear=0
shrinkage=0.1


Tree=5
num_leaves=9
num_cat=0
split_feature=7 7 7 7 7 7 7 1
split_gain=50.6572 9.94243 1.31627 1.2602 0.349817 0.126154 0.0873711 0.0458933
threshold=1.5092330446776852 0.78857038694150672 0.60639267008573816 1.1348999365294949 0.9540144347311561 1.327409909442999 0.45173639969945073 14.500000000000002
decision_type=2 2 2 2 2 2 2 2
left_child=1 2 6 4 -3 -5 -1 -4
right_child=-2 3 7 5 -6 -7 -8 -9
leaf_value=-0.025402874988503757 0.21213444362987174 0.00016991055824539881 -0.012857880070805551 0.020302751886122156 0.0093034480965655791 0.030906377119176529 -0.019942265160773933 -0.0068084239702800231
leaf_weight=128 10.999999999999998 66 15.999999999999998 33 115 17 38 58
leaf_count=128 11 66 16 33 115 17 38 58
internal_value=0 -0.00495431 -0.0192083 0.00985502 0.00597299 0.023908 -0.0241529 -0.00811641
internal_weight=0 471 240 231 181 50 166 74
internal_count=482 471 240 231 181 50 166 74
is_linear=0
shrinkage=0.1


Tree=6
num_leaves=9
num_cat=0
split_feature=7 7 7 7 7 7 7 7
split_gain=41.0323 8.0548 1.2456 0.714739 0.350377 0.202153 0.0551879 0.0379775
threshold=1.5092330446776852 0.76742972902567685 1.0278872261507777 0.53541427574763834 0.8624839040220339 1.2037965661101129 0.43951288676761419 0.6292081014691171
decision_type=2 2 2 2 2 2 2 2
left_child=1 3 4 6 -3 -4 -1 -5
right_child=-2 2 5 7 -6 -7 -8 -9
leaf_value=-0.022935142992965639 0.1909210037101399 -0.0027957648941082883 0.015359045172279533 -0.013544201507018164 0.0064498468498258221 0.027099226117134098 -0.018579253319062686 -0.0073761061873546868
leaf_weight=124 10.999999999999998 64 55 12.999999999999998 114 20 38 43
leaf_count=124 11 64 55 13 114 20 38 43
internal_value=0 -0.00445888 0.00768018 -0.0185469 0.00312558 0.0184898 -0.0219134 -0.00880799
internal_weight=0 471 253 218 178 75 162 56
internal_count=482 471 253 218 178 75 162 56
is_linear=0
shrinkage=0.1


Tree=7
num_leaves=9
num_cat=0
split_feature=7 7 7 7 7 7 7 7
split_gain=33.2362 6.54692 0.908043 0.818994 0.212231 0.0806069 0.0605988 0.0330434
threshold=1.5092330446776852 0.80524343771873064 0.60639267008573816 1.1348999365294949 0.96756359315252427 1.327409909442999 0.51317924620292177 0.71796147105446828
decision_type=2 2 2 2 2 2 2 2
left_child=1 2 6 4 -3 -5 -1 -4
right_child=-2 3 7 5 -6 -7 -8 -9
leaf_value=-0.02029351439969293 0.1718288920142434 0.00058102181820727107 -0.0091606536302073251 0.016629842736504294 0.0077203575115312234 0.02510581796660143 -0.014545836618968419 -0.0049018036041940964
leaf_weight=145 10.999999999999998 67 29 33 110 17 21 49
leaf_count=145 11 67 29 33 110 17 21 49
internal_value=0 -0.00401299 -0.0153847 0.00821036 0.0050179 0.0195117 -0.0195664 -0.00648522
internal_weight=0 471 244 227 177 50 166 78
internal_count=482 471 244 227 177 50 166 78
is_linear=0
shrinkage=0.1


Tree=8
num_leaves=9
num_cat=0
split_feature=7 7 7 7 7 7 7 7
split_gain=26.9213 5.30301 0.735746 0.669501 0.159428 0.081764 0.0400425 0.0390635
threshold=1.5092330446776852 0.80524343771873064 0.53541427574763834 1.0790778868336595 0.93767799796718465 1.2037965661101129 0.68391656564526759 0.45173639969945073
decision_type=2 2 2 2 2 2 2 2
left_child=1 2 7 4 -3 -5 -4 -1
right_child=-2 3 6 5 -6 -7 -8 -9
leaf_value=-0.018553334171883762 0.15464600758119063 -0.00046850316226482397 -0.010018732994794846 0.014031261930035222 0.0062442880616454055 0.02200586099177599 -0.004872890838211583 -0.014740052819252015
leaf_weight=128 10.999999999999998 50 20 36 121 20 62 34
leaf_count=128 11 50 20 36 121 20 62 34
internal_value=0 -0.00361169 -0.0138462 0.00738932 0.00428148 0.0168793 -0.00612797 -0.017753
internal_weight=0 471 244 227 171 56 82 162
internal_count=482 471 244 227 171 56 82 162
is_linear=0
shrinkage=0.1


Tree=9
num_leaves=9
num_cat=0
split_feature=7 7 7 7 7 7 7 7
split_gain=21.8063 4.3011 0.797757 0.243186 0.177766 0.163702 0.036161 0.0118855
threshold=1.5092330446776852 0.73500059856554978 0.9958207711095689 0.51317924620292177 0.83142064209023814 1.1849716158271069 0.6292081014691171 0.43095275288893925
decision_type=2 2 2 2 2 2 2 2
left_child=1 3 4 7 -3 -4 -5 -1
right_child=-2 2 5 6 -6 -7 -8 -9
leaf_value=-0.01710036195193728 0.13918141018260607 -0.0030409268821988788 0.0091859682282405108 -0.011133559942245484 0.0035571487601466327 0.017705416591728435 -0.0060890966819392312 -0.015186287523532399
leaf_weight=96 10.999999999999998 70 67 30 98 34 27 49
leaf_count=96 11 70 67 30 98 34 27 49
internal_value=0 -0.00325052 0.00503041 -0.0142781 0.000807951 0.0120539 -0.00874408 -0.0164535
internal_weight=0 471 269 202 168 101 57 145
internal_count=482 471 269 202 168 101 57 145
is_linear=0
shrinkage=0.1


Tree=10
num_leaves=9
num_cat=0
split_feature=7 7 7 7 7 7 7 7
split_gain=17.6631 3.49101 0.470584 0.453805 0.089794 0.0878458 0.0325794 0.0166931
threshold=1.5092330446776852 0.78857038694150672 1.0278872261507777 0.60639267008573816 0.8624839040220339 1.2037965661101129 0.51317924620292177 0.70682082788314127
decision_type=2 2 2 2 2 2 2 2
left_child=1 3 4 6 -3 -4 -1 -5
right_child=-2 2 5 7 -6 -7 -8 -9
leaf_value=-0.014808182736922955 0.12526326396248558 -0.0012323164092820317 0.010295556065711108 -0.0070954778920049259 0.0041765816754808557 0.018034733012318612 -0.010593821356693905 -0.0038503224651018778
leaf_weight=145 10.999999999999998 42 55 23 114 20 21 51
leaf_count=145 11 42 55 23 114 20 21 51
internal_value=0 -0.00292547 0.00584988 -0.0113717 0.00272034 0.0123593 -0.014275 -0.00485895
internal_weight=0 471 231 240 156 75 166 74
internal_count=482 471 231 240 156 75 166 74
is_linear=0
shrinkage=0.1


Tree=11
num_leaves=9
num_cat=0
split_feature=7 7 7 7 7 7 7 7
split_gain=14.3071 2.82956 0.42749 0.300422 0.0941375 0.0793141 0.0228681 0.016868
threshold=1.5092330446776852 0.77672242822863458 1.014414532824796 0.53541427574763834 1.193579276272976 0.83142064209023814 0.43951288676761419 0.6292081014691171
decision_type=2 2 2 2 2 2 2 2
left_child=1 3 5 6 -4 -3 -1 -5
right_child=-2 2 4 7 -6 -7 -8 -9
leaf_value=-0.013609310960577381 0.11273693604902789 -0.0019492570289664649 0.0081514365261509316 -0.0081755993457940917 0.015120150920535839 0.0030875896569341425 -0.010805361247376393 -0.0041558944602619928
leaf_weight=124 10.999999999999998 44 63 12.999999999999998 28 108 38 53
leaf_count=124 11 44 63 13 28 108 38 53
internal_value=0 -0.00263292 0.00487489 -0.0106347 0.0102957 0.00162956 -0.0129516 -0.00494765
internal_weight=0 471 243 228 91 152 162 66
internal_count=482 471 243 228 91 152 162 66
is_linear=0
shrinkage=0.1


Tree=12
num_leaves=9
num_cat=0
split_feature=7 7 7 7 7 7 7 7
split_gain=11.5887 2.29491 0.43491 0.12865 0.0936019 0.0911555 0.0182932 0.00833094
threshold=1.5092330446776852 0.73500059856554978 0.9958207711095689 0.51317924620292177 1.1673651252208763 0.83142064209023814 0.6292081014691171 0.43095275288893925
decision_type=2 2 2 2 2 2 2 2
left_child=1 3 5 7 -4 -3 -5 -1
right_child=-2 2 4 6 -6 -7 -8 -9
leaf_value=-0.012548576054784159 0.10146325068040328 -0.0021945956588855812 0.0063998550054479826 -0.008099192380905151 0.012624407233670355 0.0025302095946912865 -0.0045112981288521377 -0.010946078324804501
leaf_weight=96 10.999999999999998 70 61 30 40 98 27 49
leaf_count=96 11 70 61 30 40 98 27 49
internal_value=0 -0.00236963 0.00367921 -0.0104248 0.00886502 0.000561541 -0.00639966 -0.012007
internal_weight=0 471 269 202 101 168 57 145
internal_count=482 471 269 202 101 168 57 145
is_linear=0
shrinkage=0.1


Tree=13
num_leaves=10
num_cat=0
split_feature=11 35 13 6 33 8 28 5 12
split_gain=2.29474 4.18633 1.61838 6.79223 1.74491 0.906356 0.463693 0.0517973 0.00907726
threshold=601.91685410628656 445.08596439611762 23.416666666666671 59.677813303649749 884.54944890876823 1.1928182761087094 55.50271328020667 5.2833065495860873e-06 1.0000000180025095e-35
decision_type=2 2 2 2 2 2 2 2 2
left_child=2 -2 3 -1 5 -4 -5 -3 -9
right_child=1 7 4 6 -6 -7 -8 8 -10
leaf_value=0.088386174878105517 0.078563645156100398 0.010524498422940572 -0.0044773817914227649 -0.023886721907183529 0.037041390305384995 -0.034981888914480806 0.0020836945072832433 0.00067749249820525821 0.0046849557850509888
leaf_weight=9.9999999999999982 9.9999999999999982 11.999999999999998 375 9.9999999999999982 9.9999999999999982 9.9999999999999982 22 13.000000000000002 9.9999999999999982
leaf_count=10 10 12 375 10 10 10 22 13 10
internal_value=0 0.0215019 -0.00221416 0.0164485 -0.00419854 -0.00526971 -0.00603206 0.0051986 0.00241987
internal_weight=0 45 437 42 395 385 32 35 23
internal_count=482 45 437 42 395 385 32 35 23
is_linear=0
shrinkage=0.1


Tree=14
num_leaves=9
num_cat=0
split_feature=7 7 7 7 7 7 7 1
split_gain=8.90057 1.77922 0.316263 0.133824 0.12819 0.0220398 0.0155743 0.00392758
threshold=1.5092330446776852 0.75726346528787747 1.1673651252208763 0.51317924620292177 0.94386854318877578 1.3375241529837947 0.6292081014691171 4.5000000000000009
decision_type=2 2 2 2 2 2 2 2
left_child=1 3 4 7 -3 -4 -5 -1
right_child=-2 2 5 6 -6 -7 -8 -9
leaf_value=-0.010992498243156868 0.088920032978057867 -0.00095187536695279023 0.010001109537887925 -0.0069149635483821241 0.0040247321200485419 0.014922445906060084 -0.0039008315932005642 -0.0099473901996106825
leaf_weight=79 10.999999999999998 86 26 30 130 13.999999999999998 40 66
leaf_count=79 11 86 26 30 130 14 40 66
internal_value=0 -0.00207669 0.00355585 -0.00878334 0.00204331 0.0117236 -0.0051926 -0.0105168
internal_weight=0 471 256 215 216 40 70 145
internal_count=482 471 256 215 216 40 70 145
is_linear=0
shrinkage=0.1


Tree=15
num_leaves=9
num_cat=0
split_feature=7 7 7 7 7 7 7 1
split_gain=7.20947 1.44117 0.261861 0.108398 0.0854041 0.0376999 0.0126152 0.00318134
threshold=1.5092330446776852 0.75726346528787747 0.99222609149077434 0.51317924620292177 1.1673651252208763 0.8624839040220339 0.6292081014691171 4.5000000000000009
decision_type=2 2 2 2 2 2 2 2
left_child=1 3 5 7 -4 -3 -5 -1
right_child=-2 2 4 6 -6 -7 -8 -9
leaf_value=-0.0098932485131523282 0.08002802675420588 -0.0013378134287490664 0.0047736961935633719 -0.0062234669799606009 0.010551219559274613 0.0018964047555644543 -0.0035107485018670559 -0.0089526509696787049
leaf_weight=79 10.999999999999998 67 71 30 40 78 40 66
leaf_count=79 11 67 71 30 40 78 40 66
internal_value=0 -0.00186902 0.00320026 -0.007905 0.00685569 0.000401973 -0.00467334 -0.00946511
internal_weight=0 471 256 215 111 145 70 145
internal_count=482 471 256 215 111 145 70 145
is_linear=0
shrinkage=0.1


Tree=16
num_leaves=9
num_cat=0
split_feature=7 7 7 7 7 7 7 1
split_gain=5.83967 1.16735 0.212107 0.0878021 0.0691773 0.0305369 0.0102183 0.00257689
threshold=1.5092330446776852 0.75726346528787747 0.99222609149077434 0.51317924620292177 1.1673651252208763 0.8624839040220339 0.6292081014691171 4.5000000000000009
decision_type=2 2 2 2 2 2 2 2
left_child=1 3 5 7 -4 -3 -5 -1
right_child=-2 2 4 6 -6 -7 -8 -9
leaf_value=-0.0089039238947856269 0.07202522646297109 -0.001204032116785034 0.0042963266339887621 -0.0056011203676462175 0.0094960974529385567 0.0017067643407827769 -0.0031596735864877698 -0.0080573862023425834
leaf_weight=79 10.999999999999998 67 71 30 40 78 40 66
leaf_count=79 11 67 71 30 40 78 40 66
internal_value=0 -0.00168212 0.00288024 -0.0071145 0.00617012 0.000361776 -0.00420601 -0.0085186
internal_weight=0 471 256 215 111 145 70 145
internal_count=482 471 256 215 111 145 70 145
is_linear=0
shrinkage=0.1


Tree=17
num_leaves=9
num_cat=0
split_feature=7 7 7 7 7 7 7 7
split_gain=4.73013 0.945738 0.145965 0.115295 0.0469983 0.0178522 0.00770133 0.00502312
threshold=1.5092330446776852 0.78857038694150672 1.1673651252208763 0.53541427574763834 0.96756359315252427 1.3375241529837947 0.45173639969945073 0.6292081014691171
decision_type=2 2 2 2 2 2 2 2
left_child=1 3 4 6 -3 -4 -1 -5
right_child=-2 2 5 7 -6 -7 -8 -9
leaf_value=-0.0077862944337539382 0.06482269763946534 -0.00013612405114977715 0.0069962670381825704 -0.0045458023937848899 0.0031097980565391484 0.01142546965607575 -0.0060931420501540694 -0.0023924956069542817
leaf_weight=128 10.999999999999998 71 26 12.999999999999998 120 13.999999999999998 34 65
leaf_count=128 11 71 26 13 120 14 34 65
internal_value=0 -0.00151391 0.00305355 -0.00591008 0.0019032 0.00854649 -0.00743094 -0.00275138
internal_weight=0 471 231 240 191 40 162 78
internal_count=482 471 231 240 191 40 162 78
is_linear=0
shrinkage=0.1


Tree=18
num_leaves=9
num_cat=0
split_feature=7 7 7 7 7 7 7 33
split_gain=3.83141 0.768822 0.144477 0.0575564 0.0415569 0.0234017 0.00615142 0.00261359
threshold=1.5092330446776852 0.75726346528787747 0.9958207711095689 0.51317924620292177 1.327409909442999 0.8624839040220339 0.6292081014691171 829.61596266069898
decision_type=2 2 2 2 2 2 2 2
left_child=1 3 5 7 -4 -3 -5 -1
right_child=-2 2 4 6 -6 -7 -8 -9
leaf_value=-0.0067924148120261998 0.05834043025970459 -0.00098582351573312031 0.0043704781803258121 -0.0044987456065913043 0.0097919606110628919 0.0014945156242571435 -0.0026044566859491172 -0.008467882126569749
leaf_weight=135 10.999999999999998 67 84 30 17 88 40 9.9999999999999982
leaf_count=135 11 67 84 30 17 88 40 10
internal_value=0 -0.00136252 0.00234004 -0.00577114 0.005283 0.000422369 -0.00341629 -0.00690796
internal_weight=0 471 256 215 101 155 70 145
internal_count=482 471 256 215 101 155 70 145
is_linear=0
shrinkage=0.1


Tree=19
num_leaves=7
num_cat=0
split_feature=8 9 21 33 22 22
split_gain=1.46483 1.76994 11.4204 1.07793 0.76162 0.538228
threshold=1.1928182761087094 3.0771780796433963 54.470000000000006 884.54944890876823 328.50000000000006 271.54000000000002
decision_type=2 2 2 2 2 2
left_child=1 3 5 4 -1 -3
right_child=-2 2 -4 -5 -6 -7
leaf_value=-0.002410930473277425 -0.036073127253489067 -0.0024286213453088741 0.10411255454334122 0.027056378941051663 -0.02473757257394027 0.021145646443421193
leaf_weight=339 10.999999999999998 81 11.999999999999998 11.999999999999998 15.999999999999998 10.999999999999998
leaf_count=339 11 81 12 12 16 11
internal_value=0 0.000842472 0.012358 -0.00242079 -0.0034172 0.000390041
internal_weight=0 471 104 367 355 92
internal_count=482 471 104 367 355 92
is_linear=0
shrinkage=0.1


Tree=20
num_leaves=9
num_cat=0
split_feature=7 7 7 7 7 15 33 29
split_gain=2.85698 0.635846 0.109976 0.0488949 0.035853 0.0186132 0.00827517 0.006779
threshold=1.5092330446776852 0.77672242822863458 1.1673651252208763 0.51317924620292177 0.98210698163580012 0.47891877298668845 829.61596266069898 54.118520158163342
decision_type=2 2 2 2 2 2 2 2
left_child=1 3 4 6 -3 -4 -1 -5
right_child=-2 2 5 7 -6 -7 -8 -9
leaf_value=-0.0058720671965016256 0.050378401712937795 0.00016680947732277004 0.0058464229877652797 -0.0017326172958645556 0.0028273629312662737 0.010677518898790534 -0.0088533663377165801 -0.0036616785094208482
leaf_weight=135 10.999999999999998 106 29 27 97 10.999999999999998 9.9999999999999982 56
leaf_count=135 11 106 29 27 97 11 10 56
internal_value=0 -0.00117657 0.00238245 -0.00496973 0.00143811 0.00717497 -0.00607767 -0.00303415
internal_weight=0 471 243 228 203 40 145 83
internal_count=482 471 243 228 203 40 145 83
is_linear=0
shrinkage=0.1


Tree=21
num_leaves=9
num_cat=0
split_feature=7 7 7 7 7 15 33 4
split_gain=2.31416 0.515035 0.0890808 0.0396049 0.0290409 0.0150767 0.00670289 0.00636939
threshold=1.5092330446776852 0.77672242822863458 1.1673651252208763 0.51317924620292177 0.98210698163580012 0.47891877298668845 829.61596266069898 23.888895370686502
decision_type=2 2 2 2 2 2 2 2
left_child=1 3 4 6 -3 -4 -1 -5
right_child=-2 2 5 7 -6 -7 -8 -9
leaf_value=-0.0052848602886553173 0.04534056295048107 0.00015012854760329303 0.0052617806812812543 -0.004675517414164331 0.0025446266060714256 0.009609767117283563 -0.00796802967786789 -0.0023361442227631916
leaf_weight=135 10.999999999999998 106 29 13.999999999999998 97 10.999999999999998 9.9999999999999982 69
leaf_count=135 11 106 29 14 97 11 10 69
internal_value=0 -0.00105891 0.0021442 -0.00447275 0.0012943 0.00645748 -0.00546991 -0.00273074
internal_weight=0 471 243 228 203 40 145 83
internal_count=482 471 243 228 203 40 145 83
is_linear=0
shrinkage=0.1


Tree=22
num_leaves=9
num_cat=0
split_feature=7 7 7 7 7 7 28 15
split_gain=1.87447 0.417247 0.0760917 0.0270293 0.0252414 0.0129699 0.00638578 0.00168836
threshold=1.5092330446776852 0.76742972902567685 1.1673651252208763 0.98210698163580012 0.51317924620292177 1.3375241529837947 91.100074491255086 0.38593486633342938
decision_type=2 2 2 2 2 2 2 2
left_child=1 4 3 -3 7 -4 -6 -1
right_child=-2 2 5 -5 6 -7 -8 -9
leaf_value=-0.0055059038354335612 0.040806504813107575 2.8165249675331668e-05 0.0044903869239183575 0.0022901639467124472 -0.0031976763051244673 0.0082656506715076319 -0.0010661294732831027 -0.0047231884345550236
leaf_weight=37 10.999999999999998 116 26 97 54 13.999999999999998 19 108
leaf_count=37 11 116 26 97 54 14 19 108
internal_value=0 -0.000953018 0.00180981 0.00105828 -0.00415942 0.00581173 -0.00264289 -0.00492292
internal_weight=0 471 253 213 218 40 73 145
internal_count=482 471 253 213 218 40 73 145
is_linear=0
shrinkage=0.1


Tree=23
num_leaves=9
num_cat=0
split_feature=7 7 7 7 13 15 29 33
split_gain=1.51832 0.339131 0.0582899 0.0256658 0.0205161 0.0118883 0.00544732 0.00526248
threshold=1.5092330446776852 0.77672242822863458 1.1673651252208763 0.51317924620292177 23.694444444444446 0.45570610061006012 96.672048155215947 829.61596266069898
decision_type=2 2 2 2 2 2 2 2
left_child=1 3 4 7 -3 -4 -5 -1
right_child=-2 2 5 6 -6 -7 -8 -9
leaf_value=-0.0042666617298015843 0.036725854873657225 -0.0012699597494247429 0.0035065838973969221 -0.0018450658247970483 0.0014888522591324773 0.0069545287918299434 -0.003950444540629784 -0.006644117776304484
leaf_weight=135 10.999999999999998 32 20 68 171 20 14.999999999999998 9.9999999999999982
leaf_count=135 11 32 20 68 171 20 15 10
internal_value=0 -0.000857716 0.00174147 -0.0036279 0.00105397 0.00523056 -0.00222556 -0.00443062
internal_weight=0 471 243 228 203 40 83 145
internal_count=482 471 243 228 203 40 83 145
is_linear=0
shrinkage=0.1


Tree=24
num_leaves=6
num_cat=0
split_feature=8 7 7 7 9
split_gain=1.47974 6.19219 0.24463 0.0423334 0.0220839
threshold=1.1928182761087094 1.4037205248504396 0.8624839040220339 0.53541427574763834 3.1660230441214887
decision_type=2 2 2 2 2
left_child=1 2 3 -1 -4
right_child=-2 -3 4 -5 -6
leaf_value=-0.0039356427139136943 -0.036256224475800992 0.071760002709925177 0.0025563663381035443 -0.0014328294204553971 0.00014495088554987754
leaf_weight=160 10.999999999999998 11.999999999999998 128 117 54
leaf_count=160 11 12 128 117 54
internal_value=0 0.000846748 -0.00100719 -0.0028785 0.00184089
internal_weight=0 471 459 277 182
internal_count=482 471 459 277 182
is_linear=0
shrinkage=0.1


Tree=25
num_leaves=6
num_cat=0
split_feature=8 7 7 7 4
split_gain=1.19859 5.01568 0.19815 0.0343968 0.0123219
threshold=1.1928182761087094 1.4037205248504396 0.8624839040220339 0.6292081014691171 23.750193669441952
decision_type=2 2 2 2 2
left_child=1 2 3 -1 -4
right_child=-2 -3 4 -5 -6
leaf_value=-0.0034546465682931717 -0.03263060037385334 0.064584009225169811 -0.00031465092259976598 -0.0011534195434321122 0.0020002167476641554
leaf_weight=173 10.999999999999998 11.999999999999998 27 104 155
leaf_count=173 11 12 27 104 155
internal_value=0 0.000762074 -0.000906474 -0.00259065 0.0016568
internal_weight=0 471 459 277 182
internal_count=482 471 459 277 182
is_linear=0
shrinkage=0.1


Tree=26
num_leaves=6
num_cat=0
split_feature=8 7 7 7 33
split_gain=0.970854 4.0627 0.161136 0.0284293 0.0157801
threshold=1.1928182761087094 1.4037205248504396 0.76742972902567685 0.98210698163580012 850.81766805834525
decision_type=2 2 2 2 2
left_child=1 2 4 -4 -1
right_child=-2 -3 3 -5 -6
leaf_value=-0.002614821244067359 -0.029367538880218161 0.05812560576014221 -0.00021911114064485966 0.0019507975928051723 -0.0066825178219005466
leaf_weight=206 10.999999999999998 11.999999999999998 112 131 9.9999999999999982
leaf_count=206 11 12 112 131 10
internal_value=0 0.000685866 -0.000815826 0.000950675 -0.00280314
internal_weight=0 471 459 243 216
internal_count=482 471 459 243 216
is_linear=0
shrinkage=0.1


Tree=27
num_leaves=9
num_cat=0
split_feature=21 7 7 8 7 7 7 8
split_gain=1.02336 20.3558 12.0269 0.0980623 0.0606049 0.0428983 0.0109578 0.0102162
threshold=54.470000000000006 1.193579276272976 1.3740405015742434 0.95909309360959272 0.6292081014691171 1.0187439002356535 0.77672242822863458 0.23171299010375013
decision_type=2 2 2 2 2 2 2 2
left_child=2 3 5 4 -2 6 -1 -7
right_child=1 -3 -4 -5 -6 7 -8 -9
leaf_value=-0.0016635193291398129 -0.0028135980756689855 0.14382561307400465 -0.10270754297574361 0.0084870623797178284 0.00014698429761249255 0.0026562498934153056 0.00052941247284802239 0.0060254281852394342
leaf_weight=31 167 9.9999999999999982 11.999999999999998 9.9999999999999982 118 36 86 11.999999999999998
leaf_count=31 167 10 12 10 118 36 86 12
internal_value=0 0.00351016 -0.00604859 -0.00124629 -0.00158781 0.000981155 -5.16207e-05 0.00349854
internal_weight=0 305 177 295 285 165 117 48
internal_count=482 305 177 295 285 165 117 48
is_linear=0
shrinkage=0.1


Tree=28
num_leaves=6
num_cat=0
split_feature=22 7 32 8 7
split_gain=0.902577 3.96704 1.30033 0.130744 0.0836326
threshold=328.50000000000006 1.4037205248504396 238.34155106937223 1.0967573377528901 0.76742972902567685
decision_type=2 2 2 2 2
left_child=1 3 -2 4 -1
right_child=2 -3 -4 -5 -6
leaf_value=-0.0022914995146281801 -0.04629652270115911 0.05764537627498309 0.0047002265532501046 0.010155274905264378 0.00046956617735044605
leaf_weight=215 10.000000000000002 11.999999999999998 9.9999999999999982 10.999999999999998 224
leaf_count=215 10 12 10 11 224
internal_value=0 0.000900353 -0.0207981 -0.000612848 -0.000882664
internal_weight=0 462 20 450 439
internal_count=482 462 20 450 439
is_linear=0
shrinkage=0.1


Tree=29
num_leaves=9
num_cat=0
split_feature=26 7 7 7 7 8 4 33
split_gain=0.911661 14.3355 13.8913 0.0531345 0.0465913 0.0252649 0.013835 0.00305603
threshold=30.332031399008567 1.4037205248504396 1.1849716158271069 1.2037965661101129 0.51317924620292177 0.68104428443755838 23.750193669441952 829.61596266069898
decision_type=2 2 2 2 2 2 2 2
left_child=2 3 4 5 7 -2 -6 -1
right_child=1 -3 -4 -5 6 -7 -8 -9
leaf_value=-0.0023315304958399525 0.00031431110582818498 -0.12199101391248407 0.1044794328439121 0.0071128009785232805 -0.0022252697682812474 0.0050901415525004268 0.00049918889497229302 -0.0041432695277035239
leaf_weight=135 144 9.9999999999999982 12.999999999999998 13.999999999999998 22 11.999999999999998 122 9.9999999999999982
leaf_count=135 144 10 13 14 22 12 122 10
internal_value=0 -0.00563327 0.00335758 0.0012113 -0.00119116 0.000681683 8.29522e-05 -0.00245648
internal_weight=0 180 302 170 289 156 144 145
internal_count=482 180 302 170 289 156 144 145
is_linear=0
shrinkage=0.1


Tree=30
num_leaves=6
num_cat=0
split_feature=9 7 26 7 7
split_gain=0.776311 3.34878 0.0841904 0.06825 0.0278059
threshold=4.3955029810507584 1.4037205248504396 29.306746894923911 1.1673651252208763 1.2037965661101129
decision_type=2 2 2 2 2
left_child=1 2 3 -1 -4
right_child=-2 -3 4 -5 -6
leaf_value=-0.0013749137841237715 -0.020375912057028878 0.052929496392607689 0.00074288949508189101 -0.0094154648821462295 0.005545407890951118
leaf_weight=262 18 11.999999999999998 166 10.999999999999998 12.999999999999998
leaf_count=262 18 12 166 11 13
internal_value=0 0.000790445 -0.000593778 -0.00169889 0.00109168
internal_weight=0 464 452 273 179
internal_count=482 464 452 273 179
is_linear=0
shrinkage=0.1


Tree=31
num_leaves=9
num_cat=0
split_feature=26 7 7 8 7 25 4 33
split_gain=0.780228 12.4435 10.9911 0.0415873 0.0392594 0.0256681 0.0164363 0.0116124
threshold=30.332031399008567 1.4037205248504396 1.1849716158271069 0.69155966953555559 0.76742972902567685 27.341508729000914 23.834965605634832 850.81766805834525
decision_type=2 2 2 2 2 2 2 2
left_child=2 3 4 5 7 -2 -6 -1
right_child=1 -3 -4 -5 6 -7 -8 -9
leaf_value=-0.0015481078422569213 0.00021656609171612272 -0.11361875370144846 0.093054728725781813 0.0074217787245288496 -0.0019096587386835989 0.0036499116854919033 0.0014688168649930353 -0.0050447872304357592
leaf_weight=189 134 9.9999999999999982 12.999999999999998 9.9999999999999982 18 26 72 9.9999999999999982
leaf_count=189 134 10 13 10 18 26 72 10
internal_value=0 -0.0052114 0.00310613 0.0011655 -0.000939998 0.000774485 0.000793122 -0.00172382
internal_weight=0 180 302 170 289 160 90 199
internal_count=482 180 302 170 289 160 90 199
is_linear=0
shrinkage=0.1


Tree=32
num_leaves=9
num_cat=0
split_feature=11 7 7 26 7 7 35 11
split_gain=0.804425 2.46441 1.11424 0.106524 0.277733 0.0417831 0.0121962 0.00177497
threshold=601.91685410628656 1.1644888937126343 1.4037205248504396 29.027791559990089 1.1673651252208763 1.2037965661101129 512.16823265002427 650.72187301003771
decision_type=2 2 2 2 2 2 2 2
left_child=2 6 3 4 -1 -5 -2 -8
right_child=1 -3 -4 5 -6 -7 7 -9
leaf_value=-0.0011173245081475543 -0.0035142621689010414 0.053873481377112599 -0.034307019039988521 0.001099993541897306 -0.018101320136338472 0.0077787873335182674 -0.00014865957737828674 0.0015773108864033767
leaf_weight=259 9.9999999999999982 10.999999999999998 9.9999999999999982 148 9.9999999999999982 9.9999999999999982 13.000000000000002 10.999999999999998
leaf_count=259 10 11 10 148 10 10 13 11
internal_value=0 0.0127307 -0.00131095 -0.000538205 -0.0017487 0.0015227 -0.00058014 0.00064241
internal_weight=0 45 437 427 269 158 34 24
internal_count=482 45 437 427 269 158 34 24
is_linear=0
shrinkage=0.1


Tree=33
num_leaves=8
num_cat=0
split_feature=5 7 7 22 26 7 8
split_gain=0.709594 6.69871 3.19352 0.0575627 0.0315854 0.018532 0.0106868
threshold=7.5369873986375077e-06 1.3545158264417239 1.3375241529837947 331.94500000000005 29.306746894923911 1.1090151674265525 0.69155966953555559
decision_type=2 2 2 2 2 2 2
left_child=2 5 3 4 -1 6 -2
right_child=1 -3 -4 -5 -6 -7 -8
leaf_value=-0.0015866579874877782 -0.00022036929655988731 0.080852451954375626 -0.053196785858987516 0.0068088999763131139 0.00056773660449835014 -0.0044224209862659333 0.0031866965687368065
leaf_weight=213 116 10.999999999999998 11.999999999999998 9.9999999999999982 100 9.9999999999999982 9.9999999999999982
leaf_count=213 116 11 12 10 100 10 10
internal_value=0 0.00579222 -0.00254166 -0.000659738 -0.000898353 -0.000278824 5.00328e-05
internal_weight=0 147 335 323 313 136 126
internal_count=482 147 335 323 313 136 126
is_linear=0
shrinkage=0.1


Tree=34
num_leaves=9
num_cat=0
split_feature=26 7 7 8 7 22 6 27
split_gain=0.722821 9.58757 8.87993 0.0351261 0.028939 0.023944 0.0118296 0.00223286
threshold=30.332031399008567 1.4037205248504396 1.1849716158271069 0.69155966953555559 0.51317924620292177 328.50000000000006 55.931871755096232 48.888328885380503
decision_type=2 2 2 2 2 2 2 2
left_child=2 3 4 5 7 -2 -6 -1
right_child=1 -3 -4 -5 6 -7 -8 -9
leaf_value=-0.00085954692301035314 -0.00014167460943588061 -0.10017338946461679 0.083839419967709827 0.0063312491436954589 0.0036748221504967664 0.0043357432246781315 0.00010938224636379685 -0.0018405872880599607
leaf_weight=29 147 9.9999999999999982 12.999999999999998 9.9999999999999982 9.9999999999999982 12.999999999999998 134 116
leaf_count=29 147 10 13 10 10 13 134 116
internal_value=0 -0.00501602 0.00298968 0.000581476 -0.000647161 0.000222116 0.000356982 -0.00164438
internal_weight=0 180 302 170 289 160 144 145
internal_count=482 180 302 170 289 160 144 145
is_linear=0
shrinkage=0.1


Tree=35
num_leaves=10
num_cat=0
split_feature=11 7 22 7 7 7 8 35 11
split_gain=0.742723 2.26534 0.935742 6.64702 2.7321 0.120785 0.0240267 0.00975305 0.00133443
threshold=601.91685410628656 1.1644888937126343 201.77500000000003 1.2037965661101129 1.3545158264417239 1.1849716158271069 0.084872066146235159 512.16823265002427 650.72187301003771
decision_type=2 2 2 2 2 2 2 2 2
left_child=2 7 4 6 5 -1 -4 -2 -9
right_child=1 -3 3 -5 -6 -7 -8 8 -10
leaf_value=-0.00041135462852676135 -0.0031530284276232129 0.051678776254200122 0.0017775111378447964 -0.087336616376414905 0.049845744432373482 -0.0106174846412614 -0.0030798641346896499 -0.00012183863839779334 0.0013746912929822098
leaf_weight=344 9.9999999999999982 10.999999999999998 47 9.9999999999999982 10.999999999999998 11.999999999999998 12.999999999999998 13.000000000000002 10.999999999999998
leaf_count=344 10 11 47 10 11 12 13 13 11
internal_value=0 0.0122328 -0.00125967 -0.0118552 0.000761274 -0.000755381 0.00072508 -0.000529194 0.000564071
internal_weight=0 45 437 70 367 356 60 34 24
internal_count=482 45 437 70 367 356 60 34 24
is_linear=0
shrinkage=0.1


Tree=36
num_leaves=6
num_cat=0
split_feature=7 8 7 26 7
split_gain=0.636177 0.0994574 0.145675 0.304992 0.0369458
threshold=1.4037205248504396 1.0967573377528901 1.1849716158271069 30.690096983150472 0.8624839040220339
decision_type=2 2 2 2 2
left_child=1 2 4 -4 -1
right_child=-2 -3 3 -5 -6
leaf_value=-0.0010971729235556584 0.021005078777670862 0.0083580784810086094 -0.02185520815663039 -7.3755822247929047e-05 0.00084428539303189616
leaf_weight=276 13.999999999999998 11.999999999999998 10.000000000000002 18 152
leaf_count=276 14 12 10 18 152
internal_value=0 -0.000628357 -0.000864842 -0.00785285 -0.000407683
internal_weight=0 468 456 28 428
internal_count=482 468 456 28 428
is_linear=0
shrinkage=0.1


Tree=37
num_leaves=9
num_cat=0
split_feature=26 7 7 8 29 7 34 33
split_gain=0.639836 8.03074 7.35613 0.0396136 0.0287199 0.0210667 0.0144175 0.00911193
threshold=30.332031399008567 1.4037205248504396 1.1849716158271069 0.69155966953555559 59.089151647615012 0.76742972902567685 344.11728604472438 850.81766805834525
decision_type=2 2 2 2 2 2 2 2
left_child=2 3 5 4 -2 7 -7 -1
right_child=1 -3 -4 -5 -6 6 -8 -9
leaf_value=-0.00091581475196382219 0.00054273708792476215 -0.09180882580578327 0.076399364265111791 0.0065096197463572029 -0.0034249228425323967 0.0014488075489706327 -0.0015955932635961291 -0.0040132395713590088
leaf_weight=189 139 9.9999999999999982 12.999999999999998 9.9999999999999982 21 70 20 9.9999999999999982
leaf_count=189 139 10 13 10 21 70 20 10
internal_value=0 -0.00471931 0.00281283 0.000403607 2.19817e-05 -0.00049729 0.000772274 -0.00107146
internal_weight=0 180 302 170 160 289 90 199
internal_count=482 180 302 170 160 289 90 199
is_linear=0
shrinkage=0.1


Tree=38
num_leaves=7
num_cat=0
split_feature=7 7 26 35 8 7
split_gain=0.781406 0.156081 0.59495 0.0753491 0.026284 0.0268692
threshold=1.4037205248504396 1.1849716158271069 30.484875004856679 516.43928095212368 0.95909309360959272 0.8624839040220339
decision_type=2 2 2 2 2 2
left_child=1 4 -3 -4 5 -1
right_child=-2 2 3 -5 -6 -7
leaf_value=-0.0009275499531491236 0.023279503786138127 -0.027628670781850807 0.007718052494932303 -0.0042756229452788827 0.0044054020429030059 0.00073628473566107766
leaf_weight=275 13.999999999999998 10.000000000000002 11.000000000000002 9.9999999999999982 11.999999999999998 150
leaf_count=275 14 10 11 10 12 150
internal_value=0 -0.000696395 -0.00755304 0.00200678 -0.000209997 -0.000340314
internal_weight=0 468 31 21 437 425
internal_count=482 468 31 21 437 425
is_linear=0
shrinkage=0.1


Tree=39
num_leaves=8
num_cat=0
split_feature=7 7 26 35 7 9 4
split_gain=0.632939 0.126426 0.48191 0.0610328 0.0220627 0.0174128 0.00590331
threshold=1.4037205248504396 1.1849716158271069 30.484875004856679 516.43928095212368 0.76742972902567685 4.2937973992154195 23.342241970663654
decision_type=2 2 2 2 2 2 2
left_child=1 4 -3 -4 6 -6 -1
right_child=-2 2 3 -5 5 -7 -8
leaf_value=-0.0032744573208037769 0.020951554445283755 -0.024865804463624949 0.0069462470667944684 -0.0038480607420206072 0.00027812689728378635 0.0038082981233795487 -0.00078706546762969786
leaf_weight=9.9999999999999982 13.999999999999998 10.000000000000002 11.000000000000002 9.9999999999999982 204 14.999999999999998 208
leaf_count=10 14 10 11 10 204 15 208
internal_value=0 -0.000626756 -0.00679774 0.0018061 -0.000188997 0.000519919 -0.000901166
internal_weight=0 468 31 21 437 219 218
internal_count=482 468 31 21 437 219 218
is_linear=0
shrinkage=0.1


Tree=40
num_leaves=9
num_cat=0
split_feature=24 7 7 7 9 33 7 33
split_gain=0.602092 7.52178 3.76898 0.062474 0.199195 0.0455036 0.0156139 0.0084926
threshold=35.100342097562638 1.4037205248504396 1.3375241529837947 1.1644888937126343 2.5561071371424657 829.61596266069898 0.45173639969945073 714.55738940232652
decision_type=2 2 2 2 2 2 2 2
left_child=1 3 5 6 -5 7 -1 -2
right_child=2 -3 -4 4 -6 -7 -8 -9
leaf_value=-0.0011389466650143733 0.00062534525729100808 0.087255390286445633 -0.065315194688737394 -0.013330805217187193 0.004651639570312744 -0.0058409618806432593 0.00023373487124348337 0.003802604088559747
leaf_weight=128 53 9.9999999999999982 9.9999999999999982 14.000000000000002 10.999999999999998 10.999999999999998 235 9.9999999999999982
leaf_count=128 53 10 10 14 11 11 235 10
internal_value=0 0.0016237 -0.00769325 -0.000583301 -0.00541853 9.34967e-05 -0.000250296 0.00112967
internal_weight=0 398 84 388 25 74 363 63
internal_count=482 398 84 388 25 74 363 63
is_linear=0
shrinkage=0.1


Tree=41
num_leaves=6
num_cat=0
split_feature=8 7 7 26 22
split_gain=0.74289 2.77116 0.0836283 0.258578 0.0212127
threshold=1.1928182761087094 1.4037205248504396 1.1849716158271069 30.690096983150472 328.50000000000006
decision_type=2 2 2 2 2
left_child=1 2 4 -4 -1
right_child=-2 -3 3 -5 -6
leaf_value=-0.00043398282357774877 -0.025689338757233188 0.048039000721958776 -0.018829029202461239 0.0012267146065520745 0.0032766884251032025
leaf_weight=415 10.999999999999998 11.999999999999998 10.000000000000002 18 15.999999999999998
leaf_count=415 11 12 10 18 16
internal_value=0 0.000599963 -0.000640273 -0.00593605 -0.000296232
internal_weight=0 471 459 28 431
internal_count=482 471 459 28 431
is_linear=0
shrinkage=0.1


Tree=42
num_leaves=8
num_cat=0
split_feature=21 7 7 7 22 8 23
split_gain=0.6264 9.28792 6.24286 0.0388069 0.0326329 0.0212065 0.0175401
threshold=54.470000000000006 1.193579276272976 1.3740405015742434 1.1090151674265525 337.24000000000007 0.89453355240536403 617.79500000000019
decision_type=2 2 2 2 2 2 2
left_child=2 3 4 5 6 -2 -1
right_child=1 -3 -4 -5 -6 -7 -8
leaf_value=0.00094062711718245675 -0.00040456692699723036 0.097527014426887049 -0.074371877991749588 -0.0060365433571860196 0.0058691834891214968 0.0040740830717946996 -0.0011969561943884141
leaf_weight=85 272 9.9999999999999982 11.999999999999998 11.999999999999998 9.9999999999999982 10.999999999999998 70
leaf_count=85 272 10 12 12 10 11 70
internal_value=0 0.00274624 -0.00473223 -0.000466664 0.000332474 -0.000230485 -2.47331e-05
internal_weight=0 305 177 295 165 283 155
internal_count=482 305 177 295 165 283 155
is_linear=0
shrinkage=0.1


Tree=43
num_leaves=6
num_cat=0
split_feature=8 7 7 21 33
split_gain=0.543297 2.27646 0.0924343 0.378412 0.0192048
threshold=1.1928182761087094 1.4037205248504396 1.1849716158271069 55.845000000000006 884.54944890876823
decision_type=2 2 2 2 2
left_child=1 2 4 -4 -1
right_child=-2 -3 3 -5 -6
leaf_value=-0.00014644248392808997 -0.021968954937024554 0.043509834756453834 0.002486328759955035 -0.021775604952126743 -0.0045805092062801128
leaf_weight=421 10.999999999999998 11.999999999999998 18.000000000000004 9.9999999999999982 9.9999999999999982
leaf_count=421 11 12 18 10 10
internal_value=0 0.000513075 -0.000611023 -0.00617865 -0.000249321
internal_weight=0 471 459 28 431
internal_count=482 471 459 28 431
is_linear=0
shrinkage=0.1


Tree=44
num_leaves=9
num_cat=0
split_feature=26 25 9 9 22 4 5 5
split_gain=0.555187 2.57533 5.32711 2.47324 0.826499 0.532632 0.300707 0.28911
threshold=30.332031399008567 27.619937542591973 2.3232274765351053 3.4925655108086509 271.54000000000002 24.444451838800049 -0.0048131690927827988 1.0000000180025095e-35
decision_type=2 2 2 2 2 2 2 2
left_child=3 6 -3 4 5 -1 -2 -8
right_child=1 2 -4 -5 -6 -7 7 -9
leaf_value=-0.00097260885577674756 -0.014342130567335213 0.0018146007412320208 -0.086516203594775021 0.051521497764624662 0.029197790901234838 0.020558459353439199 0.016993693171146639 0.00075517063850434282
leaf_weight=270 11.999999999999998 18.000000000000004 10.999999999999998 9.9999999999999982 9.9999999999999982 11.999999999999998 11.999999999999998 127
leaf_count=270 12 18 11 10 10 12 12 127
internal_value=0 -0.00439606 -0.0316902 0.00262017 0.000945462 -5.63932e-05 0.000845864 0.00215706
internal_weight=0 180 29 302 292 282 151 139
internal_count=482 180 29 302 292 282 151 139
is_linear=0
shrinkage=0.1


Tree=45
num_leaves=7
num_cat=0
split_feature=11 27 7 8 7 15
split_gain=0.487955 1.69964 1.20416 0.0965383 0.0582311 0.0259042
threshold=601.91685410628656 54.648720329880113 1.4037205248504396 1.0967573377528901 1.1849716158271069 0.47891877298668845
decision_type=2 2 2 2 2 2
left_child=2 5 3 4 -1 -2
right_child=1 -3 -4 -5 -6 -7
leaf_value=-0.00017990399816053608 -0.003437582784897586 0.046273735028225932 -0.035322739109396935 0.0086246870147685221 -0.0052545689337421212 0.0020235404274181316
leaf_weight=391 15.999999999999998 9.9999999999999982 9.9999999999999982 11.999999999999998 24 19
leaf_count=391 16 10 10 12 24 19
internal_value=0 0.00991518 -0.00102101 -0.000217695 -0.000473379 -0.000472973
internal_weight=0 45 437 427 415 35
internal_count=482 45 437 427 415 35
is_linear=0
shrinkage=0.1


Tree=46
num_leaves=9
num_cat=0
split_feature=21 7 7 7 11 26 8 35
split_gain=0.530655 7.4215 4.49092 0.0272231 0.026974 0.0299437 0.0184516 0.018024
threshold=54.470000000000006 1.193579276272976 1.3740405015742434 1.1090151674265525 601.91685410628656 31.001769638849602 0.83422373914733605 483.90544437367811
decision_type=2 2 2 2 2 2 2 2
left_child=2 3 4 6 5 -1 -2 -6
right_child=1 -3 -4 -5 7 -7 -8 -9
leaf_value=-0.001770197439812667 -0.00032370633898945353 0.087251745089888588 -0.06342089821894964 -0.0050094299173603458 -0.005996845993213356 0.0016477219279060205 0.0035333531120648751 -0.0010946026849948491
leaf_weight=36 270 9.9999999999999982 11.999999999999998 11.999999999999998 9.9999999999999982 89 12.999999999999998 30
leaf_count=36 270 10 12 12 10 89 13 30
internal_value=0 0.00252766 -0.00435558 -0.00034434 -5.99176e-05 0.000663361 -0.000146527 -0.00232016
internal_weight=0 305 177 295 165 125 283 40
internal_count=482 305 177 295 165 125 283 40
is_linear=0
shrinkage=0.1


Tree=47
num_leaves=11
num_cat=0
split_feature=11 23 22 25 9 9 5 23 9 9
split_gain=0.453319 1.91349 0.926628 1.72939 0.59099 0.540788 0.333157 0.051421 0.0582648 0.0150826
threshold=567.88834999537767 593.5100000000001 201.77500000000003 27.619937542591973 4.3955029810507584 3.5483070080656502 4.0709038024999708e-06 741.4000000000002 2.405073649575574 2.6185834060580979
decision_type=2 2 2 2 2 2 2 2 2 2
left_child=2 -2 4 6 5 -1 -4 9 -9 -3
right_child=1 7 3 -5 -6 -7 -8 8 -10 -11
leaf_value=0.00018723528993213188 0.048030711874889678 -0.0057286805071105999 -0.017770420474251019 -0.046688342036213727 -0.01871670993976295 0.01298242973862216 0.001051420603385743 0.0081819720431947334 -0.00096473948098719131 -0.00078047388233244426
leaf_weight=308 9.9999999999999982 11.000000000000002 12.999999999999998 11.999999999999998 14.999999999999998 37 34 13.000000000000002 14.999999999999998 13.999999999999998
leaf_count=308 10 11 13 12 15 37 34 13 15 14
internal_value=0 0.00790888 -0.00118916 -0.0128055 0.000714633 0.00155947 -0.00415462 0.000338725 0.00328195 -0.00295768
internal_weight=0 63 419 59 360 345 47 53 28 25
internal_count=482 63 419 59 360 345 47 53 28 25
is_linear=0
shrinkage=0.1


Tree=48
num_leaves=6
num_cat=0
split_feature=7 7 21 9 9
split_gain=0.485911 0.109675 0.433658 0.0280246 0.0296168
threshold=1.3740405015742434 1.1849716158271069 56.435000000000009 4.3955029810507584 3.2970779756868147
decision_type=2 2 2 2 2
left_child=1 3 -3 4 -1
right_child=-2 2 -4 -5 -6
leaf_value=-1.1856164317333508e-05 0.016605685826610119 0.0026016345234691264 -0.023371013514697555 0.0040292202867567538 -0.0023326397900326318
leaf_weight=357 17 18.000000000000004 9.9999999999999982 14.999999999999998 65
leaf_count=357 17 18 10 15 65
internal_value=0 -0.00060709 -0.00667431 -0.000218343 -0.000369323
internal_weight=0 465 28 437 422
internal_count=482 465 28 437 422
is_linear=0
shrinkage=0.1


Tree=49
num_leaves=9
num_cat=0
split_feature=21 7 7 9 27 16 21 22
split_gain=0.475956 6.05788 3.7068 0.0376345 0.0224513 0.0204743 0.02004 0.0112773
threshold=54.470000000000006 1.193579276272976 1.3740405015742434 4.5248259034148033 37.232441734791493 0.029040000000000003 60.405000000000008 217.79000000000005
decision_type=2 2 2 2 2 2 2 2
left_child=2 5 3 4 -1 6 -2 -7
right_child=1 -3 -4 -5 -6 7 -8 -9
leaf_value=0.0016004234623895692 -0.0048974324732129889 0.07893968328833581 -0.05778668423493704 0.0054285417141562162 -0.0012807760533911936 0.00050274920650865949 -0.00051101822439760533 0.0033092128785534042
leaf_weight=35 10.999999999999998 9.9999999999999982 11.999999999999998 10.999999999999998 119 70 196 18
leaf_count=35 11 10 12 11 119 70 196 18
internal_value=0 0.00239385 -0.00412499 -0.000222325 -0.000625958 -0.000200926 -0.000744113 0.0010768
internal_weight=0 305 177 165 154 295 207 88
internal_count=482 305 177 165 154 295 207 88
is_linear=0
shrinkage=0.1


Tree=50
num_leaves=7
num_cat=0
split_feature=7 7 21 8 2 11
split_gain=0.491589 0.138525 0.476524 0.0241063 0.046976 0.0129039
threshold=1.3740405015742434 1.1849716158271069 56.435000000000009 0.80460291873703582 4.5000000000000009 567.88834999537767
decision_type=2 2 2 2 2 2
left_child=1 3 -3 5 -5 -1
right_child=-2 2 -4 4 -6 -7
leaf_value=-0.00013241970324113389 0.016702420395963334 0.0022943129581916659 -0.02493175655603409 -0.0013775855980136175 0.0080924427090212706 -0.0018305689515603031
leaf_weight=365 17 18.000000000000004 9.9999999999999982 11.000000000000002 9.9999999999999982 51
leaf_count=365 17 18 10 11 10 51
internal_value=0 -0.000610626 -0.00742928 -0.000173733 0.00313195 -0.000340606
internal_weight=0 465 28 437 21 416
internal_count=482 465 28 437 21 416
is_linear=0
shrinkage=0.1


Tree=51
num_leaves=8
num_cat=0
split_feature=11 7 7 8 7 27 4
split_gain=0.421321 1.45722 1.03873 0.0742597 0.0562012 0.00819314 0.00371109
threshold=601.91685410628656 1.1644888937126343 1.4037205248504396 1.0967573377528901 1.1849716158271069 53.552397366026192 23.889372159397915
decision_type=2 2 2 2 2 2 2
left_child=2 5 3 4 -1 6 -2
right_child=1 -3 -4 -5 -6 -7 -8
leaf_value=-0.00013857777905747201 0.0014511025440879163 0.040850664031776514 -0.032807183861732481 0.0075526097595381252 -0.0051240112421510279 -0.0034271211555460465 -0.0010711715307219752
leaf_weight=391 10.000000000000002 10.999999999999998 9.9999999999999982 11.999999999999998 24 9.9999999999999982 13.999999999999998
leaf_count=391 10 11 10 12 24 10 14
internal_value=0 0.00921335 -0.000948743 -0.000202644 -0.000426892 -0.00102225 -2.0224e-05
internal_weight=0 45 437 427 415 34 24
internal_count=482 45 437 427 415 34 24
is_linear=0
shrinkage=0.1


Tree=52
num_leaves=7
num_cat=0
split_feature=7 7 21 24 9 33
split_gain=0.456271 0.121209 0.354043 0.0227122 0.0203242 0.0140712
threshold=1.3740405015742434 1.1849716158271069 56.435000000000009 36.681614629002503 4.2937973992154195 709.07014000339825
decision_type=2 2 2 2 2 2
left_child=1 3 -3 4 -1 -5
right_child=-2 2 -4 5 -6 -7
leaf_value=-0.00053803902287728267 0.016091246815288767 0.0014147719340851632 -0.022052946127951147 0.00070177266745650698 0.0029949444483089098 0.0048880135568861779
leaf_weight=386 17 18.000000000000004 9.9999999999999982 21 17 12.999999999999998
leaf_count=386 17 18 10 21 17 13
internal_value=0 -0.000588282 -0.00696656 -0.000179606 -0.000389005 0.00230239
internal_weight=0 465 28 437 403 34
internal_count=482 465 28 437 403 34
is_linear=0
shrinkage=0.1


Tree=53
num_leaves=9
num_cat=0
split_feature=21 7 7 11 7 35 35 20
split_gain=0.446914 5.15268 3.28846 0.0267867 0.0323682 0.0276039 0.0214476 0.0146202
threshold=54.470000000000006 1.193579276272976 1.3740405015742434 567.88834999537767 1.0187439002356535 445.08596439611762 617.88947305761337 29.985000000000003
decision_type=2 2 2 2 2 2 2 2
left_child=2 6 3 4 -1 -5 7 -2
right_child=1 -3 -4 5 -6 -7 -8 -9
leaf_value=-0.00044556581142387588 -0.00012516772194145549 0.072915249615907674 -0.054540190597375242 -0.0065894855948334385 0.0034541102329967545 -0.001001222459138565 0.0037466271131831618 -0.0040187107911333437
leaf_weight=80 271 9.9999999999999982 11.999999999999998 10.999999999999998 29 45 13.999999999999998 9.9999999999999982
leaf_count=80 271 10 12 11 29 45 14 10
internal_value=0 0.00231966 -0.00399716 -0.000321306 0.000591963 -0.00209892 -7.3406e-05 -0.000263728
internal_weight=0 305 177 165 109 56 295 281
internal_count=482 305 177 165 109 56 295 281
is_linear=0
shrinkage=0.1


Tree=54
num_leaves=6
num_cat=0
split_feature=7 7 21 8 9
split_gain=0.461742 0.153437 0.348812 0.0210399 0.013453
threshold=1.3740405015742434 1.193579276272976 49.125000000000007 1.0967573377528901 2.9505210460244213
decision_type=2 2 2 2 2
left_child=1 3 -3 4 -1
right_child=-2 2 -4 -5 -6
leaf_value=1.9682594345684982e-05 0.016187448010725133 0.0027514457542565647 -0.022536657499149446 0.0043478725571185354 -0.0012894310622851284
leaf_weight=330 17 12.000000000000002 9.9999999999999982 9.9999999999999982 103
leaf_count=330 17 12 10 10 103
internal_value=0 -0.000591799 -0.00874315 -0.000186992 -0.000291723
internal_weight=0 465 22 443 433
internal_count=482 465 22 443 433
is_linear=0
shrinkage=0.1


Tree=55
num_leaves=7
num_cat=0
split_feature=7 7 21 24 9 7
split_gain=0.374011 0.12433 0.369496 0.0165977 0.0160454 0.0123346
threshold=1.3740405015742434 1.1849716158271069 56.435000000000009 36.681614629002503 4.2937973992154195 0.9958207711095689
decision_type=2 2 2 2 2 2
left_child=1 3 -3 4 -1 -5
right_child=-2 2 -4 5 -6 -7
leaf_value=-0.0004301421011226111 0.014568703665452846 0.0015698048027439249 -0.022404588421341035 0.00068582984002047028 0.002708986746695112 0.0047572185581719337
leaf_weight=386 17 18.000000000000004 9.9999999999999982 23 17 10.999999999999998
leaf_count=386 17 18 10 23 17 11
internal_value=0 -0.000532619 -0.00699248 -0.000118715 -0.000297722 0.00200304
internal_weight=0 465 28 437 403 34
internal_count=482 465 28 437 403 34
is_linear=0
shrinkage=0.1


Tree=56
num_leaves=8
num_cat=0
split_feature=26 7 7 7 8 9 7
split_gain=0.392814 5.44653 3.91481 0.0830658 0.0442546 0.028539 0.0136491
threshold=30.332031399008567 1.4037205248504396 1.1849716158271069 1.327409909442999 0.64492759865560112 3.2970779756868147 0.94386854318877578
decision_type=2 2 2 2 2 2 2
left_child=2 3 5 4 -2 6 -1
right_child=1 -3 -4 -5 -6 -7 -8
leaf_value=-0.00031463237327829826 -0.00063006866465231508 -0.075419037938117994 0.055885995265382987 0.0085420772821332026 0.0050793824209055555 -0.004615067930093834 0.0015264184189228607
leaf_weight=226 143 9.9999999999999982 12.999999999999998 11.999999999999998 14.999999999999998 13.999999999999998 49
leaf_count=226 143 10 13 12 15 14 49
internal_value=0 -0.00369775 0.00220396 0.000521152 -8.80322e-05 -0.000210807 1.34094e-05
internal_weight=0 180 302 170 158 289 275
internal_count=482 180 302 170 158 289 275
is_linear=0
shrinkage=0.1


Tree=57
num_leaves=10
num_cat=0
split_feature=11 24 22 25 8 5 5 30 24
split_gain=0.374681 1.29051 0.64565 1.34525 0.465419 0.365653 0.257129 0.0639744 0.0303138
threshold=601.91685410628656 30.361549806846302 201.77500000000003 27.619937542591973 1.0967573377528901 7.6338376224782695e-06 4.0709038024999708e-06 72.41838721501513 32.240849387950526
decision_type=2 2 2 2 2 2 2 2 2
left_child=2 -2 4 6 5 -1 -4 8 -3
right_child=1 7 3 -5 -6 -7 -8 -9 -10
leaf_value=-0.00045202241542875558 0.038461076726459646 -0.0018065474741160864 -0.015194118603332236 -0.040173121161448465 -0.01779911439292706 0.0068505268799634259 0.00036551453032933009 -0.0068172120819023508 0.0056483361753635114
leaf_weight=261 10.999999999999998 10.000000000000002 13.999999999999998 11.999999999999998 12.999999999999998 93 44 11.999999999999998 11.999999999999998
leaf_count=261 11 10 14 12 13 93 44 12 12
internal_value=0 0.00868844 -0.000894691 -0.00969589 0.000784013 0.00146644 -0.00339026 -0.000943882 0.00225975
internal_weight=0 45 437 70 367 354 58 34 22
internal_count=482 45 437 70 367 354 58 34 22
is_linear=0
shrinkage=0.1


Tree=58
num_leaves=7
num_cat=0
split_feature=7 7 21 24 22 11
split_gain=0.470037 0.150835 0.398193 0.0244638 0.0213653 0.0203666
threshold=1.3740405015742434 1.1849716158271069 56.435000000000009 36.681614629002503 170.35500000000005 601.91685410628656
decision_type=2 2 2 2 2 2
left_child=1 3 -3 5 -5 -1
right_child=-2 2 -4 4 -6 -7
leaf_value=-0.00013587109603827418 0.016332199643639959 0.0011762787342175013 -0.023711682306602599 0.00081661881828646676 0.0063182067731395375 -0.0026283281770398998
leaf_weight=367 17 18.000000000000004 9.9999999999999982 24 9.9999999999999982 36
leaf_count=367 17 18 10 24 10 36
internal_value=0 -0.000597091 -0.00771228 -0.000141198 0.00243473 -0.000358522
internal_weight=0 465 28 437 34 403
internal_count=482 465 28 437 34 403
is_linear=0
shrinkage=0.1


Tree=59
num_leaves=7
num_cat=0
split_feature=7 7 21 24 33 13
split_gain=0.38073 0.122176 0.322536 0.0198157 0.020512 0.0168339
threshold=1.3740405015742434 1.1849716158271069 56.435000000000009 36.681614629002503 709.07014000339825 23.361111111111118
decision_type=2 2 2 2 2 2
left_child=1 3 -3 5 -5 -1
right_child=-2 2 -4 4 -6 -7
leaf_value=-0.0024183725738631829 0.014698978995575623 0.0010586509894993568 -0.021340514160692693 0.00025872660335153342 0.0053130438282655984 -0.00012335059344600861
leaf_weight=35 17 18.000000000000004 9.9999999999999982 21 12.999999999999998 368
leaf_count=35 17 18 10 21 13 368
internal_value=0 -0.000537382 -0.00694105 -0.000127078 0.00219126 -0.00032267
internal_weight=0 465 28 437 34 403
internal_count=482 465 28 437 34 403
is_linear=0
shrinkage=0.1


Tree=60
num_leaves=10
num_cat=0
split_feature=26 9 25 9 22 4 22 11 26
split_gain=0.352089 1.41674 1.34721 3.32351 0.473059 0.290758 0.232863 0.290886 0.209732
threshold=30.332031399008567 3.4925655108086509 27.619937542591973 2.3232274765351053 271.54000000000002 24.444451838800049 285.25000000000006 446.09083056276785 38.528582390861466
decision_type=2 2 2 2 2 2 2 2 2
left_child=1 4 6 -4 5 -1 8 -8 -2
right_child=2 -3 3 -5 -6 -7 7 -9 -10
leaf_value=-0.0006158151672490123 -0.0001329624945729171 0.039097741600126031 0.0032223446682716401 -0.066547046728770848 0.022193331308662894 0.015292264575449131 -0.00030877068638801569 0.022377013681689279 -0.014575637878574941
leaf_weight=270 117 9.9999999999999982 18.000000000000004 10.999999999999998 9.9999999999999982 11.999999999999998 13.000000000000002 9.9999999999999982 10.999999999999998
leaf_count=270 117 10 18 11 10 12 13 10 11
internal_value=0 0.00208658 -0.00350082 -0.0232419 0.000819077 6.11244e-05 0.000290513 0.00955461 -0.00137413
internal_weight=0 302 180 29 292 282 151 23 128
internal_count=482 302 180 29 292 282 151 23 128
is_linear=0
shrinkage=0.1


Tree=61
num_leaves=5
num_cat=0
split_feature=7 7 8 7
split_gain=0.408536 0.112813 0.0404158 0.0312006
threshold=1.3740405015742434 1.2037965661101129 1.0967573377528901 1.1849716158271069
decision_type=2 2 2 2
left_child=1 2 3 -1
right_child=-2 -3 -4 -5
leaf_value=-0.00029090786088898176 0.015226279199123383 -0.0093971630691417635 0.0057048807767304506 -0.0054609636776149278
leaf_weight=428 17 13.999999999999998 10.999999999999998 11.999999999999998
leaf_count=428 17 14 11 12
internal_value=0 -0.00055666 -0.000282232 -0.000431909
internal_weight=0 465 451 440
internal_count=482 465 451 440
is_linear=0
shrinkage=0.1


Tree=62
num_leaves=9
num_cat=0
split_feature=21 9 25 9 4 22 26 21
split_gain=0.355061 1.79379 0.919541 1.54363 0.263831 0.23022 0.163587 0.0745429
threshold=54.470000000000006 3.0771780796433963 27.619937542591973 2.3232274765351053 24.444452167302597 285.25000000000006 38.528582390861466 61.410000000000004
decision_type=2 2 2 2 2 2 2 2
left_child=2 4 5 -4 7 6 -1 -2
right_child=1 -3 3 -5 -6 -7 -8 -9
leaf_value=-0.00047005518401796323 -0.0054174931860028735 0.033632753438809337 0.0036742967261488959 -0.039601444831008421 0.014719822816550732 0.010816311649978162 -0.013230048657648943 0.00011443004435691309
leaf_weight=116 27 17 15.999999999999998 17 11.999999999999998 17 10.999999999999998 249
leaf_count=116 27 17 16 17 12 17 11 249
internal_value=0 0.00206759 -0.0035628 -0.0186193 0.00020437 -0.000112359 -0.00157525 -0.000426736
internal_weight=0 305 177 33 288 144 127 276
internal_count=482 305 177 33 288 144 127 276
is_linear=0
shrinkage=0.1


Tree=63
num_leaves=9
num_cat=0
split_feature=11 9 22 12 8 13 11 11
split_gain=0.31772 0.981701 0.547169 0.87504 0.441529 0.26967 0.266073 0.0579597
threshold=601.91685410628656 3.0771780796433963 201.77500000000003 1.5000000000000002 1.0967573377528901 23.416666666666671 561.35884639646224 645.73290081417292
decision_type=2 2 2 2 2 2 2 2
left_child=2 7 4 6 5 -1 -4 -2
right_child=1 -3 3 -5 -6 -7 -8 -9
leaf_value=0.0095892629172239039 -0.004731650976464153 0.032494229753501712 0.001142374364315488 -0.0279294554842636 -0.017378419666336135 0.00045753847005460034 -0.01700764808105305 0.0036849796806927774
leaf_weight=36 18 11.999999999999998 42 18 12.999999999999998 318 9.9999999999999982 14.999999999999998
leaf_count=36 18 12 42 18 13 318 10 15
internal_value=0 0.00800079 -0.00082388 -0.0089261 0.000721502 0.00138619 -0.00234801 -0.00090591
internal_weight=0 45 437 70 367 354 52 33
internal_count=482 45 437 70 367 354 52 33
is_linear=0
shrinkage=0.1


Tree=64
num_leaves=7
num_cat=0
split_feature=7 7 21 11 35 27
split_gain=0.380755 0.0666037 0.260033 0.0237165 0.03047 0.0235827
threshold=1.3740405015742434 1.193579276272976 49.125000000000007 601.91685410628656 417.83275126037756 51.192973071930354
decision_type=2 2 2 2 2 2
left_child=1 3 -3 4 -1 -5
right_child=-2 2 -4 5 -6 -7
leaf_value=-0.0005121399856036562 0.014699449258692125 0.0040166981751099213 -0.01781737801618874 -0.00083635881310328841 0.0015734767929825467 -0.0061247155500146061
leaf_weight=316 17 12.000000000000002 9.9999999999999982 24 90 12.999999999999998
leaf_count=316 17 12 10 24 90 13
internal_value=0 -0.000537399 -0.00590788 -0.000270694 -4.98111e-05 -0.00269443
internal_weight=0 465 22 443 406 37
internal_count=482 465 22 443 406 37
is_linear=0
shrinkage=0.1


Tree=65
num_leaves=6
num_cat=0
split_feature=7 8 7 21 9
split_gain=0.308411 0.0613597 0.103844 0.138451 0.026406
threshold=1.3740405015742434 1.0967573377528901 1.193579276272976 49.125000000000007 3.1660230441214887
decision_type=2 2 2 2 2
left_child=1 2 4 -4 -1
right_child=-2 -3 3 -5 -6
leaf_value=5.1986371170451728e-05 0.0132295037893688 0.0065742089723547295 0.00060472102835774401 -0.016035640183836224 -0.0018805191735737027
leaf_weight=344 17 11.999999999999998 10.000000000000002 9.9999999999999982 89
leaf_count=344 17 12 10 10 89
internal_value=0 -0.000483659 -0.000670623 -0.00771546 -0.000345226
internal_weight=0 465 453 20 433
internal_count=482 465 453 20 433
is_linear=0
shrinkage=0.1


Tree=66
num_leaves=6
num_cat=0
split_feature=22 7 15 7 8
split_gain=0.291486 1.48591 0.49599 0.110284 0.0271878
threshold=316.93000000000006 1.3740405015742434 0.49812349945577367 1.2037965661101129 0.80460291873703582
decision_type=2 2 2 2 2
left_child=1 3 -2 4 -1
right_child=2 -3 -4 -5 -6
leaf_value=-0.00042076024399777284 -0.027729110983200363 0.031505821545918786 0.0018938585453165267 -0.0099515086738392721 0.0031127244563084909
leaf_weight=409 10.000000000000002 14.999999999999998 12.999999999999998 11.999999999999998 23
leaf_count=409 10 15 13 12 23
internal_value=0 0.000550481 -0.0109857 -0.000495307 -0.000232635
internal_weight=0 459 23 444 432
internal_count=482 459 23 444 432
is_linear=0
shrinkage=0.1


Tree=67
num_leaves=6
num_cat=0
split_feature=8 7 7 21 7
split_gain=0.311612 1.25755 0.0715975 0.115018 0.0258347
threshold=1.0967573377528901 1.3740405015742434 1.193579276272976 49.125000000000007 0.98210698163580012
decision_type=2 2 2 2 2
left_child=1 2 4 -4 -1
right_child=-2 -3 3 -5 -6
leaf_value=-0.00067309276203946031 -0.014700860313938134 0.028926574389139811 0.0012303312402218577 -0.013936609043739737 0.0011233728760243877
leaf_weight=327 13.999999999999998 14.999999999999998 10.000000000000002 9.9999999999999982 106
leaf_count=327 14 15 10 10 106
internal_value=0 0.000439769 -0.000503502 -0.00635314 -0.000233311
internal_weight=0 468 453 20 433
internal_count=482 468 453 20 433
is_linear=0
shrinkage=0.1


Tree=68
num_leaves=9
num_cat=0
split_feature=21 7 7 25 26 19 35 20
split_gain=0.29696 3.50275 3.003 0.0664177 0.0387047 0.025884 0.0254016 0.0196952
threshold=54.470000000000006 1.193579276272976 1.3740405015742434 27.475093600072451 31.089954835213522 0.029040000000000003 617.88947305761337 29.985000000000003
decision_type=2 2 2 2 2 2 2 2
left_child=2 6 3 4 -1 -5 7 -2
right_child=1 -3 -4 5 -6 -7 -8 -9
leaf_value=-0.0042997780348135476 -0.00012850648411777304 0.06009660884737969 -0.051557779684662824 0.0075228415308326163 0.00012200292690751861 0.0014263891507513247 0.0040750679102659762 -0.0046475758985616272
leaf_weight=24 271 9.9999999999999982 11.999999999999998 15 113 13 13.999999999999998 9.9999999999999982
leaf_count=24 271 10 12 15 113 13 14 10
internal_value=0 0.00189087 -0.00325828 0.000254408 -0.000652616 0.00469235 -8.22036e-05 -0.000289327
internal_weight=0 305 177 165 137 28 295 281
internal_count=482 305 177 165 137 28 295 281
is_linear=0
shrinkage=0.1


Tree=69
num_leaves=8
num_cat=0
split_feature=30 7 7 8 33 4 11
split_gain=0.295949 1.60566 1.57672 0.0860431 0.0368924 0.0117222 0.00138254
threshold=217.40297085373717 1.3740405015742434 1.1673651252208763 1.0967573377528901 884.54944890876823 24.444450295439193 239.77368222065829
decision_type=2 2 2 2 2 2 2
left_child=1 3 5 4 -1 6 -2
right_child=2 -3 -4 -5 -6 -7 -8
leaf_value=-0.0001764958161666048 0.0001352358868795515 0.034362685254641943 -0.042714634658768777 0.0090505854226648804 -0.0060534324835647239 -0.0033491141232661909 0.0014277429622597993
leaf_weight=369 48 13.999999999999998 9.9999999999999982 9.9999999999999982 10.999999999999998 9.9999999999999982 9.9999999999999982
leaf_count=369 48 14 10 10 11 10 10
internal_value=0 0.00108878 -0.00563934 -0.000105664 -0.000346618 -0.000187094 0.000358082
internal_weight=0 404 78 390 380 68 58
internal_count=482 404 78 390 380 68 58
is_linear=0
shrinkage=0.1


Tree=70
num_leaves=5
num_cat=0
split_feature=4 7 8 5
split_gain=0.271293 0.453644 0.0511061 0.0467664
threshold=23.333338280370992 1.5092330446776852 1.0967573377528901 0.0023151710202284504
decision_type=2 2 2 2
left_child=-1 2 3 -2
right_child=1 -3 -4 -5
leaf_value=-0.015524210103268904 9.0548204092442573e-05 0.021434154510498047 0.0063459625467658046 -0.0031825726315181952
leaf_weight=10.999999999999998 400 9.9999999999999982 11.999999999999998 49
leaf_count=11 400 10 12 49
internal_value=0 0.000362561 -9.45233e-05 -0.000266652
internal_weight=0 471 461 449
internal_count=482 471 461 449
is_linear=0
shrinkage=0.1


Tree=71
num_leaves=6
num_cat=0
split_feature=8 7 7 20 7
split_gain=0.301876 0.901472 0.0752683 0.213719 0.027165
threshold=1.0967573377528901 1.3740405015742434 1.1849716158271069 30.985000000000003 0.98210698163580012
decision_type=2 2 2 2 2
left_child=1 2 4 -4 -1
right_child=-2 -3 3 -5 -6
leaf_value=-0.00049702058068657471 -0.014469382802989067 0.024551699260870617 -0.017023170031607148 0.0018500315134103102 0.0013792359075001281
leaf_weight=327 13.999999999999998 14.999999999999998 10.000000000000002 14.999999999999998 101
leaf_count=327 14 15 10 15 101
internal_value=0 0.000432845 -0.000365793 -0.00569925 -5.42591e-05
internal_weight=0 468 453 25 428
internal_count=482 468 453 25 428
is_linear=0
shrinkage=0.1


Tree=72
num_leaves=9
num_cat=0
split_feature=26 7 7 25 2 11 4 20
split_gain=0.281861 4.89741 2.61056 0.0664036 0.0705788 0.0388998 0.0198132 0.0137296
threshold=29.220449234062169 1.4037205248504396 1.1849716158271069 27.292307322806092 4.5000000000000009 601.91685410628656 24.444451838800049 28.855000000000004
decision_type=2 2 2 2 2 2 2 2
left_child=2 3 6 5 -5 -2 7 -1
right_child=1 -3 -4 4 -6 -7 -8 -9
leaf_value=0.00037611126600197754 0.00059421937029551853 -0.071057421863079076 0.04583808484558876 -8.9616660261526704e-05 0.0079288257042998862 -0.0031296100174831986 -0.0040414983018611872 -0.0020115053539888727
leaf_weight=223 116 9.9999999999999982 12.999999999999998 21 23 37 11.999999999999998 27
leaf_count=223 116 10 13 21 23 37 12 27
internal_value=0 -0.00278724 0.00209803 0.000678248 0.00410184 -0.000306315 -7.22741e-05 0.000118249
internal_weight=0 207 275 197 44 153 262 250
internal_count=482 207 275 197 44 153 262 250
is_linear=0
shrinkage=0.1


Tree=73
num_leaves=8
num_cat=0
split_feature=11 7 7 26 7 7 24
split_gain=0.241112 1.1715 0.921692 0.0702031 0.352198 0.082332 0.0154663
threshold=601.91685410628656 1.4037205248504396 1.1644888937126343 30.484875004856679 1.1849716158271069 1.0618883980326943 31.532663008477119
decision_type=2 2 2 2 2 2 2
left_child=1 3 6 4 -1 -5 -2
right_child=2 -3 -4 5 -6 -7 -8
leaf_value=-0.00012337153325367174 -0.0034327580862736798 -0.034551082551479338 0.032130910930308426 0.00078481996857706195 -0.019211143124848604 0.0071883021043613552 0.00084027284174226224
leaf_weight=290 15.999999999999998 9.9999999999999982 10.999999999999998 102 9.9999999999999982 25 18
leaf_count=290 16 10 11 102 10 25 18
internal_value=0 -0.000717714 0.0069698 7.4637e-05 -0.000759631 0.00204535 -0.00117057
internal_weight=0 437 45 427 300 127 34
internal_count=482 437 45 427 300 127 34
is_linear=0
shrinkage=0.1


Tree=74
num_leaves=9
num_cat=0
split_feature=21 7 7 25 11 35 21 23
split_gain=0.253985 2.66898 2.31591 0.0432424 0.0288201 0.0251607 0.0155558 0.0128169
threshold=54.470000000000006 1.193579276272976 1.3740405015742434 27.475093600072451 601.91685410628656 617.88947305761337 58.095000000000006 617.79500000000019
decision_type=2 2 2 2 2 2 2 2
left_child=2 5 3 4 -1 6 -2 -5
right_child=1 -3 -4 7 -6 -7 -8 -9
leaf_value=0.00022183852831039985 -0.0034290073449873104 0.052556880861520772 -0.045428920164704324 0.005373390710241544 -0.0030448438580434243 0.004163908123155125 -9.3693275133030984e-06 0.00099263050572269353
leaf_weight=100 13.999999999999998 9.9999999999999982 11.999999999999998 17.000000000000004 37 13.999999999999998 267 10.999999999999998
leaf_count=100 14 10 12 17 37 14 267 11
internal_value=0 0.00174871 -0.00301331 7.14619e-05 -0.000660404 2.63966e-05 -0.000179743 0.00365238
internal_weight=0 305 177 165 137 295 281 28
internal_count=482 305 177 165 137 295 281 28
is_linear=0
shrinkage=0.1


Tree=75
num_leaves=8
num_cat=0
split_feature=30 7 7 33 11 4 1
split_gain=0.235071 1.4311 1.25535 0.0395934 0.0276088 0.00694483 0.000978156
threshold=217.40297085373717 1.3740405015742434 1.1673651252208763 884.54944890876823 601.91685410628656 24.444450295439193 4.5000000000000009
decision_type=2 2 2 2 2 2 2
left_child=1 3 5 4 -1 6 -2
right_child=2 -3 -4 -5 -6 -7 -8
leaf_value=0.00031161800846364488 -0.00064108688849955802 0.03238363340497017 -0.038107777014374733 -0.0060715837742794654 -0.0024362325289985168 -0.0025948162516579035 0.00044608323679919224
leaf_weight=338 9.9999999999999982 13.999999999999998 9.9999999999999982 10.999999999999998 41 9.9999999999999982 48
leaf_count=338 10 14 10 11 41 10 48
internal_value=0 0.000970358 -0.00502596 -0.000157298 1.43571e-05 -0.000160986 0.00025864
internal_weight=0 404 78 390 379 68 58
internal_count=482 404 78 390 379 68 58
is_linear=0
shrinkage=0.1


Tree=76
num_leaves=8
num_cat=0
split_feature=26 7 7 8 25 9 4
split_gain=0.223496 3.48323 2.00983 0.0586308 0.0489778 0.0335474 0.0223267
threshold=29.220449234062169 1.4037205248504396 1.1849716158271069 0.83422373914733605 27.292307322806092 3.2970779756868147 24.444451838800049
decision_type=2 2 2 2 2 2 2
left_child=2 3 5 4 -2 6 -1
right_child=1 -3 -4 -5 -6 -7 -8
leaf_value=0.00039044008751499323 -0.00080247517463515137 -0.060057619512081155 0.040247133116309459 0.0079008767195045942 0.0031442019656242343 -0.0057164727523922919 -0.0042164434424855493
leaf_weight=241 147 9.9999999999999982 12.999999999999998 9.9999999999999982 40 9.9999999999999982 10.999999999999998
leaf_count=241 147 10 13 10 40 10 11
internal_value=0 -0.00248195 0.00186823 0.000440675 4.17338e-05 -3.6067e-05 0.000189346
internal_weight=0 207 275 197 187 262 252
internal_count=482 207 275 197 187 262 252
is_linear=0
shrinkage=0.1


Tree=77
num_leaves=8
num_cat=0
split_feature=11 23 7 26 7 8 11
split_gain=0.242743 0.823703 0.795462 0.0581072 0.454583 0.0648181 0.0565152
threshold=601.91685410628656 644.55000000000007 1.4037205248504396 30.484875004856679 1.1849716158271069 0.69155966953555559 645.73290081417292
decision_type=2 2 2 2 2 2 2
left_child=2 -2 3 4 -1 -5 -3
right_child=1 6 -4 5 -6 -7 -8
leaf_value=-0.00010337713696885502 0.030779372985390102 -0.0050264900928596035 -0.028599514663219451 0.001065221517404634 -0.021788822300732136 0.0094531942834146319 0.0031417015325536746
leaf_weight=290 10.999999999999998 15.999999999999998 9.9999999999999982 117 9.9999999999999982 9.9999999999999982 18
leaf_count=290 11 16 10 117 10 10 18
internal_value=0 0.00699333 -0.000720137 -6.72242e-05 -0.000826225 0.00172569 -0.000702153
internal_weight=0 45 437 427 300 127 34
internal_count=482 45 437 427 300 127 34
is_linear=0
shrinkage=0.1


Tree=78
num_leaves=5
num_cat=0
split_feature=7 7 8 7
split_gain=0.224687 0.103605 0.0286067 0.0288713
threshold=1.3740405015742434 1.2037965661101129 1.0967573377528901 1.1849716158271069
decision_type=2 2 2 2
left_child=1 2 3 -1
right_child=-2 -3 -4 -5
leaf_value=-0.00014012182206226209 0.011291915572741453 -0.0088848778578851911 0.0048872078006917778 -0.005113451772679886
leaf_weight=428 17 13.999999999999998 10.999999999999998 11.999999999999998
leaf_count=428 17 14 11 12
internal_value=0 -0.000412823 -0.000149832 -0.000275758
internal_weight=0 465 451 440
internal_count=482 465 451 440
is_linear=0
shrinkage=0.1


Tree=79
num_leaves=9
num_cat=0
split_feature=25 7 7 29 22 7 9 1
split_gain=0.205271 1.83447 1.20719 0.0271014 0.0286248 0.0251873 0.00592875 0.00152528
threshold=32.210983444288608 0.81629391209062729 1.4037205248504396 33.387633473777917 267.92000000000002 1.1849716158271069 1.4906886863801165 4.5000000000000009
decision_type=2 2 2 2 2 2 2 2
left_child=2 6 3 4 -1 -5 7 -2
right_child=1 -3 -4 5 -6 -7 -8 -9
leaf_value=0.00069570227497024468 -0.00062961724979686555 0.0424083624585447 -0.033931235969066623 -0.00037074904676232185 0.0065768891433253887 -0.0037652686684547612 0.002035814189972977 8.166156550718721e-05
leaf_weight=48 64 10.999999999999998 10.999999999999998 245 9.9999999999999982 24 11.999999999999998 57
leaf_count=48 64 11 11 245 10 24 12 57
internal_value=0 0.00316167 -0.00134699 -0.000250879 0.0017097 -0.000673606 -8.42934e-05 -0.000294552
internal_weight=0 144 338 327 58 269 133 121
internal_count=482 144 338 327 58 269 133 121
is_linear=0
shrinkage=0.1


end of trees

feature_importances:
Equipment_Electric_Power_(kWh)=293
DHW_Heating_(kWh)=37
Cooling_Load_(kWh)=26
Solar_Generation_(W/kW)=25
Outdoor_Relative_Humidity_(%)=23
24h_Outdoor_Drybulb_Temperature_(C)=22
Diffuse_Solar_Radiation_(W/m2)=19
6h_Direct_Solar_Radiation_(W/m2)=17
Indoor_Temperature_(C)=14
12h_Outdoor_Drybulb_Temperature_(C)=11
24h_Direct_Solar_Radiation_(W/m2)=11
Average_Unmet_Cooling_Setpoint_Difference_(C)=8
6h_Outdoor_Drybulb_Temperature_(C)=8
Hour=7
kg_CO2/kWh=6
Direct_Solar_Radiation_(W/m2)=5
6h_Outdoor_Relative_Humidity_(%)=5
Temperature_Set_Point_(C)=4
Outdoor_Drybulb_Temperature_(C)=4
24h_Outdoor_Relative_Humidity_(%)=4
6h_Diffuse_Solar_Radiation_(W/m2)=3
Day_Type=2
Indoor_Relative_Humidity_(%)=2
Occupant_Count_(people)=2
12h_Outdoor_Relative_Humidity_(%)=2
Electricity_Pricing__$/kWh_=1
24h_Prediction_Electricity_Pricing__$/kWh_=1
24h_Diffuse_Solar_Radiation_(W/m2)=1
12h_Direct_Solar_Radiation_(W/m2)=1

parameters:
[boosting: gbdt]
[objective: regression]
[metric: l2]
[tree_learner: serial]
[device_type: cpu]
[data: ]
[valid: ]
[num_iterations: 80]
[learning_rate: 0.1]
[num_leaves: 16]
[num_threads: 1]
[deterministic: 0]
[force_col_wise: 0]
[force_row_wise: 0]
[histogram_pool_size: -1]
[max_depth: 4]
[min_data_in_leaf: 10]
[min_sum_hessian_in_leaf: 0.001]
[bagging_fraction: 0.9]
[pos_bagging_fraction: 1]
[neg_bagging_fraction: 1]
[bagging_freq: 0]
[bagging_seed: 3]
[feature_fraction: 0.9]
[feature_fraction_bynode: 1]
[feature_fraction_seed: 2]
[extra_trees: 0]
[extra_seed: 6]
[early_stopping_round: 0]
[first_metric_only: 0]
[max_delta_step: 0]
[lambda_l1: 0]
[lambda_l2: 0]
[linear_lambda: 0]
[min_gain_to_split: 0]
[drop_rate: 0.1]
[max_drop: 50]
[skip_drop: 0.5]
[xgboost_dart_mode: 0]
[uniform_drop: 0]
[drop_seed: 4]
[top_rate: 0.2]
[other_rate: 0.1]
[min_data_per_group: 100]
[max_cat_threshold: 32]
[cat_l2: 10]
[cat_smooth: 10]
[max_cat_to_onehot: 4]
[top_k: 20]
[monotone_constraints: ]
[monotone_constraints_method: basic]
[monotone_penalty: 0]
[feature_contri: ]
[forcedsplits_filename: ]
[refit_decay_rate: 0.9]
[cegb_tradeoff: 1]
[cegb_penalty_split: 0]
[cegb_penalty_feature_lazy: ]
[cegb_penalty_feature_coupled: ]
[path_smooth: 0]
[interaction_constraints: ]
[verbosity: -1]
[saved_feature_importance_type: 0]
[linear_tree: 0]
[max_bin: 255]
[max_bin_by_feature: ]
[min_data_in_bin: 3]
[bin_construct_sample_cnt: 200000]
[data_random_seed: 1]
[is_enable_sparse: 1]
[enable_bundle: 1]
[use_missing: 1]
[zero_as_missing: 0]
[feature_pre_filter: 1]
[pre_partition: 0]
[two_round: 0]
[header: 0]
[label_column: ]
[weight_column: ]
[group_column: ]
[ignore_column: ]
[categorical_feature: ]
[forcedbins_filename: ]
[precise_float_parser: 0]
[parser_config_file: ]
[objective_seed: 5]
[num_class: 1]
[is_unbalance: 0]
[scale_pos_weight: 1]
[sigmoid: 1]
[boost_from_average: 1]
[reg_sqrt: 0]
[alpha: 0.9]
[fair_c: 1]
[poisson_max_delta_step: 0.7]
[tweedie_variance_power: 1.5]
[lambdarank_truncation_level: 30]
[lambdarank_norm: 1]
[label_gain: ]
[lambdarank_position_bias_regularization: 0]
[eval_at: ]
[multi_error_top_k: 1]
[auc_mu_weights: ]
[num_machines: 1]
[local_listen_port: 12400]
[time_out: 120]
[machine_list_filename: ]
[machines: ]
[gpu_platform_id: -1]
[gpu_device_id: -1]
[gpu_use_dp: 0]
[num_gpu: 1]

end of parameters

pandas_categorical:[]
